stable stable 1.0000000
any salary 0.1111111
salary salary 0.8888889
extremes extremities 1.0000000
detergents detergent 1.0000000
staying leve 1.0000000
THIRDLY THIRDLY 1.0000000
vegetables vegetables 1.0000000
operations operation 0.1428571
operation operation 0.8571429
sneakers sneakers 1.0000000
Fire Fire 1.0000000
feelings feelings 0.9500000
monitored feelings 0.0500000
Finally finally 0.0227273
last finally 0.0113636
obtain finally 0.0113636
end finally 0.0227273
eventually finally 0.0113636
minute finally 0.0113636
finally finally 0.9090909
following followwing 1.0000000
employees employes 1.0000000
own foot 0.1666667
foot foot 0.8333333
cosmetics cosmetic 1.0000000
Hide Hide 1.0000000
handle handde 1.0000000
LESSONS LESSONS 1.0000000
WRITING WRITIN 1.0000000
interviews interviews 1.0000000
most mysteriest 0.5000000
mysterious mysteriest 0.5000000
Playing Having 0.0666667
Having Having 0.9333333
lasts takes 0.0178571
up takes 0.0178571
takes takes 0.9464286
is takes 0.0178571
rope rope 1.0000000
25-year 25-years 0.5000000
a 25-years 0.5000000
SURE SURE 1.0000000
FAME FAME 1.0000000
did does 0.0387597
makes does 0.0077519
has does 0.0077519
NULL does 0.0232558
monster does 0.0077519
perform does 0.0077519
wo does 0.0155039
taste does 0.0077519
is does 0.0465116
does does 0.7751938
do does 0.0620155
House House 1.0000000
yourself yourselfh 1.0000000
VISIT VISIT 0.8333333
VISITING VISIT 0.1666667
weapon weapons 0.1666667
Weapons weapons 0.1666667
weapons weapons 0.6666667
McPartney McPartney 1.0000000
objects objects 0.8181818
out objects 0.0909091
become objects 0.0909091
screens screens 1.0000000
enjoyable enjouable 1.0000000
Freddie Freddie 1.0000000
exclusively exclusive 1.0000000
Bad Bad 0.7500000
he Bad 0.2500000
cried cried 1.0000000
possible predictable 1.0000000
sorted sorted 1.0000000
enclosing including 0.0312500
including including 0.8437500
include including 0.0312500
included including 0.0625000
includes including 0.0312500
PROFESSIONAL SERIOUS 1.0000000
BEING BE 0.0285714
BE BE 0.9714286
pop PoP 1.0000000
envelope envelope 1.0000000
NULL Moreover 0.0084034
Moreover Moreover 0.9747899
Especially Moreover 0.0084034
Also Moreover 0.0084034
heroes heroes 1.0000000
sailor sailor 1.0000000
Brigitte Brigitte 1.0000000
formal dressed 0.1428571
dressed dressed 0.5714286
dress dressed 0.2857143
Mediterennean Mediterennean 1.0000000
photography photograthy 1.0000000
familiar familia 0.5000000
with familia 0.5000000
CAMIREZ CAMIREZ 1.0000000
scientists sciencetist 1.0000000
OCCURRED OCCURRED 1.0000000
stranger stranger 0.6666667
unknown stranger 0.3333333
would 'll 0.0038911
will 'll 0.0116732
'm 'll 0.0116732
more 'll 0.0038911
NULL 'll 0.0311284
sees 'll 0.0038911
should 'll 0.0038911
'll 'll 0.8715953
'd 'll 0.0583658
complaining complaining 0.4545455
complain complaining 0.4545455
complaint complaining 0.0909091
restaurant restaurants 0.1818182
restaurants restaurants 0.7272727
and restaurants 0.0909091
intentions intentions 1.0000000
November November 1.0000000
falling falling 1.0000000
belonged belonging 0.5000000
belong belonging 0.5000000
lists lists 0.6666667
list lists 0.3333333
parked parked 1.0000000
never neve 1.0000000
decided dicided 1.0000000
painter painter 1.0000000
TV tv 0.6000000
tv tv 0.4000000
private Private 0.3333333
A Private 0.5000000
Private Private 0.1666667
10th 10th 1.0000000
Seua Seua 1.0000000
sell promontion 1.0000000
MS MS 1.0000000
recycled recycled 1.0000000
foreign foreign 1.0000000
kidneys kidneys 1.0000000
cottage cottage 1.0000000
got convicted 1.0000000
PROMISED PROMISED 1.0000000
Those Those 1.0000000
TIME CHANGE 0.3333333
WILL CHANGE 0.3333333
CHANGE CHANGE 0.3333333
championships championships 1.0000000
NEED NEED 1.0000000
permission permition 1.0000000
understanding comprehensible 1.0000000
develops develops 1.0000000
debate debate 1.0000000
petroleum petroleum 1.0000000
developed developped 1.0000000
a tremendous 0.5000000
tremendous tremendous 0.5000000
refurbishment rebuilding 0.2500000
or rebuilding 0.2500000
rebuilding rebuilding 0.5000000
because therefor 0.2500000
therefore therefor 0.5000000
explanation therefor 0.2500000
opportunity opportunities 0.3333333
opportunities opportunities 0.6666667
organizer organizer 1.0000000
principles priciples 1.0000000
JUST JUST 1.0000000
frozen frozen 1.0000000
boasting boasting 1.0000000
Gorham Gorham 1.0000000
kubulska kubulska 1.0000000
following:- followings:- 1.0000000
close closest 0.3333333
closest closest 0.6666667
Reorganize Reorganize 1.0000000
Dad Dad 1.0000000
For Four 0.5000000
four Four 0.5000000
career carreer 0.5000000
degree carreer 0.5000000
jokes jokes 1.0000000
OK O.K 0.5000000
O.K O.K 0.5000000
DE DE 1.0000000
ozone ozon 1.0000000
Must Must 0.5000000
must Must 0.5000000
Mr./Mrs Mr./Mrs 1.0000000
Victoria Victoria 1.0000000
left lost 0.0232558
wasted lost 0.0465116
lost lost 0.7674419
loss lost 0.0465116
losing lost 0.0232558
missed lost 0.0232558
last lost 0.0232558
lose lost 0.0232558
NULL lost 0.0232558
Thursday thurday 1.0000000
Friday friday 1.0000000
Do Have 0.0555556
Have Have 0.8888889
Feel Have 0.0555556
matter mater 0.6666667
mater mater 0.3333333
money monery 1.0000000
miss mees 1.0000000
GASKELL GASKELL 1.0000000
Results Results 1.0000000
installation installation 1.0000000
Unfortunately Unfortunatelly 1.0000000
destination destination 1.0000000
containing containing 1.0000000
growth growth 1.0000000
cutting cutting 0.8000000
your cutting 0.2000000
violently violently 1.0000000
secret secrect 1.0000000
advance advance 0.9655172
invention advance 0.0344828
SCREAM SCREAM 1.0000000
Sam Sam 1.0000000
Landscape Landscape 1.0000000
faithfully sincerely 0.0504808
sincerely sincerely 0.9471154
Yours sincerely 0.0024038
than log 0.0068027
log log 0.9931973
forward forword 1.0000000
stupid stupid 1.0000000
annoyed annoyed 0.8800000
annoyance annoyed 0.0400000
annoying annoyed 0.0800000
but else 0.0113636
else else 0.9772727
things else 0.0113636
realities realities 1.0000000
artists NULL 0.0001153
year NULL 0.0003460
A NULL 0.0002307
promotes NULL 0.0001153
rather NULL 0.0002307
called NULL 0.0001153
order NULL 0.0001153
by NULL 0.0010379
clothes NULL 0.0004613
leaving NULL 0.0001153
connection NULL 0.0001153
show NULL 0.0002307
coming NULL 0.0001153
since NULL 0.0001153
as NULL 0.0043824
you NULL 0.0102641
my NULL 0.0041518
tent NULL 0.0003460
her NULL 0.0008073
far NULL 0.0001153
meant NULL 0.0001153
're NULL 0.0001153
time NULL 0.0005766
bulb NULL 0.0001153
DOING NULL 0.0001153
found NULL 0.0002307
more NULL 0.0004613
travel NULL 0.0003460
let NULL 0.0002307
though NULL 0.0001153
came NULL 0.0001153
there NULL 0.0063430
great NULL 0.0001153
how NULL 0.0005766
where NULL 0.0002307
piece NULL 0.0001153
make NULL 0.0002307
types NULL 0.0002307
mentioned NULL 0.0001153
basketball NULL 0.0001153
seeing NULL 0.0002307
happen NULL 0.0002307
they NULL 0.0025372
WHICH NULL 0.0001153
one NULL 0.0023065
CAN NULL 0.0001153
even NULL 0.0002307
have NULL 0.0258332
look NULL 0.0002307
true NULL 0.0001153
being NULL 0.0011533
feel NULL 0.0001153
would NULL 0.0080729
might NULL 0.0001153
starred NULL 0.0001153
but NULL 0.0010379
chose NULL 0.0001153
letter NULL 0.0001153
answers NULL 0.0002307
reasons NULL 0.0001153
maintain NULL 0.0001153
from NULL 0.0032292
for NULL 0.0198362
little NULL 0.0001153
item NULL 0.0001153
supposed NULL 0.0001153
having NULL 0.0004613
like NULL 0.0049591
tech NULL 0.0001153
study NULL 0.0001153
house NULL 0.0001153
say NULL 0.0002307
playing NULL 0.0002307
n't NULL 0.0011533
come NULL 0.0001153
soon NULL 0.0001153
their NULL 0.0008073
learn NULL 0.0002307
kind NULL 0.0001153
has NULL 0.0016146
seem NULL 0.0001153
trust NULL 0.0001153
the NULL 0.1367778
thought NULL 0.0001153
. NULL 0.0291777
it NULL 0.0408257
offer NULL 0.0002307
trip NULL 0.0006920
When NULL 0.0001153
should NULL 0.0004613
go NULL 0.0008073
latest NULL 0.0001153
friend NULL 0.0001153
ever NULL 0.0001153
approximately NULL 0.0001153
happened NULL 0.0003460
attention NULL 0.0002307
of NULL 0.0318302
behalf NULL 0.0001153
giving NULL 0.0002307
made NULL 0.0001153
been NULL 0.0029985
which NULL 0.0027678
available NULL 0.0001153
them NULL 0.0018452
see NULL 0.0004613
created NULL 0.0001153
The NULL 0.0001153
ourselves NULL 0.0002307
all NULL 0.0004613
with NULL 0.0044978
door NULL 0.0001153
below NULL 0.0001153
an NULL 0.0018452
job NULL 0.0001153
tickets NULL 0.0001153
everyone NULL 0.0001153
staying NULL 0.0004613
important NULL 0.0001153
TV NULL 0.0001153
long NULL 0.0002307
who NULL 0.0017299
many NULL 0.0002307
part NULL 0.0008073
perform NULL 0.0001153
heavy NULL 0.0001153
good NULL 0.0003460
appearing NULL 0.0001153
take NULL 0.0003460
he NULL 0.0014993
join NULL 0.0001153
different NULL 0.0001153
regard NULL 0.0001153
especially NULL 0.0001153
performance NULL 0.0001153
and NULL 0.0140699
activities NULL 0.0002307
Over NULL 0.0001153
issue NULL 0.0001153
did NULL 0.0011533
people NULL 0.0004613
ones NULL 0.0008073
telling NULL 0.0001153
robbed NULL 0.0001153
finds NULL 0.0001153
such NULL 0.0003460
wear NULL 0.0001153
most NULL 0.0001153
doing NULL 0.0002307
person NULL 0.0001153
must NULL 0.0002307
students NULL 0.0001153
member NULL 0.0001153
away NULL 0.0002307
building NULL 0.0001153
charged NULL 0.0001153
help NULL 0.0001153
too NULL 0.0001153
provides NULL 0.0001153
on NULL 0.0089955
provide NULL 0.0001153
a NULL 0.0954907
things NULL 0.0006920
lives NULL 0.0001153
- NULL 0.0089955
performing NULL 0.0001153
number NULL 0.0001153
saying NULL 0.0001153
some NULL 0.0011533
to NULL 0.0856879
through NULL 0.0001153
I NULL 0.0096875
Rainbow NULL 0.0001153
interested NULL 0.0002307
into NULL 0.0002307
comes NULL 0.0002307
decide NULL 0.0001153
about NULL 0.0130319
kinds NULL 0.0001153
visit NULL 0.0001153
increasingly NULL 0.0001153
will NULL 0.0058817
whether NULL 0.0005766
month NULL 0.0001153
fame NULL 0.0001153
England NULL 0.0001153
role NULL 0.0002307
spent NULL 0.0003460
this NULL 0.0018452
suffer NULL 0.0001153
felt NULL 0.0001153
fact NULL 0.0006920
lot NULL 0.0001153
statement NULL 0.0001153
entering NULL 0.0001153
light NULL 0.0001153
chance NULL 0.0001153
car NULL 0.0001153
promised NULL 0.0001153
if NULL 0.0018452
was NULL 0.0085342
stage NULL 0.0002307
Brook NULL 0.0001153
bit NULL 0.0001153
before NULL 0.0004613
boy NULL 0.0001153
've NULL 0.0002307
our NULL 0.0010379
anything NULL 0.0003460
theatre NULL 0.0002307
equipment NULL 0.0001153
am NULL 0.0061123
courses NULL 0.0001153
log NULL 0.0001153
shown NULL 0.0001153
want NULL 0.0003460
size NULL 0.0001153
advance NULL 0.0002307
together NULL 0.0001153
technology NULL 0.0001153
type NULL 0.0001153
, NULL 0.1860224
so NULL 0.0008073
can NULL 0.0019606
in NULL 0.0197209
each NULL 0.0001153
put NULL 0.0004613
age NULL 0.0001153
down NULL 0.0001153
enough NULL 0.0002307
well NULL 0.0001153
IS NULL 0.0001153
then NULL 0.0017299
? NULL 0.0010379
going NULL 0.0010379
hall NULL 0.0001153
else NULL 0.0003460
not NULL 0.0012686
other NULL 0.0004613
when NULL 0.0013839
reason NULL 0.0001153
mention NULL 0.0001153
could NULL 0.0009226
work NULL 0.0002307
THE NULL 0.0001153
be NULL 0.0154538
's NULL 0.0051897
get NULL 0.0014993
over NULL 0.0006920
means NULL 0.0003460
those NULL 0.0001153
finished NULL 0.0001153
contrary NULL 0.0001153
me NULL 0.0064583
advertised NULL 0.0006920
stated NULL 0.0001153
only NULL 0.0006920
his NULL 0.0002307
starting NULL 0.0001153
learned NULL 0.0001153
your NULL 0.0011533
" NULL 0.0021912
are NULL 0.0087648
offered NULL 0.0001153
may NULL 0.0001153
formed NULL 0.0001153
at NULL 0.0089955
WAS NULL 0.0001153
swimming NULL 0.0001153
TO NULL 0.0001153
were NULL 0.0029985
back NULL 0.0002307
high NULL 0.0001153
chatting NULL 0.0001153
possible NULL 0.0001153
performances NULL 0.0001153
It NULL 0.0003460
able NULL 0.0004613
practice NULL 0.0001153
appeared NULL 0.0002307
past NULL 0.0001153
thing NULL 0.0018452
late NULL 0.0001153
OF NULL 0.0002307
out NULL 0.0026525
had NULL 0.0069196
him NULL 0.0004613
' NULL 0.0005766
hear NULL 0.0001153
restaurant NULL 0.0001153
given NULL 0.0003460
these NULL 0.0002307
encourage NULL 0.0001153
regarding NULL 0.0001153
because NULL 0.0011533
move NULL 0.0001153
Danny NULL 0.0001153
centre NULL 0.0002307
liked NULL 0.0001153
us NULL 0.0024219
advert NULL 0.0001153
: NULL 0.0006920
already NULL 0.0001153
allows NULL 0.0001153
that NULL 0.0130319
gaining NULL 0.0001153
what NULL 0.0016146
took NULL 0.0001153
again NULL 0.0003460
during NULL 0.0001153
Centre NULL 0.0001153
does NULL 0.0006920
regards NULL 0.0001153
think NULL 0.0002307
getting NULL 0.0003460
decided NULL 0.0001153
somewhere NULL 0.0001153
understand NULL 0.0001153
another NULL 0.0001153
school NULL 0.0001153
she NULL 0.0005766
off NULL 0.0002307
still NULL 0.0001153
shops NULL 0.0002307
way NULL 0.0002307
is NULL 0.0117633
activity NULL 0.0001153
or NULL 0.0002307
why NULL 0.0002307
cabin NULL 0.0001153
WE NULL 0.0001153
open NULL 0.0001153
interesting NULL 0.0001153
try NULL 0.0001153
any NULL 0.0040364
something NULL 0.0002307
situation NULL 0.0001153
do NULL 0.0084189
much NULL 0.0003460
we NULL 0.0026525
two NULL 0.0002307
life NULL 0.0001153
up NULL 0.0014993
; NULL 0.0003460
concerns NULL 0.0001153
restaurant reastaure 1.0000000
sites builders 0.5000000
on builders 0.5000000
food foods 0.8333333
foods foods 0.1666667
Latin latin 1.0000000
STAND STAND 1.0000000
EXAMS EXAMS 1.0000000
would going 0.0016447
been going 0.0049342
leave going 0.0016447
gone going 0.0016447
done going 0.0016447
leaving going 0.0049342
making going 0.0016447
alright going 0.0016447
walking going 0.0016447
spending going 0.0016447
go going 0.0411184
doing going 0.0016447
going going 0.9046053
fine going 0.0016447
decision going 0.0016447
supposed going 0.0016447
meant going 0.0032895
taking going 0.0016447
may going 0.0016447
NULL going 0.0115132
getting going 0.0032895
riding going 0.0016447
paying going 0.0016447
taken photographs 0.0526316
photographs photographs 0.8421053
photographers photographs 0.1052632
Luc Luc 1.0000000
4th 4'th 1.0000000
HEARING HEAR 0.5000000
HEAR HEAR 0.5000000
1980 1980 1.0000000
scientic scientic 1.0000000
Donnals Donnals 1.0000000
SELLING SELLING 0.5714286
TICKETS SELLING 0.1428571
CDS SELLING 0.1428571
THEM SELLING 0.1428571
's upper 0.2500000
upper upper 0.7500000
Reeves Reeves 1.0000000
successful succeeded 0.2500000
succeeded succeeded 0.7500000
orders orders 1.0000000
MIDORI MIDORI 1.0000000
air aircondition 0.5000000
conditioning aircondition 0.5000000
Donald Donald 1.0000000
NAME NAME 1.0000000
changing changes 0.0178571
changes changes 0.9285714
change changes 0.0357143
affects changes 0.0178571
decreases decrease 0.2000000
decrease decrease 0.2000000
amount decrease 0.2000000
to decrease 0.2000000
deteriorated decrease 0.2000000
boredom boredom 1.0000000
crossing crossing 1.0000000
sincerely Sinceraly 1.0000000
jumper jumper 0.5000000
jumpers jumper 0.5000000
exams durind 1.0000000
solution salvation 1.0000000
prefects prefects 1.0000000
computers commuters 1.0000000
wide big 0.0043478
very big 0.0043478
great big 0.0391304
much big 0.0086957
large big 0.0173913
a big 0.0086957
fuss big 0.0043478
big big 0.8739130
tree big 0.0043478
team big 0.0043478
bigger big 0.0043478
dependent big 0.0043478
lived big 0.0043478
broad big 0.0043478
bit big 0.0043478
long big 0.0043478
lot big 0.0043478
cook cooking 0.0526316
cooking cooking 0.9473684
Lastly Lastly 1.0000000
allows authorizes 1.0000000
NULL will 0.0085729
with will 0.0005043
arrive will 0.0005043
Will will 0.0020171
am will 0.0020171
to will 0.0005043
are will 0.0015129
intend will 0.0005043
like will 0.0005043
sings will 0.0005043
well will 0.0010086
should will 0.0020171
meant will 0.0005043
willpower will 0.0015129
wo will 0.0005043
prefers will 0.0005043
month will 0.0005043
begins will 0.0005043
will will 0.9152799
leave will 0.0005043
get will 0.0005043
is will 0.0040343
was will 0.0010086
would will 0.0519415
want will 0.0020171
compensated will 0.0005043
rebuild rebuilit 1.0000000
tempted tempt 1.0000000
searching search 0.1176471
find search 0.1764706
plan search 0.0588235
are search 0.0588235
search search 0.5882353
TENT TENT 1.0000000
Three Three 1.0000000
taxi taxi 1.0000000
Electronic Electronic 1.0000000
sincerely sincerily 1.0000000
astronomy astronomy 1.0000000
normal normal 0.9411765
common normal 0.0294118
normally normal 0.0294118
tumble tumple 1.0000000
IRREGULAR UNREGULAR 1.0000000
castles castles 1.0000000
Bon Bon 1.0000000
14 14 0.9615385
14th 14 0.0384615
thieves thieves 1.0000000
fairly expirienced 1.0000000
spaces spaces 1.0000000
is JAMES 0.5000000
JAMES JAMES 0.5000000
depicts depicts 1.0000000
oil oil 1.0000000
Another Another 0.9712230
The Another 0.0071942
another Another 0.0143885
Other Another 0.0071942
pool poole 1.0000000
recorded recorded 1.0000000
authors authors 1.0000000
accommodated accommadated 1.0000000
SUPPOSED SUPPOSED 1.0000000
BOOK BOOK 1.0000000
tournament turnament 1.0000000
O'CLOCK O'CLOCK 1.0000000
come coom 1.0000000
enquiry enquiry 0.6666667
into enquiry 0.3333333
Farina Farina 1.0000000
adverts adver 0.5000000
advert adver 0.5000000
'll 've 0.0028736
're 've 0.0057471
was 've 0.0028736
enclosed 've 0.0028736
've 've 0.7902299
found 've 0.0057471
climbed 've 0.0028736
gained 've 0.0028736
joined 've 0.0028736
wasted 've 0.0028736
helped 've 0.0086207
'd 've 0.0431034
met 've 0.0086207
expected 've 0.0028736
have 've 0.0114943
attended 've 0.0057471
NULL 've 0.0977011
unfit unfit 1.0000000
true truth 0.0606061
right truth 0.0303030
truth truth 0.9090909
THANKS THANKS 1.0000000
To Ansering 0.5000000
answer Ansering 0.5000000
speakers speakers 1.0000000
of prosperity 0.5000000
prosperity prosperity 0.5000000
BRASILIA BRASILIA 1.0000000
wo obn't 0.5000000
n't obn't 0.5000000
something somethings 0.1818182
anything somethings 0.0909091
things somethings 0.3636364
some somethings 0.3636364
RECOMMENDATIONS RECOMMONDATIONS 1.0000000
allowed drink 0.0175439
have drink 0.0877193
drink drink 0.8421053
drinks drink 0.0175439
an drink 0.0175439
alcoholic drink 0.0175439
bargain bargain 1.0000000
instructor instractur 1.0000000
Turner Turner 1.0000000
opening opened 0.0285714
open opened 0.4571429
spend opened 0.0285714
opened opened 0.4857143
lighting lightening 1.0000000
much muche 1.0000000
sample sample 1.0000000
dinning dinning 1.0000000
hated hated 1.0000000
introduce initiate 1.0000000
research searches 1.0000000
THE CONDITIONS 0.3333333
ABILITY CONDITIONS 0.3333333
CONDITIONS CONDITIONS 0.3333333
Solutions Solutions 1.0000000
18:30 bulding 1.0000000
majority majorite 1.0000000
sexy sexy 1.0000000
the Internal 0.5000000
International Internal 0.5000000
away away 0.8805970
with away 0.0149254
leaving away 0.0149254
apart away 0.0149254
far away 0.0149254
NULL away 0.0149254
certain away 0.0149254
threw away 0.0149254
travelling away 0.0149254
member member 0.8965517
members member 0.0689655
one member 0.0344828
thought thougt 1.0000000
surrounds suround 1.0000000
pleasantly pleasantly 1.0000000
Solatov Solatov 1.0000000
smog smog 1.0000000
time Everytime 0.5000000
Every Everytime 0.5000000
technique techinique 0.5000000
any techinique 0.5000000
explained explaind 1.0000000
Homes Homes 1.0000000
sport sporting 1.0000000
RESULT RESULT 1.0000000
develop developp 1.0000000
atmosphere atmosphere 1.0000000
plausible plausible 1.0000000
Group Group 1.0000000
wait weait 1.0000000
cup cup 0.8888889
handicap cup 0.1111111
meantime meantime 1.0000000
does enjoys 0.2500000
enjoys enjoys 0.2500000
their enjoys 0.2500000
pleases enjoys 0.2500000
farm farm 1.0000000
emptiness emptiness 1.0000000
Watch Watch 1.0000000
nearer nearner 1.0000000
Africa Africa 1.0000000
Rock Rock 1.0000000
lazy lazy 1.0000000
mean meen 1.0000000
shocked schocked 1.0000000
received receiving 0.0208333
receiving receiving 0.8958333
receive receiving 0.0833333
futher futher 0.2000000
further futher 0.8000000
professionals professionalists 1.0000000
decided descide 1.0000000
OUT OUT 0.8823529
OF OUT 0.0588235
AWAY OUT 0.0588235
. U.S.A 0.1200000
U.S.A. U.S.A 0.0400000
USA U.S.A 0.0400000
U.S.A U.S.A 0.8000000
13.06.00 13.06.00 1.0000000
behaviour behaviers 1.0000000
potential facility 1.0000000
playing practising 0.2142857
indoor practising 0.0714286
practise practising 0.0714286
practising practising 0.2857143
training practising 0.0714286
doing practising 0.2142857
been practising 0.0714286
below below 1.0000000
Grebenchekoff Grebenchekoff 1.0000000
dessert dessert 1.0000000
mask mask 1.0000000
cash cashdesks 0.5000000
desks cashdesks 0.5000000
maybe mabe 1.0000000
heavy heavey 0.5000000
hard heavey 0.5000000
of resistance 0.5000000
stamina resistance 0.5000000
Grey Grey 1.0000000
Moreau Moreau 1.0000000
NOBODY NOBODY 1.0000000
cards cards 1.0000000
Jullia Jullia 1.0000000
NULL Thus 0.0909091
So Thus 0.1818182
Thus Thus 0.7272727
bearded bearded 1.0000000
household household 0.3333333
home household 0.3333333
housework household 0.3333333
deserved owed 1.0000000
calm calm 0.7500000
calmer calm 0.0625000
calmly calm 0.0625000
down calm 0.1250000
far long 0.0039062
NULL long 0.0039062
time long 0.0078125
longest long 0.0039062
if long 0.0039062
long long 0.9296875
log long 0.0468750
rats rats 1.0000000
C C 1.0000000
such sach 1.0000000
travel travlling 1.0000000
reimbursed paid 0.0123457
paid paid 0.8765432
pay paid 0.0617284
underpaid paid 0.0123457
bought paid 0.0123457
dinners paid 0.0123457
NULL paid 0.0123457
skipping skyping 1.0000000
sailing sailling 1.0000000
should advertiment 0.3333333
put advertiment 0.3333333
advertisement advertiment 0.3333333
evoluate evoluate 1.0000000
lying laying 0.6666667
laying laying 0.3333333
fake fake 0.6666667
fraud fake 0.3333333
bands bads 1.0000000
interaction interaction 1.0000000
20:75 20:75 1.0000000
generous generous 1.0000000
Sophia Sophia 1.0000000
NULL cartoons 0.5000000
cartoons cartoons 0.5000000
answer ansewer 1.0000000
protecting protecting 1.0000000
reacted react 0.2500000
react react 0.7500000
kept Kept 1.0000000
XX XX 1.0000000
pens pens 1.0000000
stones stones 1.0000000
tramits tramits 1.0000000
frequently frequently 1.0000000
driver driver 0.5000000
drive driver 0.5000000
Brooks Brooks 1.0000000
skills skills 1.0000000
controls controls 1.0000000
Poland Polan 1.0000000
Poland Poland 1.0000000
Politicians Politicians 1.0000000
dealing dealing 0.8000000
being dealing 0.2000000
seats seats 1.0000000
travelling traveled 0.5000000
travelled traveled 0.5000000
tournaments tournaments 1.0000000
moved moved 1.0000000
facts argeuments 1.0000000
fault falt 1.0000000
pretty pretty 1.0000000
Helena Helena 1.0000000
Madeleine Madeleine 1.0000000
Kathleen Kathleen 1.0000000
experiments experiments 1.0000000
FINISHING FINISHING 1.0000000
Chevalier Chevalier 1.0000000
late delay 0.0285714
replying delay 0.0285714
delayed delay 0.0571429
delay delay 0.8571429
' delay 0.0285714
trusts trust 0.0294118
trust trust 0.9117647
trusted trust 0.0588235
pockets pockets 1.0000000
then holydays 0.2500000
holidays holydays 0.7500000
weekly weekly 1.0000000
inappropriate unapropriate 1.0000000
Dolores Dolores 1.0000000
Designs Designs 1.0000000
cameras carmera 1.0000000
creepy creepy 1.0000000
ACTOR ACTOR 1.0000000
putting presenting 0.2857143
showing presenting 0.1428571
presenting presenting 0.2857143
on presenting 0.2857143
excited exsciting 1.0000000
Alencar Alencar 1.0000000
school wchool 1.0000000
Turnau Turnau 1.0000000
exhibitions exibitions 1.0000000
possibilities posibilities 1.0000000
Phatosub Phatosub 1.0000000
poisoned poisoned 1.0000000
split split 1.0000000
keen knee 0.3333333
knee knee 0.6666667
arranged arranged 0.8888889
provided arranged 0.1111111
agility agility 1.0000000
Esther Esther 1.0000000
caps caps 0.8000000
cups caps 0.2000000
fortunately fortunately 1.0000000
type tipe 1.0000000
FINDINGS FINDINGS 1.0000000
Everywhere Everywhere 1.0000000
barman barman 0.7500000
off barman 0.2500000
trouble troubel 1.0000000
tidying tidying 0.5000000
tidy tidying 0.5000000
surprise sorprise 1.0000000
theory theory 1.0000000
Architecture Architecuture 1.0000000
chores works 0.0526316
homework works 0.0263158
work works 0.3684211
housework works 0.0263158
works works 0.5263158
AWARE AWARE 1.0000000
stationery stationeries 1.0000000
TERM TERM 1.0000000
camps camps 1.0000000
ENTHUSIASTIC ENTHUSIASTIC 1.0000000
Douglas Douglas 1.0000000
After Lyter 1.0000000
letter mail 0.0465116
email mail 0.0232558
mail mail 0.9302326
RAINED RAIN 0.5000000
RAIN RAIN 0.5000000
policeman policeman 1.0000000
sprayed sprayed 1.0000000
tutor teacher 0.0097087
schoolteacher teacher 0.0097087
teacher teacher 0.9611650
teachers teacher 0.0194175
lessons lesons 1.0000000
enables enables 0.6666667
enable enables 0.3333333
because becaused 1.0000000
in sth 0.5000000
something sth 0.5000000
UNICEF UNICEF 1.0000000
demo demo 1.0000000
grounded grownded 1.0000000
HELPING HELPING 1.0000000
singing singing 0.9809524
sing singing 0.0190476
ROBERTSON ROBERTSON 1.0000000
poetry Poetry 1.0000000
is purse 0.2000000
purse purse 0.8000000
conservative solid 1.0000000
styles stile 1.0000000
13.Jun 13.Jun 1.0000000
LOTS LOTS 1.0000000
am Me 0.1111111
classmates Me 0.1111111
My Me 0.1111111
Me Me 0.3333333
I Me 0.3333333
promised anouced 1.0000000
evil ievel 1.0000000
CAN CAN 0.9615385
SHOULD CAN 0.0384615
eighteen eighteen 1.0000000
signature signature 0.4285714
autograph signature 0.4285714
autographs signature 0.1428571
lasers lasers 1.0000000
really relly 1.0000000
Physical Phisical 1.0000000
countless countless 1.0000000
cooperate cooperate 0.3333333
help cooperate 0.3333333
out cooperate 0.3333333
Meanwhile Meanwhile 1.0000000
comming comming 0.5000000
coming comming 0.5000000
will being'll 0.5000000
beings being'll 0.5000000
government governement 1.0000000
thanks thanked 0.1000000
thanked thanked 0.9000000
Dr Dr 1.0000000
me allows 0.0555556
us allows 0.0555556
is allows 0.0555556
you allows 0.0555556
allows allows 0.7777778
walking walking 0.9787234
along walking 0.0212766
struggling struggled 1.0000000
This river 0.0243902
riverside river 0.0243902
river river 0.9512195
noise noise 0.9444444
nose noise 0.0555556
closeness closeness 1.0000000
occasionally occasionally 1.0000000
Mexico Mexico 1.0000000
absurd absurd 1.0000000
parachute parachute 1.0000000
snap snap 1.0000000
TANG TANG 1.0000000
Greece Greece 1.0000000
Wondering Wondering 1.0000000
fantastic Fantatics 1.0000000
dedicated dedicated 1.0000000
bread bread 1.0000000
an justification 0.5000000
explanation justification 0.5000000
pizza pizza 1.0000000
Allan Allan 1.0000000
LUCKY LUCKY 1.0000000
invitation inventation 1.0000000
grate greate 1.0000000
colleagues colleagues 1.0000000
turn push 0.3333333
push push 0.6666667
elder elder 1.0000000
Ivan Ivan 1.0000000
to listened 0.3333333
listened listened 0.6666667
done done 0.6739130
doing done 0.0217391
been done 0.0217391
do done 0.0289855
entered done 0.0144928
made done 0.0289855
created done 0.0072464
given done 0.0144928
taken done 0.0072464
a done 0.0144928
booked done 0.0072464
occur done 0.0072464
calculator done 0.0072464
or done 0.0072464
organised done 0.0072464
did done 0.0797101
started done 0.0072464
tried done 0.0072464
carried done 0.0072464
met done 0.0072464
had done 0.0072464
either done 0.0072464
conducted done 0.0072464
advertisment saids 0.3333333
said saids 0.6666667
addition adittion 1.0000000
enjoyment enjoyment 0.6000000
fun enjoyment 0.2000000
pleasure enjoyment 0.2000000
HOBBIES HOBBIES 1.0000000
Fashions Fashions 1.0000000
Ocean Ocean 1.0000000
short two 0.0018282
too two 0.0036563
NULL two 0.0018282
two two 0.9890311
twice two 0.0018282
doubles two 0.0018282
strength straingth 1.0000000
journalists journalists 0.9876543
Journalists journalists 0.0123457
-Dear -Dear 1.0000000
secondary secundary 1.0000000
after esspecially 1.0000000
Hedwiga Hedwiga 1.0000000
- aided 0.5000000
aided aided 0.5000000
arguing arguing 1.0000000
Chedicard Chedicard 1.0000000
laboratory physics 0.3333333
physics physics 0.6666667
Brazil brazil 1.0000000
knocking knocking 1.0000000
V. V. 1.0000000
join joy 0.1250000
enjoy joy 0.1250000
joy joy 0.7500000
Pork Pork 1.0000000
HOMEWORK HOMEWORK 1.0000000
disappointed dissappointed 1.0000000
web web 0.7142857
create web 0.1428571
website web 0.1428571
ORGANISATION ORGANISATION 1.0000000
give gives 0.1379310
causes gives 0.0344828
creates gives 0.0344828
gives gives 0.7241379
given gives 0.0344828
stops gives 0.0344828
because becase 1.0000000
contact connected 0.0454545
touch connected 0.0454545
dependent connected 0.0454545
in connected 0.0909091
connected connected 0.7727273
forbade forbidden 0.3333333
forbid forbidden 0.3333333
forbidden forbidden 0.3333333
time everytime 0.4444444
at everytime 0.0555556
every everytime 0.4444444
if everytime 0.0555556
Jones Jones 1.0000000
suspect suspect 1.0000000
unluckily unluckly 1.0000000
princess princess 0.8750000
Princess princess 0.1250000
band Band 1.0000000
meanness meannes 1.0000000
supposed supprsed 1.0000000
JANN JANN 1.0000000
postman postman 1.0000000
via via 1.0000000
gays gays 0.5000000
guys gays 0.5000000
DOG DOG 0.5000000
ME DOG 0.5000000
Ice Ice 1.0000000
produce out 0.0018450
peacefully out 0.0018450
dump out 0.0018450
away out 0.0036900
discover out 0.0018450
no out 0.0018450
emphasise out 0.0018450
realise out 0.0018450
us out 0.0018450
ends out 0.0018450
spread out 0.0018450
off out 0.0036900
left out 0.0073801
leaving out 0.0018450
leave out 0.0129151
how out 0.0036900
sign out 0.0018450
sold out 0.0018450
outside out 0.0092251
NULL out 0.0498155
up out 0.0036900
defrosted out 0.0018450
process out 0.0018450
backstage out 0.0036900
a out 0.0018450
overpriced out 0.0018450
out out 0.8597786
our out 0.0073801
outdoor out 0.0018450
working out 0.0018450
materials materials 0.8928571
inventing materials 0.0357143
equipment materials 0.0714286
colors colors 0.3333333
colours colors 0.3333333
and colors 0.3333333
new newcomer 1.0000000
Moicznos Moicznos 1.0000000
Lastly lastly 0.3333333
lastly lastly 0.6666667
combined comdined 1.0000000
IT THAT 0.0104167
THEN THAT 0.0104167
NULL THAT 0.0104167
THAT THAT 0.9583333
WANT THAT 0.0104167
absolutely absolutaly 1.0000000
level unusual 0.0526316
an unusual 0.1052632
unusual unusual 0.8421053
inconvenient inconvenient 0.5000000
inconvenience inconvenient 0.5000000
CANNOT FORGIVE 0.5000000
FORGIVE FORGIVE 0.5000000
ôInternational ôInternational 1.0000000
superb superb 1.0000000
landscape landscape 0.6666667
drawing landscape 0.3333333
chef shef 1.0000000
raincoats raincoates 1.0000000
See See 0.9473684
sea See 0.0526316
ETC ETC 1.0000000
synthetic syntetic 1.0000000
revealing revealing 1.0000000
Susie Susie 1.0000000
disadvantages disadvantatge 1.0000000
log Log 0.2000000
A Log 0.2000000
Log Log 0.6000000
BECAUSE BECAUSE 1.0000000
grateful thankful 0.5714286
thankful thankful 0.4285714
renovation inside 0.0227273
into inside 0.0227273
on inside 0.0227273
inside inside 0.8863636
in inside 0.0454545
rulled rulled 1.0000000
Channel Chanel 0.5000000
Chanel Chanel 0.5000000
out society 0.0294118
company society 0.0294118
society society 0.9411765
Latin Latin 1.0000000
Obviously Obviously 1.0000000
making puts 0.5000000
states puts 0.5000000
packed packed 1.0000000
shook shook 1.0000000
windsurfing windsurfing 1.0000000
managers managers 1.0000000
communicating comunicat 1.0000000
lipstick lip 1.0000000
information informations 1.0000000
subject tabu 0.5000000
taboo tabu 0.5000000
dangers dangarous 1.0000000
tells can 0.0005900
has can 0.0005900
NULL can 0.0117994
will can 0.0035398
can can 0.9268437
want can 0.0005900
should can 0.0005900
could can 0.0389381
must can 0.0005900
ca can 0.0017699
kind can 0.0005900
Can can 0.0017699
is can 0.0011799
lets can 0.0005900
know can 0.0005900
might can 0.0035398
would can 0.0029499
catch can 0.0005900
do can 0.0023599
reason goal 0.5000000
goal goal 0.5000000
spent payed 0.0588235
refunded payed 0.0588235
paid payed 0.8823529
WHICH CONCERN 0.5000000
ME CONCERN 0.5000000
called named 0.1428571
named named 0.8571429
40 40 1.0000000
comfortable comportable 1.0000000
great success 0.0400000
succeed success 0.0400000
successfully success 0.0400000
success success 0.8800000
reaching reaching 1.0000000
studied studyied 1.0000000
full fulled 1.0000000
EXPECTED THOUGHTS 1.0000000
factory manufactory 1.0000000
Pizzi Pizzi 1.0000000
every evey 1.0000000
star starr 1.0000000
QUICK QUICK 1.0000000
suprised surrprised 1.0000000
forty fortyfive 0.3333333
five fortyfive 0.3333333
- fortyfive 0.3333333
regarding relating 1.0000000
foremost foremost 1.0000000
climate climet 1.0000000
dive dive 0.6666667
diving dive 0.3333333
reminds reminds 1.0000000
because everywhere 0.0204082
everywhere everywhere 0.8775510
anywhere everywhere 0.0816327
; everywhere 0.0204082
show shows 0.0595238
shoes shows 0.0119048
states shows 0.0119048
has shows 0.0119048
shows shows 0.8333333
showing shows 0.0119048
musicals shows 0.0476190
NULL shows 0.0119048
pressed pressed 1.0000000
nurses nurses 1.0000000
apart apart 1.0000000
souls souls 1.0000000
1986 1986 1.0000000
travel travell 1.0000000
Grammar Grammer 1.0000000
Yeah Yeah 1.0000000
Fourthly Forthly 1.0000000
, result 0.0606061
product result 0.0151515
results result 0.0606061
result result 0.8333333
conclusion result 0.0151515
achieves result 0.0151515
Giannis Giannis 1.0000000
looking hood 0.5000000
neighbourhood hood 0.5000000
education knowledgement 1.0000000
10:00 10:00 1.0000000
chatting chating 1.0000000
accommodate accommodate 0.2000000
stay accommodate 0.8000000
FAILED DISSAPROVE 1.0000000
Comes Comes 1.0000000
professionals profesionalists 1.0000000
housewives housewives 1.0000000
finger finger 1.0000000
Poor Poor 0.8000000
poor Poor 0.2000000
antique antiques 1.0000000
stadium stadium 1.0000000
Leisure leissure 1.0000000
Katy Katy 1.0000000
enjoyable enjeyable 1.0000000
making filming 0.0833333
are filming 0.0833333
film filming 0.0833333
filming filming 0.6666667
through filming 0.0833333
months month 0.0245614
then month 0.0035088
month month 0.9719298
hopes hopes 1.0000000
dancing dancing 0.9444444
dance dancing 0.0555556
challenges challenges 1.0000000
almost nearly 0.0833333
nearly nearly 0.8750000
when nearly 0.0416667
careful careful 0.9444444
carefully careful 0.0555556
okay okay 1.0000000
fly fly 0.8181818
NULL fly 0.0909091
flying fly 0.0909091
prepare preper 1.0000000
polyester polyseer 1.0000000
Miss Miss 0.9411765
Dear Miss 0.0294118
Sir Miss 0.0294118
Date Date 1.0000000
voice voice 0.9285714
's voice 0.0357143
voices voice 0.0357143
middle midle 1.0000000
keyboards keyboards 1.0000000
UNFORTUNATELY UNFORTUNATELY 1.0000000
RESULTS RESULTS 1.0000000
Greek Greek 1.0000000
VIDEO VIDEO 1.0000000
Müller Müller 1.0000000
diving diving 1.0000000
recommend recomend 1.0000000
Accordingly Accordingly 1.0000000
possessions poscesives 1.0000000
channels channels 1.0000000
prefer preffer 1.0000000
economic economic 0.5000000
the economic 0.2500000
beginning economic 0.2500000
man guy 0.1818182
guy guy 0.8181818
share share 1.0000000
boat boat 1.0000000
HAVE SEND 0.3333333
SENT SEND 0.6666667
4:30 4:30 1.0000000
shared shared 0.8000000
share shared 0.2000000
suddenly suttendly 1.0000000
A CATHEGORY 0.5000000
CATEGORY CATHEGORY 0.5000000
DENNY DENNY 1.0000000
impressions impressions 1.0000000
HAVE WOULDN'T 0.5000000
WOULDN'T WOULDN'T 0.5000000
began begin 0.0500000
begins begin 0.0333333
begin begin 0.9166667
consists consists 1.0000000
enough enought 1.0000000
underground underground 1.0000000
discovered discovered 0.9000000
invented discovered 0.1000000
imagine emagine 1.0000000
finish finish 0.8035714
finished finish 0.1607143
finishes finish 0.0178571
finishing finish 0.0178571
pub pub 1.0000000
those teenagers 0.0909091
teenager teenagers 0.0909091
teenagers teenagers 0.5454545
teenage teenagers 0.1818182
's teenagers 0.0909091
guess predict 0.2000000
predict predict 0.8000000
your mum 0.0370370
because mum 0.0370370
mum mum 0.9259259
goodness goodness 1.0000000
pet pat 1.0000000
BEAR BARE 1.0000000
OUR OUR 0.9473684
FOR OUR 0.0526316
St st 1.0000000
Outdoor Outdoor 1.0000000
Beek Beek 1.0000000
sweetest sweetest 1.0000000
PURPOSE PURPOUSE 1.0000000
oven hoven 1.0000000
meals meals 1.0000000
Carola Carola 1.0000000
must musn't 0.5000000
n't musn't 0.5000000
Mühlenstrasse Mühlenstrasse 1.0000000
technologies techincs 1.0000000
Speak Speak 1.0000000
REZ REZ 1.0000000
eyed eyed 0.5000000
retired eyed 0.5000000
safely safely 1.0000000
wind winds 1.0000000
this thoese 1.0000000
Believe beleave 1.0000000
General Gernal 1.0000000
combined combined 0.5000000
made combined 0.2500000
up combined 0.2500000
Metallica Metallica 1.0000000
J.M. J.M. 1.0000000
girlfriends girlfriends 1.0000000
regard Respect 0.5000000
With Respect 0.5000000
plough plouge 1.0000000
able count 0.1666667
be count 0.1666667
count count 0.6666667
swarm herd 0.3333333
heard herd 0.6666667
whatever whatever 0.9666667
- whatever 0.0333333
NULL fight 0.0666667
fight fight 0.9333333
wonderful wonerful 1.0000000
flash flesh 0.5000000
flesh flesh 0.5000000
fortnight fortnight 1.0000000
customer customer 0.6666667
service customer 0.1666667
opening customer 0.1666667
advertisement advertisiment 1.0000000
TODAY TODAY 1.0000000
A FEW 0.5000000
FEW FEW 0.5000000
Unforgettable Unforgetable 1.0000000
science sciene 1.0000000
exhausted exhaused 1.0000000
HANDLE HANDLE 1.0000000
8:15 8:15 1.0000000
athletics games 0.0256410
games games 0.9743590
possesses possesses 1.0000000
crowded crouded 1.0000000
G.C.S.E.s G.C.S.E. 1.0000000
costumes costumes 1.0000000
finishes finishes 0.7142857
finished finishes 0.0714286
at finishes 0.1428571
have finishes 0.0714286
GETING GETING 1.0000000
Valentine Valentine 1.0000000
families Families 1.0000000
excited excited 0.9610390
exciting excited 0.0389610
BEHAVE ACT 0.3333333
ACT ACT 0.6666667
brochure brochure 0.7142857
flyer brochure 0.2857143
Someone Someone 1.0000000
Jordan Jordan 1.0000000
paparazzi paparazzis 1.0000000
street street 0.9714286
route street 0.0285714
communication Communication 0.2500000
Communication Communication 0.5000000
The Communication 0.2500000
transform transform 1.0000000
concert consert 1.0000000
of hourers 0.5000000
hours hourers 0.5000000
goes refers 1.0000000
downstairs downstairs 1.0000000
available avaivable 1.0000000
prince prince 1.0000000
tedious tedious 1.0000000
example extract 1.0000000
attending joinning 1.0000000
waited been 0.0029630
rapidly been 0.0014815
arise been 0.0014815
build been 0.0014815
go been 0.0014815
carrying been 0.0014815
imagined been 0.0014815
already been 0.0029630
NULL been 0.0622222
slept been 0.0014815
sold been 0.0014815
swam been 0.0014815
to been 0.0014815
played been 0.0029630
went been 0.0118519
bear been 0.0014815
been been 0.8281481
stayed been 0.0029630
was been 0.0414815
n't been 0.0014815
be been 0.0118519
making been 0.0014815
painted been 0.0014815
being been 0.0044444
belonged been 0.0014815
spread been 0.0014815
joined been 0.0014815
were been 0.0014815
trained been 0.0014815
competent competent 1.0000000
Adams Adams 1.0000000
supper supper 0.7777778
great supper 0.1111111
meal supper 0.1111111
Basketball Basket 0.5000000
basketball Basket 0.5000000
nosy nosy 1.0000000
Seek Seek 1.0000000
charging charging 1.0000000
beaches beaches 1.0000000
MUSICAL MUSICAL 0.7142857
THE MUSICAL 0.1428571
SHOW MUSICAL 0.1428571
decade decade 1.0000000
rude rude 1.0000000
people peoper 1.0000000
mental mental 1.0000000
Kalvin Kalvin 1.0000000
natural Natural 1.0000000
concept concept 1.0000000
stroke luck 0.0526316
any luck 0.0526316
luckily luck 0.0526316
lucky luck 0.0526316
luck luck 0.7894737
. ming 0.5000000
mind ming 0.5000000
Without Without 1.0000000
OFF OFF 1.0000000
York York 1.0000000
- FORTY 0.2500000
FORTY FORTY 0.7500000
TOLD TOLD 1.0000000
worrying worring 1.0000000
Relieved Relieved 1.0000000
500 500 1.0000000
MINUTE MOMENT 1.0000000
try sailing 0.0119048
sailing sailing 0.9761905
go sailing 0.0119048
limits limites 0.5000000
no limites 0.5000000
allow leave 0.0185185
leave leave 0.8148148
forget leave 0.0185185
sleep leave 0.0185185
off leave 0.0185185
left leave 0.0555556
live leave 0.0555556
's phycological 0.5000000
psychological phycological 0.5000000
sportswear sportswear 1.0000000
brochure says 0.0169492
advertisements says 0.0169492
promises says 0.0169492
says says 0.7796610
said says 0.0677966
he says 0.0169492
tells says 0.0338983
say says 0.0508475
NULL addition 0.0074627
, addition 0.0074627
addition addition 0.9776119
conclusion addition 0.0074627
motorboat motorboat 1.0000000
CARS CARS 1.0000000
Lorca Lorca 1.0000000
jealous jealous 0.9166667
may jealous 0.0833333
romantic romantic 1.0000000
brilliantly brilliant 0.0434783
idea brilliant 0.0434783
brilliant brilliant 0.9130435
forward fordward 1.0000000
Granny Granny 1.0000000
recommend recomended 1.0000000
design designer 0.1666667
designer designer 0.5000000
designers designer 0.3333333
everywhere everywere 1.0000000
Frankly Frankly 1.0000000
pleasure plesure 1.0000000
The Not 0.0645161
Also Not 0.0322581
Not Not 0.9032258
A Long 0.3333333
long Long 0.3333333
Long Long 0.3333333
revise repeat 0.1666667
repeat repeat 0.8333333
overheard overheard 1.0000000
marriage marriage 0.6666667
marriages marriage 0.3333333
welcoming welcoming 1.0000000
CABIN CABINS 1.0000000
cupboard cupboard 1.0000000
retold retelling 1.0000000
faithfully senciarly 1.0000000
unpleasantly unpleasantly 0.5000000
surprised unpleasantly 0.5000000
became becomed 1.0000000
disturbing disturb 0.1428571
bother disturb 0.1428571
disturbs disturb 0.1428571
disturb disturb 0.5714286
stars Starts 1.0000000
machines maschines 1.0000000
academic academic 1.0000000
fantasy phantasy 0.5000000
a phantasy 0.5000000
NEW NEW 1.0000000
editor editor 1.0000000
an purpose 0.0434783
purpose purpose 0.7826087
propose purpose 0.0434783
aim purpose 0.0434783
reason purpose 0.0434783
intention purpose 0.0434783
SOME ONE 0.0714286
ONE ONE 0.9285714
nails nails 1.0000000
signed signed 1.0000000
Ignace Ignace 1.0000000
factors factorors 1.0000000
definitions definitions 1.0000000
shadow shadow 1.0000000
singing sining 1.0000000
REPLY REPLY 1.0000000
saw saws 1.0000000
's toilets 0.5000000
toilets toilets 0.5000000
Mind Mind 1.0000000
the 2-nd 0.5000000
2nd 2-nd 0.5000000
find discover 0.0909091
rediscover discover 0.0303030
discover discover 0.6060606
try discover 0.0606061
discovered discover 0.0606061
out discover 0.0909091
see discover 0.0303030
invention discover 0.0303030
lived lived 0.7812500
has lived 0.0312500
had lived 0.0312500
live lived 0.0312500
who lived 0.0312500
stayed lived 0.0625000
- lived 0.0312500
James James 1.0000000
audience viewers 0.5714286
viewers viewers 0.4285714
computers computeres 1.0000000
handling handling 1.0000000
Stories Stories 1.0000000
threatened threatened 1.0000000
career electronic 0.0714286
electronic electronic 0.9285714
Brett Brett 1.0000000
sorry pity 0.0909091
pity pity 0.9090909
Volencia Volencia 1.0000000
thing memory 0.1111111
memories memory 0.2222222
memory memory 0.6666667
step step 0.6875000
stepped step 0.0625000
forward step 0.0625000
it step 0.0625000
footsteps step 0.0625000
every step 0.0625000
CHANGES CHANGES 1.0000000
compositions compositions 1.0000000
millions millions 0.7142857
of millions 0.2857143
permission permision 1.0000000
substitute sustitute 1.0000000
Williams Williams 1.0000000
MAIN MAIN 0.5000000
IMPORTANT MAIN 0.2500000
MAINLY MAIN 0.2500000
opinion openion 1.0000000
shopaholics shopalcoholics 1.0000000
cheques cheque 0.1111111
cheque cheque 0.8888889
wanted gotten 1.0000000
boats bouts 1.0000000
specified specified 1.0000000
SLEEP SLEEP 1.0000000
since sine 1.0000000
Dangerous Dangerous 1.0000000
Frustrated Frustrated 1.0000000
scuba scubar 1.0000000
assure reasure 1.0000000
. addict 0.3333333
addict addict 0.6666667
principal principal 0.9230769
main principal 0.0769231
technology technologe 1.0000000
NULL sientific 1.0000000
talk tolk 1.0000000
the Olympic 0.5000000
Olympics Olympic 0.5000000
Walkman walkman 0.5000000
walkman walkman 0.5000000
Tokyo Tokyo 1.0000000
PRESENTING PRESENTING 1.0000000
grinned grinned 1.0000000
acquired understood 0.0357143
realised understood 0.0357143
understand understood 0.0714286
understood understood 0.8571429
moreover morever 1.0000000
are inventing 0.5000000
inventing inventing 0.5000000
Redford Redford 1.0000000
available avalaible 1.0000000
pursued aftering 1.0000000
straight right 0.0085470
suitable right 0.0085470
rights right 0.0256410
choice right 0.0085470
alright right 0.0085470
justified right 0.0085470
right right 0.9316239
, where 0.0040650
what where 0.0040650
everywhere where 0.0284553
where where 0.8292683
Where where 0.0040650
somewhere where 0.0040650
were where 0.0447154
whereas where 0.0081301
anywhere where 0.0040650
NULL where 0.0040650
when where 0.0203252
wherever where 0.0081301
that where 0.0040650
and where 0.0040650
places where 0.0040650
which where 0.0162602
relaxing where 0.0040650
whom where 0.0040650
winners winners 1.0000000
Consequently Consequently 1.0000000
Manu Manu 1.0000000
n't doen't 0.4000000
does doen't 0.4000000
help doen't 0.2000000
greatest great 0.0021930
great great 0.9956140
careful great 0.0021930
Re Re 1.0000000
BLACK BLACK 1.0000000
inconvenience inconveint 1.0000000
identify identify 1.0000000
grandchildren grandchildren 1.0000000
in gathered 0.3333333
gathered gathered 0.6666667
plastic therefore 0.0208333
because therefore 0.0208333
therefore therefore 0.7916667
NULL therefore 0.0208333
- therefore 0.0208333
Therefore therefore 0.0625000
so therefore 0.0625000
plenty planty 1.0000000
threw throw 0.2500000
on throw 0.2500000
throw throw 0.5000000
YOUNG YOUNG 1.0000000
mile mile 1.0000000
insist insisted 0.2500000
insisted insisted 0.5000000
getting insisted 0.2500000
left leaft 1.0000000
snowboarder Snowboarder 1.0000000
invited invites 1.0000000
Bernard Bernard 1.0000000
job assiment 1.0000000
Nowadays Now 0.0152672
Now Now 0.9847328
unpleasant displeasured 1.0000000
burnt burnt 1.0000000
prompt promt 1.0000000
suicide suicide 1.0000000
televisions televitions 1.0000000
sophisticated sophisticated 1.0000000
aim aim 1.0000000
hairstyle hairstyl 1.0000000
that naus 0.2500000
would naus 0.2500000
she naus 0.2500000
news naus 0.2500000
microchips microchips 1.0000000
Ten Ten 1.0000000
2,000 2,000 1.0000000
things goods 0.1153846
goods goods 0.8076923
products goods 0.0769231
passing passing 0.6666667
pass passing 0.3333333
NULL LIVES 0.2500000
LIVES LIVES 0.7500000
Fernandez Fernandez 1.0000000
Travelling Travelling 1.0000000
Carlos Carlos 1.0000000
memories memorise 1.0000000
spoilt spoilt 1.0000000
1th 1th 0.5000000
1ST 1th 0.5000000
Fourth Fourth 1.0000000
Classroom Classroom 1.0000000
finally finaly 1.0000000
WEAPONS WEAPONS 1.0000000
hunting hunting 0.6666667
hunt hunting 0.3333333
reply repply 1.0000000
danger hazard 1.0000000
LOG LOG 1.0000000
50% 50% 1.0000000
beginner debutant 1.0000000
Menbrook Menbrook 1.0000000
Fortunately fortunetly 0.3333333
it fortunetly 0.3333333
fortunately fortunetly 0.3333333
footballer footballer 1.0000000
that hopeness 0.3333333
hope hopeness 0.3333333
the hopeness 0.3333333
bin bin 1.0000000
MARCOS MARCOS 1.0000000
concerned concern 0.1818182
concern concern 0.7272727
NULL concern 0.0909091
TV T.V 0.6363636
T.V T.V 0.3636364
reflect reflect 1.0000000
creams creams 1.0000000
your preciate 0.2000000
appreciate preciate 0.6000000
would preciate 0.2000000
STUDENT STUDENT 1.0000000
time timetable 0.1538462
timetables timetable 0.0769231
timetable timetable 0.6923077
performance timetable 0.0769231
pleasant plesant 1.0000000
worse worth 0.0625000
worth worth 0.7812500
worthwhile worth 0.0625000
worst worth 0.0312500
more worth 0.0625000
WEIGH WEIGHT 1.0000000
Mali Mali 1.0000000
entertainment entertainement 1.0000000
filmstars filmstars 1.0000000
actress actrice 1.0000000
at beging 0.3333333
beginning beging 0.6666667
ready read 0.0055249
read read 0.9613260
see read 0.0055249
reading read 0.0165746
said read 0.0055249
seen read 0.0055249
DISAPPOINTMENT DISAPPOINTMENT 1.0000000
soilors were 0.0007435
did were 0.0014870
starring were 0.0007435
camped were 0.0007435
where were 0.0052045
were were 0.8907063
behaved were 0.0007435
mentioned were 0.0007435
in were 0.0007435
participated were 0.0007435
used were 0.0007435
lit were 0.0007435
being were 0.0022305
at were 0.0007435
went were 0.0007435
is were 0.0014870
companies were 0.0007435
which were 0.0007435
would were 0.0044610
been were 0.0118959
stayed were 0.0007435
rented were 0.0007435
was were 0.0319703
are were 0.0141264
wasting were 0.0007435
had were 0.0148699
performed were 0.0007435
NULL were 0.0044610
wear were 0.0022305
spent were 0.0007435
waited were 0.0014870
RATTANAKOSIN RATTANAKOSIN 1.0000000
celebrity celebrity 0.8000000
celebrities celebrity 0.2000000
Carley Carley 1.0000000
EVERYTHING EVERYTHING 1.0000000
arranged mack 1.0000000
Mayas Mayas 1.0000000
odd odd 1.0000000
attended atend 1.0000000
consolation solace 1.0000000
insect insects 0.0714286
insects insects 0.9285714
welcoming wellcoming 1.0000000
drugs drugs 0.8888889
off drugs 0.1111111
train trains 0.1000000
trains trains 0.9000000
mates mates 0.4615385
classmates mates 0.4615385
schoolmates mates 0.0769231
each eatch 1.0000000
AROUND AROUND 1.0000000
busy buzy 1.0000000
chicken chicken 1.0000000
Japanese Japanese 1.0000000
none non 0.2500000
non non 0.7500000
contradicted contradicted 1.0000000
correspondence corespondecies 1.0000000
Company Company 1.0000000
Hemingway Hemingway 1.0000000
waterproof waterproof 1.0000000
ways manners 1.0000000
in produce 0.1111111
producing produce 0.0555556
produce produce 0.7222222
produced produce 0.0555556
produces produce 0.0555556
STARTS STARTS 1.0000000
Especially Especially 0.3207547
In Especially 0.2830189
particular Especially 0.2830189
NULL Especially 0.0188679
It Especially 0.0188679
The Especially 0.0188679
especially Especially 0.0566038
HUNDREDS HUNDREDS 1.0000000
on buying 0.0144928
buying buying 0.8840580
getting buying 0.0144928
shopping buying 0.0144928
buy buying 0.0724638
been given 0.0169492
refused given 0.0169492
because given 0.0169492
paid given 0.0508475
being given 0.0169492
having given 0.0169492
off given 0.0169492
gave given 0.0169492
given given 0.8305085
desperate deceperous 1.0000000
Jam pearl 0.5000000
Pearl pearl 0.5000000
connection connexion 1.0000000
successfully successfully 1.0000000
between beetween 1.0000000
admiring admiring 1.0000000
normal habits 0.2000000
habits habits 0.6000000
such habits 0.2000000
screamed screamed 1.0000000
Unfortunately Unfortunely 1.0000000
Regarding Refering 0.3333333
Referring Refering 0.6666667
fought fought 0.6000000
thought fought 0.2000000
they fought 0.2000000
Madrid Madrid 1.0000000
circumstances circumsenses 1.0000000
offer offerring 1.0000000
interviewer interviewer 1.0000000
kidding kidding 1.0000000
modern morden 1.0000000
Liao Liao 1.0000000
good goot 1.0000000
00 , 0.0001142
- , 0.0013701
; , 0.0028544
: , 0.0006850
am , 0.0000571
to , 0.0002854
insist , 0.0000571
are , 0.0001713
machines , 0.0000571
" , 0.0001713
apart , 0.0000571
is , 0.0002283
was , 0.0000571
learn , 0.0000571
be , 0.0000571
impatiently , 0.0000571
1ST , 0.0000571
who , 0.0001142
or , 0.0002283
. , 0.0429297
families , 0.0000571
it , 0.0001713
the , 0.0001142
starts , 0.0000571
! , 0.0000571
going , 0.0000571
out , 0.0000571
? , 0.0010847
then , 0.0000571
NULL , 0.0409317
' , 0.0001142
Where , 0.0000571
and , 0.0014843
by , 0.0000571
WELL , 0.0000571
about , 0.0001142
would , 0.0000571
Regarding , 0.0000571
of , 0.0001713
true , 0.0000571
that , 0.0004567
in , 0.0001713
for , 0.0001142
will , 0.0000571
, , 0.9046070
occurred , 0.0000571
Arts Art 0.0384615
art Art 0.0384615
Art Art 0.9230769
development developpement 1.0000000
lot knowledge 0.0232558
much knowledge 0.0232558
knowledge knowledge 0.9534884
CULT CULT 1.0000000
handicapped handicapt 1.0000000
myself ownself 1.0000000
soldiers soldiers 1.0000000
INDIAN INDIAN 1.0000000
repair repair 1.0000000
shown shown 0.8000000
showed shown 0.0400000
held shown 0.0400000
show shown 0.0800000
seen shown 0.0400000
Inform Inform 1.0000000
precautions precautions 1.0000000
confirm confirme 0.5000000
for confirme 0.5000000
Winkler Winkler 1.0000000
emphasize emphasize 1.0000000
allergy allergie 1.0000000
Unfortunately Unfortunatly 1.0000000
rays sunrays 0.5000000
sunrays sunrays 0.5000000
try trying 0.0408163
trying trying 0.9591837
hade hade 1.0000000
restaurant restaurand 1.0000000
research researches 1.0000000
give grant 1.0000000
ringing ringing 1.0000000
Actually Actually 0.9756098
NULL Actually 0.0243902
ôbest ôbest 1.0000000
did also 0.0013193
even also 0.0013193
may also 0.0013193
also also 0.9683377
NULL also 0.0105541
too also 0.0013193
Also also 0.0079156
so also 0.0013193
only also 0.0013193
well also 0.0026385
provide also 0.0013193
and also 0.0013193
hi Hi 0.0322581
stereos Hi 0.0322581
Hi Hi 0.9354839
cycle cycle 1.0000000
handsome handsome 1.0000000
Asian Asia 0.5000000
Asia Asia 0.5000000
brief briefly 1.0000000
essay paragraph 1.0000000
companies companies 0.8888889
company companies 0.1111111
comparing myself 0.0088496
NULL myself 0.0088496
me myself 0.0265487
. myself 0.0088496
offered myself 0.0088496
relax myself 0.0088496
to myself 0.0088496
climbing myself 0.0088496
discovered myself 0.0088496
cook myself 0.0088496
improve myself 0.0088496
entirely myself 0.0088496
stay myself 0.0088496
myself myself 0.8672566
surrounded sorrounded 1.0000000
of 2nd 0.1111111
2nd 2nd 0.7777778
The 2nd 0.1111111
THINGS THINGS 1.0000000
queuing quare 0.2500000
queue quare 0.5000000
queues quare 0.2500000
Atlantic Atlantic 1.0000000
repaired restructurated 1.0000000
worn worn 0.2000000
wore worn 0.8000000
LIKE LIKE 1.0000000
posters posteres 1.0000000
funds are 0.0004724
be are 0.0018895
is are 0.0344828
differ are 0.0004724
enjoyed are 0.0004724
been are 0.0018895
was are 0.0028342
would are 0.0009447
depend are 0.0004724
hearing are 0.0004724
cases are 0.0004724
were are 0.0146434
grown are 0.0004724
will are 0.0042513
sunshine are 0.0004724
paint are 0.0004724
? are 0.0004724
retailers are 0.0004724
do are 0.0033066
our are 0.0004724
charge are 0.0004724
Students are 0.0004724
have are 0.0037789
define are 0.0004724
am are 0.0004724
are are 0.9022201
NULL are 0.0212565
all are 0.0004724
Teachers are 0.0004724
SUNNY SUNNY 1.0000000
all accomodate 0.2000000
up accomodate 0.2000000
put accomodate 0.2000000
accommodate accomodate 0.4000000
handwork handwork 1.0000000
would've would've 1.0000000
personal personal 0.9375000
particular personal 0.0208333
personnel personal 0.0208333
expenses personal 0.0208333
exciting exhiting 1.0000000
BROOK BROOK 1.0000000
Designers Desingres 1.0000000
's sake 0.5000000
sake sake 0.5000000
stepmother stepmother 1.0000000
Entry entry 0.1000000
NULL entry 0.1000000
entry entry 0.6000000
entrance entry 0.2000000
animals animal 0.4444444
animal animal 0.5555556
organising organise 0.0555556
organise organise 0.7777778
out organise 0.0277778
reorganise organise 0.0277778
organised organise 0.0833333
work organise 0.0277778
type accommodation 0.0137931
stay accommodation 0.0482759
my accommodation 0.0137931
accommodation accommodation 0.9241379
flooded flooded 1.0000000
YOU YOU 1.0000000
ACCIDENTS ACCIDENTS 1.0000000
specialist specialist 1.0000000
purchases purchases 1.0000000
Wood Wood 1.0000000
reduced discounted 0.2000000
discounted discounted 0.8000000
great grateful 0.0649351
grateful grateful 0.9090909
happy grateful 0.0129870
pleased grateful 0.0129870
watch watches 0.3333333
watches watches 0.6666667
fiance fiance 1.0000000
fabulous fabolous 1.0000000
1998 1998 1.0000000
Lucre Lucre 1.0000000
GLAD GLAD 1.0000000
forecast forecast 0.7500000
schedule forecast 0.2500000
Hermine Hermine 1.0000000
theives theives 1.0000000
summary afimation 1.0000000
DECEMBER DECEMBER 1.0000000
years mordern 0.1666667
mordern mordern 0.1666667
modern mordern 0.6666667
sorry sorry 0.9710145
annoyed sorry 0.0144928
Sorry sorry 0.0144928
SHE SHE 1.0000000
competition Competition 0.0476190
Competition Competition 0.9523810
Ms. Ms. 1.0000000
advertisement advertisements 0.1250000
advertisements advertisements 0.8750000
idol idol 1.0000000
portrayal scene 0.0526316
scenes scene 0.0526316
scene scene 0.1052632
stage scene 0.7894737
I Think 0.1428571
Think Think 0.7142857
think Think 0.1428571
pure pure 1.0000000
French french 1.0000000
grew grow 0.1000000
individually grow 0.1000000
grow grow 0.6000000
NULL grow 0.1000000
growing grow 0.1000000
and deleied 0.5000000
delayed deleied 0.5000000
FIND FIND 1.0000000
microphones microfons 1.0000000
carried conveyed 1.0000000
D'Accatino D'Accatino 1.0000000
technology helful 0.3333333
helps helful 0.3333333
us helful 0.3333333
disgusting disgusting 1.0000000
provid provid 1.0000000
ambitious ambisious 1.0000000
consideration considering 0.0625000
about considering 0.0625000
thinking considering 0.1250000
considering considering 0.6875000
taking considering 0.0625000
tired tiered 1.0000000
ADVANCES MODERNIZES 1.0000000
development devellopment 1.0000000
EXAMPLE EXAMPLE 1.0000000
links links 1.0000000
Guide Guide 1.0000000
aid aid 1.0000000
materialistic materialistic 1.0000000
19:00 19:00 1.0000000
standards standards 1.0000000
technical technically 1.0000000
angrily angrily 1.0000000
Write Write 1.0000000
club club 0.9189189
clubs club 0.0810811
strict stricht 1.0000000
WANTED LOVED 1.0000000
photography photograghy 1.0000000
CHECK TEST 1.0000000
click click 1.0000000
beyond beyond 1.0000000
breakable breakable 1.0000000
. occasions 0.1666667
occasions occasions 0.8333333
computer combuter 1.0000000
secretary secratary 1.0000000
11 11 1.0000000
but however 0.0344828
however however 0.6724138
to however 0.0172414
However however 0.2758621
BB BB 1.0000000
Houe Houe 1.0000000
Aguilar Aguilar 1.0000000
intelligent intelligent 1.0000000
acting freely 0.2500000
freely freely 0.7500000
GROUND GROUND 1.0000000
getting enquiring 0.5000000
enquire enquiring 0.5000000
compulsion compulsion 1.0000000
- wear 0.0111524
clothing wear 0.0037175
underwear wear 0.0111524
clothes wear 0.0037175
went wear 0.0037175
sportswear wear 0.0446097
wears wear 0.0111524
be wear 0.0037175
wear wear 0.8661710
all wear 0.0037175
carry wear 0.0074349
when wear 0.0037175
dress wear 0.0074349
fashions wear 0.0037175
dressed wear 0.0037175
wore wear 0.0037175
worn wear 0.0037175
show wear 0.0037175
widest widest 1.0000000
gives provides 0.1666667
provides provides 0.8333333
previous previst 1.0000000
Travel Travel 1.0000000
furious fourious 1.0000000
Today Recently 0.1000000
Recently Recently 0.9000000
sufficient sufficient 1.0000000
LADY LADY 1.0000000
opposite opposit 1.0000000
cancel cancell 1.0000000
Angeles Angeles 1.0000000
foolish foolish 1.0000000
Landen Landen 1.0000000
adult adult 0.7777778
an adult 0.1111111
adults adult 0.1111111
dictionaries dictionaries 1.0000000
Mouro Mouro 1.0000000
events atletics 0.5000000
athletics atletics 0.5000000
easier easer 1.0000000
students student 0.1468531
student student 0.8461538
France student 0.0069930
Nothing Nothing 1.0000000
launderette cleaner 0.1000000
cleaner cleaner 0.8000000
cleaners cleaner 0.1000000
supermarket suppermarket 0.5000000
a suppermarket 0.5000000
earning earning 0.7500000
earnings earning 0.2500000
when purchasing 0.5000000
purchasing purchasing 0.5000000
CONCERNED CONCERNED 1.0000000
facing face 0.0222222
faced face 0.0444444
look face 0.0222222
face face 0.8888889
cure face 0.0222222
cheap chipper 1.0000000
I ALSO 0.0909091
ALSO ALSO 0.9090909
transmitted transmit 1.0000000
maintain mantain 1.0000000
afternoon afternones 1.0000000
quarrelled quarreled 1.0000000
ate eat 0.0094340
eating eat 0.0188679
eat eat 0.9716981
absolute absolute 0.6000000
absolutely absolute 0.4000000
us independence 0.2500000
independence independence 0.5000000
dependent independence 0.2500000
apologised apoligised 1.0000000
earths earths 1.0000000
exchanged exchanged 1.0000000
waterfall waterfall 1.0000000
SA SA 1.0000000
Really Realy 1.0000000
freeway freeway 1.0000000
engineer ingenier 1.0000000
a discman 0.3333333
discman discman 0.6666667
ONLY ONLY 0.9333333
CANCELLED ONLY 0.0666667
THEIR THEIR 1.0000000
relax themselves 0.0740741
enemies themselves 0.0370370
them themselves 0.0370370
themselves themselves 0.8518519
particularly particularly 0.9142857
liked particularly 0.0285714
when particularly 0.0285714
partially particularly 0.0285714
term turm 1.0000000
Basketball ball 0.0769231
volleyball ball 0.0769231
basketball ball 0.3076923
ball ball 0.5384615
based based 1.0000000
quarters quarters 0.6000000
an quarters 0.4000000
others authers 1.0000000
festivals festivals 1.0000000
slightly slightly 1.0000000
bossy bossy 1.0000000
bowl bowl 1.0000000
expectations expectations 1.0000000
kilometres kilometers 1.0000000
suggest propose 0.2857143
offer propose 0.1428571
proposed propose 0.1428571
propose propose 0.4285714
decided disided 1.0000000
created created 0.9375000
create created 0.0625000
intended intended 1.0000000
EVER EVER 1.0000000
facing facing 0.7500000
face facing 0.2500000
bar bar 1.0000000
televisions television 0.0204082
television television 0.9795918
brought brough 1.0000000
copy copy 0.9230769
them copy 0.0769231
Excel excel 1.0000000
impersonal unpersonal 1.0000000
eyebrows blows 1.0000000
Thank Thankeaw 0.5000000
you Thankeaw 0.5000000
inconvenience incovenience 1.0000000
sacrifice sacrifice 1.0000000
Anton Anton 1.0000000
are comfortability 0.3333333
they comfortability 0.3333333
comfortable comfortability 0.3333333
minutes minitues 0.5000000
40 minitues 0.5000000
avenge himself 0.0476190
themselves himself 0.0476190
himself himself 0.8571429
NULL himself 0.0476190
touched touched 1.0000000
us sleves 1.0000000
worse worst 0.0625000
worst worst 0.9375000
era era 1.0000000
23 23 1.0000000
respective respective 1.0000000
immediate immidiate 1.0000000
poster poster 1.0000000
ANYONE ANYONE 1.0000000
- brand 0.1666667
brand brand 0.6666667
computers brand 0.1666667
alternatives alternatives 1.0000000
thousands thousends 0.5000000
thousand thousends 0.5000000
stop stopping 0.3333333
stopping stopping 0.6666667
heavy heay 1.0000000
46 46 1.0000000
Vadim Vadim 1.0000000
realistic realistic 0.9285714
everyday realistic 0.0714286
appearance appearing 0.3333333
the appearing 0.3333333
of appearing 0.3333333
regard attendance 0.2500000
attendance attendance 0.7500000
challenge chalenge 1.0000000
because necessiraly 0.3333333
need necessiraly 0.3333333
they necessiraly 0.3333333
ENTIRE ENTIRE 1.0000000
STAGE SCENARY 1.0000000
ants ants 1.0000000
Charoenkul Charoenkul 1.0000000
ORGANISERS ORGANISERS 1.0000000
Island Island 1.0000000
- wellknown 0.3333333
known wellknown 0.3333333
well wellknown 0.3333333
information informational 1.0000000
Westlife Westlife 1.0000000
TO ANSWERING 1.0000000
Simplest Simplest 1.0000000
Not No 0.0645161
No No 0.9032258
There No 0.0322581
Everybody body 0.0312500
bodies body 0.1250000
figure body 0.0312500
NULL body 0.0312500
body body 0.5625000
everybody body 0.2187500
fifteenth fifteenth 1.0000000
Formula Formula 1.0000000
navy navy 1.0000000
concert concernt 1.0000000
reasently reasently 1.0000000
jobs jobs 0.9629630
job jobs 0.0370370
NULL willingly 0.5000000
willingly willingly 0.5000000
pm 2.30 0.5000000
2.30 2.30 0.5000000
Secondly Secondly 1.0000000
Ramiro Ramiro 1.0000000
alibi alibi 1.0000000
centre center 0.6818182
center center 0.2727273
Centre center 0.0454545
Amazing Amazing 1.0000000
any discount 0.0062112
sale discount 0.0062112
unavailable discount 0.0062112
offered discount 0.0062112
on discount 0.0124224
get discount 0.0124224
discounts discount 0.0434783
discount discount 0.9068323
necessary nesseccary 0.5000000
the nesseccary 0.5000000
Gorski Gorski 1.0000000
SIR SIR 1.0000000
in halled 0.2500000
halls halled 0.2500000
was halled 0.2500000
too halled 0.2500000
racing racing 0.6666667
against racing 0.3333333
MONEY MONEY 0.9333333
SPENT MONEY 0.0666667
interested intrestede 1.0000000
aggregative aggregative 1.0000000
make suggest 0.0083333
agreed suggest 0.0083333
NULL suggest 0.0083333
suggest suggest 0.9750000
Edinburgh Edinburgh 1.0000000
Queues Queues 1.0000000
TELLS TELLS 1.0000000
supermarkets supermarkets 0.9500000
rather supermarkets 0.0500000
3-week 3 0.0243902
3 3 0.9756098
home bringing 0.1111111
to bringing 0.1111111
bringing bringing 0.5555556
bring bringing 0.2222222
13/06/00 13/06/00 1.0000000
maths maths 1.0000000
countries countrie 1.0000000
paid pay 0.0185185
spend pay 0.0061728
pays pay 0.0061728
buy pay 0.0185185
cover pay 0.0123457
give pay 0.0123457
pay pay 0.8765432
return pay 0.0061728
paying pay 0.0123457
meet pay 0.0061728
NULL pay 0.0123457
paycheque pay 0.0061728
address pay 0.0061728
Available Available 1.0000000
die die 0.8823529
died die 0.1176471
nam nam 1.0000000
Iglesias Iglesias 1.0000000
newspaper newspepper 1.0000000
WASTE WAIST 1.0000000
Love Lovers 1.0000000
17:00 17:00 1.0000000
Sersuwan Sersuwan 1.0000000
ticket pricing 0.3333333
of pricing 0.3333333
price pricing 0.3333333
race race 1.0000000
Gubin Gubin 1.0000000
Clothes clothes 0.0012626
fashions clothes 0.0012626
regarding clothes 0.0012626
clothing clothes 0.0075758
materials clothes 0.0012626
clothes clothes 0.9823232
dressing clothes 0.0012626
costume clothes 0.0012626
fashion clothes 0.0012626
size clothes 0.0012626
burst burst 1.0000000
abuse abuses 1.0000000
accompanying accompanying 1.0000000
POLICE POLICE 1.0000000
Tommy Tommy 1.0000000
appropriate appropreaite 1.0000000
FANS FANS 1.0000000
chop chop 1.0000000
letter litter 1.0000000
advantage advatage 1.0000000
range affordable 0.3333333
price affordable 0.3333333
affordable affordable 0.3333333
quickly quicker 0.1428571
quicker quicker 0.8571429
Mararcanã Mararcanã 1.0000000
PROUD PROUD 1.0000000
BUDGET BUDJET 1.0000000
idler idler 1.0000000
Yet Yet 1.0000000
Parade Parade 1.0000000
Carla Carla 1.0000000
uniform uniforms 0.1250000
uniforms uniforms 0.8750000
monkey monkey 1.0000000
refrigerator refrigerator 1.0000000
quite quite 0.9447514
quiet quite 0.0276243
almost quite 0.0055249
really quite 0.0055249
variety quite 0.0055249
very quite 0.0055249
NULL quite 0.0055249
Guess Quess 1.0000000
examples examples 1.0000000
in eventhough 0.1250000
even eventhough 0.3750000
though eventhough 0.3750000
spite eventhough 0.1250000
luckiest luckiest 1.0000000
competitions competitions 0.9722222
competition competitions 0.0277778
23456789 23456789 1.0000000
Ki Ki 1.0000000
CHANCE CHANCE 1.0000000
sleep accomodation 0.0121951
accommodation accomodation 0.8658537
stay accomodation 0.0975610
type accomodation 0.0243902
MAINLY MAINLY 1.0000000
balloons balloons 1.0000000
battle battle 1.0000000
Dong Dong 1.0000000
passengers passangers 1.0000000
vocalist vocal 0.5000000
vocals vocal 0.5000000
MARGARET MARGARET 1.0000000
guitarist guitarrist 1.0000000
ridiculous rediculous 1.0000000
barbecue barbecue 1.0000000
Alice Alice 1.0000000
Lee Lee 1.0000000
BADLY GOOD 0.0714286
GOOD GOOD 0.9285714
30th 30st 1.0000000
DANNY DANNY 1.0000000
weather wethear 1.0000000
tunic tunique 1.0000000
PRODUCERS PRODUCERS 1.0000000
heat heat 1.0000000
although although 0.9230769
but although 0.0109890
Although although 0.0659341
ON OFFER 0.5000000
PUT OFFER 0.5000000
Millennium Millenium 1.0000000
F. F. 1.0000000
waited waitted 1.0000000
skirts skirt 0.1000000
skirt skirt 0.9000000
Manuela Manuela 1.0000000
beginning begging 1.0000000
boarding boarding 1.0000000
relationships relationships 1.0000000
a beeng 0.5000000
being beeng 0.5000000
dream dreaming 0.1111111
dreaming dreaming 0.8888889
necessary necessaryiest 0.5000000
most necessaryiest 0.5000000
Otto Otto 1.0000000
tent tens 0.2500000
tents tens 0.7500000
Plays Plays 0.2727273
The Plays 0.2727273
plays Plays 0.4545455
.... .... 1.0000000
freezers freezers 1.0000000
Metro Metro 1.0000000
shoes shoe 0.5000000
shoe shoe 0.5000000
sister sister 0.9750000
sisters sister 0.0250000
NULL future 0.0046729
future future 0.9906542
futuristic future 0.0046729
colour colour 0.7083333
watercolour colour 0.0833333
coloured colour 0.0416667
colours colour 0.1666667
DRINKS DRINKS 1.0000000
who than 0.0024390
bigger than 0.0024390
from than 0.0048780
so than 0.0024390
not than 0.0024390
plays than 0.0024390
what than 0.0024390
as than 0.0048780
to than 0.0268293
thank than 0.0024390
and than 0.0024390
their than 0.0024390
then than 0.0170732
than than 0.9170732
that than 0.0048780
sleeping than 0.0024390
NULL during 0.0213415
in during 0.0091463
: during 0.0030488
during during 0.8750000
for during 0.0426829
while during 0.0030488
am during 0.0030488
the during 0.0030488
at during 0.0243902
before during 0.0030488
over during 0.0060976
of during 0.0060976
plants plants 1.0000000
cancelled canceled 1.0000000
made maked 0.3333333
makes maked 0.3333333
driving maked 0.3333333
problematic serious 0.0370370
serious serious 0.8888889
important serious 0.0370370
seriousness serious 0.0370370
Stanford Stanford 1.0000000
Yun Yun 1.0000000
awesome awesome 1.0000000
stuck stuck 1.0000000
rays rays 1.0000000
difficult complicated 0.1818182
complicated complicated 0.8181818
STAFF TEAM 0.6666667
TEAM TEAM 0.3333333
minutes min 0.6666667
min min 0.3333333
that hat 0.2500000
hat hat 0.7500000
Being Being 0.9090909
NULL Being 0.0909091
SURELY SURELY 1.0000000
convenience comodity 0.5000000
ease comodity 0.5000000
frightened frighten 1.0000000
studies studyings 1.0000000
7.30 7.30 1.0000000
bombs bombs 1.0000000
busier busier 1.0000000
curiouses curiouses 1.0000000
horrible horrible 0.9782609
terrible horrible 0.0217391
dinner diner 1.0000000
March march 1.0000000
conditioning conditioning 1.0000000
needed neaded 1.0000000
cherry cherry 1.0000000
profound profound 1.0000000
take taken 0.1750000
token taken 0.0250000
got taken 0.0250000
took taken 0.0500000
taken taken 0.6000000
chosen taken 0.0250000
made taken 0.0500000
NULL taken 0.0500000
km km 1.0000000
interest interesting 0.0037037
interesting interesting 0.9407407
uninteresting interesting 0.0037037
useful interesting 0.0037037
more interesting 0.0037037
subject interesting 0.0037037
interested interesting 0.0407407
13/6/00 13/6/00 1.0000000
foundation foundation 1.0000000
Brontë Brontë 1.0000000
hotel hotel 1.0000000
recently recentely 1.0000000
NULL back 0.0277264
Return back 0.0018484
reply back 0.0018484
backhand back 0.0018484
away back 0.0018484
back back 0.9426987
refunded back 0.0018484
reimbursed back 0.0018484
return back 0.0055453
about back 0.0018484
backstage back 0.0092421
refunds back 0.0018484
triumphed triumph 1.0000000
what whot 1.0000000
young yong 1.0000000
can ordinary 0.0555556
ordinary ordinary 0.8888889
wear ordinary 0.0555556
each eachother 0.5000000
other eachother 0.5000000
Svetlana Svetlana 1.0000000
replied- replied- 1.0000000
sportsman sportman 1.0000000
recommending recommending 1.0000000
Around Around 1.0000000
jackets jackets 1.0000000
functioning functioning 1.0000000
FINALLY EVENTUALLY 0.5000000
EVENTUALLY EVENTUALLY 0.5000000
adults ' 0.0022989
Mano ' 0.0091954
nationalities ' 0.0022989
's ' 0.0206897
cultural ' 0.0022989
OUTSIDE ' 0.0045977
away ' 0.0022989
development ' 0.0045977
museums ' 0.0022989
stone ' 0.0022989
I'D ' 0.0022989
teachers ' 0.0022989
NULL ' 0.0206897
FANS ' 0.0045977
' ' 0.9172414
athletes athletes 1.0000000
renewed renewed 1.0000000
confidently confidents 1.0000000
Paulo Paulo 1.0000000
waste sewage 1.0000000
emsamblish emsamblish 1.0000000
promoted promoted 1.0000000
cook cooker 0.3333333
being cooker 0.1111111
chef cooker 0.1111111
cooker cooker 0.4444444
Juarez Juarez 1.0000000
History History 1.0000000
jumping jumping 1.0000000
late late 0.9346405
lateness late 0.0130719
delay late 0.0130719
later late 0.0196078
starting late 0.0130719
too late 0.0065359
MANUEL MANUEL 1.0000000
said Danny 0.0024155
star Danny 0.0024155
Danny Danny 0.9951691
probably propably 1.0000000
creativity creativity 1.0000000
Almendegos Almendegos 1.0000000
EASIER EASIER 1.0000000
climb climp 1.0000000
problem ploblem 1.0000000
HOMEBASE HOMEBASE 1.0000000
banners banners 1.0000000
Agatha Agatha 1.0000000
detailed detailed 1.0000000
' acts 0.3333333
acts acts 0.3333333
actions acts 0.3333333
satellites satelites 1.0000000
help hep 1.0000000
photography : 0.0017065
are : 0.0017065
, : 0.0102389
as : 0.0017065
Manager : 0.0017065
: : 0.9402730
follows : 0.0017065
. : 0.0153584
following : 0.0017065
; : 0.0051195
basketball : 0.0017065
NULL : 0.0085324
Jane : 0.0017065
dresses : 0.0017065
lately : 0.0017065
call : 0.0017065
computer : 0.0017065
database database 1.0000000
like appreciate 0.0289855
appreciated appreciate 0.0434783
appreciative appreciate 0.0289855
appreciate appreciate 0.8840580
see appreciate 0.0144928
rested rest 0.0161290
other rest 0.0161290
remaining rest 0.0161290
rest rest 0.9516129
due dure 1.0000000
marked mark 0.2000000
make mark 0.2000000
out mark 0.2000000
mark mark 0.2000000
point mark 0.2000000
runs leaded 1.0000000
evenings evenings 1.0000000
Minolta Minolta 1.0000000
discussion discucion 1.0000000
synthetic synthetic 1.0000000
find fine 0.0169492
're fine 0.0169492
liked fine 0.0169492
fine fine 0.8813559
okay fine 0.0169492
well fine 0.0508475
microwave micrown 1.0000000
lyrics texts 1.0000000
attacked attaked 1.0000000
battleships battleships 1.0000000
marathon marathon 1.0000000
volunteer staff 0.0169492
member staff 0.0338983
kind staff 0.0169492
stuff staff 0.0338983
list staff 0.0169492
staff staff 0.8644068
performers staff 0.0169492
playing bands 0.0769231
bands bands 0.9230769
near nowhere 0.2000000
nowhere nowhere 0.8000000
soccer soccer 1.0000000
collection collection 0.5000000
collections collection 0.5000000
to wanna 0.5000000
want wanna 0.5000000
professional proffesional 1.0000000
piece land 0.1428571
countryside land 0.1428571
land land 0.7142857
though Eventhough 0.5000000
Even Eventhough 0.5000000
differences differences 1.0000000
skipped skipped 1.0000000
becoming becaming 1.0000000
roughly roughly 1.0000000
peaceful pieceful 1.0000000
Ernestina Ernestina 1.0000000
biotechnologies biotecnologies 1.0000000
wanted waned 1.0000000
greeting greeting 1.0000000
jazz jazz 1.0000000
varies varys 0.5000000
depending varys 0.5000000
nationalities nationality 1.0000000
extroverted extroverted 1.0000000
Grandpa Grandpa 1.0000000
stored stored 1.0000000
ability ability 0.8750000
situation ability 0.1250000
serves serves 1.0000000
store store 0.8800000
story store 0.0400000
they store 0.0400000
around store 0.0400000
Abril Abril 1.0000000
universe Universe 1.0000000
Research Development 0.5000000
Scientific Development 0.5000000
CAPITAL CAPITAL 1.0000000
Irkind Irkind 1.0000000
Fritz Fritz 1.0000000
chores routine 0.1111111
routine routine 0.8888889
sighted sight 0.1111111
sight sight 0.5555556
sightseeing sight 0.1111111
see sight 0.1111111
sign sight 0.1111111
divorce devorce 0.5000000
divorced devorce 0.5000000
East holiday 0.0035336
' holiday 0.0212014
's holiday 0.0282686
holidays holiday 0.0106007
NULL holiday 0.0035336
party holiday 0.0035336
holiday holiday 0.9293286
stairs stair 1.0000000
concentrate concentrat 1.0000000
proven proofen 1.0000000
thieves thief 0.1666667
career thief 0.1666667
thief thief 0.5000000
are thief 0.1666667
flashed flashed 1.0000000
unknown unknown 0.9500000
an unknown 0.0250000
new unknown 0.0250000
ceiling ceiling 1.0000000
PLAY PLAY 0.7857143
PLAYED PLAY 0.0714286
PUTTING PLAY 0.0714286
HAVE PLAY 0.0714286
decline decline 1.0000000
sight sigh 1.0000000
Director Director 1.0000000
Using Using 1.0000000
access acessing 1.0000000
stars stars 1.0000000
Galliano Galliano 1.0000000
Oxford Oxford 1.0000000
News Oxfor 0.5000000
Oxfor Oxfor 0.5000000
summary summarizing 1.0000000
seem seems 0.0350877
were seems 0.0175439
be seems 0.0175439
seems seems 0.8596491
seemed seems 0.0175439
looks seems 0.0175439
likely seems 0.0175439
does seems 0.0175439
Media Media 1.0000000
calculate calulate 1.0000000
scanner scanner 1.0000000
" "unify 0.5000000
unity "unify 0.5000000
press Press 0.5000000
The Press 0.5000000
Fish Fish 1.0000000
6 6 0.8461538
6-year 6 0.1538462
pistols pistols 1.0000000
day current 0.1666667
current current 0.5000000
- current 0.1666667
present current 0.1666667
LOOK LOOK 0.6666667
LOOKED LOOK 0.1666667
AT LOOK 0.1666667
Apart Exepted 1.0000000
escaping escaping 1.0000000
nearly nearlly 1.0000000
neighbour neighbour 1.0000000
trucks trucks 1.0000000
movie movie 1.0000000
meetings meetings 1.0000000
vacuum vacume 1.0000000
hand Contrary 0.2500000
On Contrary 0.2500000
Contrary Contrary 0.2500000
other Contrary 0.2500000
Title Title 1.0000000
the violin 0.5000000
violin violin 0.5000000
comfortable comfatable 1.0000000
unique unique 0.9090909
only unique 0.0909091
Dublin Dublin 1.0000000
failing failing 0.8000000
your failing 0.2000000
GIVEN GIVEN 1.0000000
FOR DURING 0.1428571
DURING DURING 0.8571429
restaurants restraurants 1.0000000
excellence excellence 1.0000000
know Know 0.6666667
Now Know 0.3333333
Yours You 0.0024038
Your You 0.0048077
Do You 0.0024038
you You 0.0072115
If You 0.0024038
You You 0.9807692
actor cast 0.3333333
cast cast 0.6666667
Traditional Traditional 1.0000000
UNDERSTAND UNDERSTAND 1.0000000
THAN THAN 0.6666667
TO THAN 0.1666667
WHAT THAN 0.1666667
decided desited 1.0000000
vitamins vitamin 1.0000000
ENOUGH ENOUGH 1.0000000
Kowloon Kowloon 1.0000000
characterize characterize 1.0000000
hush hush 1.0000000
12 12 1.0000000
imply imply 1.0000000
planning planing 0.7500000
plan planing 0.2500000
OUTSIDE OUTSIDE 1.0000000
Felipa Felipa 1.0000000
industry industrial 0.3333333
industrial industrial 0.6666667
believe belive 0.9444444
believed belive 0.0555556
heroes heros 1.0000000
sincerely centainly 1.0000000
cultural cultural 1.0000000
Curitilra Curitilra 1.0000000
damned damned 1.0000000
simpler simpler 1.0000000
helpless helpless 1.0000000
singers singer 0.0379747
singer singer 0.9620253
In especially 0.0114943
because especially 0.0057471
particular especially 0.0344828
writes especially 0.0057471
including especially 0.0057471
exact especially 0.0057471
especially especially 0.9252874
since especially 0.0057471
Robbie Robbie 1.0000000
accumulation accummulation 1.0000000
contract contract 1.0000000
assume assume 1.0000000
INSIDE INSIDE 1.0000000
receiving receving 1.0000000
sedentary sedentary 1.0000000
Way Way 1.0000000
designs desings 1.0000000
queue quel 1.0000000
DISAPPOINTING DISAPPOINTING 1.0000000
thoroughly thoroughly 1.0000000
lovers lovers 1.0000000
refunded refunded 1.0000000
tone tone 0.5000000
tune tone 0.5000000
17th 17th 1.0000000
coach coach 0.7500000
the coach 0.2500000
strain strain 1.0000000
virtually virtually 1.0000000
devastated devastated 1.0000000
exists exists 0.5000000
existed exists 0.5000000
famous famouse 1.0000000
creatures creatures 1.0000000
happening happing 1.0000000
applied applied 1.0000000
activated activated 1.0000000
Oscar Oscar 1.0000000
the day 0.0019569
afternoon day 0.0039139
days day 0.0039139
daily day 0.0078278
weekday day 0.0019569
NULL day 0.0019569
someday day 0.0019569
day day 0.9628180
everyday day 0.0097847
which day 0.0019569
today day 0.0019569
girlfriend girl 0.0961538
girl girl 0.9038462
12.12.2000 12.12.2000 1.0000000
Essay Essay 1.0000000
stubborn stubborn 1.0000000
Karla Karla 1.0000000
, components 0.5000000
objects components 0.5000000
BLIND BLIND 1.0000000
entrance entrace 1.0000000
silk silk 1.0000000
appreciation appreciation 1.0000000
whole hohle 1.0000000
dishwashers mashiens 0.3333333
appliances mashiens 0.3333333
machines mashiens 0.3333333
tiring tyring 1.0000000
is destroyed 0.1111111
destroying destroyed 0.1111111
ruined destroyed 0.1111111
destroyed destroyed 0.6666667
enjoyed enjoyied 1.0000000
mall mall 1.0000000
Scientists Scinetis 1.0000000
think brainstorm 1.0000000
work coursework 0.5000000
course coursework 0.5000000
congratulate congratulated 0.5000000
congratulated congratulated 0.5000000
Miguel Miguel 1.0000000
smile smile 1.0000000
baggy baggy 1.0000000
complicated compricate 1.0000000
smiled smiled 1.0000000
conections conections 0.5000000
connections conections 0.5000000
afraid afrade 1.0000000
Bety Bety 1.0000000
ft ft 1.0000000
wardrobe wardrobe 1.0000000
sibling sibling 1.0000000
Maybe Maybe 1.0000000
WHICH FAR 0.2500000
NOT FAR 0.2500000
FAR FAR 0.2500000
YOU FAR 0.2500000
backdrop decor 1.0000000
EVERYONE EVERYONE 1.0000000
besides besides 1.0000000
slammer slammer 1.0000000
vet doctor 0.0666667
doctor doctor 0.9333333
material materiell 1.0000000
accommodation accomotation 0.5000000
the accomotation 0.5000000
seen sen 1.0000000
dated dated 0.2500000
our dated 0.2500000
update dated 0.2500000
date dated 0.2500000
agreed agreeded 1.0000000
Camping Camping 1.0000000
impressive impressive 1.0000000
frightened frightened 1.0000000
feathers fethers 1.0000000
many many 0.8906606
who many 0.0022779
may many 0.0022779
NULL many 0.0022779
money many 0.0022779
, many 0.0022779
accommodate many 0.0022779
hot many 0.0022779
Many many 0.0022779
long many 0.0022779
lot many 0.0478360
much many 0.0250569
large many 0.0022779
lots many 0.0045558
of many 0.0068337
man many 0.0022779
Showing Showing 1.0000000
diary agenda 1.0000000
leadership leadership 1.0000000
Keeping Keeping 1.0000000
HOUSES HOUSES 1.0000000
pouded pouded 1.0000000
SHEEP SHEEP 1.0000000
LATE LATE 1.0000000
is diffcult 0.3333333
it diffcult 0.3333333
difficult diffcult 0.3333333
affect effect 0.2222222
effect effect 0.6111111
effects effect 0.1666667
driving driving 1.0000000
MR MR 1.0000000
Blau Blau 1.0000000
sleep slept 0.0769231
slept slept 0.9230769
- fashioned 0.2500000
fashioned fashioned 0.5000000
fashionable fashioned 0.2500000
MANY MANY 1.0000000
Chwa Chwa 1.0000000
practical preticle 1.0000000
philosophy philosophy 1.0000000
GC2 GC2 1.0000000
basic basical 1.0000000
WORST WORST 1.0000000
university University 0.2962963
University University 0.7037037
primary primary 1.0000000
organisers organisers 1.0000000
Take Take 1.0000000
permanent permanent 0.5000000
a permanent 0.5000000
However Howeve 1.0000000
October October 1.0000000
DEMURO DEMURO 1.0000000
Despite Althought 1.0000000
Year Years 0.5000000
's Years 0.5000000
Anne Anne 1.0000000
Warshaw Warshaw 1.0000000
hairstyles hairstyle 0.5000000
hairstyle hairstyle 0.5000000
sealed sealed 1.0000000
spectacle setted 0.5000000
meant setted 0.5000000
? whith 0.3333333
with whith 0.6666667
eleven eleven 1.0000000
printed printed 0.8000000
T printed 0.2000000
nonsense nonsense 1.0000000
Surprisingly Suprisingly 1.0000000
disagree disagree 0.5000000
disappointment disagree 0.2500000
disagreed disagree 0.2500000
Sabrina Sabrina 1.0000000
homework homeworks 1.0000000
conscience concience 1.0000000
Krol Krol 1.0000000
careful carefull 1.0000000
suit suits 0.0625000
suits suits 0.9375000
YOU'VE YOU'VE 1.0000000
arrived arrives 0.5000000
get arrives 0.5000000
OPINION OPINION 1.0000000
supplying suppling 1.0000000
16th 16th 1.0000000
visits visits 1.0000000
tried praticed 1.0000000
BOOKMARKS BOOKMARKS 1.0000000
unforgivable unforgiven 1.0000000
attitudes attitudes 0.7500000
' attitudes 0.2500000
BIT BIT 1.0000000
aiming targelting 1.0000000
who whe 0.5000000
why whe 0.5000000
convenient convience 1.0000000
Chilli Chilli 1.0000000
flaws flaws 1.0000000
BAND BAND 1.0000000
creative creative 1.0000000
go practicate 1.0000000
designing designing 1.0000000
Regional Regional 1.0000000
INTRODUCTION INTRODUCTION 1.0000000
Kresnodar Kresnodar 1.0000000
break brake 1.0000000
CALZARI CALZARI 1.0000000
favour favour 0.6000000
favourite favour 0.4000000
HAVE HAS 0.0666667
HAS HAS 0.8666667
ALSO HAS 0.0666667
leisure distractions 1.0000000
turned turned 0.8222222
become turned 0.0222222
to turned 0.0222222
out turned 0.0888889
happened turned 0.0222222
went turned 0.0222222
silvers silvers 1.0000000
refurbishing refurishing 1.0000000
presume pressume 1.0000000
powerful powerful 1.0000000
colours coloures 1.0000000
JOB JOB 1.0000000
COMMUNICATE COMMUNICATE 1.0000000
reviews reviews 1.0000000
Metal Metal 1.0000000
mechanics mecanics 0.8333333
engineering mecanics 0.1666667
vending vending 1.0000000
accounting accounting 1.0000000
orange orange 1.0000000
board bord 1.0000000
gardens gardens 1.0000000
leak leakage 1.0000000
participate participate 1.0000000
unskilled non- 1.0000000
jackets jakect 1.0000000
specifying specifying 1.0000000
spy spies 1.0000000
Conversion Conversion 1.0000000
350 350 1.0000000
lectures lectures 1.0000000
cosy cozy 1.0000000
enrol enroll 1.0000000
Fortunately Fortunatelly 1.0000000
Because Becauses 1.0000000
crazy crazy 1.0000000
future futur 1.0000000
wired wired 1.0000000
wealthy wealthy 1.0000000
Harry Harry 1.0000000
friendlier friendlier 1.0000000
yourselfö yourselfö 1.0000000
improve impruve 1.0000000
challenging changelling 1.0000000
picture pictures 0.0181818
pictures pictures 0.9454545
taken pictures 0.0363636
souvenirs souvenirs 1.0000000
19th 19th 1.0000000
Everyone Everone 1.0000000
CROWD PEOPLE 0.0454545
PEOPLE PEOPLE 0.9545455
postponed posticipated 1.0000000
Taking Taking 1.0000000
sizes sizes 1.0000000
tests tests 0.3000000
exams tests 0.3000000
check tests 0.2000000
. tests 0.1000000
sound tests 0.1000000
birds birds 1.0000000
humiliated humiliated 1.0000000
rare rare 0.7777778
surprising rare 0.1111111
rarely rare 0.1111111
additional aditional 1.0000000
arrangements arrangements 1.0000000
embarrassing embarrassed 0.2000000
embarrassed embarrassed 0.8000000
Marc Marc 1.0000000
dinner dinner 1.0000000
- fourthey 0.5000000
forty fourthey 0.5000000
overweight overwight 1.0000000
WHICH WHICH 1.0000000
bullied bullied 1.0000000
ashamed ashamed 1.0000000
people persons 0.9473684
actors persons 0.0526316
realised recognised 0.2000000
found recognised 0.2000000
recognised recognised 0.4000000
out recognised 0.2000000
ship ship 1.0000000
befriended befriended 1.0000000
Luna Luna 1.0000000
detective detective 1.0000000
technology methods 0.3333333
methods methods 0.6666667
option possebility 1.0000000
Oliviar Oliviar 1.0000000
informative informing 0.0666667
us informing 0.0666667
me informing 0.0666667
informing informing 0.7333333
informed informing 0.0666667
Perrault Perrault 1.0000000
engineers ingenors 1.0000000
destroying destroy 0.1000000
also destroy 0.1000000
destroy destroy 0.8000000
adjusted adjusted 1.0000000
joy joyful 1.0000000
Light Light 1.0000000
discount biscount 0.5000000
a biscount 0.5000000
Yours Salutations 0.5000000
sincerely Salutations 0.5000000
channel chanel 1.0000000
's progress 0.0434783
works progress 0.0434783
progress progress 0.8695652
quickly progress 0.0434783
incurable uncureable 1.0000000
worrying worrying 1.0000000
gravestone gravestone 1.0000000
congratulate congradulate 1.0000000
friend bestfriend 0.5000000
best bestfriend 0.5000000
picnic picnic 0.6666667
on picnic 0.3333333
material matherial 1.0000000
reminded remembered 0.1428571
remembered remembered 0.8571429
Colours Colors 1.0000000
morality morality 0.6666667
moral morality 0.3333333
revise revise 1.0000000
of equippments 0.3333333
equipment equippments 0.3333333
items equippments 0.3333333
Furthermore Futermore 1.0000000
related relative 1.0000000
largish largish 1.0000000
Segovia Segovia 1.0000000
WROTE WROTE 0.8333333
ABOUT WROTE 0.1666667
desperately desparately 0.5000000
, desparately 0.5000000
they thy 1.0000000
pupil pupil 0.4000000
pupils pupil 0.4000000
people pupil 0.2000000
evil evil 1.0000000
man whiteman 0.5000000
white whiteman 0.5000000
way solutions 0.1250000
answers solutions 0.1250000
solutions solutions 0.7500000
limitation limitation 1.0000000
course cours 0.5000000
a cours 0.5000000
radio radio 1.0000000
beginners beginers 1.0000000
Exciting Exciting 1.0000000
satisfied setisfaid 1.0000000
worried worried 1.0000000
Heanley Heanley 1.0000000
act acting 0.0277778
acted acting 0.0277778
playing acting 0.0277778
acting acting 0.9166667
we w 1.0000000
Monte Monte 1.0000000
SCIENCE SCIENCE 1.0000000
been followed 0.0416667
followed followed 0.9583333
thirsty thirsty 1.0000000
scribbled scribbled 1.0000000
deviations deviations 1.0000000
fashions fashion 0.0913706
fashionable fashion 0.0101523
clothes fashion 0.0050761
Fashion fashion 0.0253807
in fashion 0.0050761
models fashion 0.0050761
style fashion 0.0050761
fashion fashion 0.8477157
industry fashion 0.0050761
without whitout 0.8000000
considering whitout 0.2000000
1200 1200 1.0000000
political political 1.0000000
n't coudn't 0.5000000
could coudn't 0.5000000
Yasmin Yasmin 1.0000000
authentic authentic 1.0000000
ELEGANCE ELEGANCE 1.0000000
guaranteed guarantee 1.0000000
arouses arouses 1.0000000
intrusion intrusion 0.5000000
an intrusion 0.5000000
OBLIGED OBLIGED 1.0000000
are intrsted 0.5000000
interested intrsted 0.5000000
COMFORTCOMFORTABLE CONFORTNESSCOMFORTABLE 1.0000000
network network 1.0000000
happiness hapinest 1.0000000
Audrey Audrey 1.0000000
grandmother grandmother 0.8500000
's grandmother 0.1500000
Notwithstanding Notwithstanding 1.0000000
browse browse 0.5000000
browsing browse 0.5000000
rings rings 0.6666667
rang rings 0.3333333
HELGAR HELGAR 1.0000000
GAMES GAMES 1.0000000
THANKFUL THANFUL 1.0000000
heights heights 1.0000000
soon son 0.0476190
son son 0.9523810
Broke Broke 1.0000000
dressing dressing 0.6250000
present dressing 0.1250000
dress dressing 0.2500000
improved impoved 1.0000000
Svensson Svensson 1.0000000
EVERYTHING EVERY 0.3333333
EVERY EVERY 0.6666667
core core 1.0000000
sorry sory 1.0000000
beers beers 1.0000000
-Helen -Helen 1.0000000
merchandise merchandise 1.0000000
encouraged encourage 0.2000000
encourage encourage 0.8000000
Aachen Aachen 1.0000000
Becca Becca 1.0000000
met wit 0.5000000
with wit 0.5000000
discounts dicounts 1.0000000
secrecy secrecy 1.0000000
agrees agrees 1.0000000
described discribed 1.0000000
customers costemers 1.0000000
crash crash 1.0000000
Find Find 1.0000000
pumping pumpping 1.0000000
pension pension 0.5000000
a pension 0.5000000
give infrom 1.0000000
optional optionaly 1.0000000
strict strick 1.0000000
Brian Brian 1.0000000
lake lake 0.9166667
like lake 0.0833333
nerds nerds 1.0000000
Poor Pour 1.0000000
DISCOVERIES DISCOVERIES 1.0000000
blocks blocks 1.0000000
relevance actuality 1.0000000
Utada Utada 1.0000000
front infrant 1.0000000
dogs dogs 1.0000000
Tudela Tudela 1.0000000
some other 0.0014306
the other 0.0014306
another other 0.0529328
others other 0.0057225
activity other 0.0028612
next other 0.0028612
rest other 0.0014306
other other 0.8912732
NULL other 0.0314735
hand other 0.0014306
consequently other 0.0014306
vice other 0.0014306
further other 0.0014306
otherwise other 0.0014306
get other 0.0014306
brothers brothers 1.0000000
beginning beginn 0.5000000
begin beginn 0.5000000
thrown expelled 1.0000000
FAMILY FAMILY 1.0000000
windows windows 0.8571429
window windows 0.1428571
throughout throughout 1.0000000
efficiently efficiently 1.0000000
Harp Harp 1.0000000
MONTH TIME 0.0476190
TIMES TIME 0.0476190
NULL TIME 0.0476190
TIME TIME 0.7619048
WHILE TIME 0.0476190
WHICH TIME 0.0476190
slide slide 1.0000000
get marrige 0.5000000
married marrige 0.5000000
situation cituation 1.0000000
LITTLE LITTLE 1.0000000
being sad 0.0250000
sad sad 0.9500000
said sad 0.0250000
A1 A1 1.0000000
Football Football 1.0000000
Going Going 1.0000000
than 45 0.0089286
45 45 0.9732143
45-minute 45 0.0089286
minutes 45 0.0089286
Birthday Birthday 1.0000000
signature sign 0.0714286
NULL sign 0.1428571
sign sign 0.5714286
stated sign 0.0714286
says sign 0.1428571
Ki sincinerly 0.5000000
sincerely sincinerly 0.5000000
Help Help 1.0000000
imperfect imperfect 1.0000000
K.F.C K.F.C 1.0000000
Stones Stones 1.0000000
maybe may 0.0526316
whether may 0.0075188
will may 0.0150376
can may 0.0225564
may may 0.7593985
NULL may 0.0150376
many may 0.0075188
May may 0.0075188
have may 0.0075188
go may 0.0075188
do may 0.0150376
would may 0.0075188
might may 0.0225564
is may 0.0075188
must may 0.0075188
could may 0.0300752
should may 0.0075188
institutes institutes 1.0000000
paths paths 1.0000000
Mother Mother 1.0000000
shower shower 1.0000000
1874 1874 1.0000000
purpose porpouse 1.0000000
eaten eaten 1.0000000
backstage backstage 0.9375000
go backstage 0.0625000
embarrassed embarrest 1.0000000
fairy fairy 1.0000000
NULL Once 0.0526316
One Once 0.0526316
Once Once 0.8947368
tennis tenis 1.0000000
performance role 0.0294118
role role 0.9411765
roles role 0.0294118
accelerating accelerating 1.0000000
MUSICAL SHOW 0.0526316
SHOW SHOW 0.9210526
THEATRE SHOW 0.0263158
group groupe 1.0000000
comparison parallel 1.0000000
thoroughly thrutly 1.0000000
enormous enormous 0.8888889
really enormous 0.1111111
spiders spiders 1.0000000
stressed stressed 0.7333333
up stressed 0.0666667
stretched stressed 0.0666667
stressful stressed 0.1333333
Try Try 1.0000000
faithfully faightfully 1.0000000
appears comes 0.0416667
came comes 0.0416667
comes comes 0.7916667
come comes 0.0833333
NULL comes 0.0416667
attending attends 0.5000000
is attends 0.5000000
Homework Homework 1.0000000
5,000 5.000 1.0000000
were wher 1.0000000
minutes minuts 1.0000000
GOLF GOLF 1.0000000
diseases desease 1.0000000
reasons resons 1.0000000
definitely exactly 0.0322581
exactly exactly 0.9032258
well exactly 0.0322581
exact exactly 0.0322581
Larger Larger 1.0000000
Paul Paul 1.0000000
rushing rushing 1.0000000
crossed crossed 1.0000000
prisoner prisonner 1.0000000
Singing Singing 0.7222222
down Singing 0.0555556
singing Singing 0.2222222
describes describes 1.0000000
instantly instantly 1.0000000
MISTAKE FAULT 1.0000000
rookie rookie 1.0000000
Nissen Nissen 1.0000000
Wall Wall 1.0000000
Everybody Everybody 1.0000000
Morning Morning 1.0000000
satisfactory satisfying 0.5000000
satisfying satisfying 0.5000000
shopper shopper 1.0000000
brilliant briliant 1.0000000
Superficiality Superficiality 1.0000000
licence licence 1.0000000
TAKE PASS 1.0000000
composition composition 1.0000000
government government 0.6250000
is government 0.1250000
will government 0.1250000
purposes government 0.1250000
promotion promotion 1.0000000
kettles kettles 1.0000000
Ready Ready 1.0000000
unhelpful unhelpful 1.0000000
the War 0.2500000
Wars War 0.2500000
World War 0.2500000
War War 0.2500000
depths depths 1.0000000
construction construction 1.0000000
acquaintance acquintance 1.0000000
available availalde 1.0000000
atlases atlases 1.0000000
log lab 0.5000000
lab lab 0.5000000
drawing drowing 1.0000000
can Can 0.0212766
Can Can 0.9787234
unfortunately unfortunetly 1.0000000
Microwave Microvelle 1.0000000
boring annoying 0.0400000
annoying annoying 0.9600000
Teresa Teresa 0.7500000
sincerely Teresa 0.2500000
wicked wicked 1.0000000
's that'is 0.5000000
That that'is 0.5000000
robbed robbed 0.7500000
stolen robbed 0.2500000
duties duties 0.7142857
: duties 0.1428571
duty duties 0.1428571
dance dances 1.0000000
separated seperated 1.0000000
SAVE SAVE 1.0000000
researchers and 0.0001082
at and 0.0001082
of and 0.0001082
an and 0.0003245
Everybody and 0.0001082
was and 0.0001082
but and 0.0007571
slow and 0.0001082
and and 0.9842094
which and 0.0001082
including and 0.0001082
everywhere and 0.0001082
attractive and 0.0001082
close and 0.0001082
as and 0.0002163
, and 0.0007571
or and 0.0027039
. and 0.0005408
so and 0.0003245
push and 0.0001082
workplace and 0.0001082
wear and 0.0001082
a and 0.0001082
'm and 0.0001082
polite and 0.0001082
worrying and 0.0001082
And and 0.0031365
either and 0.0001082
am and 0.0001082
College and 0.0001082
to and 0.0002163
fifteen and 0.0001082
I and 0.0001082
/ and 0.0001082
NULL and 0.0035691
nor and 0.0001082
when and 0.0001082
with and 0.0003245
forever and 0.0001082
quickly quigky 1.0000000
EQUIPMENT EQUIPMENTS 1.0000000
MEDINAH MEDINAH 1.0000000
Auxiliary Auxiliary 1.0000000
group group 0.9325843
club group 0.0112360
's group 0.0112360
stars group 0.0112360
groups group 0.0337079
Useful Useful 1.0000000
receive treatment 0.0909091
manners treatment 0.0909091
treatment treatment 0.8181818
incredibly incredibly 1.0000000
SOON SOON 1.0000000
being redecorating 0.2500000
redecorated redecorating 0.2500000
redecorating redecorating 0.5000000
REFUND REFUND 1.0000000
pushed pushed 1.0000000
indirectly indirectly 1.0000000
Reyes Reyes 1.0000000
made witch 0.1666667
with witch 0.1666667
which witch 0.6666667
800000000 800000000 1.0000000
technologists technologyst 1.0000000
attacks attacts 1.0000000
valleys valleys 0.5000000
the valleys 0.5000000
apparent appearant 1.0000000
Irak Irak 1.0000000
liked constums 1.0000000
answer reply 0.0076336
reply reply 0.9770992
complain reply 0.0152672
now presently 1.0000000
ironing ironings 1.0000000
AFTER AFTER 0.9444444
WHICH AFTER 0.0555556
huge uge 1.0000000
describe describing 0.1666667
description describing 0.1666667
describing describing 0.3333333
rumours describing 0.1666667
about describing 0.1666667
DEEPLY DEEPLY 1.0000000
preferably preferably 1.0000000
DOESN'T DOESN'T 1.0000000
slow slow 1.0000000
Martinez Martinez 1.0000000
GYM GYM 1.0000000
ILL ILL 1.0000000
personality personnality 1.0000000
programs programs 0.5000000
programmes programs 0.5000000
autographed autographied 1.0000000
X X 1.0000000
region region 0.7500000
regions region 0.2500000
secret sicryt 1.0000000
which speciality 0.5000000
speciality speciality 0.5000000
GIVEN GAVE 0.2500000
GAVE GAVE 0.7500000
proposal proposal 0.6666667
reasonably proposal 0.3333333
similar similar 0.9545455
suitable similar 0.0454545
lovely lovly 1.0000000
family familie 1.0000000
experiments experements 1.0000000
drudgery drudgery 1.0000000
Grumman Grumman 1.0000000
brook brook 0.8000000
Brook brook 0.2000000
thousand thousand 0.7500000
thousands thousand 0.2500000
Return Return 1.0000000
downhill downhill 1.0000000
TENNIS TENNIS 1.0000000
Bizen Bizen 1.0000000
Communication communication 0.0400000
communications communication 0.0800000
communication communication 0.8400000
communicate communication 0.0400000
XXXXX XXXXX 1.0000000
pack pack 1.0000000
competition compition 1.0000000
unlucky unlucked 1.0000000
technology technogoly 1.0000000
had haven't 0.0352941
haven't haven't 0.7294118
got haven't 0.0117647
any haven't 0.0117647
did haven't 0.0588235
are haven't 0.0117647
n't haven't 0.1411765
is goverment 0.3333333
government goverment 0.6666667
advising advicing 1.0000000
robot robotor 1.0000000
However Thoug 1.0000000
TALKED TALKED 1.0000000
NULL service 0.0588235
quality service 0.0294118
service service 0.8529412
services service 0.0588235
Rome Rome 1.0000000
OVEN MICROWAVEOVEN 0.5000000
MICROWAVE MICROWAVEOVEN 0.5000000
days beggining 0.0833333
first beggining 0.0833333
beginning beggining 0.6666667
start beggining 0.0833333
with beggining 0.0833333
demonstrated demostrated 1.0000000
Sharyl Sharyl 1.0000000
transport transports 1.0000000
Witte Witte 1.0000000
UP3 UP3 1.0000000
redundant redundant 1.0000000
ski ski 1.0000000
gon gon 0.5000000
was gon 0.5000000
THING THING 0.8181818
SOMETHING THING 0.0909091
POSSIBLE THING 0.0909091
Machines Machines 1.0000000
tills tile 1.0000000
management direction 1.0000000
opportunity posibility 0.5000000
possibility posibility 0.5000000
least important 0.0034965
important important 0.9930070
great important 0.0034965
convince convine 1.0000000
grey grey 1.0000000
Sunday Sanday 1.0000000
items articals 1.0000000
bottled bottled 0.5000000
drunk bottled 0.5000000
hope hop 1.0000000
nursing nursing 1.0000000
rural rural 1.0000000
releases releases 1.0000000
remembered remember 0.0131579
think remember 0.0131579
recount remember 0.0131579
reminded remember 0.0131579
reminds remember 0.0131579
remember remember 0.9210526
remembers remember 0.0131579
Washing Washing 1.0000000
technology tecnologies 0.5000000
but tecnologies 0.2500000
technologies tecnologies 0.2500000
played plaed 1.0000000
Unlike Unlike 1.0000000
angel angle 1.0000000
virus virse 1.0000000
forest rainforest 0.5000000
rain rainforest 0.5000000
