leave left 0.0365854
leave live 0.0164835
leave leave 0.6470588
leave off 0.0128205
leave forget 0.0125000
leave allow 0.0333333
leave sleep 0.0094340
tryed tried 0.0219780
water- water- 1.0000000
BWPM BWPM 1.0000000
hundreds hundreds 0.5833333
min min 1.0000000
min minutes 0.0153846
whole great 0.0020325
whole whole 0.7777778
whole full 0.0168067
Only only 0.0011561
buing buy 0.0028653
buing buying 0.0133333
fashion Fashion 0.0373134
fashion industry 0.0714286
fashion models 0.1666667
fashion style 0.0285714
fashion fashions 0.1979167
fashion clothes 0.0012165
fashion fashionable 0.1034483
fashion fashion 0.9631336
oportunitty opportunity 0.0037594
nt n 0.0039683
nt want 0.0013441
nt &apos;t 0.0038417
nt wanted 0.0034602
nt to 0.0000642
driving driving 0.8000000
evoques addresses 0.5000000
smile smile 0.7272727
fool fool 0.7500000
fool foolish 0.1428571
unplesent unpleasant 0.0322581
comfort comforted 1.0000000
comfort comfort 0.7500000
comfort comforts 0.5000000
affection affection 1.0000000
affection affect 0.0434783
you a 0.0001301
you i 1.0000000
you creates 0.2500000
you you 0.9745941
you You 0.0909091
you arranged 0.0666667
you I 0.0001018
you confess 0.2500000
you provides 0.1111111
you promise 0.0555556
you suggesting 0.1428571
you apologize 0.1666667
you yours 0.0010695
you yourself 0.0416667
you question 0.0109890
you were 0.0006978
you enquire 0.1000000
you NULL 0.0057391
you we 0.0005732
you your 0.0235097
you up 0.0019011
hepl help 0.0027174
ofer offer 0.0416667
european European 0.3333333
ABROAD ABROAD 1.0000000
CENTRE CENTRE 1.0000000
Drama Drama 1.0000000
had been 0.0028986
had repeated 0.2500000
had gave 0.0113636
had occurred 0.1250000
had could 0.0014848
had lived 0.0322581
had would 0.0023593
had came 0.0056818
had supposed 0.0205479
had happened 0.0298507
had do 0.0009950
had experienced 0.0909091
had has 0.0215589
had spoke 0.0526316
had shared 0.1666667
had were 0.0027913
had NULL 0.0160000
had meant 0.2820513
had have 0.0162095
had fixed 0.2000000
had spent 0.0300752
had any 0.0018904
had a 0.0001301
had recommended 0.0833333
had get 0.0018657
had taken 0.0232558
had had 0.8238607
had swam 0.2000000
had hurt 0.0666667
had took 0.0259740
had received 0.0114943
had should 0.0013021
had some 0.0007241
had went 0.0017921
had started 0.0017271
had was 0.0033211
had got 0.0121212
had can 0.0011628
had did 0.0232897
had all 0.0005131
had must 0.0035461
had in 0.0001441
had recovered 0.2500000
had Kozin 0.5000000
had continued 0.1428571
hairstyl hairstyle 0.1428571
amuse amuse 1.0000000
disapointing disappointing 0.0141509
Wood Wood 1.0000000
audients audience 0.0151515
consult consult 1.0000000
paied paid 0.0204082
choue sure 0.0068493
apply reply 0.0129032
apply choose 0.0038462
apply apply 0.8000000
apply take 0.0015576
relantionship relationship 0.0434783
optional optional 0.6666667
Turkish Turkish 1.0000000
interviews interviews 0.6000000
Franscico Franscico 1.0000000
desk office 0.0163934
desk desk 0.9375000
Mc Mc 1.0000000
Lugano Lugano 1.0000000
stooding standing 0.0666667
Ena Ena 1.0000000
detergent detergents 1.0000000
USA USA 0.9803922
rare rare 0.8750000
rare surprising 0.1250000
rare rarely 0.3333333
pease peace 0.0909091
Sanches Sanches 1.0000000
rent rent 1.0000000
rent rented 0.2500000
advertisiment advertisement 0.0013587
novel novel 1.0000000
despide low 0.1000000
despide numbers 0.1250000
despide despite 0.0273973
shapes shape 0.2000000
shapes shapes 1.0000000
scavange scavenge 1.0000000
LETTER LETTER 1.0000000
protecting protecting 1.0000000
helpless helpless 1.0000000
Carmen Carmen 1.0000000
underground underground 0.8000000
GOING GOING 1.0000000
GOING GO 0.0500000
GOING IS 0.0204082
GOING TO 0.0043668
Actualy actually 0.0084034
hurled Olga 0.3333333
hurled hurled 0.5000000
soup soup 0.6666667
robot robot 0.8333333
dramandesly dramatically 1.0000000
ex.boyfriend ex 0.2500000
ex.boyfriend boyfriend 0.0208333
ex.boyfriend - 0.0008961
recone reckon 0.3333333
Smythe Smythe 1.0000000
chanse chance 0.0060606
chilldren children 0.0241935
coudn n 0.0007937
coudn could 0.0014848
videos videos 0.8000000
production production 0.4545455
production finished 0.0075188
production invention 0.0666667
production product 0.0769231
misterious mysterious 0.4000000
THOSE THOSE 1.0000000
Gapon Gapon 1.0000000
marks makes 0.0106383
marks marks 1.0000000
marks &apos; 0.0002838
marks Mark 0.1250000
hates hates 0.6666667
cards cards 0.7272727
depression depression 0.6000000
tank tank 1.0000000
apolygists apology 0.1428571
regrets regrets 0.5000000
collegues colleagues 0.2000000
tidy tidy 0.7272727
tidy tidying 0.5000000
centainly sincerely 0.0018553
successive successive 1.0000000
congratulations congratulations 0.8571429
congratulations congratulating 0.3333333
congratulations letter 0.0014925
funny fun 0.0909091
funny funniest 0.5000000
funny funny 0.9428571
Diving Diving 1.0000000
constat constat 1.0000000
carrier carrier 0.5000000
risk famous 0.0036364
risk risks 0.3333333
risk danger 0.1538462
risk risk 0.8888889
risk NULL 0.0001739
ôDo ôDo 1.0000000
assistant assistant 0.6857143
assistant cleaner 0.0833333
s Hillsborough 0.3333333
s panties 0.1111111
s , 0.0001127
s peace 0.0909091
s are 0.0018051
s Spears 0.2000000
s July 0.0016502
s ll 0.0129310
s nonsense 0.2000000
s re 0.0092593
s Faithfully 0.0370370
s has 0.0016584
s curiouses 0.5000000
s 1900s 0.2857143
s NULL 0.0189565
s of 0.0006372
s be 0.0010316
s impolite 0.1666667
s advanced 0.0555556
s a 0.0002601
s you 0.0001503
s duties 0.1428571
s relationship 0.0434783
s closure 0.3333333
s was 0.0013984
s technology 0.0015748
s is 0.0052296
s Oasis 0.1428571
s 30s 0.3333333
s the 0.0000559
s introduces 0.2500000
s s 0.8834877
s flowers 0.1111111
s names 0.0909091
s vault 0.2500000
s skipping 0.3333333
s accepting 0.1666667
s VIPs 0.3333333
s list 0.0327869
s keeps 0.0769231
s PCs 0.2857143
s its 0.0958904
s goal 0.3333333
s abilities 0.2857143
ACTOR ACTOR 1.0000000
WHERE WHERE 1.0000000
adore adore 1.0000000
symplifying being 0.0043478
symplifying simplified 0.3333333
father father 0.9620253
father grandfather 0.2500000
Mafalda Mafalda 1.0000000
andy handiest 0.5000000
competitive competitive 0.5000000
1998 1998 1.0000000
schol school 0.0013850
Dance Dance 0.6666667
Segovia Segovia 1.0000000
grade grade 1.0000000
grade glad 0.0095238
CONSIDER CONSIDER 1.0000000
shaked shook 0.2500000
conserve conserve 1.0000000
fluid fluid 1.0000000
fluid the 0.0000559
CLASS CLASS 1.0000000
butterfly butterfly 1.0000000
stations stations 0.8000000
warming warming 1.0000000
achievements achievements 1.0000000
IMPORTANT IMPORTANT 0.7500000
condition are 0.0004513
condition working 0.0086207
condition order 0.0067114
condition situation 0.0312500
condition regarding 0.0074627
condition making 0.0138889
condition conditions 0.3333333
condition healthy 0.0555556
condition condition 0.7142857
structure structure 1.0000000
bring tells 0.0555556
bring taking 0.0121951
bring bringing 0.3750000
bring brings 0.1250000
bring take 0.0140187
bring give 0.0022422
bring emphasise 0.3333333
bring create 0.0303030
bring brought 0.0384615
bring should 0.0013021
bring bring 0.9062500
bring NULL 0.0001739
bring gave 0.0113636
bring have 0.0002494
bring cause 0.0312500
bring carried 0.1250000
confidence confidence 0.5000000
aid aid 1.0000000
figuring figuring 1.0000000
guess guess 0.9444444
guess NULL 0.0001739
qualities quality 0.0232558
qualities films 0.0090909
Prince Prince 1.0000000
Laisure Leisure 0.0073529
venue venue 0.3333333
barbecue barbecue 1.0000000
killed killed 0.8235294
mourning mourning 1.0000000
WEATHER WEATHER 1.0000000
costed cost 0.0967742
Eglish English 0.0067114
Whateaver whatever 0.0256410
whatoever whatsoever 0.1666667
B. B. 1.0000000
Really Really 1.0000000
night night 0.9615385
night nights 0.0666667
night evening 0.0037037
night nightclub 0.5000000
night nightclubs 0.5000000
night nightlife 0.5000000
night midnight 0.2000000
empty empty 1.0000000
yourselfö yourselfö 1.0000000
magesins magazines 0.1111111
dwarves dwarves 1.0000000
prevents prevents 1.0000000
grant give 0.0022422
fed fed 1.0000000
enjyoi enjoy 0.0036232
Brunner Brunner 0.8000000
Brunner s 0.0007716
Brunner &apos; 0.0002838
Brunner songs 0.0400000
waste wasting 0.2307692
waste NULL 0.0001739
waste waste 0.6904762
waste wasted 0.0952381
waste wastes 0.5000000
nightmares nightmares 1.0000000
Accordingly Accordingly 1.0000000
fruits fruit 1.0000000
fruits fruits 1.0000000
STAGE STAGE 0.8333333
beforehand beforehand 0.1428571
PROMISE PROMISED 0.5000000
bear endure 0.3333333
bear bear 0.5714286
Ourdays nowadays 0.0071942
an underwear 0.1111111
an to 0.0001927
an compensation 0.0588235
an electricity 0.0714286
an action 0.0769231
an another 0.0556901
an some 0.0028965
an politician 0.1000000
an arguments 0.2500000
an incredibly 0.1111111
an produce 0.0476190
an and 0.0017144
an accommodation 0.0168776
an invitation 0.0769231
an an 0.7772152
an immediate 0.1250000
an my 0.0002373
an service 0.0303030
an conclude 0.0416667
an as 0.0004824
an you 0.0001503
an announcement 0.2500000
an appointments 0.5000000
an any 0.0018904
an a 0.0049428
an accept 0.0204082
an NULL 0.0017391
an inconvenience 0.1000000
an plan 0.0196078
an the 0.0010615
an one 0.0009551
an can 0.0005814
an shared 0.1666667
attituds attitudes 0.4000000
TRIP TRIP 1.0000000
owe owe 1.0000000
Schmidt Schmidt 1.0000000
snowing snowing 1.0000000
operation operations 0.3333333
operation operation 0.6666667
pink pink 1.0000000
attraction the 0.0000559
attraction attraction 0.4000000
attraction &apos; 0.0002838
attraction attention 0.0147059
attraction s 0.0007716
enjoys enjoys 0.5000000
enjoys does 0.0072993
enjoys pleases 1.0000000
Danny star 0.0243902
Danny Danny 0.9975787
Danny said 0.0025316
notified notified 1.0000000
issue solutions 0.1428571
issue issue 0.6666667
widest widest 1.0000000
Peines Peines 1.0000000
helping helping 0.8834951
helping help 0.0244565
helping helped 0.0081301
increases increases 0.6666667
differente in 0.0001441
differente different 0.0021459
P.C. PC 0.1111111
click click 1.0000000
booked made 0.0041841
booked booked 0.9090909
ealary early 0.0277778
ealary days 0.0042017
damage damage 1.0000000
timetable timetable 0.5625000
timetable timetables 1.0000000
timetable performance 0.0111111
timetable time 0.0013652
regret regrettable 0.5000000
regret regret 1.0000000
Are Are 1.0000000
Are are 0.0009025
surrounded surrounded 0.6666667
stars stars 0.8505747
easily easy 0.0117647
easily easier 0.0169492
easily easily 0.8163265
Wapons weapons 0.1250000
YOU YOU 0.9793814
YOU you 0.0003007
YOU NULL 0.0001739
crowd audience 0.0151515
crowd crowd 0.5882353
crowd mad 0.0769231
crowd crowded 0.0392157
crowd crowds 0.2352941
Colston Colston 1.0000000
she she 0.9796163
she if 0.0006798
she about 0.0004593
she mine 0.0256410
she he 0.0023781
she it 0.0004722
she her 0.0069252
she we 0.0002866
fathers &apos; 0.0002838
fathers father 0.0126582
fathers her 0.0013850
fathers s 0.0007716
robotes robots 0.1111111
DAILY DAILY 0.8888889
kinds kind 0.0028329
kinds kinds 0.5750000
kinds different 0.0021459
kinds NULL 0.0001739
Europeen European 0.3333333
block block 1.0000000
forever for 0.0006804
forever forever 0.9000000
forever ever 0.0275229
shoot should 0.0013021
shoot shoot 1.0000000
affordable range 0.0833333
affordable affordable 0.5000000
affordable out 0.0018975
affordable price 0.0068027
informations information 0.1121951
inasmuch NULL 0.0001739
GETS GETS 1.0000000
observations observations 1.0000000
regularly regularly 0.8888889
regularly have 0.0002494
ignore ignore 1.0000000
ignore &apos;t 0.0003842
ignore anything 0.0050000
ignore know 0.0010010
ignore n 0.0003968
discouraging us 0.0015625
discouraging discouraging 1.0000000
quotas quota 1.0000000
quotas of 0.0001593
quotas tickets 0.0038168
quotas a 0.0001301
dressing present 0.0149254
dressing dressing 0.5555556
dressing dress 0.0588235
coffees coffee 0.0434783
operating operating 0.5000000
of , 0.0001127
of &apos; 0.0051078
of outside 0.0149254
of physics 0.3333333
of toilets 0.3333333
of on 0.0106693
of 2.30 0.5000000
of developments 0.1428571
of running 0.0555556
of at 0.0083360
of regarding 0.0223881
of he 0.0011891
of for 0.0179179
of away 0.0131579
of frenetically 0.3333333
of fuss 0.3333333
of to 0.0046246
of among 0.0434783
of has 0.0016584
of account 0.0666667
of or 0.0008368
of start 0.0035211
of of 0.9017046
of Switzerland 0.1250000
of have 0.0002494
of NULL 0.0436522
of hour 0.0107527
of concerning 0.0384615
of 2050 0.5000000
of being 0.0043478
of a 0.0005203
of replace 0.1250000
of abuse 0.3333333
of about 0.0165365
of students 0.0024272
of as 0.0014472
of be 0.0003439
of agreeing 0.5000000
of I 0.0002036
of good 0.0008696
of Jam 0.2000000
of into 0.0057803
of we 0.0005732
of Savage 0.3333333
of aluminium 0.5000000
of enthusiast 0.5000000
of should 0.0013021
of no 0.0025126
of off 0.0641026
of renovation 0.0666667
of toothpaste 0.3333333
of within 0.0416667
of than 0.0048662
of etc 0.0117647
of was 0.0003496
of decoration 0.1666667
of Of 0.3333333
of there 0.0011514
of from 0.0103761
of citizen 0.3333333
of limit 0.2000000
of with 0.0100319
of repairs 0.1111111
of lacking 0.5000000
of receipt 0.2000000
of fact 0.0050505
of bookworms 0.3333333
of in 0.0126783
of featuring 0.5000000
of the 0.0001117
of between 0.0095238
of organise 0.0256410
of these 0.0049505
of mid 0.3333333
of distracted 0.2000000
of s 0.0092593
of overpriced 0.3333333
of maintenance 0.2500000
of more 0.0009251
of Brunner 0.2000000
of electrician 0.5000000
of she 0.0023981
of lacks 0.5000000
of by 0.0141243
haves have 0.0002494
Teachers teachers 0.0109890
eaqual equal 1.0000000
reccomend recommend 0.0222222
OVER Over 0.0046729
OVER OVER 1.0000000
lest least 0.0121951
7.00 at 0.0003206
7.00 7.00 0.2500000
BORNETE BORNETE 1.0000000
tittle title 0.0909091
apineon opinion 0.0042553
rarely rarely 0.6666667
sociaple sociable 0.1666667
unforturnily unfortunately 0.0034722
directions direction 0.5000000
alcohol alcohol 0.8000000
alcohol drink 0.0181818
whay why 0.0029155
Rescently recently 0.0090090
seaman seaman 1.0000000
offered asked 0.0032154
offered advertised 0.0156250
offered promised 0.0112360
offered invited 0.0454545
offered offered 0.7297297
quarter headquarters 0.5000000
quarter quarter 1.0000000
PRIVACY ANY 0.1250000
PRIVACY . 0.0000416
PRIVACY PRIVACY 1.0000000
someting something 0.0023364
suspended suspension 0.3333333
suspended suspended 1.0000000
behaveare behaviour 0.0666667
beeing majority 0.0454545
beeing being 0.0130435
beeing narrow 0.3333333
Hampson Hampson 1.0000000
Buenos Buenos 1.0000000
lady lady 1.0000000
Fanetti Fanetti 1.0000000
corrected corrected 1.0000000
Price price 0.0068027
chef chef 0.7058824
candidates candidates 0.6666667
link link 1.0000000
harvest harvest 1.0000000
tools tools 1.0000000
lifestyle lifestyle 0.1290323
holyday holiday 0.0029674
competitors competitors 1.0000000
Saturdays Saturdays 1.0000000
theart theatre 0.0015649
opinion opinion 0.8340426
opinion positive 0.0416667
opinion opinions 0.1388889
opinion NULL 0.0003478
opinion mind 0.0125000
opinion vision 1.0000000
GIVEN GIVEN 0.5000000
extraordinary extraordinary 0.8888889
extraordinary an 0.0012658
emptiness emptiness 1.0000000
connecting connecting 0.6000000
connecting by 0.0014124
connecting liaise 1.0000000
sales sell 0.0312500
sales saleswomen 0.3333333
sales sales 0.4705882
mins mins 1.0000000
mins minutes 0.0038462
consciousness consciously 1.0000000
birthday birthday 0.9600000
machines machines 0.7800000
machines transportation 0.1428571
machines appliances 0.1818182
machines technology 0.0015748
drove drove 1.0000000
drove had 0.0005120
DANGER DANGER 1.0000000
entered entered 0.7142857
entered onto 0.0909091
entered got 0.0030303
entered won 0.0034602
entered arrived 0.0088496
entered came 0.0056818
entered went 0.0017921
ACCOMODATION A 0.0085470
ACCOMODATION ACCOMMODATION 0.6666667
ivited invited 0.0227273
Rolling Rolling 1.0000000
guaranteed guaranteed 0.3333333
assess assess 1.0000000
assess which 0.0008475
conflict conflict 0.5000000
yous you 0.0001503
viseted visited 0.0243902
viseted have 0.0002494
viseted we 0.0002866
outdoors outdoor 0.0909091
outdoors outdoors 0.1666667
schoolyard schoolyard 0.2500000
effectly effectively 0.1666667
noisy noisy 1.0000000
thier their 0.0049342
theartre theatre 0.0015649
analize analyse 0.6666667
analize analyze 1.0000000
staffs staff 0.0675676
staffs staffs 1.0000000
apologation apology 0.1428571
matter another 0.0024213
matter whether 0.0344828
matter NULL 0.0001739
matter matters 0.0714286
matter matter 0.9454545
matter thing 0.0022272
together with 0.0009120
together NULL 0.0001739
together fine 0.0175439
together them 0.0011947
together sex 0.2500000
together together 0.9367089
together went 0.0017921
together well 0.0021692
together piece 0.0454545
extremities extremes 0.5000000
ricer rice 0.5000000
Lise Lise 1.0000000
wrongly wrongly 1.0000000
microwaver microwave 0.0400000
faithfull faithful 0.3333333
faithfull faithfully 0.0062500
landscapes landscapes 1.0000000
landscapes landscape 0.2500000
buyers buyers 1.0000000
unreliable misleading 0.1250000
Aguilar Aguilar 1.0000000
greetings greetings 0.7500000
presents shows 0.0129870
presents presents 1.0000000
presents etc 0.0117647
inverviews interviews 0.2000000
ay ay 1.0000000
paradise paradise 1.0000000
CAMP CAMP 1.0000000
.. . 0.0005409
.. .. 1.0000000
.. &quot; 0.0006086
leaking a 0.0001301
leaking leak 0.3333333
flats flats 1.0000000
shoppers shoppers 1.0000000
proposal proposal 0.6666667
proposal reasonably 0.0175439
1874 1874 1.0000000
HAPPEN HAPPENS 1.0000000
competence competition 0.0036630
Lula Lula 1.0000000
catching catching 0.6000000
catching drawing 0.0555556
exitement excitement 0.1250000
la la 1.0000000
tempereture the 0.0000559
tempereture temperature 0.0666667
Carter Carter 1.0000000
coffee cafe 0.2500000
coffee coffee 0.7826087
GIVE TO 0.0043668
GIVE GIVE 1.0000000
YOUNGER YOUNGER 1.0000000
wise wise 1.0000000
wise why 0.0029155
wise clever 0.1111111
portable portable 1.0000000
Upper Upper 1.0000000
P.S P.S 1.0000000
criticised criticised 0.5000000
functional functional 1.0000000
SANTOS SANTOS 1.0000000
teachs teaches 0.1666667
hollydays holiday 0.0059347
hollydays holidays 0.0188679
complaints complaints 0.4375000
complaints complaint 0.0454545
LOVER LOVER 1.0000000
adjusted adjusted 1.0000000
FUTURE FUTURE 1.0000000
mews mews 1.0000000
blue blue 1.0000000
Angles Angles 1.0000000
George George 1.0000000
sickle sickle 1.0000000
between from 0.0038911
between including 0.0277778
between between 0.9142857
between either 0.0147059
between of 0.0003186
between open 0.0123457
between combination 0.3333333
President President 1.0000000
centuries centuries 0.8333333
VIRTUAL VIRTUAL 1.0000000
rush rush 0.8000000
vegetables vegetables 1.0000000
FRIENDLY FRIENDLY 1.0000000
coffe coffee 0.1304348
DISCOVERIES DISCOVERIES 1.0000000
umpleasant unpleasant 0.0322581
WILL IF 0.0400000
WILL BE 0.0277778
WILL WILL 0.8571429
beggining with 0.0004560
beggining start 0.0035211
beggining first 0.0010309
beggining beginning 0.0963855
beggining NULL 0.0001739
16.12.00 16.12.00 1.0000000
affecting affecting 0.7500000
probleme problem 0.0089686
wark work 0.0025510
DENNY DENNY 1.0000000
BOOKMARKS BOOKMARKS 1.0000000
modorate moderate 1.0000000
guarantee guaranteed 0.1666667
cross them 0.0011947
cross cross 1.0000000
HOUSES HOUSES 1.0000000
Lecce Lecce 1.0000000
saying anyone 0.0156250
saying saying 0.8409091
saying said 0.0025316
saying giving 0.0192308
saying say 0.0081081
saying telling 0.0434783
elements elements 1.0000000
elements facts 0.1000000
addmission admission 0.2222222
sence sense 0.2500000
Helena Helena 0.5000000
Dinner Dinner 1.0000000
impresionist era 0.3333333
impresionist impressionist 1.0000000
Skoclow Skoclow 1.0000000
Rossell Rossell 1.0000000
credibility credibility 1.0000000
beauty beauty 1.0000000
canalized canalized 1.0000000
CENTURY CENTURY 1.0000000
houe Houe 1.0000000
houe how 0.0022396
economic beginning 0.0120482
economic the 0.0000559
economic economic 0.6666667
politics politics 1.0000000
politics into 0.0057803
DISAPPOINTMENT DISAPPOINTMENT 1.0000000
requirement request 0.0256410
requirement requirement 1.0000000
COMMUNICATE COMMUNICATE 1.0000000
particurely particular 0.0169492
settled set 0.0434783
settled settled 0.5000000
settled presented 0.0555556
Bola Bola 1.0000000
oppotunity opportunity 0.0225564
haue how 0.0011198
matters thing 0.0022272
matters classmates 0.0185185
matters matters 0.8571429
ecxpenetion explanation 0.0454545
rung rang 0.1250000
leisur leisure 0.0096154
19,00 19,00 1.0000000
350 350 1.0000000
afforded it 0.0001574
afforded afford 0.0370370
Thanasukolwit Thanasukolwit 1.0000000
knifes knives 1.0000000
work homework 0.0175439
work job 0.0333333
work , 0.0000564
work career 0.0769231
work work 0.8877551
work task 0.1538462
work worked 0.0434783
work boss 0.0666667
work housework 0.1600000
work works 0.0833333
work woke 0.1250000
work labour 1.0000000
work working 0.0775862
work repairs 0.1111111
carried carry 0.0270270
carried carried 0.3750000
prouves prove 0.1111111
bottom bottom 1.0000000
disease diseases 0.1250000
disease disease 1.0000000
accused accused 1.0000000
beleave believe 0.0048309
guards guards 1.0000000
ENJOY ENJOY 1.0000000
acodimy academy 1.0000000
577 577 1.0000000
MODELS MODELS 1.0000000
CHANGED HAS 0.0500000
CHANGED CHANGED 1.0000000
paper NULL 0.0001739
paper newspaper 0.0181818
paper piece 0.0454545
paper note 0.0909091
paper part 0.0041494
paper flyer 0.1111111
paper paper 0.8857143
practising playing 0.0184049
practising training 0.0454545
practising doing 0.0150000
practising practise 0.0370370
practising been 0.0014493
practising would 0.0003370
practising practising 0.4444444
DEVELOPEMENT DEVELOPMENT 1.0000000
10.30 10.30 1.0000000
PROVIDING PROVIDING 1.0000000
protection protection 1.0000000
MINUTES MINUTES 1.0000000
Arnos Arnos 1.0000000
quantity quantity 1.0000000
quantity number 0.0175439
enarmys enemy 0.5000000
Oscar Oscar 1.0000000
dictionary dictionary 0.5000000
servive survive 0.0625000
5th 5th 1.0000000
Steve Steve 1.0000000
earned earned 0.8333333
earned had 0.0005120
earned won 0.0034602
policeman policeman 0.6666667
sorprise surprise 0.0243902
depressing depressing 1.0000000
Deli Deli 1.0000000
dreams dream 0.0185185
dreams dreams 0.8125000
fortyfive - 0.0008961
fortyfive forty 0.0129870
fortyfive five 0.0068966
leisure we 0.0002866
leisure leisure 0.9230769
leisure free 0.0033445
leisure hobby 0.0322581
leisure leisure- 1.0000000
leisure Leisure 0.0147059
leisure fun 0.0064935
looks looks 0.7647059
looks looked 0.0350877
looks look 0.0023753
fulled full 0.0168067
superstar superstar 1.0000000
Julay in 0.0001441
Julay July 0.0016502
dated date 0.0217391
dated our 0.0007943
dated update 0.2500000
dated dated 1.0000000
Messages Messages 1.0000000
Lune Lune 1.0000000
musicians musicians 0.9583333
nylon nylon 1.0000000
ping ping 1.0000000
asked talked 0.0212766
asked question 0.0109890
asked asked 0.9067524
asked ask 0.0254042
asked asking 0.0131579
rewritten replied 0.2000000
Savage Savage 0.3333333
sides sides 0.8000000
sides side 0.0232558
houers hours 0.0099010
FAMOUS FAMOUS 1.0000000
master master 1.0000000
Univercity university 0.0281690
fitting fitting 0.7142857
report report 1.0000000
tiket ticket 0.0107143
expanding expanding 1.0000000
comunicat communicating 0.3333333
sailed sailed 1.0000000
crashes crashes 0.5000000
individuell individual 0.2500000
8245123 8245123 1.0000000
everything it 0.0001574
everything all 0.0010262
everything anything 0.0050000
everything everything 0.7933673
Cecilia Cecilia 1.0000000
take taking 0.1219512
take carry 0.0270270
take sunbathe 0.3333333
take do 0.0019900
take tell 0.0020367
take hold 0.0909091
take fly 0.1000000
take participate 0.0714286
take should 0.0026042
take something 0.0023364
take opt 1.0000000
take play 0.0053191
take put 0.0068027
take understand 0.0071429
take took 0.0389610
take pick 0.1000000
take form 0.0714286
take get 0.0149254
take taken 0.0465116
take receive 0.0126582
take takes 0.0952381
take keep 0.0059880
take will 0.0009766
take take 0.8878505
take make 0.0076336
take consider 0.0113636
take talk 0.0059524
take considering 0.0384615
take bring 0.0089286
take include 0.0303030
take NULL 0.0003478
take have 0.0012469
take refused 0.0769231
take cause 0.0312500
take choose 0.0038462
unsuitable unsuitable 1.0000000
Volavkova Volavkova 1.0000000
nationalities nationalities 0.3571429
neve never 0.0024096
invended have 0.0002494
invended invented 0.0454545
THE NUCLEAR 0.5000000
THE ONE 0.0909091
THE UNIVERSITY 0.5000000
THE DO 0.0555556
THE THE 0.9433428
THE THIS 0.0263158
THE SCHOOL 0.1818182
THE MAINLY 0.2500000
THE AFTER 0.0714286
THE FACTORIES 0.5000000
THE FORTUNE 0.5000000
THE MODERN 0.0909091
THE PEOPLE 0.0434783
THE DEEP 0.5000000
THE TELEVISION 0.3333333
THE HUMAN 0.2000000
THE A 0.0341880
THE IT 0.0229885
THE LAST 0.0588235
THE SCIENCE 0.2000000
THE COMPUTERS 0.2500000
THE the 0.0001117
THE SADLY 0.5000000
THE NULL 0.0010435
tight right 0.0077519
CABINS CABIN 0.4000000
micros micros 1.0000000
Alois Alois 1.0000000
MEN MEN 1.0000000
likely want 0.0013441
likely probably 0.0158730
likely likely 0.7777778
whork work 0.0025510
Solatov Solatov 1.0000000
funds had 0.0005120
funds funds 0.5000000
hesistate hesitate 0.0434783
tall tall 0.9090909
tall tell 0.0101833
pizzas pizzas 1.0000000
Reale Reale 1.0000000
saturday Saturday 0.1551724
TV TV 0.7684211
TV TVs 1.0000000
sit seat 0.1666667
sit sit 0.8461538
sit sitting 0.0303030
sit sat 0.1111111
sit enter 0.0312500
sit seats 0.0434783
closest closest 1.0000000
closest close 0.0156250
progresses advances 0.0769231
thankful grateful 0.0408163
thankful thankful 1.0000000
15th 15th 0.9565217
Simona Simona 0.5000000
athmospher atmosphere 0.0322581
Hunter Hunter 1.0000000
accompanying accompanying 0.5000000
heay heavy 0.0370370
cozy cosy 0.5000000
hygienic hygiene 0.5000000
arts Arts 0.0273973
arts arts 0.9428571
haen n 0.0003968
haen had 0.0005120
FLY FLY 1.0000000
preciate appreciate 0.0379747
preciate would 0.0003370
preciate your 0.0004198
guiter guitar 0.0666667
cats cats 1.0000000
Carey Carey 1.0000000
knocked knocked 1.0000000
forgot had 0.0010241
forgot forget 0.0375000
forgot forgot 0.8125000
forgot left 0.0121951
forgot forgotten 0.3076923
Luc Luc 1.0000000
1996 1996 1.0000000
Kyon Kyon 1.0000000
discouns discounts 0.0033223
punishing journalists 0.0107527
punishing by 0.0014124
punishing punishing 1.0000000
6277 6277 1.0000000
confusion confusion 0.8000000
confusion much 0.0013021
Company Company 1.0000000
T.V. . 0.0000416
T.V. front 0.0140845
T.V. a 0.0001301
T.V. T.V. 1.0000000
T.V. TV 0.0421053
accesoires accessories 0.2000000
garments garments 1.0000000
departament department 0.0476190
basical basic 0.1000000
sun son 0.0909091
sun sun 1.0000000
sun sunrise 0.5000000
advantages are 0.0004513
advantages advantages 0.9230769
advantages well 0.0021692
advantages advantage 0.0285714
Rod Rod 1.0000000
duo duet 1.0000000
firm industry 0.0714286
firm firm 1.0000000
solace consolation 1.0000000
jelous jealous 0.1250000
comfortable than 0.0024331
comfortable easier 0.0084746
comfortable comfortable 0.7051282
comfortable pleasant 0.0294118
comfortable past 0.0119048
nesessary necessary 0.0163934
mentiones mentions 0.5000000
3CD 3CD 1.0000000
indefense defenceless 1.0000000
shoudn should 0.0026042
shoudn n 0.0007937
shoudn shoudn 1.0000000
DELAYED WAS 0.0086207
DELAYED DELAYED 1.0000000
equal equally 0.5000000
equal like 0.0003931
shout shout 1.0000000
shout at 0.0006412
examined examined 1.0000000
semester semester 1.0000000
BAND BAND 1.0000000
/ / 0.9939024
fashionable types 0.1000000
fashionable fashionable 0.6206897
questioning carefully 0.0500000
questioning asking 0.0131579
crash crash 1.0000000
turnament tournament 0.2500000
already actually 0.0084034
already starts 0.0200000
already a 0.0001301
already this 0.0004645
already still 0.0064516
already yet 0.0416667
already recovered 0.2500000
already really 0.0011351
already organised 0.0126582
already already 0.8978102
already soon 0.0027027
already watched 0.0476190
already awake 0.5000000
already NULL 0.0003478
already organized 0.0263158
Stanford Stanford 1.0000000
defeat defeat 1.0000000
immediately an 0.0012658
immediately immediately 0.6388889
sitted sat 0.1111111
focus focus 0.5714286
camping camped 0.3333333
camping tent 0.0029762
camping holiday 0.0059347
camping campsite 0.5000000
camping camping 0.9024390
camping camp 0.0051546
decisions decisions 0.7500000
packed packed 1.0000000
black black 0.9285714
masters masters 1.0000000
masters do 0.0004975
Ms Dear 0.0008237
Ms Madam 0.0041494
Ms Ms 0.8983051
reports reports 0.5714286
Unfourtunately unfortunately 0.0034722
SUCH SUCH 1.0000000
hateful hateful 1.0000000
drank drank 1.0000000
grinned grinned 1.0000000
disappoint disappoint 0.5000000
disappoint disappointed 0.0128617
disappoint disappointment 0.0392157
disappoint NULL 0.0001739
disappoint disappointing 0.0094340
meaby maybe 0.0078740
leakage leak 0.3333333
failing your 0.0004198
failing failing 0.8000000
door outdoor 0.0909091
door entrance 0.0208333
door door 0.9574468
Rules rules 0.0062893
knots knots 1.0000000
knots , 0.0000564
1999 ) 0.0034843
1999 1999 0.6666667
1999 spring 0.5000000
TRAVEL TRAVEL 1.0000000
state stated 0.0384615
state stage 0.0202703
state states 0.1000000
state state 0.7692308
state provide 0.0392157
bathroom bathroom 1.0000000
precisions things 0.0017065
done met 0.0111111
done calculator 0.2000000
done tried 0.0109890
done conducted 0.2500000
done entered 0.0714286
done did 0.0160116
done had 0.0005120
done carried 0.1250000
done been 0.0057971
done booked 0.0454545
done done 0.7786885
done organised 0.0126582
done created 0.0500000
done taken 0.0232558
done doing 0.0150000
done given 0.0219780
done made 0.0167364
done started 0.0017271
done occur 0.2000000
done a 0.0002601
done do 0.0019900
Kimber Kimber 1.0000000
dismay dismay 1.0000000
Lap Lap 1.0000000
initial initial 1.0000000
WITH IN 0.0120482
WITH TO 0.0043668
WITH WITHOUT 0.1666667
WITH NULL 0.0001739
WITH ME 0.0200000
WITH WITH 0.8620690
WITH HIM 0.1666667
xxxx xxxx 1.0000000
generous generous 1.0000000
ugly ugly 1.0000000
September September 0.9130435
Turner Turner 1.0000000
REALIZED REALIZED 1.0000000
&apos;Arena &apos;Arena 1.0000000
greede greedy 0.3333333
cultural cultural 0.9230769
vacation vacation 0.7812500
wite write 0.0047847
imagintive imaginative 0.5000000
UNICEF UNICEF 1.0000000
eles else 0.0101010
june june 1.0000000
june June 0.0159363
X300 X300 1.0000000
software software 0.3333333
Jessica Jessica 1.0000000
my NULL 0.0034783
my the 0.0009497
my suggestions 0.0161290
my distracted 0.2000000
my of 0.0001593
my I 0.0004071
my mismatched 0.5000000
my me 0.0062281
my by 0.0014124
my my 0.9741338
my mine 0.0512821
my any 0.0018904
my a 0.0010406
my many 0.0022075
my jumped 0.0769231
my suitable 0.0140845
my your 0.0008396
my myself 0.0542636
my on 0.0004850
my relax 0.0200000
my our 0.0007943
my to 0.0001285
my My 0.1666667
my disappointment 0.0196078
my relaxing 0.0370370
Micheal Micheal 1.0000000
recognises recognises 1.0000000
U.S &apos; 0.0002838
U.S U.S 1.0000000
U.S s 0.0007716
bulk bulk 1.0000000
guiters guitars 0.2000000
nervously nervously 1.0000000
pill pill 1.0000000
guiding guiding 1.0000000
guiding guided 0.3333333
equipated equipped 0.2500000
equipated - 0.0008961
proove prove 0.1111111
accommodations accommodation 0.0126582
teenagers those 0.0066667
teenagers teenage 0.4000000
teenagers teenagers 0.8461538
teenagers teenager 0.0909091
teenagers a 0.0001301
yard schoolyard 0.2500000
yard yard 1.0000000
withou without 0.0031250
independence dependent 0.1250000
independence independence 0.6666667
independence us 0.0015625
toothpaste toothpaste 0.6666667
p.c p.c 1.0000000
receiving received 0.0057471
receiving receiving 0.8113208
receiving receive 0.0506329
45min 45 0.0089286
45min minutes 0.0038462
STYLISTS DESIGNERS 1.0000000
STYLISTS STYLISTS 1.0000000
executive executive 0.6666667
technologi technology 0.0047244
comprehensible understanding 0.0555556
Changed Changed 1.0000000
KNOWNS KNOWN 0.5000000
KNOWNS - 0.0008961
CHOSEN CHOSEN 0.3333333
Dick Dick 1.0000000
acommodation accommodation 0.0126582
highway highway 1.0000000
&apos;M &apos;M 0.9565217
tolerate tolerate 1.0000000
meet met 0.0333333
meet meeting 0.1666667
meet have 0.0002494
meet meet 0.8829787
meet find 0.0029412
meet into 0.0057803
meet see 0.0039422
faitfull faithfully 0.0031250
motives motives 1.0000000
Jovi Jovi 1.0000000
connection bridge 0.3333333
connection connection 0.6666667
connection consequently 0.0476190
kim kim 1.0000000
Jon Jon 1.0000000
possibilities possibilities 0.7142857
possibilities opportunities 0.3333333
possibilities options 0.1000000
swot swot 1.0000000
kept drawn 0.3333333
kept keep 0.0179641
kept kept 0.8181818
kept were 0.0006978
kept grabbed 0.5000000
kept out 0.0018975
PERFECT AS 0.0400000
PERFECT PERFECT 1.0000000
seventeen seventeen 1.0000000
Central Central 0.9583333
intended intended 0.6666667
YES YES 1.0000000
wecting watching 0.0200000
rescued rescued 0.5000000
pianist pianist 1.0000000
Han Han 1.0000000
sits seats 0.0869565
art arts 0.0571429
art show 0.0005764
art artistic 0.5000000
art art 0.9589041
art Art 0.0200000
driming dreaming 0.1111111
heal heal 1.0000000
faints fence 1.0000000
Wednesday Wednesday 0.9125000
Seoul Seoul 1.0000000
mashine machine 0.0303030
fokes folks 1.0000000
shoked shocked 0.0416667
cat cat 0.5000000
cat the 0.0000559
technologic technological 0.0666667
subjekt subject 0.0185185
weaker weaker 1.0000000
John immediately 0.0277778
John John 0.9642857
elite elite 1.0000000
rearrange rearrange 1.0000000
happ happy 0.0033223
Jan Jan 1.0000000
Catana Catana 1.0000000
Catana home 0.0026596
survival survival 0.7500000
MARIA MARIA 1.0000000
librarians librarians 1.0000000
Javi Javi 1.0000000
mid mid 0.6666667
mid midnight 0.2000000
Candoso Candoso 1.0000000
pubblic public 0.0227273
marvellous marvellously 1.0000000
marvellous amazed 0.1666667
marvellous marvellous 0.8076923
fasion fashion 0.0046083
institute institute 1.0000000
WAY WAY 1.0000000
newspaper newspapers 0.1363636
newspaper newspaper 0.9272727
Oh Oh 0.8666667
Oh oh 0.5000000
TRUE TRUE 1.0000000
Cd CD 0.0769231
Cd CDs 0.1428571
Cd - 0.0008961
hanging hanging 0.5000000
hanging hang 0.2000000
voice voices 0.5000000
voice &apos; 0.0002838
voice voice 1.0000000
honestly honestly 0.8000000
honestly honest 0.0625000
screens screens 1.0000000
conclussion conclusion 0.0093458
posipole and 0.0001008
Incas Incas 1.0000000
developments developments 0.4285714
Adalbert Adalbert 1.0000000
lunchbreak lunch 0.0277778
lunchbreak break 0.0185185
CHANCE CHANCE 0.7500000
happened got 0.0030303
happened was 0.0003496
happened discovered 0.0384615
happened happened 0.7462687
happened happen 0.1458333
happened happens 0.0588235
happened event 0.0129870
happened put 0.0068027
happened NULL 0.0001739
happened so 0.0005414
happened happening 0.0384615
perpare prepare 0.0169492
expreience experience 0.0027397
Hamlet Hamlet 1.0000000
sailling sailing 0.0114943
stollen stolen 0.0833333
celabrations celebrations 1.0000000
TITANIC TITANIC 1.0000000
tiny tiny 1.0000000
dissopointness disappointment 0.0196078
graveyards plots 1.0000000
graveyards graveyard 1.0000000
Metro Metro 1.0000000
Mechanical Mechanical 1.0000000
Redford Redford 1.0000000
diffences differences 0.0714286
infrom give 0.0022422
crystal crystal 0.5000000
PHOTOGRAPHS PHOTOGRAPHS 1.0000000
lacked lacking 0.5000000
oxygen oxygen 1.0000000
festivals festivals 1.0000000
revealed exposed 1.0000000
revealed revealed 0.5000000
supposted was 0.0001748
supposted supposed 0.0068493
GETING GETING 1.0000000
spoil spoil 1.0000000
like enjoy 0.0036232
like NULL 0.0019130
like that 0.0001884
like choose 0.0038462
like liked 0.1440678
like Ted 0.0833333
like appeal 0.1428571
like as 0.0202605
like about 0.0009187
like treasure 0.1666667
like consider 0.0113636
like paralyzed 0.5000000
like though 0.0098039
like walking 0.0185185
like example 0.0044248
like but 0.0003685
like likes 0.2173913
like 100 0.0142857
like are 0.0004513
like like 0.9579403
like to 0.0000642
like foolish 0.1428571
like with 0.0004560
like love 0.0029326
like there 0.0005757
like want 0.0107527
like part 0.0041494
like wanted 0.0034602
like standard 0.1000000
galleries galleries 0.5000000
8.25 8.25 1.0000000
mn minutes 0.0038462
falls falls 1.0000000
receved received 0.0114943
SOMEONE SOMEONE 1.0000000
emphasis emphasis 0.7500000
REPLY REPLY 1.0000000
felling falling 0.2500000
felling feeling 0.0232558
XIX XIX 1.0000000
button button 0.7777778
locked and 0.0001008
locked locked 1.0000000
Year Year 0.6666667
artist art 0.0136986
artist artist 1.0000000
artist artists 0.1074380
familiare familiar 0.1428571
desire who 0.0016920
desire desire 0.6363636
supply satisfy 0.1428571
supply supplied 1.0000000
supply supply 1.0000000
Korn Korn 1.0000000
concret concrete 0.3333333
persuade persuade 1.0000000
dust dust 1.0000000
expert expert 1.0000000
topics areas 0.0833333
topics topics 1.0000000
topics facts 0.1000000
topics subjects 0.0434783
describes describes 1.0000000
questions questions 0.9009901
questions answers 0.0344828
questions question 0.0109890
questions some 0.0007241
questions information 0.0024390
pricing ticket 0.0035714
pricing price 0.0068027
pricing of 0.0001593
laisers lasers 0.5000000
IMPRESSED IMPRESSED 1.0000000
YEARS YEARS 1.0000000
secrects secrets 0.0082305
enougher other 0.0014225
enougher another 0.0024213
backyard backyard 1.0000000
motive motive 1.0000000
adversitement advertisement 0.0013587
schoked shocked 0.0416667
gentlemen men 0.0238095
gentlemen gentlemen 1.0000000
depands depends 0.0416667
Hifi hi 0.0322581
Hifi fi 0.2500000
Hifi - 0.0008961
comfatable comfortable 0.0064103
adjectives adjectives 1.0000000
murder murderer 0.3333333
murder murder 1.0000000
graceful graceful 1.0000000
proclaimed proclaimed 1.0000000
recommending recommending 1.0000000
failure inaccurate 0.1428571
failure replaced 0.0212766
failure been 0.0014493
evite save 0.0256410
Annette Annette 1.0000000
wellknown - 0.0008961
wellknown well 0.0021692
wellknown known 0.0140845
SEE SEE 1.0000000
inovation innovations 0.1666667
tired tired 0.8703704
Last Last 0.3333333
YEAR YEAR 1.0000000
UNIVERSE UNIVERSE 1.0000000
THONGCHAI THONGCHAI 1.0000000
unlimited unlimited 1.0000000
Brian Brian 1.0000000
differend different 0.0021459
reguard regards 0.0196078
hiring working 0.0086207
confusing there 0.0005757
confusing confused 0.1428571
confusing confusing 1.0000000
whenever whenever 0.8620690
stg drink 0.0181818
dissapointing disappointing 0.0141509
dissapointing was 0.0001748
curing cure 0.1428571
curing thing 0.0022272
fasions fashions 0.0208333
attempted attended 0.0303030
Age Age 1.0000000
Age Ages 1.0000000
sticks sticks 1.0000000
Privat private 0.0089286
José José 1.0000000
justice justice 1.0000000
justice courts 0.3333333
pretended pretended 1.0000000
screen screen 1.0000000
practise practising 0.1111111
practise do 0.0039801
practise practise 0.3703704
practise practice 0.4000000
practise get 0.0018657
practise some 0.0007241
practise play 0.0132979
practise practical 0.0625000
aproting approaching 0.5000000
ALMODAR ALMODAR 1.0000000
sincinerly sincerely 0.0018553
sincinerly Ki 0.2500000
misteries mysteries 1.0000000
admission admission 0.4444444
pony pony 1.0000000
paiment payment 0.2000000
establishments establishments 1.0000000
extended extended 0.5000000
mosquitoss mosquitoes 0.3333333
missunderstood misunderstood 1.0000000
Pal Pal 1.0000000
respectivelly respectively 1.0000000
nesseceraly necessary 0.0163934
searching searching 0.6666667
searching for 0.0002268
searching research 0.0555556
km km 1.0000000
Orel Orel 1.0000000
reward compensation 0.0588235
reward reward 0.7500000
cravers addicts 0.2500000
depents depends 0.0416667
hamburgers hamburgers 1.0000000
Crete Crete 1.0000000
fought they 0.0006039
fought thought 0.0050251
fought fought 0.7500000
we WE 0.0204082
we NULL 0.0008696
we us 0.0062500
we we 0.9773574
we Emma 0.2500000
we in 0.0001441
we fail 0.1250000
we We 0.4000000
we none 0.0454545
we with 0.0004560
we I 0.0000509
we there 0.0011514
we would 0.0003370
we she 0.0011990
we they 0.0018116
we do 0.0004975
we you 0.0003007
we being 0.0043478
buttons buttons 0.3333333
8 8 1.0000000
theather theatre 0.0046948
There There 1.0000000
dissision decision 0.0312500
Camps campsites 0.5000000
Camps before 0.0026455
Camps Camps 0.6666667
artists artists 0.8677686
exlaimed exclaimed 1.0000000
comparing compared 0.2857143
comparing comparing 0.8000000
greatfull grateful 0.0204082
Farydone Farydone 1.0000000
games athletics 0.5000000
games games 0.8636364
Marc Marc 1.0000000
resposbillity responsibility 0.0625000
time timetable 0.1250000
time chance 0.0060606
time once 0.0520833
time performance 0.0777778
time moment 0.0227273
time period 0.0322581
time event 0.0129870
time when 0.0013652
time turn 0.0250000
time cheerful 0.3333333
time Catherine 0.1250000
time there 0.0005757
time slot 0.5000000
time summertime 0.5000000
time year 0.0028090
time times 0.1428571
time NULL 0.0055652
time hour 0.0107527
time it 0.0001574
time the 0.0000559
time now 0.0019920
time rest 0.0151515
time late 0.0055556
time time 0.9331058
time recording 0.5000000
time quickly 0.0129870
time historical 0.2500000
time month 0.0033003
time as 0.0004824
time analysis 0.2000000
time freedom 0.0555556
time delay 0.0588235
time lunchtime 0.4000000
time point 0.0076923
time while 0.0054348
unneccessary unnecessary 0.2500000
petrified petrified 1.0000000
Benedito Benedito 1.0000000
husband husband 1.0000000
propably probably 0.0158730
unsatisfactory unsatisfactory 0.6000000
siend inside 0.0232558
leaft left 0.0121951
assignments assignments 1.0000000
todays today 0.0246914
todays s 0.0015432
todays &apos; 0.0005675
half half 1.0000000
half 50 0.0588235
headline headline 1.0000000
circle circle 0.8000000
circle Circle 0.0186335
buffet buffet 0.5000000
older longer 0.0833333
older older 1.0000000
HOLIDAY HOLIDAY 0.4000000
excellently excellently 1.0000000
David David 1.0000000
gans guns 0.1666667
unperfect imperfect 0.5000000
volleyball volleyball 0.3750000
posticipated postponed 0.5000000
fishing fishing 0.8888889
Manager Madam 0.0041494
Manager Manager 0.8644068
cartoons NULL 0.0001739
cartoons cartoons 1.0000000
hairdryers hairdryers 1.0000000
downstairs downstairs 0.6666667
shoes shoes 0.9218750
Chwa Chwa 1.0000000
vanish vanish 1.0000000
medecine medicine 0.1000000
shine shine 1.0000000
deciced decided 0.0041322
hills hills 1.0000000
curriculum curriculum 0.5000000
method way 0.0030395
method methods 0.2000000
method method 0.2000000
department department 0.8571429
resistant resistant 1.0000000
lab log 0.0032258
lab lab 1.0000000
upseting upsetting 0.5000000
lose wasted 0.0476190
lose lose 0.7200000
lose waste 0.0714286
lose missed 0.0476190
lose loss 0.2000000
lose my 0.0002373
lose miss 0.0444444
technical technical 0.6428571
technical good 0.0008696
technical tangible 0.5000000
how about 0.0013780
how as 0.0019296
how ways 0.0158730
how what 0.0353038
how heart 0.0666667
how whatever 0.0256410
how however 0.0054645
how how 0.9574468
how who 0.0016920
how now 0.0039841
how the 0.0000559
how whether 0.0172414
how why 0.0029155
how NULL 0.0010435
panfulet pamphlet 1.0000000
scalding scalding 1.0000000
puzzle puzzles 1.0000000
cousins cousins 1.0000000
seek sought 1.0000000
seek seek 1.0000000
seek sick 0.0769231
chats chats 1.0000000
chats rooms 0.0400000
chats chat 0.0434783
blossam blossom 1.0000000
office agent 0.2500000
office office 0.8688525
mother mother 1.0000000
mother grandmother 0.1304348
mother another 0.0024213
circumsenses circumstances 0.0909091
level level 0.7916667
level ) 0.0034843
level successful 0.0454545
level standard 0.3000000
level proficiency 0.8571429
level cost 0.0322581
level degree 0.2000000
essences essences 1.0000000
How &quot; 0.0006086
How How 1.0000000
How What 0.0714286
How how 0.0067189
How what 0.0008210
notebooks notebooks 0.3333333
fainthfully faithfully 0.0031250
obey respond 0.5000000
obey obey 1.0000000
Village Village 1.0000000
tutor tutor 0.5000000
decoration redecoration 0.1666667
decoration decor 0.6666667
decoration decoration 0.8333333
FINISHING FINISHING 1.0000000
category type 0.0192308
-Over -Over 1.0000000
CLEARLY CLEARLY 1.0000000
tracked tracked 1.0000000
appliaces appliances 0.0909091
enrolled enrolled 1.0000000
asketball basketball 0.0051546
AGAINST AGAINST 1.0000000
chosen choosing 0.0344828
chosen booked 0.0454545
chosen chose 0.0243902
chosen chosen 0.6329114
sack sacked 1.0000000
terms terms 0.6666667
desicion decision 0.0312500
spreaded spread 0.0909091
intentions intentions 1.0000000
shattered shattered 1.0000000
RULES RULES 1.0000000
sochibal social 0.0588235
tru true 0.0260870
Winkler Winkler 1.0000000
plant plant 1.0000000
plant plants 0.1666667
plant planet 0.1666667
Landen Landen 1.0000000
thirties thirties 1.0000000
sophisticated sophisticated 1.0000000
chemical chemical 1.0000000
needlessly needlessly 1.0000000
evidently evidently 1.0000000
catched caught 0.0909091
bossy bossy 1.0000000
Saint Saint 1.0000000
Russian Russian 1.0000000
knowing acquiring 0.2500000
knowing knew 0.0048544
knowing about 0.0004593
knowing knowing 0.8500000
knowing know 0.0020020
14.30 at 0.0006412
14.30 14.30 0.8888889
taste preferences 0.0833333
taste rude 0.1000000
taste taste 0.5555556
combines combines 1.0000000
practcing playing 0.0061350
1600 1600 1.0000000
Pen pen 0.1428571
volenteer volunteer 0.1000000
Unfortunatety unfortunately 0.0034722
colaborated help 0.0027174
romatic romantic 0.2000000
togetherness togetherness 1.0000000
necesary necessary 0.0163934
QUICK QUICK 0.5000000
rainbow Rainbow 0.0965517
rainbow rainbow 0.9878049
Personnaly personally 0.0322581
10.00am 10.00am 1.0000000
itself itself 0.7391304
itself develops 0.1666667
desited decided 0.0041322
Nuria Nuria 1.0000000
Because because 0.0018622
NICE NICE 1.0000000
sock the 0.0000559
sock stock 0.2500000
solders soldiers 0.3333333
agreeded agreed 0.0370370
During during 0.0025707
During We 0.2000000
secure safer 0.1333333
secure secure 1.0000000
secure safe 0.1818182
destructed destroyed 0.1428571
WELL well 0.0021692
WELL WELL 1.0000000
moun moon 0.0833333
: dresses 0.0909091
: call 0.0181818
: Make 0.5000000
: pm 0.0338983
: : 0.9559118
: oven 0.0666667
: photography 0.0072993
: , 0.0003382
: Manager 0.0169492
: lately 0.5000000
: . 0.0003328
: basketball 0.0051546
: NULL 0.0006957
: Jane 0.0181818
: 18.30 0.3333333
: ; 0.0138889
IS WAS 0.0086207
IS IS 0.9183673
IS AM 0.0555556
IS NULL 0.0001739
IS ABOUT 0.0400000
4&apos;th 4th 0.5000000
few fewer 0.1000000
few too 0.0022936
few a 0.0041623
few few 0.8860104
few little 0.0208333
few pieces 0.3333333
few one 0.0009551
few small 0.0063694
few short 0.0111111
filling filling 1.0000000
presumably Presumably 1.0000000
Atos Atos 1.0000000
VISIT VISITING 0.3333333
VISIT VISIT 1.0000000
entering coming 0.0188679
entering join 0.0256410
entering entering 0.4000000
entering operating 0.5000000
technicians technicians 0.5000000
Iternet Internet 0.0052083
smokers smokers 1.0000000
explained things 0.0017065
explained told 0.0145833
explained one 0.0009551
explained described 0.2307692
explained to 0.0003854
explained explained 0.8571429
particulary practically 0.2000000
particulary particularly 0.0540541
intrusion intrusion 0.5000000
intrusion an 0.0012658
starrings stars 0.0172414
accurately accurately 0.5000000
revenge revenge 1.0000000
revenge vengeance 1.0000000
idea ideal 0.1111111
idea ideas 0.0714286
idea NULL 0.0003478
idea plan 0.0196078
idea opinion 0.0042553
idea &apos;t 0.0003842
idea ambition 0.3333333
idea idea 0.9653680
Chicago Chicago 1.0000000
entrance it 0.0001574
entrance ticket 0.0035714
entrance fee 0.2000000
entrance entry 0.0714286
entrance entrance 0.6458333
entrance admission 0.1111111
entrance entered 0.0357143
entrance an 0.0012658
believ believe 0.0048309
stadium stadium 1.0000000
methods technology 0.0031496
methods methods 0.8000000
welcoming welcoming 0.5000000
indicate you 0.0001503
indicate tell 0.0020367
indicate state 0.0769231
indicate indicate 1.0000000
See sea 0.0238095
comfortible comfortable 0.0064103
diffrently differently 0.1666667
seat seats 0.1304348
seat seat 0.7083333
repetitions rehearsals 0.5000000
behaviour thing 0.0022272
behaviour behaviour 0.4000000
behaviour approach 0.2500000
behaviour making 0.0138889
spessial special 0.0156250
Rodriguez Rodriguez 1.0000000
cousin cousin 0.9666667
January January 1.0000000
Ortiz Ortiz 1.0000000
mothers mothers 0.8333333
offices offices 0.8000000
esspecially great 0.0020325
Michael Michael 1.0000000
fantactic fantastic 0.0140845
CONSIDERED CONSIDERED 1.0000000
NEWS NEWS 0.5000000
numertable numertable 1.0000000
idler idler 1.0000000
communication the 0.0000559
communication communications 0.2857143
communication communication 0.7352941
communication communicate 0.0250000
comments comments 0.8571429
WINNER WINNER 1.0000000
DAYS DAYS 1.0000000
permision permission 0.0666667
stead instead 0.0099502
transports transport 0.1052632
producers producers 1.0000000
expenses expenses 0.6785714
Agda Agda 1.0000000
2000 1900s 0.1428571
2000 2000 0.9937107
cruel cruel 1.0000000
therapi therapies 1.0000000
electronical the 0.0000559
electronical electronic 0.1176471
electronical electronically 1.0000000
bird bird 1.0000000
fifteeth the 0.0000559
fifteeth fifteenth 0.3333333
exhiting exciting 0.0080000
programms programmes 0.2857143
Svessen Svessen 1.0000000
hussle hassle 1.0000000
ggitares guitars 0.2000000
PREPAIRING PACK 1.0000000
Threatre Theatre 0.0059524
assistent assistant 0.0285714
unlikly unlikely 0.3333333
Meyer Meyer 1.0000000
nonsense nonsense 0.6000000
couple couple 0.9459459
couple a 0.0005203
totaly totally 0.1739130
climp climb 0.0384615
Otto Otto 1.0000000
2050 2050 0.5000000
horse horse 1.0000000
higher higher 0.6666667
1 1 1.0000000
competed competed 1.0000000
vararity styles 0.0476190
BROCHURE BROCHURE 1.0000000
Mam Madam 0.0041494
PROBLEM PROBLEM 1.0000000
Romans Romans 1.0000000
maths maths 0.7600000
dressed formal 0.0909091
dressed dress 0.0588235
dressed dressed 0.6666667
WICH WHICH 0.1176471
after once 0.0104167
after NULL 0.0003478
after at 0.0003206
after for 0.0004536
after all 0.0005131
after according 0.0120482
after late 0.0055556
after also 0.0020534
after when 0.0020478
after in 0.0004322
after after 0.9723032
after now 0.0019920
after later 0.0450450
after behind 0.0500000
after our 0.0007943
after before 0.0026455
after neglect 0.3333333
after by 0.0042373
after finally 0.0027174
after then 0.0024038
after afterwards 0.2702703
expacted had 0.0005120
expacted planned 0.0192308
preparing preparing 0.8076923
preparing prepare 0.0338983
preparing for 0.0006804
preparing arranging 0.3333333
unpredicted thing 0.0022272
unpredicted unexpected 0.1666667
irish Irish 1.0000000
astonish astonished 0.1250000
Countryside Countryside 1.0000000
tour tour 0.8125000
tour tournament 0.2500000
tour trip 0.0167364
tour circle 0.1000000
tour Golf 0.0500000
Go Go 1.0000000
Go go 0.0008803
child children 0.0241935
child child 0.9827586
Mom Mum 0.2000000
Mom Mom 0.6666667
sexy sexy 1.0000000
bury bury 1.0000000
oppertunate opportunity 0.0037594
fireplace fireplace 0.3333333
solder soldier 0.5000000
solder soldiers 0.3333333
hich hitchhiking 0.3333333
audience largest 0.3333333
audience people 0.0006983
audience audience 0.6363636
CHANGING CHANGING 0.6666667
offering offering 0.6666667
offering offers 0.0714286
offering giving 0.0192308
Eminem Eminem 1.0000000
abilities skills 0.0344828
abilities abilities 0.7142857
abilities ability 0.0909091
kiss kiss 1.0000000
Tito Tito 1.0000000
photo photo 0.7500000
photo photos 0.1000000
photo photography 0.0072993
changements changes 0.0149254
inspiration inspiration 0.5000000
sets sets 0.6666667
somary somary 1.0000000
Japan Japan 1.0000000
die die 0.9375000
die died 0.1176471
bugglar burglar 0.1666667
fuzy fussy 0.5000000
transformations renovation 0.0666667
November November 1.0000000
19 18.30 0.1666667
19 19.00 0.0227273
19 19.30 0.0081301
19 and 0.0001008
19 19 1.0000000
19 7 0.0833333
Boris Boris 1.0000000
inventions inventions 0.7647059
compliated complicated 0.0833333
compliated a 0.0001301
ôbest ôbest 1.0000000
forwart forward 0.0015083
forwart am 0.0005189
Lausanne Lausanne 1.0000000
G.C.S.E. G.C.S.E.s 1.0000000
Prisuntha Prisuntha 1.0000000
certainly really 0.0011351
certainly certainly 0.8787879
beans beans 1.0000000
needing needing 1.0000000
Vaisili Vaisili 1.0000000
BAG BAG 1.0000000
wery very 0.0004153
MP3 MP3 1.0000000
FCE FCE 1.0000000
widen widen 1.0000000
widen we 0.0002866
skipped skipped 1.0000000
programming programming 0.6666667
Nokia Nokia 1.0000000
consequences predicament 1.0000000
consequences consequences 0.7500000
convience convenient 0.0232558
ASDA ASDA 1.0000000
degased degased 1.0000000
GAYARRE GAYARRE 1.0000000
signed signed 1.0000000
defences defend 0.5000000
centers centres 0.3125000
centers gyms 0.6666667
centers centers 1.0000000
POSSIBLE POSSIBLE 0.7000000
huging hugging 1.0000000
Sobczak Sobczak 1.0000000
Discount Discount 1.0000000
profecional professional 0.0476190
temperature &apos; 0.0002838
temperature temperature 0.9333333
temperature body 0.0526316
efficiency efficiency 1.0000000
established established 1.0000000
whed that 0.0001884
newest newest 1.0000000
newest s 0.0007716
newest latest 0.0090090
Quess guess 0.0277778
piece play 0.0053191
piece news 0.0098039
piece work 0.0025510
piece piece 0.3636364
piece peace 0.1818182
satelite satellite 0.1666667
satelite dish 0.5000000
authography autograph 0.1538462
Trainning Training 1.0000000
spekers speakers 0.1111111
RUMOUR RUMOUR 1.0000000
heared heard 0.0097087
heared hear 0.0056818
robes skirts 0.1052632
COLLECTION COLLECTION 1.0000000
WANNA WILL 0.0476190
WANNA TO 0.0043668
WANNA WANT 0.0714286
exaggerated exaggerated 1.0000000
wath watch 0.0253165
FAULT MISTAKE 1.0000000
ground group 0.0107527
ground floor 0.0666667
ground ground 1.0000000
informing informative 0.5000000
informing me 0.0003893
informing us 0.0015625
informing informed 0.0263158
informing informing 0.9166667
activite activity 0.0080000
50 50 0.9411765
blond blond 1.0000000
enbelievable it 0.0001574
enbelievable unbelievable 0.0909091
enbelievable was 0.0001748
girlfriend girlfriend 0.7368421
Photography Photography 1.0000000
Photography photography 0.0291971
accurate precise 0.2500000
accurate accurate 0.4000000
Albert Albert 1.0000000
gases gases 1.0000000
setted meant 0.0256410
stone stone 0.3333333
EXPRIME EXPRESS 0.5000000
observing observing 1.0000000
observing and 0.0001008
sweeping sweep 0.3333333
busier busier 1.0000000
jacket jacket 1.0000000
prises prices 0.0285714
deceiving disappointment 0.0196078
deceiving deceiving 0.5000000
Santiago Santiago 1.0000000
petrel powered 1.0000000
petrel petrol 0.3333333
petrel - 0.0008961
impostor impostor 1.0000000
indicating indicating 1.0000000
secreats secrets 0.0041152
Gibson Gibson 1.0000000
arouses arouses 1.0000000
dirt dirt 1.0000000
accomodated up 0.0019011
accomodated put 0.0068027
accomodated accommodated 0.3333333
classmates classmates 0.5000000
classmates our 0.0007943
renovation renovation 0.2666667
morever moreover 0.0073529
companions classmates 0.0185185
realized realized 0.9705882
realized held 0.0487805
realized organized 0.0263158
realized realize 0.0526316
realized realise 0.0909091
diffrent different 0.0150215
diffrent those 0.0066667
Euro Euro 1.0000000
dosen n 0.0003968
dosen does 0.0072993
housework housework 0.3600000
reference concerning 0.0128205
reference reference 0.9629630
page page 1.0000000
hepful helpful 0.0416667
memorisize memorise 1.0000000
TECNICAL TECHNICAL 1.0000000
decrease decrease 1.0000000
decrease amount 0.0263158
decrease deteriorated 0.5000000
decrease decreases 1.0000000
decrease to 0.0000642
gon gon 1.0000000
gon was 0.0001748
Robber Robber 1.0000000
nuture nature 0.0113636
called get 0.0018657
called called 0.9117647
called Minolta 0.5000000
called calling 0.1666667
called Westlife 0.2500000
ALREADY A 0.0085470
ALREADY REALLY 0.0500000
ALREADY ALREADY 1.0000000
fals false 0.0625000
FATHER FATHER 1.0000000
happines happiness 0.0769231
ôseveralö ôseveralö 1.0000000
Martial Martial 1.0000000
Science science 0.0138889
Science visiting 0.0172414
Science Science 0.9489796
unexpected unexpected 0.5000000
Matthias Matthias 1.0000000
Ortega Ortega 1.0000000
needless needless 1.0000000
motorbike motorbike 0.6000000
capable capable 0.8000000
exiting exiting 1.0000000
exiting exciting 0.0720000
exiting excited 0.0198020
James James 1.0000000
lifeguard lifeguard 1.0000000
Angela Angela 1.0000000
expansion expansion 1.0000000
homes homes 0.7962963
homes they 0.0006039
homes home 0.0053191
homes like 0.0003931
delights delights 1.0000000
astounded astounded 1.0000000
golf golf 0.8378378
throughs breakthroughs 0.5000000
pounds pounds 1.0000000
pounds £ 0.0117647
usual normal 0.0512821
usual often 0.0101010
usual usual 0.7777778
usual NULL 0.0001739
usual ordinary 0.0344828
Homes Homes 1.0000000
requires requires 0.5000000
handsome handsome 0.6363636
theatres theatres 1.0000000
somewhat somewhat 1.0000000
analaising analysing 1.0000000
mapy maybe 0.0078740
though so 0.0010828
though still 0.0064516
though this 0.0004645
though though 0.7156863
though tough 0.2000000
though thought 0.0703518
though over 0.0070922
though through 0.0147059
presence absence 0.2000000
presence presence 1.0000000
Newest Newest 1.0000000
seething seething 1.0000000
succeeded succeeded 0.7500000
succeeded successful 0.0454545
center Centre 0.2000000
center center 1.0000000
center centre 0.2777778
prototypes prototypes 1.0000000
Berne Berne 1.0000000
laundry laundry 1.0000000
Fun fun 0.0064935
2.00 2.00 1.0000000
determined decided 0.0041322
set sets 0.3333333
set up 0.0038023
set arrange 0.0370370
set devised 1.0000000
set arranged 0.0666667
set set 0.8695652
helpul helpful 0.0416667
awoke awoke 1.0000000
TELEVISION TELEVISION 0.6666667
European European 0.3333333
Wishes Wishes 1.0000000
restarrant restaurant 0.0020534
contains offers 0.0714286
contains contain 0.3333333
contains consists 0.1666667
contains contains 1.0000000
stupied stupid 0.0555556
chore chore 1.0000000
IMPOSSIBLE IMPOSSIBLE 1.0000000
painters painters 1.0000000
spheres spheres 1.0000000
Kind kind 0.0028329
disappointment disappointing 0.0047170
disappointment why 0.0029155
disappointment disappointment 0.6274510
disappointment disappointed 0.0032154
jackets jackets 0.8000000
career ; 0.0046296
career career 0.6923077
pose pose 1.0000000
Faithully faithfully 0.0031250
anymore again 0.0052083
anymore NULL 0.0003478
anymore anymore 0.8333333
raquet racquet 1.0000000
cheer cheer 0.5000000
lovers lovers 1.0000000
lovers love 0.0029326
group club 0.0277778
group group 0.9139785
group stars 0.0057471
group groups 0.1363636
group s 0.0007716
mum mum 0.9259259
mum your 0.0004198
mum because 0.0003724
dictionnary dictionary 0.5000000
movil mobile 0.0120482
Sersuwan Sersuwan 1.0000000
grandpa grandpa 1.0000000
ôsuch ôsuch 1.0000000
Championship Championship 1.0000000
smellt melt 0.5000000
BRUL BRUL 1.0000000
beetween between 0.0095238
claim calm 0.0625000
claim claim 0.8000000
opionion opinion 0.0042553
BARE BEAR 1.0000000
michrophones microphones 0.0555556
luxurious luxurious 0.8571429
Sweating Sweating 1.0000000
clase close 0.0156250
users users 1.0000000
Tudela Tudela 1.0000000
hiding hiding 1.0000000
sperate separately 0.5000000
garenteed guaranteed 0.1666667
Ryam Ryam 1.0000000
vocabulary vocabulary 1.0000000
groupe group 0.0107527
Ruter Ruter 1.0000000
proof fireproof 0.5000000
proof waterproof 0.3333333
proof proof 0.8333333
builders on 0.0004850
builders building 0.0303030
builders sites 0.5000000
harm harm 1.0000000
harm harming 1.0000000
third third 0.9696970
following future 0.0044053
following according 0.0120482
following coming 0.0188679
following fall 0.1111111
following doing 0.0050000
following following 0.8918919
following requested 0.0416667
following next 0.0027027
following follow 0.0312500
crucial important 0.0034014
crucial crucial 1.0000000
souvenir memories 0.0769231
reiceve have 0.0002494
POSSIBILITY CHANCE 0.2500000
POSSIBILITY POSSIBILITY 1.0000000
keys keys 1.0000000
numbers NULL 0.0001739
numbers plays 0.0105263
numbers numbers 0.6250000
destination destination 1.0000000
easiest easiest 0.7142857
easiest easier 0.0169492
wash wash 0.9583333
wash washing 0.0769231
wash their 0.0016447
attened attended 0.0303030
protein proteins 1.0000000
beautifull beautiful 0.0246914
Australia Australia 1.0000000
gates Gates 1.0000000
aditional additional 0.0833333
colaborate collaborate 1.0000000
luky enough 0.0062112
disappear disappear 1.0000000
disappear disappears 1.0000000
disappear disappeared 0.1250000
disappear up 0.0019011
disappear break 0.0185185
attestation &apos; 0.0002838
attestation note 0.0454545
attestation s 0.0007716
zap zap 1.0000000
HALL HALL 1.0000000
desease diseases 0.2500000
anouncement advertisement 0.0027174
awake awake 0.5000000
colaboration cooperation 0.3333333
bigest greatest 0.0500000
throat throat 1.0000000
accusations accusations 1.0000000
laboratery laboratory 0.1666667
frighten frightened 0.3000000
unaware unaware 1.0000000
anybody nobody 0.0235294
anybody anybody 1.0000000
happily happily 0.8000000
tossed tossed 1.0000000
paralyzed paralyzed 0.5000000
Koh Koh 1.0000000
tune tune 0.3333333
CAUGHT CAUGHT 1.0000000
DEVELOPE DEVELOP 0.5000000
holidy holiday 0.0029674
floors floors 1.0000000
love look 0.0023753
love love 0.9530792
love loves 0.2000000
love lover 0.1818182
love loved 0.0606061
interresting interested 0.0065359
interresting interesting 0.0175439
extras extras 0.5000000
progres progress 0.0400000
keep treasure 0.1666667
keep provide 0.0196078
keep storing 1.0000000
keep kept 0.0454545
keep keep 0.9041916
keep have 0.0002494
keep keeps 0.2307692
keep get 0.0018657
keep stay 0.0023866
since when 0.0034130
since after 0.0029155
since in 0.0004322
since till 0.0322581
since and 0.0001008
since NULL 0.0005217
since for 0.0004536
since increased 0.1111111
since since 0.9441860
since as 0.0009648
since advanced 0.0555556
since repairs 0.1111111
since long 0.0039841
since doing 0.0050000
since from 0.0051881
ins ins 1.0000000
TELLING TELLING 1.0000000
cancelled cancelled 0.6666667
cancelled cancel 0.2500000
close short 0.0111111
close lock 0.6666667
close crowded 0.0196078
close intransigent 0.3333333
close imprison 1.0000000
close closes 0.2000000
close keep 0.0059880
close shorter 0.2000000
close near 0.0121951
close finish 0.0188679
close closed 0.0214797
close clothes 0.0024331
close close 0.7500000
sunglasses sunglasses 1.0000000
sespend suspension 0.3333333
sespend on 0.0004850
god god 1.0000000
WHICH WHICH 0.5294118
faster faster 0.9183673
insist insist 0.7500000
rode rode 1.0000000
web create 0.0303030
web website 0.2500000
web web 1.0000000
Radio Radio 1.0000000
Thankeaw you 0.0001503
Thankeaw thank 0.0022124
retailors retailers 0.2500000
Herald Herald 1.0000000
INSTALLED INSTALLED 1.0000000
basketball basketball 0.8092784
suitcase suitcase 1.0000000
privately privately 0.5000000
dancers the 0.0000559
dancers dancers 0.8333333
eighteen eighteen 1.0000000
Before Before 1.0000000
Before . 0.0000416
Before before 0.0026455
TUESDAY TUESDAY 1.0000000
bend band 0.0161290
savings sales 0.0588235
savings savings 0.5000000
labels labels 1.0000000
EACH EACH 1.0000000
spots spots 1.0000000
courese course 0.0088889
conclusuon conclusion 0.0093458
ENTRY TICKETS 0.1666667
ENTRY PRICE 0.2500000
ENTRY OF 0.0090909
sunshuin sunshine 0.3333333
sunshuin means 0.0153846
Cambrigge for 0.0002268
Cambrigge Cambridge 0.0909091
Cambrigge studying 0.0156250
raid raid 1.0000000
Hubert Hubert 1.0000000
too extremely 0.0256410
too so 0.0010828
too far 0.0114943
too too 0.9197248
too late 0.0111111
too either 0.0294118
too also 0.0010267
too really 0.0011351
too NULL 0.0001739
too including 0.0277778
too technique 0.1666667
too a 0.0003902
too two 0.0017452
too exaggerating 0.3333333
too very 0.0033223
too dream 0.0185185
too break 0.0185185
too to 0.0001927
decorating decorating 0.8333333
decorating decorate 0.1000000
decorating refurbishment 0.2000000
compounds compounds 1.0000000
Cheung Cheung 1.0000000
charachters characters 0.0588235
Mariah Mariah 1.0000000
innacuracies inaccuracies 0.2500000
S. S. 1.0000000
notices news 0.0196078
notices some 0.0007241
WOULDN WOULDN 1.0000000
WOULDN HAVE 0.0204082
lorries lorries 1.0000000
lorries lorry 1.0000000
independent independent 1.0000000
lately lately 0.5000000
lately later 0.0090090
lately recently 0.0180180
Charles Charles 1.0000000
Mourk Mourk 1.0000000
grow grow 0.7500000
grow NULL 0.0001739
grow growing 0.0833333
grow individually 0.3333333
grow grew 0.0909091
CANNOT CANNOT 0.7500000
Lodge Lodge 1.0000000
EXAM EXAM 0.7500000
incorrect wrong 0.0123457
incorrect incorrect 1.0000000
siriale serious 0.0400000
Dragon Dragon 1.0000000
litte little 0.0069444
cosmetic cosmetics 1.0000000
&apos; sees 0.3333333
&apos; difference 0.0833333
&apos; abolutely 0.3333333
&apos; UNDER 0.5000000
&apos; Hillsborough 0.3333333
&apos; duties 0.1428571
&apos; FANS 0.4000000
&apos; HOMEWORK 0.2500000
&apos; are 0.0018051
&apos; closure 0.3333333
&apos; expected 0.0090090
&apos; &apos; 0.9372872
&apos; SELLING 0.2000000
&apos; politeness 0.5000000
&apos; with 0.0009120
&apos; has 0.0016584
&apos; stone 0.3333333
&apos; was 0.0026219
&apos; do 0.0004975
&apos; classmates 0.0185185
&apos; would 0.0010111
&apos; away 0.0131579
&apos; belong 0.1111111
&apos; Oasis 0.1428571
&apos; 30s 0.3333333
&apos; 1900s 0.2857143
&apos; introduces 0.2500000
&apos; the 0.0000559
&apos; NULL 0.0443478
&apos; skipping 0.3333333
&apos; of 0.0001593
&apos; 3,700-metre 0.3333333
&apos; vault 0.2500000
&apos; &apos;D 0.5000000
&apos; nationalities 0.0714286
&apos; : 0.0010020
&apos; VIPs 0.3333333
&apos; am 0.0010379
&apos; Harrodss 0.5000000
&apos; will 0.0019531
&apos; PCs 0.2857143
life wildlife 0.5000000
life whole 0.0069444
life am 0.0005189
life society 0.0263158
life alive 0.2000000
life nature 0.0227273
life lifestyle 0.3870968
life lifestyles 0.4000000
life ever 0.0091743
life life 0.9646302
life lives 0.2586207
life living 0.0493827
life diary 0.2500000
life general 0.0526316
life the 0.0000559
life NULL 0.0006957
life nightlife 0.5000000
life flowers 0.1111111
life live 0.0109890
life conditions 0.0666667
Faerie Faerie 1.0000000
number number 0.8947368
number size 0.0294118
number numbers 0.1250000
number phone 0.0094340
listened listened 0.5714286
Eve Eve 1.0000000
Eve every 0.0029674
zoo zoo 1.0000000
zoo keeper 1.0000000
habits habits 0.4285714
habits such 0.0032787
habits normal 0.0256410
INTERNET INTERNET 1.0000000
INTERNET THE 0.0113314
researching research 0.1111111
researching into 0.0057803
researching researching 1.0000000
ALTHOUGH ALTHOUGH 1.0000000
toliet toilet 0.1000000
concerning at 0.0003206
concerning tourism 0.1666667
concerning concerning 0.6153846
concerning for 0.0002268
queuing queuing 0.5714286
feet using 0.0131579
feet foot 0.1666667
feet feet 0.7500000
senciarly faithfully 0.0031250
shopkeepers shopkeepers 1.0000000
KEEP KEEP 1.0000000
somethings something 0.0046729
somethings some 0.0028965
somethings things 0.0068259
somethings anything 0.0050000
wall face 0.0222222
wall wall 1.0000000
Modern modern 0.0024752
Modern Modern 1.0000000
standart normal 0.0256410
EXAMS EXAMS 1.0000000
databases databases 1.0000000
dull dull 1.0000000
meen mean 0.0185185
Janine Janine 1.0000000
toothbrush toothbrush 1.0000000
mens men 0.0238095
ear ear 0.5000000
ear hear 0.0056818
televisions televisions 0.7500000
televisions television 0.0204082
expresses express 0.0256410
cooperation cooperation 0.6666667
pobular popular 0.0178571
delate delate 1.0000000
receving receiving 0.0188679
athacted attracted 0.0714286
sceneries scenery 0.1428571
sorts sort 0.0181818
sorts sorts 0.5000000
trouble problems 0.0046729
trouble trouble 0.6428571
trouble crowds 0.0588235
trouble problem 0.0224215
trouble troublesome 1.0000000
DIFFERENTLY CONTRARY 1.0000000
promissed promised 0.0337079
pissed very 0.0004153
false say 0.0027027
false fake 0.3333333
false untrue 0.1666667
false false 0.8750000
Greenwich Greenwich 0.8974359
PERFORMED PERFORMED 0.5000000
rotation rotation 1.0000000
TRIED TRIED 1.0000000
Muller Muller 1.0000000
witch which 0.0033898
witch made 0.0041841
witch with 0.0004560
departement , 0.0000564
departement department 0.0476190
diffarent different 0.0064378
AFTER WHICH 0.0588235
AFTER AFTER 0.8571429
reconize admit 0.0357143
whent went 0.0017921
reflexion reflection 1.0000000
USED USED 1.0000000
insted instead 0.0099502
editions years 0.0025840
writte writte 1.0000000
top top 0.9729730
top all 0.0005131
top end 0.0048780
top height 0.1666667
trial trial 1.0000000
sound sound 0.8870968
sound system 0.0344828
sound volume 0.2000000
sound sounds 0.0909091
blissful feelings 0.0400000
blissful blissful 1.0000000
embarassed embarrassed 0.1428571
embarassed awkward 0.5000000
adimnistration administration 0.2500000
mailing mailing 1.0000000
petroleum petroleum 0.5000000
Basle Basle 1.0000000
Marie Marie 1.0000000
musics music 0.0140845
saving saved 0.1111111
saving any 0.0018904
saving saving 0.6000000
purses purses 1.0000000
air air 0.9333333
air airline 0.5000000
air wind 0.0714286
air - 0.0017921
air ones 0.0125000
woke woke 0.8750000
ROUTIN ROUTINE 1.0000000
CITY CITY 1.0000000
wicked wicked 1.0000000
cam came 0.0113636
LUGGAGE LUGGAGE 1.0000000
knou know 0.0010010
enthousiasm enthusiasm 0.1666667
wake woken 0.3333333
wake wake 1.0000000
BEGAN BEGAN 1.0000000
colors colors 1.0000000
colors colours 0.0606061
colors and 0.0001008
checkout checkout 0.3333333
arm arm 0.8333333
scribbled scribbled 1.0000000
lips lips 1.0000000
Going Going 1.0000000
freeze freeze 1.0000000
Snowboarder snowboarder 1.0000000
M.E.N the 0.0000559
M.E.N M.E.N 1.0000000
clothings clothing 0.0681818
barman barman 0.8000000
notice advert 0.0500000
notice inform 0.0144928
notice notice 0.8260870
notice seen 0.0065359
notice point 0.0076923
notice noticed 0.0250000
notice information 0.0024390
notice noticeboards 0.5000000
notice note 0.0454545
notice news 0.0098039
notice have 0.0002494
notice out 0.0018975
notice see 0.0026281
notice advertisement 0.0013587
COULDN COULDN 1.0000000
fact of 0.0001593
fact however 0.0027322
fact eye 0.1428571
fact fact 0.9141414
fact thing 0.0022272
fact phenomenon 1.0000000
fact facts 0.1000000
fact event 0.0259740
fact temptation 0.5000000
fact reason 0.0055249
fact NULL 0.0008696
fact actually 0.0252101
fact explanation 0.0454545
peckish peckish 1.0000000
Dumaux Dumaux 1.0000000
personall staff 0.0135135
tumple tumble 1.0000000
meannes meanness 1.0000000
kit kit 1.0000000
brothers brothers 0.8333333
green green 0.8181818
green greenhouse 0.3333333
reasonable priced 0.0250000
reasonable reasonable 0.6363636
reasonable reasonably 0.0877193
letterhead letterhead 1.0000000
snowy snowy 1.0000000
joke joke 1.0000000
joke we 0.0002866
joke a 0.0002601
modernism modernisation 0.5000000
list list 0.9180328
born born 0.9500000
CIRCLE CIRCLE 1.0000000
VERRY VERY 0.0344828
gods gods 1.0000000
1995 1995 1.0000000
accomodate accommodate 0.4000000
accomodate all 0.0005131
accomodate put 0.0068027
accomodate up 0.0019011
farewell farewell 1.0000000
stolen stealing 0.1250000
stolen robbed 0.2000000
stolen stolen 0.8333333
SOLES SOLES 1.0000000
humble humble 1.0000000
manger manger 1.0000000
dignity dignity 1.0000000
Band band 0.0161290
creates creates 0.2500000
creates create 0.0303030
malls malls 0.5000000
angier angrier 1.0000000
ORGANISATION ORGANISATION 1.0000000
shower shower 0.6666667
chanel channel 1.0000000
webs websites 0.3333333
lovely wonderful 0.0064935
lovely lovely 0.9615385
moist damp 1.0000000
whitout without 0.0125000
whitout considering 0.0384615
niceer nicer 0.1000000
readers readers 0.8333333
advertising advertisement 0.0054348
advertising advertise 0.2500000
advertising advertising 0.8333333
unluckily unfortunately 0.0069444
unluckily is 0.0002274
fouthfouly faithfully 0.0031250
attent attend 0.0238095
Madonna Madonna 1.0000000
EXPLANATION EXPLANATION 1.0000000
bullied bullied 1.0000000
II was 0.0001748
II II 1.0000000
VIEW VIEW 1.0000000
hungry hungry 0.9545455
hungry angry 0.0160000
accomodation accommodation 0.3037975
accomodation sleep 0.0094340
accomodation type 0.0384615
accomodation stay 0.0190931
Olmez Olmez 1.0000000
White White 1.0000000
surging surfing 0.0073529
surging do 0.0004975
wasn was 0.0001748
ABOUT OF 0.0181818
ABOUT THIS 0.0263158
ABOUT REGARDING 0.5000000
ABOUT ABOUT 0.8000000
wrought wrote 0.0136986
tranbles tranbles 1.0000000
loyal loyal 1.0000000
sincerly sincerely 0.0241187
renovating renovations 0.2000000
everying everything 0.0025510
bombastic bombastic 1.0000000
bombastic is 0.0002274
W W 1.0000000
evolutioned evolved 0.5000000
dwarf dwarf 1.0000000
Morocco and 0.0001008
Morocco Morocco 1.0000000
value value 0.8888889
waterproof waterproof 0.3333333
wheather weather 0.0200000
wheather whether 0.0344828
wheather there 0.0005757
wheather about 0.0004593
environmental environmental 0.4000000
typical a 0.0001301
typical typical 1.0000000
impulsive impulsive 1.0000000
96.7 96.7 1.0000000
businessmen businessmen 1.0000000
sacrifices sacrifices 1.0000000
untraditional untraditional 1.0000000
testament restaurant 0.0020534
oportunity opportunity 0.0526316
plesent pleasant 0.0294118
teeth teeth 1.0000000
teeth toothbrushes 0.3333333
key got 0.0030303
key key 1.0000000
gaves gives 0.0400000
although however 0.0081967
although and 0.0001008
although also 0.0010267
although NULL 0.0003478
although but 0.0003685
although although 0.9513514
wired wired 1.0000000
consumism consumerism 1.0000000
whispered whispered 1.0000000
wonerful wonderful 0.0064935
shoul should 0.0026042
Moroever moreover 0.0073529
fourteen fourteen 0.7500000
LET LET 1.0000000
apartheid apartheid 0.3333333
IMAGINE IMAGINE 1.0000000
sanitary sanitary 1.0000000
trunk trunk 1.0000000
Sinicerely Sincerely 0.0344828
step forward 0.0015083
step it 0.0001574
step footsteps 0.5000000
step every 0.0029674
step stepped 0.2000000
step step 0.9230769
corridors corridors 1.0000000
application idea 0.0043290
application application 1.0000000
application form 0.0714286
photograph try 0.0054054
photograph take 0.0015576
photograph photographs 0.1764706
photograph photographic 0.2000000
photograph photography 0.0072993
photograph photographer 0.0909091
photograph photograph 1.0000000
pirvacity privacy 0.0400000
misunderstanding misunderstanding 0.5000000
spide spite 0.0312500
spide of 0.0001593
late delay 0.0588235
late late 0.7944444
late starting 0.0476190
late later 0.0270270
late lateness 0.5000000
late by 0.0014124
sheets sheets 1.0000000
sheets paper 0.0285714
CULT CULT 1.0000000
grey grey 0.8571429
Orlando Orlando 1.0000000
chocked choked 1.0000000
chocked shocked 0.0416667
moder modern 0.0024752
insecure unsafe 1.0000000
Felipa Felipa 1.0000000
concerne concerned 0.0222222
concerne am 0.0005189
listem system 0.0344828
listem a 0.0001301
prizes price 0.0068027
prizes prizes 1.0000000
prizes prices 0.0571429
500 500 1.0000000
renewal refurbishment 0.2000000
cousine cousin 0.0333333
IDOLS IDOLS 1.0000000
Witness Witness 1.0000000
Trade Trade 1.0000000
Sapawadee Sapawadee 1.0000000
INTERESTED INTERESTED 1.0000000
FRIEND FRIEND 1.0000000
lote disappointed 0.0032154
believe belief 1.0000000
believe happened 0.0074627
believe think 0.0008368
believe hope 0.0046296
believe trust 0.0294118
believe believe 0.8502415
requiere resonse 1.0000000
plug plug 1.0000000
plug in 0.0001441
vending vending 0.5000000
detective detective 0.7777778
Auda Auda 1.0000000
May May 0.9375000
background backdrop 0.5000000
background background 1.0000000
background scenery 0.1428571
Anyway anyway 0.0183486
thew threw 0.2000000
concepts concepts 1.0000000
foams foams 1.0000000
patient patience 0.2222222
patient patient 0.8750000
angry angry 0.9200000
angry or 0.0008368
lyceum school 0.0013850
short short 0.9444444
short reduced 0.1666667
short small 0.0063694
short the 0.0000559
short sort 0.0181818
short went 0.0017921
short close 0.0156250
makes making 0.0138889
makes made 0.0125523
makes lets 0.1250000
makes brings 0.1250000
makes makes 0.6914894
makes keeps 0.0769231
makes allows 0.1363636
makes make 0.0133588
makes helps 0.0270270
makes teach 0.0434783
license licence 0.1666667
swimm swimming 0.0034965
swimm swim 0.0487805
swimm swam 0.2000000
ethnical world 0.0037879
yourself myself 0.0077519
yourself chance 0.0060606
yourself interest 0.0526316
yourself an 0.0012658
yourself work 0.0025510
yourself yourself 0.7708333
yourself forwards 0.1428571
yourself you 0.0003007
yourself relax 0.0200000
yourself money 0.0008905
chipper cheap 0.1250000
dond n 0.0003968
dond did 0.0014556
image image 1.0000000
image an 0.0012658
image imagine 0.0074627
Basilio Basilio 1.0000000
gained has 0.0016584
gained had 0.0005120
gained gained 0.6666667
secrecy secrecy 1.0000000
dare dare 0.6000000
tops tops 1.0000000
create create 0.6969697
create creates 0.2500000
create establish 1.0000000
create provide 0.0196078
create creating 0.2500000
create for 0.0002268
create NULL 0.0001739
avid addict 0.3333333
Starring Starring 1.0000000
showers showers 1.0000000
reader reader 1.0000000
EVOLUTIVE EVOLUTION 1.0000000
allows is 0.0002274
allows allows 0.6363636
allows you 0.0001503
allows us 0.0015625
allows me 0.0003893
moible mobile 0.0240964
sentences sentence 0.2500000
sentences sentences 1.0000000
realistic everyday 0.0312500
realistic realistic 1.0000000
specealized specialised 0.2000000
newcomer new 0.0024038
newcomer &apos; 0.0002838
newcomer s 0.0007716
administration administration 0.5000000
Sexington Sexington 1.0000000
techincs technologies 0.0217391
retire withdraw 1.0000000
Rafael Rafael 1.0000000
decorate decorate 0.8000000
lip lipstick 0.5000000
MAINLY MAINLY 0.5000000
OUT AWAY 1.0000000
OUT OF 0.0090909
OUT OUT 0.9333333
Topical the 0.0000559
Topical topical 0.3333333
novice novice 0.7500000
13th 13th 0.9811321
traveller travellers 0.2000000
traveller traveller 0.5000000
creat create 0.0303030
creat and 0.0001008
arms arms 0.8000000
neaded needed 0.0476190
PAID PAID 1.0000000
tast &apos; 0.0002838
tast taste 0.1111111
atletics events 0.0113636
atletics athletics 0.5000000
BACK BEHIND 1.0000000
BACK FAR 0.5000000
BACK BACK 0.8333333
C C 1.0000000
givven given 0.0109890
givven out 0.0018975
scence scenery 0.1428571
scence scene 0.2500000
sleep sleeping 0.1269841
sleep sleep 0.8867925
sleep asleep 0.3333333
EITHER EITHER 0.6666667
anchient ancient 0.0769231
UFO UFO 1.0000000
organic organic 1.0000000
knocking knocking 1.0000000
Apolonia Apolonia 1.0000000
FOLLOW FOLLOW 0.6666667
Cloutier Cloutier 1.0000000
insufficient inadequate 1.0000000
inside renovation 0.0666667
inside on 0.0004850
inside in 0.0002881
inside inside 0.9534884
inside into 0.0057803
HE HE 0.9375000
unfortunately unfortunately 0.8888889
foreword forward 0.0015083
crew crew 0.6666667
17th 17th 1.0000000
wodden wooden 0.5000000
Briley Briley 1.0000000
philosophy philosophy 0.5000000
F F 1.0000000
F Fs 1.0000000
spare spare 1.0000000
spare NULL 0.0001739
instruction instruction 1.0000000
instruction introduction 0.0833333
instruction instructions 0.3333333
Literature Literature 1.0000000
PENA PENA 1.0000000
kits devices 0.0714286
kits these 0.0024752
kits of 0.0001593
respective respective 1.0000000
PRIVATE PRIVATE 1.0000000
either too 0.0045872
either NULL 0.0001739
either whether 0.0344828
either either 0.6029412
either and 0.0001008
adquiring acquiring 0.2500000
diplomas diplomas 1.0000000
shows has 0.0016584
shows musicals 0.2857143
shows states 0.1000000
shows show 0.0028818
shows shoes 0.0156250
shows showing 0.0588235
shows NULL 0.0001739
shows shows 0.9220779
ALMO ALMO 1.0000000
jumed jumped 0.0769231
rumbling rumbling 1.0000000
Brigitte Brigitte 1.0000000
frount front 0.0140845
shooked shocked 0.0416667
signatures autographs 0.1538462
signatures signatures 1.0000000
EVER EVER 1.0000000
considerated considered 0.0666667
grup group 0.0322581
Playhouse Playhouse 1.0000000
gardening gardening 1.0000000
restitution refund 0.0108696
disk disk 1.0000000
lasers lasers 0.5000000
ears ears 1.0000000
men man 0.0149254
men men 0.9047619
qual quality 0.0232558
UP TOGETHER 1.0000000
UP UP 0.5000000
UP BUILDING 1.0000000
fascinating fascinating 0.5555556
OUR FOR 0.0156250
OUR IMAGE 0.3333333
OUR OUR 1.0000000
Charoenkul Charoenkul 1.0000000
&apos;RE YOUR 0.0312500
graduated graduated 1.0000000
complement complain 0.0056180
Interestingly Interestingly 1.0000000
963 963 1.0000000
cycling cycling 1.0000000
weedend weekend 0.0080000
heaed heard 0.0097087
nude being 0.0043478
nude nude 1.0000000
Conclugen conclusion 0.0093458
researcher researcher 1.0000000
Agust August 0.0076923
Thursday Thursday 0.6666667
attacked attacked 0.7500000
Anyways Anyways 1.0000000
1093 1093 1.0000000
instractur instructor 0.2500000
careful carefully 0.0500000
careful careful 0.7391304
conveyed carried 0.1250000
contemporary contemporary 1.0000000
contemporary modern 0.0024752
COMFORTABLE COMFORTABLE 0.5000000
Moon Moon 1.0000000
Fainally finally 0.0027174
quee queue 0.0312500
bill ticket 0.0035714
bill bill 0.6000000
ties ties 1.0000000
refound refund 0.0217391
trends trends 0.7500000
pirates pirates 1.0000000
reflect reflect 1.0000000
gim gym 0.1428571
colorful colourful 0.1333333
advice advice 0.6279070
advice warning 0.2500000
advice advance 0.0270270
advice advertisement 0.0013587
advice advise 0.0833333
Kary Kary 1.0000000
emagine imagine 0.0074627
considering taking 0.0121951
considering consideration 0.0526316
considering considering 0.6153846
considering thinking 0.0253165
doctoral doctoral 1.0000000
anfair unfair 0.1666667
curtains curtains 1.0000000
Alexander Alexander 0.5000000
Organizer Organizer 1.0000000
stranded stranded 1.0000000
pumpping pumping 1.0000000
16th 16th 1.0000000
teknics techniques 0.1428571
STAY STAY 0.7500000
unkindly unkind 0.3333333
Heanly Heanly 1.0000000
Kwa Kwa 1.0000000
excitement stomach 0.5000000
excitement excitement 0.7500000
excitement my 0.0002373
comunity community 0.1666667
FOBIA PHOBIA 1.0000000
FOBIA A 0.0085470
A.M a.m. 0.1428571
A.M A.M 1.0000000
Edmond Edmond 1.0000000
sattelite satellite 0.5000000
BLIND BLIND 1.0000000
happens happen 0.0416667
happens happened 0.0373134
happens has 0.0049751
happens is 0.0006821
happens happens 0.6470588
happens happening 0.1538462
Techno Techno 1.0000000
showrooms showrooms 1.0000000
LIE LIE 1.0000000
LIE TO 0.0043668
LIE LIED 1.0000000
= 19.30 0.0081301
= 20.15 0.0128205
= = 1.0000000
Stephen Stephen 1.0000000
Kate Kate 1.0000000
HOMEWORKS HOMEWORK 0.2500000
stily style 0.0285714
COLLEGE COLLEGE 1.0000000
valid valid 0.3333333
valid any 0.0018904
T T 0.8000000
majority majority 0.9090909
majority age 0.0285714
photographs photographers 0.2222222
photographs taken 0.0232558
photographs photographs 0.4705882
prohibitted prohibited 1.0000000
paradox paradox 1.0000000
reveals and 0.0001008
reveals reveals 1.0000000
confirming confirming 0.5000000
contract contract 1.0000000
Century century 0.0263158
Carla Carla 1.0000000
Sixty Sixty 1.0000000
Lou Lou 1.0000000
sorrounded surrounded 0.1111111
Mathematics mathematics 0.4000000
Mathematics Mathematics 1.0000000
dicounts discounts 0.0033223
sisters sisters 0.8333333
train trains 0.1000000
train trained 0.1250000
train do 0.0004975
train train 0.8500000
transported transported 1.0000000
navy navy 1.0000000
chalenge challenge 0.1666667
gossiping about 0.0004593
gossiping you 0.0001503
gossiping gossiping 0.4285714
Joel Joel 1.0000000
alergic allergic 0.6666667
alergic allergies 1.0000000
alergic from 0.0006485
published publish 0.1250000
published published 0.7272727
published advertised 0.0156250
True True 1.0000000
ower our 0.0015886
sied outside 0.0149254
calm that 0.0001884
calm calmly 0.3333333
calm down 0.0235294
calm calm 0.8125000
HANDLE HANDLE 1.0000000
Snack snack 0.2000000
congratulate congratulate 0.7777778
congratulate you 0.0003007
crayz crazy 0.0384615
L. L. 1.0000000
atention attention 0.0147059
atention imagination 0.1000000
climet climate 0.1250000
desagree disagree 0.3333333
started starts 0.0200000
started started 0.9291883
started came 0.0056818
started asked 0.0032154
started starred 0.0666667
started time 0.0006826
started starring 0.0172414
started been 0.0014493
started of 0.0001593
started start 0.0316901
started began 0.0114943
For For 0.9230769
For letter 0.0014925
For the 0.0001117
For to 0.0000642
For in 0.0001441
For for 0.0004536
murdered murdered 1.0000000
Sincerelly sincerely 0.0018553
nicer nicer 0.7000000
organising organising 0.6666667
bike bike 1.0000000
bike motorbike 0.2000000
Sofia Sofia 1.0000000
eleven eleven 1.0000000
professionally professionally 0.3333333
your a 0.0006504
your you 0.0036079
your confirming 0.5000000
your responsibility 0.0625000
your our 0.0015886
your my 0.0002373
your this 0.0004645
your yourself 0.0625000
your yours 0.1176471
your best 0.0020492
your an 0.0012658
your NULL 0.0010435
your answer 0.0053476
your the 0.0007821
your kill 0.0526316
your your 0.9517212
your another 0.0024213
your feet 0.0833333
researchers researchers 0.6666667
playied played 0.0099010
playied has 0.0016584
development recent 0.0555556
development developments 0.1428571
development scientific 0.2000000
development development 0.6562500
BETTER BETTER 1.0000000
Peter Peter 1.0000000
styled styled 1.0000000
campfire campfire 1.0000000
chain chain 1.0000000
hundrend hundreds 0.0833333
advices on 0.0004850
advices advice 0.1162791
holes holes 1.0000000
SUPPOSED SUPPOSED 1.0000000
hobbies activities 0.0019342
hobbies hobbies 0.8275862
studiant a 0.0001301
studiant student 0.0075758
humidity humidity 1.0000000
relyied relied 0.5000000
adrenaline adrenaline 1.0000000
SEND SENT 0.6666667
SEND HAVE 0.0204082
as also 0.0010267
as in 0.0015848
as lastly 0.0169492
as according 0.0120482
as far 0.0114943
as did 0.0014556
as can 0.0005814
as keepers 0.5000000
as travellers 0.2000000
as handiest 0.5000000
as the 0.0001676
as that 0.0011306
as U.SA 0.5000000
as since 0.0046512
as simply 0.0500000
as by 0.0014124
as wherever 0.0625000
as cover 0.0588235
as and 0.0009076
as like 0.0094340
as when 0.0068259
as if 0.0006798
as after 0.0014577
as however 0.0027322
as though 0.0294118
as politician 0.1000000
as states 0.1000000
as we 0.0002866
as us 0.0015625
as defence 0.5000000
as than 0.0048662
as from 0.0006485
as was 0.0006992
as there 0.0005757
as what 0.0024631
as of 0.0001593
as NULL 0.0085217
as a 0.0001301
as while 0.0054348
as guaranteed 0.1666667
as crystal 0.5000000
as delicate 0.3333333
as this 0.0004645
as be 0.0013755
as as 0.9175109
as curriculum 0.5000000
as either 0.0735294
as satisfaction 0.0666667
as are 0.0004513
as so 0.0016243
as regarding 0.0522388
as Cambridge 0.0909091
as at 0.0003206
as for 0.0013609
as which 0.0033898
as 1993 0.5000000
as nor 0.0833333
as superstars 0.2000000
as whom 0.0370370
as ask 0.0023095
as multi 0.3333333
as has 0.0016584
as to 0.0001285
Pierre Pierre 1.0000000
LESS LESS 1.0000000
designer designer 0.7500000
designer design 0.0500000
designer s 0.0007716
designer designers 0.1333333
7.30 7.30 0.7142857
lief life 0.0010718
Jaro Jaro 1.0000000
happen place 0.0034965
happen was 0.0001748
happen arise 0.2500000
happen happens 0.2352941
happen take 0.0015576
happen happened 0.0149254
happen happen 0.6875000
happen &apos; 0.0002838
happen again 0.0052083
happen happening 0.0384615
partly partly 1.0000000
partly partial 0.5000000
-Dear -Dear 1.0000000
Personal Personal 1.0000000
13rd 13rd 1.0000000
13rd 13th 0.0188679
kiding kidding 0.5000000
especiall special 0.0078125
The entry 0.0714286
The The 0.9829060
The Last 0.3333333
The the 0.0006704
The engineering 0.1250000
The Manager 0.0338983
impatiently impatiently 0.5000000
everyday our 0.0007943
everyday every 0.1038576
everyday day 0.0634058
everyday an 0.0012658
everyday everyday 0.5625000
struggle struggle 0.8000000
excel Excel 1.0000000
passing pass 0.0555556
passing passing 1.0000000
reveal revealing 0.2500000
reveal reveal 1.0000000
UK UK 1.0000000
trip going 0.0015432
trip trip 0.7740586
trip train 0.0250000
trip holiday 0.0089021
trip vacation 0.0312500
trip stay 0.0023866
exactly definitely 0.0232558
exactly well 0.0021692
exactly exact 0.2000000
exactly exactly 1.0000000
20th 20th 0.9166667
Guillelmina Guillelmina 1.0000000
dissappeared failed 0.0909091
serf surfing 0.0073529
INSIDE INSIDE 1.0000000
enjoining enjoyed 0.0064935
Nonetheless Nonetheless 1.0000000
War War 0.5000000
War Second 0.3333333
War Wars 1.0000000
War World 0.1666667
mades &apos; 0.0002838
sister sisters 0.1666667
sister sister 0.9756098
histerism hysteria 1.0000000
Leia Leia 1.0000000
bargain bargain 1.0000000
open markets 0.1250000
open open 0.6790123
open stay 0.0023866
open an 0.0012658
open NULL 0.0001739
open opens 0.3333333
precarious precarious 1.0000000
Over Over 0.9485981
Over also 0.0010267
DAMAGE DAMAGE 1.0000000
impersonally impersonal 0.5000000
St St 0.3333333
Szymanski Szymanski 1.0000000
maker troublemaker 0.5000000
enterence an 0.0012658
enterence entrance 0.0208333
feel feel 0.9609756
feel see 0.0013141
feel sad 0.0250000
feel have 0.0002494
feel felt 0.0162602
feel free 0.0033445
feel feels 0.1666667
feel sense 0.0833333
stuffs stuff 0.1282051
stuffs tasks 0.0714286
stuffs staff 0.0135135
photograghy photography 0.0072993
subjects subjects 0.6956522
edge edge 1.0000000
good item 0.1000000
good good 0.9826087
good goodbye 0.2500000
good maintain 0.1666667
good great 0.0020325
good positive 0.0416667
good correct 0.0714286
good successful 0.0454545
good unsatisfactory 0.2000000
good goods 0.0869565
good know 0.0010010
good intense 1.0000000
good NULL 0.0001739
good running 0.0555556
good some 0.0007241
good well 0.0390456
good lucky 0.0416667
good best 0.0020492
good excellent 0.1354167
good right 0.0155039
&apos;Accatino &apos;Accatino 1.0000000
involves involve 0.5000000
involves involves 0.3333333
GAVE GIVEN 0.1666667
GAVE GAVE 1.0000000
AIDs AIDs 1.0000000
his his 0.9451372
his their 0.0065789
his &apos; 0.0002838
his home 0.0026596
his price 0.0068027
his her 0.0069252
his the 0.0002793
his NULL 0.0001739
his s 0.0007716
his he 0.0035672
his your 0.0008396
his its 0.0410959
his purpose 0.0909091
his consciousness 0.3333333
his deserves 0.1111111
his this 0.0013934
studied studies 0.0357143
studied studied 0.8333333
studied was 0.0001748
tablets necessary 0.0163934
saves saves 0.5714286
clowds clouds 0.5000000
Civil Civil 1.0000000
His his 0.0024938
11 11 1.0000000
Althouth with 0.0004560
PROGRAMM PROGRAMME 0.3333333
intend intended 0.1666667
intend intend 0.9000000
grand grandfather 0.2500000
grand grandparents 0.2500000
grand grandmother 0.0869565
futher futher 1.0000000
futher further 0.0430108
deny deny 1.0000000
summum summum 1.0000000
books bookworms 0.3333333
books notebooks 0.3333333
books books 0.9433962
libraries libraries 0.7500000
libraries of 0.0001593
givin giving 0.0192308
their away 0.0131579
their a 0.0001301
their update 0.2500000
their they 0.0018116
their skin 0.1111111
their there 0.0046056
their his 0.0024938
their their 0.9029605
their told 0.0020833
their whose 0.0400000
their the 0.0000559
their her 0.0027701
their NULL 0.0006957
their children 0.0080645
their your 0.0004198
their stay 0.0023866
honey honey 1.0000000
pefect pefect 1.0000000
muscles muscles 1.0000000
Sinccerly sincerely 0.0018553
essencial essential 0.1363636
plaied performed 0.0416667
plaied a 0.0001301
TALLER TALLER 1.0000000
contradicted contradicted 0.5000000
conclution conclusion 0.0280374
overall technological 0.0222222
overall overall 0.8000000
Cars cars 0.0250000
elucidaded discovered 0.0384615
FIX FIX 1.0000000
INCLUDES INCLUDES 1.0000000
familiar familiar 0.1428571
familiar knew 0.0048544
civilization civilization 1.0000000
stared stared 1.0000000
stared starring 0.0172414
stared starred 0.1333333
fizzy fizzy 1.0000000
First First 1.0000000
First first 0.0010309
WE WE 0.9387755
WE we 0.0005732
WE SEASON 0.5000000
spends spending 0.0156250
spends spend 0.0041152
able available 0.0033223
able possible 0.0032680
able appeal 0.1428571
able NULL 0.0001739
able able 0.9508197
able capable 0.2000000
able a 0.0001301
able unable 0.0909091
able going 0.0015432
able can 0.0005814
relied relied 0.5000000
LOVED WANTED 0.1428571
maybe why 0.0029155
maybe maybe 0.8110236
maybe except 0.0277778
maybe hard 0.0084746
charachter character 0.0400000
french French 0.1333333
treasurehouse &apos; 0.0002838
treasurehouse house 0.0058480
treasurehouse treasure 0.1666667
dismayed dismayed 1.0000000
introduction introduction 0.9166667
Jean Jean 1.0000000
drinking drink 0.0181818
drinking drinking 1.0000000
responsability responsibility 0.3750000
responsability fault 0.0454545
express describe 0.0454545
express explain 0.0289855
express show 0.0005764
express speed 0.1250000
express express 0.8717949
express give 0.0022422
refurbishment refurbishment 0.2000000
stepped stepped 0.6000000
Lola Lola 1.0000000
refering referring 0.2857143
refering according 0.0120482
refering regarding 0.0074627
refering mentioned 0.0109890
breathless breathless 0.5000000
RATHER RATHER 1.0000000
RATHER WOULD 0.0312500
Dir Dear 0.0016474
Student Student 1.0000000
theire there 0.0005757
biginner beginner 0.0333333
Africans Africans 1.0000000
Africans as 0.0004824
Africans well 0.0021692
KWAI KWAI 1.0000000
charge charge 0.8666667
charge recharge 1.0000000
UNKNOWN UNKNOWN 1.0000000
steal rob 1.0000000
steal steal 0.6923077
steal burgle 1.0000000
Lucre Lucre 1.0000000
SET BUILT 1.0000000
SET BUILD 1.0000000
kills kills 1.0000000
unrecycling non 0.2000000
unrecycling renewable 1.0000000
costs costs 0.8333333
costs expenses 0.0714286
costs cost 0.0322581
Christie has 0.0016584
Christie Christie 0.9545455
e e 0.9375000
FAMILY FAMILY 1.0000000
named named 1.0000000
named called 0.0196078
audition audience 0.0151515
making developing 0.0500000
making holding 0.1666667
making delaying 0.5000000
making organising 0.0512821
making painting 0.0080645
making have 0.0002494
making helping 0.0097087
making make 0.0057252
making made 0.0041841
making doing 0.0150000
making making 0.6805556
making makes 0.0106383
making putting 0.0416667
CLEANING CLEANING 1.0000000
Kingfield Kingfield 1.0000000
facilities devices 0.0714286
facilities technologies 0.0217391
facilities facilities 0.9583333
facilities facility 1.0000000
facilities equipment 0.0172414
facilities extras 0.5000000
facilities conveniences 0.5000000
liest least 0.0121951
STAR STAR 0.5000000
cinemas cinemas 1.0000000
strength strength 0.3750000
undecided undecided 1.0000000
POSIBLE POSSIBLE 0.1000000
shoutings shouts 0.5000000
RECOMMONDATIONS recommendations 0.2000000
dark dark 0.9473684
efforts efforts 0.8000000
neighbourhood neighbourhood 0.4000000
FORGIVE FORGIVE 0.5000000
FORGIVE CANNOT 0.2500000
Plays plays 0.0210526
Plays Plays 1.0000000
why why 0.9212828
why because 0.0003724
why ways 0.0158730
why Why 0.5000000
seperate separate 0.2000000
chatting chatting 0.7857143
chatting chat 0.0434783
garding guarding 1.0000000
conveniance convenience 0.0625000
Futere Future 0.0294118
abysmally abysmally 1.0000000
IF if 0.0006798
IF PREFER 0.1666667
IF IF 0.8800000
unavailable unavailable 0.3333333
unavailable available 0.0033223
mempers members 0.0476190
succes success 0.0714286
medium place 0.0034965
medium medium 1.0000000
medium average 0.1428571
Truely truly 0.1428571
Truely honestly 0.2000000
instincts instincts 1.0000000
struggling struggling 0.5000000
lossing losing 0.2000000
technologists technologists 0.5000000
rang rang 0.6250000
calmly calmly 0.5000000
revise revise 0.5000000
h h 0.3333333
characteristics myself 0.0077519
characteristics characteristics 0.5000000
data data 0.6000000
kings kings 1.0000000
Theater Theatre 0.0357143
Theater theatre 0.0015649
motorboat motorboat 1.0000000
saddness sadness 0.1666667
partially partially 0.5000000
Beginer beginner 0.0333333
dances dance 0.0789474
part member 0.0294118
part item 0.0500000
part trip 0.0041841
part parts 0.2608696
part proportion 0.5000000
part attend 0.0238095
part during 0.0025707
part part 0.9004149
part came 0.0056818
part piece 0.0454545
part view 0.0161290
part point 0.0076923
part some 0.0007241
part area 0.0263158
part have 0.0002494
part place 0.0069930
part NULL 0.0005217
part Most 0.5000000
part areas 0.0833333
part most 0.0057915
part time 0.0006826
unkown unknown 0.0250000
lesser fewer 0.1000000
roll role 0.0500000
roll roll 1.0000000
killer killer 1.0000000
RESPONSE RESPONSE 1.0000000
explainations explanation 0.0454545
explainations giving 0.0192308
traditional from 0.0006485
traditional traditional 0.9473684
interesed interested 0.0065359
interesed in 0.0001441
sensitive sensitive 0.8571429
Indonesia Indonesia 0.5000000
certenly certainly 0.0606061
desagreeded disagreed 0.3333333
Kursk Kursk 1.0000000
newses news 0.0098039
places places 0.8552632
places seats 0.0434783
places place 0.0034965
tolerant tolerant 1.0000000
annoyance annoyance 0.5000000
annoyance annoying 0.0294118
faan fans 0.0294118
terribly up 0.0019011
terribly terrible 0.0317460
terribly terribly 0.9444444
suffering from 0.0006485
suffering suffering 1.0000000
once one 0.0019102
once once 0.8333333
once NULL 0.0003478
remaining of 0.0001593
remaining rest 0.0151515
Karrie Karrie 1.0000000
vacuuming the 0.0000559
vacuuming vacuum 0.2000000
passtime pastime 1.0000000
autograph autograph 0.3846154
brillient brillient 1.0000000
rehearsal rehearse 0.5000000
J J 1.0000000
persuide persuaded 0.2500000
right rights 0.3750000
right straight 0.1250000
right alright 0.1428571
right right 0.8682171
right suitable 0.0140845
right justified 1.0000000
right choice 0.0169492
right RIGHT 0.1666667
right the 0.0000559
unfit unfit 1.0000000
STARS STARS 1.0000000
suspiciously suspiciously 1.0000000
PROMPT PROMPT 1.0000000
beleive believe 0.0241546
organise organised 0.0379747
organise organising 0.0769231
organise out 0.0018975
organise work 0.0025510
organise reorganise 0.1666667
organise organise 0.7179487
slopes slopes 1.0000000
charges demands 0.3333333
marked as 0.0004824
marked stated 0.0384615
simplified simplified 0.6666667
retelling retold 0.5000000
continous continuous 0.5000000
agent agent 0.7500000
36 36 1.0000000
vice vice 0.5000000
vice the 0.0000559
port port 1.0000000
maschines machines 0.0200000
alleys aisles 1.0000000
quote that 0.0001884
quote quote 0.5000000
EMPLOYEES EMPLOYEES 1.0000000
divided divided 1.0000000
managing managing 0.6666667
reported reported 0.3333333
reported by 0.0014124
Fennall Fennall 1.0000000
worsts worst 0.0112360
ozon ozone 0.2000000
café café 1.0000000
Chile Chile 0.5000000
destroys destroys 1.0000000
socond second 0.0073529
salary salary 0.8888889
salary any 0.0018904
television televisions 0.1250000
television television 0.9795918
cinema cinema 0.9375000
cinema movies 0.1666667
CO2 CO2 1.0000000
adicted addicted 0.1666667
sad being 0.0043478
sad sad 0.9500000
sad said 0.0025316
effort effort 1.0000000
effort efforts 0.2000000
workable stressful 0.0454545
BB BB 0.5000000
album album 1.0000000
gymnasium gymnasium 1.0000000
HELGAR HELGAR 1.0000000
bored boring 0.0394737
bored with 0.0004560
bored bored 0.8500000
bored waiting 0.0072993
kilogram kilogram 1.0000000
Evry every 0.0029674
forty forty 0.6233766
forty forties 0.5000000
forty - 0.0179211
agrees agrees 0.2500000
Brazil Brazil 0.8000000
bothering bothering 1.0000000
bothering annoying 0.0588235
balloon balloon 1.0000000
balloon balloons 0.1000000
Pablo Pablo 1.0000000
handicapped handicapped 0.6666667
contry country 0.0102041
contry countries 0.0071942
energy energy 0.6875000
