left leave 0.0555556
live leave 0.0555556
leave leave 0.8148148
off leave 0.0185185
forget leave 0.0185185
allow leave 0.0185185
sleep leave 0.0185185
tried tryed 1.0000000
water- water- 1.0000000
BWPM BWPM 1.0000000
hundreds hundreds 1.0000000
min min 0.3333333
minutes min 0.6666667
great whole 0.0086957
whole whole 0.9739130
full whole 0.0173913
only Only 1.0000000
buy buing 0.5000000
buying buing 0.5000000
Fashion fashion 0.0208333
industry fashion 0.0041667
models fashion 0.0041667
style fashion 0.0041667
fashions fashion 0.0791667
clothes fashion 0.0041667
fashionable fashion 0.0125000
fashion fashion 0.8708333
opportunity oportunitty 1.0000000
n nt 0.4347826
want nt 0.0434783
&apos;t nt 0.4347826
wanted nt 0.0434783
to nt 0.0434783
driving driving 1.0000000
addresses evoques 1.0000000
smile smile 1.0000000
fool fool 0.7500000
foolish fool 0.2500000
unpleasant unplesent 1.0000000
comforted comfort 0.1250000
comfort comfort 0.7500000
comforts comfort 0.1250000
affection affection 0.6666667
affect affection 0.3333333
a you 0.0001517
i you 0.0001517
creates you 0.0003033
you you 0.9831665
You you 0.0001517
arranged you 0.0001517
I you 0.0003033
confess you 0.0001517
provides you 0.0001517
promise you 0.0001517
suggesting you 0.0001517
apologize you 0.0001517
yours you 0.0001517
yourself you 0.0003033
question you 0.0001517
were you 0.0001517
enquire you 0.0001517
NULL you 0.0050045
we you 0.0003033
your you 0.0084926
up you 0.0001517
help hepl 1.0000000
offer ofer 1.0000000
European european 1.0000000
ABROAD ABROAD 1.0000000
CENTRE CENTRE 1.0000000
Drama Drama 1.0000000
been had 0.0010571
repeated had 0.0005285
gave had 0.0005285
occurred had 0.0005285
could had 0.0010571
lived had 0.0005285
would had 0.0036998
came had 0.0005285
supposed had 0.0015856
happened had 0.0021142
do had 0.0010571
experienced had 0.0010571
has had 0.0068710
spoke had 0.0005285
shared had 0.0005285
were had 0.0021142
NULL had 0.0486258
meant had 0.0058140
have had 0.0343552
fixed had 0.0005285
spent had 0.0021142
any had 0.0005285
a had 0.0005285
recommended had 0.0005285
get had 0.0005285
taken had 0.0005285
had had 0.8504228
swam had 0.0005285
hurt had 0.0005285
took had 0.0021142
received had 0.0010571
should had 0.0005285
some had 0.0005285
went had 0.0005285
started had 0.0005285
was had 0.0100423
got had 0.0021142
can had 0.0010571
did had 0.0084567
all had 0.0005285
must had 0.0005285
in had 0.0005285
recovered had 0.0005285
Kozin had 0.0005285
continued had 0.0005285
hairstyle hairstyl 1.0000000
amuse amuse 1.0000000
disappointing disapointing 1.0000000
Wood Wood 1.0000000
audience audients 1.0000000
consult consult 1.0000000
paid paied 1.0000000
sure choue 1.0000000
reply apply 0.1666667
choose apply 0.0833333
apply apply 0.6666667
take apply 0.0833333
relationship relantionship 1.0000000
optional optional 1.0000000
Turkish Turkish 1.0000000
interviews interviews 1.0000000
Franscico Franscico 1.0000000
office desk 0.0625000
desk desk 0.9375000
Mc Mc 1.0000000
Lugano Lugano 1.0000000
standing stooding 1.0000000
Ena Ena 1.0000000
detergents detergent 1.0000000
USA USA 1.0000000
rare rare 0.7777778
surprising rare 0.1111111
rarely rare 0.1111111
peace pease 1.0000000
Sanches Sanches 1.0000000
rent rent 0.8571429
rented rent 0.1428571
advertisement advertisiment 1.0000000
novel novel 1.0000000
low despide 0.2500000
numbers despide 0.2500000
despite despide 0.5000000
shape shapes 0.2500000
shapes shapes 0.7500000
scavenge scavange 1.0000000
LETTER LETTER 1.0000000
protecting protecting 1.0000000
helpless helpless 1.0000000
Carmen Carmen 1.0000000
underground underground 1.0000000
GOING GOING 0.7692308
GO GOING 0.0769231
IS GOING 0.0769231
TO GOING 0.0769231
actually Actualy 1.0000000
Olga hurled 0.5000000
hurled hurled 0.5000000
soup soup 1.0000000
robot robot 1.0000000
dramatically dramandesly 1.0000000
ex ex.boyfriend 0.3333333
boyfriend ex.boyfriend 0.3333333
- ex.boyfriend 0.3333333
reckon recone 1.0000000
Smythe Smythe 1.0000000
chance chanse 1.0000000
children chilldren 1.0000000
n coudn 0.5000000
could coudn 0.5000000
videos videos 1.0000000
production production 0.5555556
finished production 0.1111111
invention production 0.1111111
product production 0.2222222
mysterious misterious 1.0000000
THOSE THOSE 1.0000000
Gapon Gapon 1.0000000
makes marks 0.0833333
marks marks 0.7500000
&apos; marks 0.0833333
Mark marks 0.0833333
hates hates 1.0000000
cards cards 1.0000000
depression depression 1.0000000
tank tank 1.0000000
apology apolygists 1.0000000
regrets regrets 1.0000000
colleagues collegues 1.0000000
tidy tidy 0.8888889
tidying tidy 0.1111111
sincerely centainly 1.0000000
successive successive 1.0000000
congratulations congratulations 0.7500000
congratulating congratulations 0.1250000
letter congratulations 0.1250000
fun funny 0.2916667
funniest funny 0.0208333
funny funny 0.6875000
Diving Diving 1.0000000
constat constat 1.0000000
carrier carrier 1.0000000
famous risk 0.0769231
risks risk 0.0769231
danger risk 0.1538462
risk risk 0.6153846
NULL risk 0.0769231
ôDo ôDo 1.0000000
assistant assistant 0.9600000
cleaner assistant 0.0400000
Hillsborough s 0.0007424
panties s 0.0007424
, s 0.0014848
peace s 0.0007424
are s 0.0029696
Spears s 0.0007424
July s 0.0007424
ll s 0.0022272
nonsense s 0.0007424
re s 0.0007424
Faithfully s 0.0007424
has s 0.0007424
curiouses s 0.0007424
1900s s 0.0014848
NULL s 0.0809206
of s 0.0029696
be s 0.0022272
impolite s 0.0007424
advanced s 0.0007424
a s 0.0014848
you s 0.0007424
duties s 0.0007424
relationship s 0.0007424
closure s 0.0007424
was s 0.0059391
technology s 0.0007424
is s 0.0170750
Oasis s 0.0007424
30s s 0.0007424
the s 0.0007424
introduces s 0.0007424
s s 0.8500371
flowers s 0.0007424
names s 0.0007424
vault s 0.0007424
skipping s 0.0007424
accepting s 0.0007424
VIPs s 0.0007424
list s 0.0014848
keeps s 0.0007424
PCs s 0.0014848
its s 0.0051967
goal s 0.0007424
abilities s 0.0014848
ACTOR ACTOR 1.0000000
WHERE WHERE 1.0000000
adore adore 1.0000000
being symplifying 0.5000000
simplified symplifying 0.5000000
father father 0.9743590
grandfather father 0.0256410
Mafalda Mafalda 1.0000000
handiest andy 1.0000000
competitive competitive 1.0000000
1998 1998 1.0000000
school schol 1.0000000
Dance Dance 1.0000000
Segovia Segovia 1.0000000
grade grade 0.8000000
glad grade 0.2000000
CONSIDER CONSIDER 1.0000000
shook shaked 1.0000000
conserve conserve 1.0000000
fluid fluid 0.5000000
the fluid 0.5000000
CLASS CLASS 1.0000000
butterfly butterfly 1.0000000
stations stations 1.0000000
warming warming 1.0000000
achievements achievements 1.0000000
IMPORTANT IMPORTANT 1.0000000
are condition 0.0555556
working condition 0.0555556
order condition 0.0555556
situation condition 0.1111111
regarding condition 0.0555556
making condition 0.0555556
conditions condition 0.2777778
healthy condition 0.0555556
condition condition 0.2777778
structure structure 1.0000000
tells bring 0.0043860
taking bring 0.0043860
bringing bring 0.0131579
brings bring 0.0043860
take bring 0.0394737
give bring 0.0043860
emphasise bring 0.0043860
create bring 0.0043860
brought bring 0.0043860
should bring 0.0043860
bring bring 0.8903509
NULL bring 0.0043860
gave bring 0.0043860
have bring 0.0043860
cause bring 0.0043860
carried bring 0.0043860
confidence confidence 1.0000000
aid aid 1.0000000
figuring figuring 1.0000000
guess guess 0.9714286
NULL guess 0.0285714
quality qualities 0.5000000
films qualities 0.5000000
Prince Prince 1.0000000
Leisure Laisure 1.0000000
venue venue 1.0000000
barbecue barbecue 1.0000000
killed killed 1.0000000
mourning mourning 1.0000000
WEATHER WEATHER 1.0000000
cost costed 1.0000000
English Eglish 1.0000000
whatever Whateaver 1.0000000
whatsoever whatoever 1.0000000
B. B. 1.0000000
Really Really 1.0000000
night night 0.9510870
nights night 0.0054348
evening night 0.0108696
nightclub night 0.0054348
nightclubs night 0.0108696
nightlife night 0.0054348
midnight night 0.0108696
empty empty 1.0000000
yourselfö yourselfö 1.0000000
magazines magesins 1.0000000
dwarves dwarves 1.0000000
prevents prevents 1.0000000
give grant 1.0000000
fed fed 1.0000000
enjoy enjyoi 1.0000000
Brunner Brunner 0.5714286
s Brunner 0.1428571
&apos; Brunner 0.1428571
songs Brunner 0.1428571
wasting waste 0.0810811
NULL waste 0.0270270
waste waste 0.7837838
wasted waste 0.0540541
wastes waste 0.0540541
nightmares nightmares 1.0000000
Accordingly Accordingly 1.0000000
fruit fruits 0.5000000
fruits fruits 0.5000000
STAGE STAGE 1.0000000
beforehand beforehand 1.0000000
PROMISED PROMISE 1.0000000
endure bear 0.2000000
bear bear 0.8000000
nowadays Ourdays 1.0000000
underwear an 0.0013210
to an 0.0039630
compensation an 0.0013210
electricity an 0.0013210
action an 0.0013210
another an 0.0303831
some an 0.0052840
politician an 0.0013210
arguments an 0.0026420
incredibly an 0.0013210
produce an 0.0013210
and an 0.0224571
accommodation an 0.0052840
invitation an 0.0013210
an an 0.8110964
immediate an 0.0013210
my an 0.0013210
service an 0.0013210
conclude an 0.0013210
as an 0.0013210
you an 0.0013210
announcement an 0.0013210
appointments an 0.0013210
any an 0.0013210
a an 0.0501982
accept an 0.0013210
NULL an 0.0132100
inconvenience an 0.0013210
plan an 0.0013210
the an 0.0250991
one an 0.0013210
can an 0.0013210
shared an 0.0013210
attitudes attituds 1.0000000
TRIP TRIP 1.0000000
owe owe 1.0000000
Schmidt Schmidt 1.0000000
snowing snowing 1.0000000
operations operation 0.1428571
operation operation 0.8571429
pink pink 1.0000000
the attraction 0.1666667
attraction attraction 0.3333333
&apos; attraction 0.1666667
attention attraction 0.1666667
s attraction 0.1666667
enjoys enjoys 0.3333333
does enjoys 0.3333333
pleases enjoys 0.3333333
star Danny 0.0024155
Danny Danny 0.9951691
said Danny 0.0024155
notified notified 1.0000000
solutions issue 0.2000000
issue issue 0.8000000
widest widest 1.0000000
Peines Peines 1.0000000
helping helping 0.9009901
help helping 0.0891089
helped helping 0.0099010
increases increases 1.0000000
in differente 0.5000000
different differente 0.5000000
PC P.C. 1.0000000
click click 1.0000000
made booked 0.0476190
booked booked 0.9523810
early ealary 0.5000000
days ealary 0.5000000
damage damage 1.0000000
timetable timetable 0.6923077
timetables timetable 0.0769231
performance timetable 0.0769231
time timetable 0.1538462
regrettable regret 0.0952381
regret regret 0.9047619
Are Are 0.3333333
are Are 0.6666667
surrounded surrounded 1.0000000
stars stars 1.0000000
easy easily 0.0232558
easier easily 0.0465116
easily easily 0.9302326
weapons Wapons 1.0000000
YOU YOU 0.9693878
you YOU 0.0204082
NULL YOU 0.0102041
audience crowd 0.0555556
crowd crowd 0.5555556
mad crowd 0.0555556
crowded crowd 0.1111111
crowds crowd 0.2222222
Colston Colston 1.0000000
she she 0.9831528
if she 0.0012034
about she 0.0012034
mine she 0.0012034
he she 0.0024067
it she 0.0036101
her she 0.0060168
we she 0.0012034
&apos; fathers 0.2500000
father fathers 0.2500000
her fathers 0.2500000
s fathers 0.2500000
robots robotes 1.0000000
DAILY DAILY 1.0000000
kind kinds 0.0204082
kinds kinds 0.9387755
different kinds 0.0204082
NULL kinds 0.0204082
European Europeen 1.0000000
block block 1.0000000
for forever 0.2000000
forever forever 0.6000000
ever forever 0.2000000
should shoot 0.3333333
shoot shoot 0.6666667
range affordable 0.2500000
affordable affordable 0.2500000
out affordable 0.2500000
price affordable 0.2500000
information informations 1.0000000
NULL inasmuch 1.0000000
GETS GETS 1.0000000
observations observations 1.0000000
regularly regularly 0.8888889
have regularly 0.1111111
ignore ignore 0.6000000
&apos;t ignore 0.1000000
anything ignore 0.1000000
know ignore 0.1000000
n ignore 0.1000000
us discouraging 0.3333333
discouraging discouraging 0.6666667
quota quotas 0.2500000
of quotas 0.2500000
tickets quotas 0.2500000
a quotas 0.2500000
present dressing 0.1250000
dressing dressing 0.6250000
dress dressing 0.2500000
coffee coffees 1.0000000
operating operating 1.0000000
, of 0.0003121
&apos; of 0.0028090
outside of 0.0001561
physics of 0.0003121
toilets of 0.0001561
on of 0.0034332
2.30 of 0.0001561
developments of 0.0001561
running of 0.0001561
at of 0.0040574
regarding of 0.0004682
he of 0.0001561
for of 0.0123283
away of 0.0001561
frenetically of 0.0001561
fuss of 0.0001561
to of 0.0112360
among of 0.0001561
has of 0.0001561
account of 0.0001561
or of 0.0001561
start of 0.0001561
of of 0.8832709
Switzerland of 0.0001561
have of 0.0001561
NULL of 0.0391698
hour of 0.0001561
concerning of 0.0004682
2050 of 0.0001561
being of 0.0001561
a of 0.0006242
replace of 0.0001561
abuse of 0.0001561
about of 0.0056180
students of 0.0001561
as of 0.0004682
be of 0.0001561
agreeing of 0.0001561
I of 0.0006242
good of 0.0001561
Jam of 0.0001561
into of 0.0001561
we of 0.0003121
Savage of 0.0001561
aluminium of 0.0001561
enthusiast of 0.0001561
should of 0.0001561
no of 0.0001561
off of 0.0007803
renovation of 0.0001561
toothpaste of 0.0001561
within of 0.0001561
than of 0.0003121
etc of 0.0001561
was of 0.0003121
decoration of 0.0001561
Of of 0.0001561
there of 0.0003121
from of 0.0024969
citizen of 0.0001561
limit of 0.0001561
with of 0.0034332
repairs of 0.0001561
lacking of 0.0001561
receipt of 0.0001561
fact of 0.0001561
bookworms of 0.0001561
in of 0.0137328
featuring of 0.0001561
the of 0.0003121
between of 0.0001561
organise of 0.0001561
these of 0.0003121
mid of 0.0001561
distracted of 0.0001561
s of 0.0018727
overpriced of 0.0001561
maintenance of 0.0001561
more of 0.0001561
Brunner of 0.0001561
electrician of 0.0001561
she of 0.0003121
lacks of 0.0001561
by of 0.0015605
have haves 1.0000000
teachers Teachers 1.0000000
equal eaqual 1.0000000
recommend reccomend 1.0000000
Over OVER 0.0303030
OVER OVER 0.9696970
least lest 1.0000000
at 7.00 0.5000000
7.00 7.00 0.5000000
BORNETE BORNETE 1.0000000
title tittle 1.0000000
opinion apineon 1.0000000
rarely rarely 1.0000000
sociable sociaple 1.0000000
unfortunately unforturnily 1.0000000
direction directions 1.0000000
alcohol alcohol 0.8000000
drink alcohol 0.2000000
why whay 1.0000000
recently Rescently 1.0000000
seaman seaman 1.0000000
asked offered 0.0312500
advertised offered 0.0312500
promised offered 0.0312500
invited offered 0.0625000
offered offered 0.8437500
headquarters quarter 0.0500000
quarter quarter 0.9500000
ANY PRIVACY 0.3333333
. PRIVACY 0.3333333
PRIVACY PRIVACY 0.3333333
something someting 1.0000000
suspension suspended 0.2500000
suspended suspended 0.7500000
behaviour behaveare 1.0000000
majority beeing 0.2000000
being beeing 0.6000000
narrow beeing 0.2000000
Hampson Hampson 1.0000000
Buenos Buenos 1.0000000
lady lady 1.0000000
Fanetti Fanetti 1.0000000
corrected corrected 1.0000000
price Price 1.0000000
chef chef 1.0000000
candidates candidates 1.0000000
link link 1.0000000
harvest harvest 1.0000000
tools tools 1.0000000
lifestyle lifestyle 1.0000000
holiday holyday 1.0000000
competitors competitors 1.0000000
Saturdays Saturdays 1.0000000
theatre theart 1.0000000
opinion opinion 0.9514563
positive opinion 0.0048544
opinions opinion 0.0242718
NULL opinion 0.0097087
mind opinion 0.0048544
vision opinion 0.0048544
GIVEN GIVEN 1.0000000
extraordinary extraordinary 0.8888889
an extraordinary 0.1111111
emptiness emptiness 1.0000000
connecting connecting 0.6000000
by connecting 0.2000000
liaise connecting 0.2000000
sell sales 0.1000000
saleswomen sales 0.1000000
sales sales 0.8000000
mins mins 0.5000000
minutes mins 0.5000000
consciously consciousness 1.0000000
birthday birthday 1.0000000
machines machines 0.9069767
transportation machines 0.0232558
appliances machines 0.0465116
technology machines 0.0232558
drove drove 0.8571429
had drove 0.1428571
DANGER DANGER 1.0000000
entered entered 0.7692308
onto entered 0.0384615
got entered 0.0384615
won entered 0.0384615
arrived entered 0.0384615
came entered 0.0384615
went entered 0.0384615
A ACCOMODATION 0.3333333
ACCOMMODATION ACCOMODATION 0.6666667
invited ivited 1.0000000
Rolling Rolling 1.0000000
guaranteed guaranteed 1.0000000
assess assess 0.6666667
which assess 0.3333333
conflict conflict 1.0000000
you yous 1.0000000
visited viseted 0.3333333
have viseted 0.3333333
we viseted 0.3333333
outdoor outdoors 0.5000000
outdoors outdoors 0.5000000
schoolyard schoolyard 1.0000000
effectively effectly 1.0000000
noisy noisy 1.0000000
their thier 1.0000000
theatre theartre 1.0000000
analyse analize 0.6666667
analyze analize 0.3333333
staff staffs 0.8333333
staffs staffs 0.1666667
apology apologation 1.0000000
another matter 0.0169492
whether matter 0.0338983
NULL matter 0.0169492
matters matter 0.0338983
matter matter 0.8813559
thing matter 0.0169492
with together 0.0240964
NULL together 0.0120482
fine together 0.0120482
them together 0.0120482
sex together 0.0120482
together together 0.8915663
went together 0.0120482
well together 0.0120482
piece together 0.0120482
extremes extremities 1.0000000
rice ricer 1.0000000
Lise Lise 1.0000000
wrongly wrongly 1.0000000
microwave microwaver 1.0000000
faithful faithfull 0.3333333
faithfully faithfull 0.6666667
landscapes landscapes 0.8888889
landscape landscapes 0.1111111
buyers buyers 1.0000000
misleading unreliable 1.0000000
Aguilar Aguilar 1.0000000
greetings greetings 1.0000000
shows presents 0.1000000
presents presents 0.8000000
etc presents 0.1000000
interviews inverviews 1.0000000
ay ay 1.0000000
paradise paradise 1.0000000
CAMP CAMP 1.0000000
. .. 0.2321429
.. .. 0.7500000
&quot; .. 0.0178571
a leaking 0.5000000
leak leaking 0.5000000
flats flats 1.0000000
shoppers shoppers 1.0000000
proposal proposal 0.6666667
reasonably proposal 0.3333333
1874 1874 1.0000000
HAPPENS HAPPEN 1.0000000
competition competence 1.0000000
Lula Lula 1.0000000
catching catching 0.7500000
drawing catching 0.2500000
excitement exitement 1.0000000
la la 1.0000000
the tempereture 0.5000000
temperature tempereture 0.5000000
Carter Carter 1.0000000
cafe coffee 0.0526316
coffee coffee 0.9473684
TO GIVE 0.0909091
GIVE GIVE 0.9090909
YOUNGER YOUNGER 1.0000000
wise wise 0.3333333
why wise 0.3333333
clever wise 0.3333333
portable portable 1.0000000
Upper Upper 1.0000000
P.S P.S 1.0000000
criticised criticised 1.0000000
functional functional 1.0000000
SANTOS SANTOS 1.0000000
teaches teachs 1.0000000
holiday hollydays 0.5000000
holidays hollydays 0.5000000
complaints complaints 0.8750000
complaint complaints 0.1250000
LOVER LOVER 1.0000000
adjusted adjusted 1.0000000
FUTURE FUTURE 1.0000000
mews mews 1.0000000
blue blue 1.0000000
Angles Angles 1.0000000
George George 1.0000000
sickle sickle 1.0000000
from between 0.0550459
including between 0.0091743
between between 0.8807339
either between 0.0091743
of between 0.0183486
open between 0.0091743
combination between 0.0183486
President President 1.0000000
centuries centuries 1.0000000
VIRTUAL VIRTUAL 1.0000000
rush rush 1.0000000
vegetables vegetables 1.0000000
FRIENDLY FRIENDLY 1.0000000
coffee coffe 1.0000000
DISCOVERIES DISCOVERIES 1.0000000
unpleasant umpleasant 1.0000000
IF WILL 0.0500000
BE WILL 0.0500000
WILL WILL 0.9000000
with beggining 0.0833333
start beggining 0.0833333
first beggining 0.0833333
beginning beggining 0.6666667
NULL beggining 0.0833333
16.12.00 16.12.00 1.0000000
affecting affecting 1.0000000
problem probleme 1.0000000
work wark 1.0000000
DENNY DENNY 1.0000000
BOOKMARKS BOOKMARKS 1.0000000
moderate modorate 1.0000000
guaranteed guarantee 1.0000000
them cross 0.2500000
cross cross 0.7500000
HOUSES HOUSES 1.0000000
Lecce Lecce 1.0000000
anyone saying 0.0222222
saying saying 0.8222222
said saying 0.0222222
giving saying 0.0222222
say saying 0.0666667
telling saying 0.0444444
elements elements 0.6666667
facts elements 0.3333333
admission addmission 1.0000000
sense sence 1.0000000
Helena Helena 1.0000000
Dinner Dinner 1.0000000
era impresionist 0.5000000
impressionist impresionist 0.5000000
Skoclow Skoclow 1.0000000
Rossell Rossell 1.0000000
credibility credibility 1.0000000
beauty beauty 1.0000000
canalized canalized 1.0000000
CENTURY CENTURY 1.0000000
Houe houe 0.3333333
how houe 0.6666667
beginning economic 0.2500000
the economic 0.2500000
economic economic 0.5000000
politics politics 0.7500000
into politics 0.2500000
DISAPPOINTMENT DISAPPOINTMENT 1.0000000
request requirement 0.5000000
requirement requirement 0.5000000
COMMUNICATE COMMUNICATE 1.0000000
particular particurely 1.0000000
set settled 0.3333333
settled settled 0.3333333
presented settled 0.3333333
Bola Bola 1.0000000
opportunity oppotunity 1.0000000
how haue 1.0000000
thing matters 0.0384615
classmates matters 0.0384615
matters matters 0.9230769
explanation ecxpenetion 1.0000000
rang rung 1.0000000
leisure leisur 1.0000000
19,00 19,00 1.0000000
350 350 1.0000000
it afforded 0.5000000
afford afforded 0.5000000
Thanasukolwit Thanasukolwit 1.0000000
knives knifes 1.0000000
homework work 0.0026247
job work 0.0183727
, work 0.0026247
career work 0.0026247
work work 0.9133858
task work 0.0052493
worked work 0.0052493
boss work 0.0026247
housework work 0.0104987
works work 0.0052493
woke work 0.0026247
labour work 0.0026247
working work 0.0236220
repairs work 0.0026247
carry carried 0.2500000
carried carried 0.7500000
prove prouves 1.0000000
bottom bottom 1.0000000
diseases disease 0.3333333
disease disease 0.6666667
accused accused 1.0000000
believe beleave 1.0000000
guards guards 1.0000000
ENJOY ENJOY 1.0000000
academy acodimy 1.0000000
577 577 1.0000000
MODELS MODELS 1.0000000
HAS CHANGED 0.1428571
CHANGED CHANGED 0.8571429
NULL paper 0.0263158
newspaper paper 0.0263158
piece paper 0.0263158
note paper 0.0526316
part paper 0.0263158
flyer paper 0.0263158
paper paper 0.8157895
playing practising 0.2142857
training practising 0.0714286
doing practising 0.2142857
practise practising 0.0714286
been practising 0.0714286
would practising 0.0714286
practising practising 0.2857143
DEVELOPMENT DEVELOPEMENT 1.0000000
10.30 10.30 1.0000000
PROVIDING PROVIDING 1.0000000
protection protection 1.0000000
MINUTES MINUTES 1.0000000
Arnos Arnos 1.0000000
quantity quantity 0.6666667
number quantity 0.3333333
enemy enarmys 1.0000000
Oscar Oscar 1.0000000
dictionary dictionary 1.0000000
survive servive 1.0000000
5th 5th 1.0000000
Steve Steve 1.0000000
earned earned 0.7142857
had earned 0.1428571
won earned 0.1428571
policeman policeman 1.0000000
surprise sorprise 1.0000000
depressing depressing 1.0000000
Deli Deli 1.0000000
dream dreams 0.0714286
dreams dreams 0.9285714
- fortyfive 0.3333333
forty fortyfive 0.3333333
five fortyfive 0.3333333
we leisure 0.0094340
leisure leisure 0.9056604
free leisure 0.0094340
hobby leisure 0.0094340
leisure- leisure 0.0377358
Leisure leisure 0.0188679
fun leisure 0.0094340
looks looks 0.8125000
looked looks 0.1250000
look looks 0.0625000
full fulled 1.0000000
superstar superstar 1.0000000
in Julay 0.5000000
July Julay 0.5000000
date dated 0.2500000
our dated 0.2500000
update dated 0.2500000
dated dated 0.2500000
Messages Messages 1.0000000
Lune Lune 1.0000000
musicians musicians 1.0000000
nylon nylon 1.0000000
ping ping 1.0000000
talked asked 0.0033784
question asked 0.0033784
asked asked 0.9527027
ask asked 0.0371622
asking asked 0.0033784
replied rewritten 1.0000000
Savage Savage 1.0000000
sides sides 0.8000000
side sides 0.2000000
hours houers 1.0000000
FAMOUS FAMOUS 1.0000000
master master 1.0000000
university Univercity 1.0000000
fitting fitting 1.0000000
report report 1.0000000
ticket tiket 1.0000000
expanding expanding 1.0000000
communicating comunicat 1.0000000
sailed sailed 1.0000000
crashes crashes 1.0000000
individual individuell 1.0000000
8245123 8245123 1.0000000
it everything 0.0031746
all everything 0.0063492
anything everything 0.0031746
everything everything 0.9873016
Cecilia Cecilia 1.0000000
taking take 0.0154799
carry take 0.0015480
sunbathe take 0.0015480
do take 0.0061920
tell take 0.0015480
hold take 0.0015480
fly take 0.0015480
participate take 0.0015480
should take 0.0030960
something take 0.0015480
opt take 0.0015480
play take 0.0030960
put take 0.0015480
understand take 0.0015480
took take 0.0092879
pick take 0.0015480
form take 0.0015480
get take 0.0123839
taken take 0.0030960
receive take 0.0015480
takes take 0.0092879
keep take 0.0015480
will take 0.0030960
take take 0.8823529
make take 0.0061920
consider take 0.0015480
talk take 0.0015480
considering take 0.0015480
bring take 0.0030960
include take 0.0015480
NULL take 0.0030960
have take 0.0077399
refused take 0.0015480
cause take 0.0015480
choose take 0.0015480
unsuitable unsuitable 1.0000000
Volavkova Volavkova 1.0000000
nationalities nationalities 1.0000000
never neve 1.0000000
have invended 0.5000000
invented invended 0.5000000
NUCLEAR THE 0.0027248
ONE THE 0.0027248
UNIVERSITY THE 0.0027248
DO THE 0.0027248
THE THE 0.9073569
THIS THE 0.0027248
SCHOOL THE 0.0054496
MAINLY THE 0.0027248
AFTER THE 0.0027248
FACTORIES THE 0.0027248
FORTUNE THE 0.0027248
MODERN THE 0.0027248
PEOPLE THE 0.0027248
DEEP THE 0.0027248
TELEVISION THE 0.0027248
HUMAN THE 0.0027248
A THE 0.0108992
IT THE 0.0054496
LAST THE 0.0027248
SCIENCE THE 0.0027248
COMPUTERS THE 0.0027248
the THE 0.0054496
SADLY THE 0.0027248
NULL THE 0.0163488
right tight 1.0000000
CABIN CABINS 1.0000000
micros micros 1.0000000
Alois Alois 1.0000000
MEN MEN 1.0000000
want likely 0.1111111
probably likely 0.1111111
likely likely 0.7777778
work whork 1.0000000
Solatov Solatov 1.0000000
had funds 0.5000000
funds funds 0.5000000
hesitate hesistate 1.0000000
tall tall 0.6666667
tell tall 0.3333333
pizzas pizzas 1.0000000
Reale Reale 1.0000000
Saturday saturday 1.0000000
TV TV 0.9605263
TVs TV 0.0394737
seat sit 0.1290323
sit sit 0.7096774
sitting sit 0.0322581
sat sit 0.0645161
enter sit 0.0322581
seats sit 0.0322581
closest closest 0.6666667
close closest 0.3333333
advances progresses 1.0000000
grateful thankful 0.5714286
thankful thankful 0.4285714
15th 15th 1.0000000
Simona Simona 1.0000000
atmosphere athmospher 1.0000000
Hunter Hunter 1.0000000
accompanying accompanying 1.0000000
heavy heay 1.0000000
cosy cozy 1.0000000
hygiene hygienic 1.0000000
Arts arts 0.0571429
arts arts 0.9428571
n haen 0.5000000
had haen 0.5000000
FLY FLY 1.0000000
appreciate preciate 0.6000000
would preciate 0.2000000
your preciate 0.2000000
guitar guiter 1.0000000
cats cats 1.0000000
Carey Carey 1.0000000
knocked knocked 1.0000000
had forgot 0.0869565
forget forgot 0.1304348
forgot forgot 0.5652174
left forgot 0.0434783
forgotten forgot 0.1739130
Luc Luc 1.0000000
1996 1996 1.0000000
Kyon Kyon 1.0000000
discounts discouns 1.0000000
journalists punishing 0.3333333
by punishing 0.3333333
punishing punishing 0.3333333
6277 6277 1.0000000
confusion confusion 0.8000000
much confusion 0.2000000
Company Company 1.0000000
. T.V. 0.0909091
front T.V. 0.0909091
a T.V. 0.0909091
T.V. T.V. 0.3636364
TV T.V. 0.3636364
accessories accesoires 1.0000000
garments garments 1.0000000
department departament 1.0000000
basic basical 1.0000000
son sun 0.0909091
sun sun 0.8636364
sunrise sun 0.0454545
are advantages 0.0256410
advantages advantages 0.9230769
well advantages 0.0256410
advantage advantages 0.0256410
Rod Rod 1.0000000
duet duo 1.0000000
industry firm 0.1666667
firm firm 0.8333333
consolation solace 1.0000000
jealous jelous 1.0000000
than comfortable 0.0087719
easier comfortable 0.0087719
comfortable comfortable 0.9649123
pleasant comfortable 0.0087719
past comfortable 0.0087719
necessary nesessary 1.0000000
mentions mentiones 1.0000000
3CD 3CD 1.0000000
defenceless indefense 1.0000000
should shoudn 0.4000000
n shoudn 0.4000000
shoudn shoudn 0.2000000
WAS DELAYED 0.5000000
DELAYED DELAYED 0.5000000
equally equal 0.5000000
like equal 0.5000000
shout shout 0.6666667
at shout 0.3333333
examined examined 1.0000000
semester semester 1.0000000
BAND BAND 1.0000000
/ / 1.0000000
types fashionable 0.0526316
fashionable fashionable 0.9473684
carefully questioning 0.5000000
asking questioning 0.5000000
crash crash 1.0000000
tournament turnament 1.0000000
actually already 0.0072464
starts already 0.0072464
a already 0.0072464
this already 0.0072464
still already 0.0072464
yet already 0.0072464
recovered already 0.0072464
really already 0.0072464
organised already 0.0072464
already already 0.8913043
soon already 0.0072464
watched already 0.0072464
awake already 0.0072464
NULL already 0.0144928
organized already 0.0072464
Stanford Stanford 1.0000000
defeat defeat 1.0000000
an immediately 0.0416667
immediately immediately 0.9583333
sat sitted 1.0000000
focus focus 1.0000000
camped camping 0.0121951
tent camping 0.0121951
holiday camping 0.0243902
campsite camping 0.0365854
camping camping 0.9024390
camp camping 0.0121951
decisions decisions 1.0000000
packed packed 1.0000000
black black 1.0000000
masters masters 0.5000000
do masters 0.5000000
Dear Ms 0.0181818
Madam Ms 0.0181818
Ms Ms 0.9636364
reports reports 1.0000000
unfortunately Unfourtunately 1.0000000
SUCH SUCH 1.0000000
hateful hateful 1.0000000
drank drank 1.0000000
grinned grinned 1.0000000
disappoint disappoint 0.1818182
disappointed disappoint 0.3636364
disappointment disappoint 0.1818182
NULL disappoint 0.0909091
disappointing disappoint 0.1818182
maybe meaby 1.0000000
leak leakage 1.0000000
your failing 0.2000000
failing failing 0.8000000
outdoor door 0.0212766
entrance door 0.0212766
door door 0.9574468
rules Rules 1.0000000
knots knots 0.5000000
, knots 0.5000000
) 1999 0.2500000
1999 1999 0.5000000
spring 1999 0.2500000
TRAVEL TRAVEL 1.0000000
stated state 0.0588235
stage state 0.1764706
states state 0.0588235
state state 0.5882353
provide state 0.1176471
bathroom bathroom 1.0000000
things precisions 1.0000000
met done 0.0071942
calculator done 0.0071942
tried done 0.0071942
conducted done 0.0071942
entered done 0.0143885
did done 0.0791367
had done 0.0071942
carried done 0.0071942
been done 0.0287770
booked done 0.0071942
done done 0.6834532
organised done 0.0071942
created done 0.0071942
taken done 0.0071942
doing done 0.0215827
given done 0.0143885
made done 0.0287770
started done 0.0071942
occur done 0.0071942
a done 0.0143885
do done 0.0287770
Kimber Kimber 1.0000000
dismay dismay 1.0000000
Lap Lap 1.0000000
initial initial 1.0000000
IN WITH 0.0322581
TO WITH 0.0322581
WITHOUT WITH 0.0322581
NULL WITH 0.0322581
ME WITH 0.0322581
WITH WITH 0.8064516
HIM WITH 0.0322581
xxxx xxxx 1.0000000
generous generous 1.0000000
ugly ugly 1.0000000
September September 1.0000000
Turner Turner 1.0000000
REALIZED REALIZED 1.0000000
&apos;Arena &apos;Arena 1.0000000
greedy greede 1.0000000
cultural cultural 1.0000000
vacation vacation 1.0000000
write wite 1.0000000
imaginative imagintive 1.0000000
UNICEF UNICEF 1.0000000
else eles 1.0000000
june june 0.2000000
June june 0.8000000
X300 X300 1.0000000
software software 1.0000000
Jessica Jessica 1.0000000
NULL my 0.0047596
the my 0.0040457
suggestions my 0.0002380
distracted my 0.0002380
of my 0.0002380
I my 0.0019039
mismatched my 0.0002380
me my 0.0038077
by my 0.0002380
my my 0.9769158
mine my 0.0004760
any my 0.0002380
a my 0.0019039
many my 0.0002380
jumped my 0.0002380
suitable my 0.0002380
your my 0.0004760
myself my 0.0016659
on my 0.0002380
relax my 0.0002380
our my 0.0002380
to my 0.0004760
My my 0.0002380
disappointment my 0.0002380
relaxing my 0.0002380
Micheal Micheal 1.0000000
recognises recognises 1.0000000
&apos; U.S 0.3333333
U.S U.S 0.3333333
s U.S 0.3333333
bulk bulk 1.0000000
guitars guiters 1.0000000
nervously nervously 1.0000000
pill pill 1.0000000
guiding guiding 0.5000000
guided guiding 0.5000000
equipped equipated 0.5000000
- equipated 0.5000000
prove proove 1.0000000
accommodation accommodations 1.0000000
those teenagers 0.0625000
teenage teenagers 0.1250000
teenagers teenagers 0.6875000
teenager teenagers 0.0625000
a teenagers 0.0625000
schoolyard yard 0.2500000
yard yard 0.7500000
without withou 1.0000000
dependent independence 0.2500000
independence independence 0.5000000
us independence 0.2500000
toothpaste toothpaste 1.0000000
p.c p.c 1.0000000
received receiving 0.0208333
receiving receiving 0.8958333
receive receiving 0.0833333
45 45min 0.5000000
minutes 45min 0.5000000
DESIGNERS STYLISTS 0.5000000
STYLISTS STYLISTS 0.5000000
executive executive 1.0000000
technology technologi 1.0000000
understanding comprehensible 1.0000000
Changed Changed 1.0000000
KNOWN KNOWNS 0.5000000
- KNOWNS 0.5000000
CHOSEN CHOSEN 1.0000000
Dick Dick 1.0000000
accommodation acommodation 1.0000000
highway highway 1.0000000
&apos;M &apos;M 1.0000000
tolerate tolerate 1.0000000
met meet 0.0309278
meeting meet 0.0515464
have meet 0.0103093
meet meet 0.8556701
find meet 0.0103093
into meet 0.0103093
see meet 0.0309278
faithfully faitfull 1.0000000
motives motives 1.0000000
Jovi Jovi 1.0000000
bridge connection 0.1000000
connection connection 0.8000000
consequently connection 0.1000000
kim kim 1.0000000
Jon Jon 1.0000000
possibilities possibilities 0.7142857
opportunities possibilities 0.2142857
options possibilities 0.0714286
swot swot 1.0000000
drawn kept 0.0400000
keep kept 0.1200000
kept kept 0.7200000
were kept 0.0400000
grabbed kept 0.0400000
out kept 0.0400000
AS PERFECT 0.1428571
PERFECT PERFECT 0.8571429
seventeen seventeen 1.0000000
Central Central 1.0000000
intended intended 1.0000000
YES YES 1.0000000
watching wecting 1.0000000
rescued rescued 1.0000000
pianist pianist 1.0000000
Han Han 1.0000000
seats sits 1.0000000
arts art 0.0266667
show art 0.0133333
artistic art 0.0133333
art art 0.9333333
Art art 0.0133333
dreaming driming 1.0000000
heal heal 1.0000000
fence faints 1.0000000
Wednesday Wednesday 1.0000000
Seoul Seoul 1.0000000
machine mashine 1.0000000
folks fokes 1.0000000
shocked shoked 1.0000000
cat cat 0.5000000
the cat 0.5000000
technological technologic 1.0000000
subject subjekt 1.0000000
weaker weaker 1.0000000
immediately John 0.0357143
John John 0.9642857
elite elite 1.0000000
rearrange rearrange 1.0000000
happy happ 1.0000000
Jan Jan 1.0000000
Catana Catana 0.5000000
home Catana 0.5000000
survival survival 1.0000000
MARIA MARIA 1.0000000
librarians librarians 1.0000000
Javi Javi 1.0000000
mid mid 0.5000000
midnight mid 0.5000000
Candoso Candoso 1.0000000
public pubblic 1.0000000
marvellously marvellous 0.0434783
amazed marvellous 0.0434783
marvellous marvellous 0.9130435
fashion fasion 1.0000000
institute institute 1.0000000
WAY WAY 1.0000000
newspapers newspaper 0.0555556
newspaper newspaper 0.9444444
Oh Oh 0.9285714
oh Oh 0.0714286
TRUE TRUE 1.0000000
CD Cd 0.3333333
CDs Cd 0.3333333
- Cd 0.3333333
hanging hanging 0.6666667
hang hanging 0.3333333
voices voice 0.0357143
&apos; voice 0.0357143
voice voice 0.9285714
honestly honestly 0.8000000
honest honestly 0.2000000
screens screens 1.0000000
conclusion conclussion 1.0000000
and posipole 1.0000000
Incas Incas 1.0000000
developments developments 1.0000000
Adalbert Adalbert 1.0000000
lunch lunchbreak 0.5000000
break lunchbreak 0.5000000
CHANCE CHANCE 1.0000000
got happened 0.0085470
was happened 0.0170940
discovered happened 0.0085470
happened happened 0.8547009
happen happened 0.0598291
happens happened 0.0085470
event happened 0.0085470
put happened 0.0085470
NULL happened 0.0085470
so happened 0.0085470
happening happened 0.0085470
prepare perpare 1.0000000
experience expreience 1.0000000
Hamlet Hamlet 1.0000000
sailing sailling 1.0000000
stolen stollen 1.0000000
celebrations celabrations 1.0000000
TITANIC TITANIC 1.0000000
tiny tiny 1.0000000
disappointment dissopointness 1.0000000
plots graveyards 0.5000000
graveyard graveyards 0.5000000
Metro Metro 1.0000000
Mechanical Mechanical 1.0000000
Redford Redford 1.0000000
differences diffences 1.0000000
give infrom 1.0000000
crystal crystal 1.0000000
PHOTOGRAPHS PHOTOGRAPHS 1.0000000
lacking lacked 1.0000000
oxygen oxygen 1.0000000
festivals festivals 1.0000000
exposed revealed 0.2500000
revealed revealed 0.7500000
was supposted 0.5000000
supposed supposted 0.5000000
GETING GETING 1.0000000
spoil spoil 1.0000000
enjoy like 0.0003931
NULL like 0.0043239
that like 0.0003931
choose like 0.0003931
liked like 0.0066824
Ted like 0.0003931
appeal like 0.0003931
as like 0.0165094
about like 0.0007862
treasure like 0.0003931
consider like 0.0003931
paralyzed like 0.0003931
though like 0.0003931
walking like 0.0003931
example like 0.0003931
but like 0.0003931
likes like 0.0019654
100 like 0.0003931
are like 0.0003931
like like 0.9579403
to like 0.0003931
foolish like 0.0003931
with like 0.0003931
love like 0.0003931
there like 0.0003931
want like 0.0031447
part like 0.0003931
wanted like 0.0003931
standard like 0.0003931
galleries galleries 1.0000000
8.25 8.25 1.0000000
minutes mn 1.0000000
falls falls 1.0000000
received receved 1.0000000
SOMEONE SOMEONE 1.0000000
emphasis emphasis 1.0000000
REPLY REPLY 1.0000000
falling felling 0.5000000
feeling felling 0.5000000
XIX XIX 1.0000000
button button 1.0000000
and locked 0.2500000
locked locked 0.7500000
Year Year 1.0000000
art artist 0.0434783
artist artist 0.3913043
artists artist 0.5652174
familiar familiare 1.0000000
who desire 0.1250000
desire desire 0.8750000
satisfy supply 0.3333333
supplied supply 0.3333333
supply supply 0.3333333
Korn Korn 1.0000000
concrete concret 1.0000000
persuade persuade 1.0000000
dust dust 1.0000000
expert expert 1.0000000
areas topics 0.1111111
topics topics 0.6666667
facts topics 0.1111111
subjects topics 0.1111111
describes describes 1.0000000
questions questions 0.9784946
answers questions 0.0053763
question questions 0.0053763
some questions 0.0053763
information questions 0.0053763
ticket pricing 0.3333333
price pricing 0.3333333
of pricing 0.3333333
lasers laisers 1.0000000
IMPRESSED IMPRESSED 1.0000000
YEARS YEARS 1.0000000
secrets secrects 1.0000000
other enougher 0.5000000
another enougher 0.5000000
backyard backyard 1.0000000
motive motive 1.0000000
advertisement adversitement 1.0000000
shocked schoked 1.0000000
men gentlemen 0.5000000
gentlemen gentlemen 0.5000000
depends depands 1.0000000
hi Hifi 0.3333333
fi Hifi 0.3333333
- Hifi 0.3333333
comfortable comfatable 1.0000000
adjectives adjectives 1.0000000
murderer murder 0.5000000
murder murder 0.5000000
graceful graceful 1.0000000
proclaimed proclaimed 1.0000000
recommending recommending 1.0000000
inaccurate failure 0.3333333
replaced failure 0.3333333
been failure 0.3333333
save evite 1.0000000
Annette Annette 1.0000000
- wellknown 0.3333333
well wellknown 0.3333333
known wellknown 0.3333333
SEE SEE 1.0000000
innovations inovation 1.0000000
tired tired 1.0000000
Last Last 1.0000000
YEAR YEAR 1.0000000
UNIVERSE UNIVERSE 1.0000000
THONGCHAI THONGCHAI 1.0000000
unlimited unlimited 1.0000000
Brian Brian 1.0000000
different differend 1.0000000
regards reguard 1.0000000
working hiring 1.0000000
there confusing 0.3333333
confused confusing 0.3333333
confusing confusing 0.3333333
whenever whenever 1.0000000
drink stg 1.0000000
disappointing dissapointing 0.7500000
was dissapointing 0.2500000
cure curing 0.5000000
thing curing 0.5000000
fashions fasions 1.0000000
attended attempted 1.0000000
Age Age 0.5000000
Ages Age 0.5000000
sticks sticks 1.0000000
private Privat 1.0000000
José José 1.0000000
justice justice 0.5000000
courts justice 0.5000000
pretended pretended 1.0000000
screen screen 1.0000000
practising practise 0.0303030
do practise 0.2424242
practise practise 0.3030303
practice practise 0.1818182
get practise 0.0303030
some practise 0.0303030
play practise 0.1515152
practical practise 0.0303030
approaching aproting 1.0000000
ALMODAR ALMODAR 1.0000000
sincerely sincinerly 0.5000000
Ki sincinerly 0.5000000
mysteries misteries 1.0000000
admission admission 1.0000000
pony pony 1.0000000
payment paiment 1.0000000
establishments establishments 1.0000000
extended extended 1.0000000
mosquitoes mosquitoss 1.0000000
misunderstood missunderstood 1.0000000
Pal Pal 1.0000000
respectively respectivelly 1.0000000
necessary nesseceraly 1.0000000
searching searching 0.7500000
for searching 0.1250000
research searching 0.1250000
km km 1.0000000
Orel Orel 1.0000000
compensation reward 0.2500000
reward reward 0.7500000
addicts cravers 1.0000000
depends depents 1.0000000
hamburgers hamburgers 1.0000000
Crete Crete 1.0000000
they fought 0.2000000
thought fought 0.2000000
fought fought 0.6000000
WE we 0.0002908
NULL we 0.0014539
us we 0.0011631
we we 0.9915673
Emma we 0.0002908
in we 0.0002908
fail we 0.0002908
We we 0.0005816
none we 0.0002908
with we 0.0002908
I we 0.0002908
there we 0.0005816
would we 0.0002908
she we 0.0002908
they we 0.0008723
do we 0.0002908
you we 0.0005816
being we 0.0002908
buttons buttons 1.0000000
8 8 1.0000000
theatre theather 1.0000000
There There 1.0000000
decision dissision 1.0000000
campsites Camps 0.2500000
before Camps 0.2500000
Camps Camps 0.5000000
artists artists 1.0000000
exclaimed exlaimed 1.0000000
compared comparing 0.3333333
comparing comparing 0.6666667
grateful greatfull 1.0000000
Farydone Farydone 1.0000000
athletics games 0.0256410
games games 0.9743590
Marc Marc 1.0000000
responsibility resposbillity 1.0000000
timetable time 0.0013680
chance time 0.0006840
once time 0.0034200
performance time 0.0047880
moment time 0.0013680
period time 0.0006840
event time 0.0006840
when time 0.0013680
turn time 0.0006840
cheerful time 0.0006840
Catherine time 0.0006840
there time 0.0006840
slot time 0.0006840
summertime time 0.0034200
year time 0.0006840
times time 0.0082079
NULL time 0.0218878
hour time 0.0006840
it time 0.0006840
the time 0.0006840
now time 0.0006840
rest time 0.0006840
late time 0.0006840
time time 0.9350205
recording time 0.0006840
quickly time 0.0006840
historical time 0.0006840
month time 0.0006840
as time 0.0006840
analysis time 0.0006840
freedom time 0.0006840
delay time 0.0013680
lunchtime time 0.0013680
point time 0.0006840
while time 0.0006840
unnecessary unneccessary 1.0000000
petrified petrified 1.0000000
Benedito Benedito 1.0000000
husband husband 1.0000000
probably propably 1.0000000
unsatisfactory unsatisfactory 1.0000000
inside siend 1.0000000
left leaft 1.0000000
assignments assignments 1.0000000
today todays 0.3333333
s todays 0.3333333
&apos; todays 0.3333333
half half 0.9879518
50 half 0.0120482
headline headline 1.0000000
circle circle 0.7272727
Circle circle 0.2727273
buffet buffet 1.0000000
longer older 0.3333333
older older 0.6666667
HOLIDAY HOLIDAY 1.0000000
excellently excellently 1.0000000
David David 1.0000000
guns gans 1.0000000
imperfect unperfect 1.0000000
volleyball volleyball 1.0000000
postponed posticipated 1.0000000
fishing fishing 1.0000000
Madam Manager 0.0192308
Manager Manager 0.9807692
NULL cartoons 0.5000000
cartoons cartoons 0.5000000
hairdryers hairdryers 1.0000000
downstairs downstairs 1.0000000
shoes shoes 1.0000000
Chwa Chwa 1.0000000
vanish vanish 1.0000000
medicine medecine 1.0000000
shine shine 1.0000000
decided deciced 1.0000000
hills hills 1.0000000
curriculum curriculum 1.0000000
way method 0.3333333
methods method 0.3333333
method method 0.3333333
department department 1.0000000
resistant resistant 1.0000000
log lab 0.5000000
lab lab 0.5000000
upsetting upseting 1.0000000
wasted lose 0.0370370
lose lose 0.6666667
waste lose 0.1111111
missed lose 0.0370370
loss lose 0.0370370
my lose 0.0370370
miss lose 0.0740741
technical technical 0.8181818
good technical 0.0909091
tangible technical 0.0909091
about how 0.0032538
as how 0.0043384
ways how 0.0010846
what how 0.0466377
heart how 0.0010846
whatever how 0.0010846
however how 0.0021692
how how 0.9273319
who how 0.0010846
now how 0.0021692
the how 0.0010846
whether how 0.0010846
why how 0.0010846
NULL how 0.0065076
pamphlet panfulet 1.0000000
scalding scalding 1.0000000
puzzles puzzle 1.0000000
cousins cousins 1.0000000
sought seek 0.2500000
seek seek 0.5000000
sick seek 0.2500000
chats chats 0.5000000
rooms chats 0.2500000
chat chats 0.2500000
blossom blossam 1.0000000
agent office 0.0185185
office office 0.9814815
mother mother 0.9642857
grandmother mother 0.0267857
another mother 0.0089286
circumstances circumsenses 1.0000000
level level 0.5937500
) level 0.0312500
successful level 0.0312500
standard level 0.0937500
proficiency level 0.1875000
cost level 0.0312500
degree level 0.0312500
essences essences 1.0000000
&quot; How 0.0500000
How How 0.5500000
What How 0.0500000
how How 0.3000000
what How 0.0500000
notebooks notebooks 1.0000000
faithfully fainthfully 1.0000000
respond obey 0.3333333
obey obey 0.6666667
Village Village 1.0000000
tutor tutor 1.0000000
redecoration decoration 0.1250000
decor decoration 0.2500000
decoration decoration 0.6250000
FINISHING FINISHING 1.0000000
type category 1.0000000
-Over -Over 1.0000000
CLEARLY CLEARLY 1.0000000
tracked tracked 1.0000000
appliances appliaces 1.0000000
enrolled enrolled 1.0000000
basketball asketball 1.0000000
AGAINST AGAINST 1.0000000
choosing chosen 0.0188679
booked chosen 0.0188679
chose chosen 0.0188679
chosen chosen 0.9433962
sacked sack 1.0000000
terms terms 1.0000000
decision desicion 1.0000000
spread spreaded 1.0000000
intentions intentions 1.0000000
shattered shattered 1.0000000
RULES RULES 1.0000000
social sochibal 1.0000000
true tru 1.0000000
Winkler Winkler 1.0000000
plant plant 0.3333333
plants plant 0.3333333
planet plant 0.3333333
Landen Landen 1.0000000
thirties thirties 1.0000000
sophisticated sophisticated 1.0000000
chemical chemical 1.0000000
needlessly needlessly 1.0000000
evidently evidently 1.0000000
caught catched 1.0000000
bossy bossy 1.0000000
Saint Saint 1.0000000
Russian Russian 1.0000000
acquiring knowing 0.0454545
knew knowing 0.0454545
about knowing 0.0454545
knowing knowing 0.7727273
know knowing 0.0909091
at 14.30 0.2000000
14.30 14.30 0.8000000
preferences taste 0.1428571
rude taste 0.1428571
taste taste 0.7142857
combines combines 1.0000000
playing practcing 1.0000000
1600 1600 1.0000000
pen Pen 1.0000000
volunteer volenteer 1.0000000
unfortunately Unfortunatety 1.0000000
help colaborated 1.0000000
romantic romatic 1.0000000
togetherness togetherness 1.0000000
necessary necesary 1.0000000
QUICK QUICK 1.0000000
Rainbow rainbow 0.1473684
rainbow rainbow 0.8526316
personally Personnaly 1.0000000
10.00am 10.00am 1.0000000
itself itself 0.9444444
develops itself 0.0555556
decided desited 1.0000000
Nuria Nuria 1.0000000
because Because 1.0000000
NICE NICE 1.0000000
the sock 0.5000000
stock sock 0.5000000
soldiers solders 1.0000000
agreed agreeded 1.0000000
during During 0.5000000
We During 0.5000000
safer secure 0.4000000
secure secure 0.2000000
safe secure 0.4000000
destroyed destructed 1.0000000
well WELL 0.2000000
WELL WELL 0.8000000
moon moun 1.0000000
dresses : 0.0010121
call : 0.0010121
Make : 0.0010121
pm : 0.0020243
: : 0.9655870
oven : 0.0010121
photography : 0.0010121
, : 0.0060729
Manager : 0.0010121
lately : 0.0010121
. : 0.0080972
basketball : 0.0010121
NULL : 0.0040486
Jane : 0.0010121
18.30 : 0.0020243
; : 0.0030364
WAS IS 0.0204082
IS IS 0.9183673
AM IS 0.0204082
NULL IS 0.0204082
ABOUT IS 0.0204082
4th 4&apos;th 1.0000000
fewer few 0.0047170
too few 0.0047170
a few 0.1509434
few few 0.8066038
little few 0.0141509
pieces few 0.0047170
one few 0.0047170
small few 0.0047170
short few 0.0047170
filling filling 1.0000000
Presumably presumably 1.0000000
Atos Atos 1.0000000
VISITING VISIT 0.1666667
VISIT VISIT 0.8333333
coming entering 0.2000000
join entering 0.2000000
entering entering 0.4000000
operating entering 0.2000000
technicians technicians 1.0000000
Internet Iternet 1.0000000
smokers smokers 1.0000000
things explained 0.0238095
told explained 0.1666667
one explained 0.0238095
described explained 0.0714286
to explained 0.1428571
explained explained 0.5714286
practically particulary 0.3333333
particularly particulary 0.6666667
intrusion intrusion 0.5000000
an intrusion 0.5000000
stars starrings 1.0000000
accurately accurately 1.0000000
revenge revenge 0.7500000
vengeance revenge 0.2500000
ideal idea 0.0043103
ideas idea 0.0086207
NULL idea 0.0086207
plan idea 0.0043103
opinion idea 0.0043103
&apos;t idea 0.0043103
ambition idea 0.0043103
idea idea 0.9612069
Chicago Chicago 1.0000000
it entrance 0.0256410
ticket entrance 0.0256410
fee entrance 0.0512821
entry entrance 0.0256410
entrance entrance 0.7948718
admission entrance 0.0256410
entered entrance 0.0256410
an entrance 0.0256410
believe believ 1.0000000
stadium stadium 1.0000000
technology methods 0.3333333
methods methods 0.6666667
welcoming welcoming 1.0000000
you indicate 0.2000000
tell indicate 0.2000000
state indicate 0.2000000
indicate indicate 0.4000000
sea See 1.0000000
comfortable comfortible 1.0000000
differently diffrently 1.0000000
seats seat 0.1500000
seat seat 0.8500000
rehearsals repetitions 1.0000000
thing behaviour 0.1111111
behaviour behaviour 0.6666667
approach behaviour 0.1111111
making behaviour 0.1111111
special spessial 1.0000000
Rodriguez Rodriguez 1.0000000
cousin cousin 1.0000000
January January 1.0000000
Ortiz Ortiz 1.0000000
mothers mothers 1.0000000
offices offices 1.0000000
great esspecially 1.0000000
Michael Michael 1.0000000
fantastic fantactic 1.0000000
CONSIDERED CONSIDERED 1.0000000
NEWS NEWS 1.0000000
numertable numertable 1.0000000
idler idler 1.0000000
the communication 0.0344828
communications communication 0.0689655
communication communication 0.8620690
communicate communication 0.0344828
comments comments 1.0000000
WINNER WINNER 1.0000000
DAYS DAYS 1.0000000
permission permision 1.0000000
instead stead 1.0000000
transport transports 1.0000000
producers producers 1.0000000
expenses expenses 1.0000000
Agda Agda 1.0000000
1900s 2000 0.0062893
2000 2000 0.9937107
cruel cruel 1.0000000
therapies therapi 1.0000000
the electronical 0.2500000
electronic electronical 0.5000000
electronically electronical 0.2500000
bird bird 1.0000000
the fifteeth 0.5000000
fifteenth fifteeth 0.5000000
exciting exhiting 1.0000000
programmes programms 1.0000000
Svessen Svessen 1.0000000
hassle hussle 1.0000000
guitars ggitares 1.0000000
PACK PREPAIRING 1.0000000
Theatre Threatre 1.0000000
assistant assistent 1.0000000
unlikely unlikly 1.0000000
Meyer Meyer 1.0000000
nonsense nonsense 1.0000000
couple couple 0.8974359
a couple 0.1025641
totally totaly 1.0000000
climb climp 1.0000000
Otto Otto 1.0000000
2050 2050 1.0000000
horse horse 1.0000000
higher higher 1.0000000
1 1 1.0000000
competed competed 1.0000000
styles vararity 1.0000000
BROCHURE BROCHURE 1.0000000
Madam Mam 1.0000000
PROBLEM PROBLEM 1.0000000
Romans Romans 1.0000000
maths maths 1.0000000
formal dressed 0.1428571
dress dressed 0.2857143
dressed dressed 0.5714286
WHICH WICH 1.0000000
once after 0.0014104
NULL after 0.0028209
at after 0.0014104
for after 0.0028209
all after 0.0014104
according after 0.0014104
late after 0.0014104
also after 0.0028209
when after 0.0042313
in after 0.0042313
after after 0.9407616
now after 0.0014104
later after 0.0070522
behind after 0.0014104
our after 0.0014104
before after 0.0014104
neglect after 0.0014104
by after 0.0042313
finally after 0.0014104
then after 0.0014104
afterwards after 0.0141044
had expacted 0.5000000
planned expacted 0.5000000
preparing preparing 0.7777778
prepare preparing 0.0740741
for preparing 0.1111111
arranging preparing 0.0370370
thing unpredicted 0.5000000
unexpected unpredicted 0.5000000
Irish irish 1.0000000
astonished astonish 1.0000000
Countryside Countryside 1.0000000
tour tour 0.6500000
tournament tour 0.0500000
trip tour 0.2000000
circle tour 0.0500000
Golf tour 0.0500000
Go Go 0.5000000
go Go 0.5000000
children child 0.0500000
child child 0.9500000
Mum Mom 0.3333333
Mom Mom 0.6666667
sexy sexy 1.0000000
bury bury 1.0000000
opportunity oppertunate 1.0000000
fireplace fireplace 1.0000000
soldier solder 0.5000000
soldiers solder 0.5000000
hitchhiking hich 1.0000000
largest audience 0.0227273
people audience 0.0227273
audience audience 0.9545455
CHANGING CHANGING 1.0000000
offering offering 0.8000000
offers offering 0.1000000
giving offering 0.1000000
Eminem Eminem 1.0000000
skills abilities 0.1428571
abilities abilities 0.7142857
ability abilities 0.1428571
kiss kiss 1.0000000
Tito Tito 1.0000000
photo photo 0.6000000
photos photo 0.3000000
photography photo 0.1000000
changes changements 1.0000000
inspiration inspiration 1.0000000
sets sets 1.0000000
somary somary 1.0000000
Japan Japan 1.0000000
die die 0.8823529
died die 0.1176471
burglar bugglar 1.0000000
fussy fuzy 1.0000000
renovation transformations 1.0000000
November November 1.0000000
18.30 19 0.0057471
19.00 19 0.0057471
19.30 19 0.0057471
and 19 0.0057471
19 19 0.9540230
7 19 0.0229885
Boris Boris 1.0000000
inventions inventions 1.0000000
complicated compliated 0.5000000
a compliated 0.5000000
ôbest ôbest 1.0000000
forward forwart 0.5000000
am forwart 0.5000000
Lausanne Lausanne 1.0000000
G.C.S.E.s G.C.S.E. 1.0000000
Prisuntha Prisuntha 1.0000000
really certainly 0.0333333
certainly certainly 0.9666667
beans beans 1.0000000
needing needing 1.0000000
Vaisili Vaisili 1.0000000
BAG BAG 1.0000000
very wery 1.0000000
MP3 MP3 1.0000000
FCE FCE 1.0000000
widen widen 0.5000000
we widen 0.5000000
skipped skipped 1.0000000
programming programming 1.0000000
Nokia Nokia 1.0000000
predicament consequences 0.1428571
consequences consequences 0.8571429
convenient convience 1.0000000
ASDA ASDA 1.0000000
degased degased 1.0000000
GAYARRE GAYARRE 1.0000000
signed signed 1.0000000
defend defences 1.0000000
centres centers 0.6250000
gyms centers 0.2500000
centers centers 0.1250000
POSSIBLE POSSIBLE 1.0000000
hugging huging 1.0000000
Sobczak Sobczak 1.0000000
Discount Discount 1.0000000
professional profecional 1.0000000
&apos; temperature 0.0625000
temperature temperature 0.8750000
body temperature 0.0625000
efficiency efficiency 1.0000000
established established 1.0000000
that whed 1.0000000
newest newest 0.9200000
s newest 0.0400000
latest newest 0.0400000
guess Quess 1.0000000
play piece 0.1428571
news piece 0.0714286
work piece 0.0714286
piece piece 0.5714286
peace piece 0.1428571
satellite satelite 0.5000000
dish satelite 0.5000000
autograph authography 1.0000000
Training Trainning 1.0000000
speakers spekers 1.0000000
RUMOUR RUMOUR 1.0000000
heard heared 0.5000000
hear heared 0.5000000
skirts robes 1.0000000
COLLECTION COLLECTION 1.0000000
WILL WANNA 0.3333333
TO WANNA 0.3333333
WANT WANNA 0.3333333
exaggerated exaggerated 1.0000000
watch wath 1.0000000
MISTAKE FAULT 1.0000000
group ground 0.0769231
floor ground 0.0769231
ground ground 0.8461538
informative informing 0.0666667
me informing 0.0666667
us informing 0.0666667
informed informing 0.0666667
informing informing 0.7333333
activity activite 1.0000000
50 50 1.0000000
blond blond 1.0000000
it enbelievable 0.3333333
unbelievable enbelievable 0.3333333
was enbelievable 0.3333333
girlfriend girlfriend 1.0000000
Photography Photography 0.8461538
photography Photography 0.1538462
precise accurate 0.3333333
accurate accurate 0.6666667
Albert Albert 1.0000000
gases gases 1.0000000
meant setted 1.0000000
stone stone 1.0000000
EXPRESS EXPRIME 1.0000000
observing observing 0.6666667
and observing 0.3333333
sweep sweeping 1.0000000
busier busier 1.0000000
jacket jacket 1.0000000
prices prises 1.0000000
disappointment deceiving 0.5000000
deceiving deceiving 0.5000000
Santiago Santiago 1.0000000
powered petrel 0.3333333
petrol petrel 0.3333333
- petrel 0.3333333
impostor impostor 1.0000000
indicating indicating 1.0000000
secrets secreats 1.0000000
Gibson Gibson 1.0000000
arouses arouses 1.0000000
dirt dirt 1.0000000
up accomodated 0.3333333
put accomodated 0.3333333
accommodated accomodated 0.3333333
classmates classmates 0.9642857
our classmates 0.0357143
renovation renovation 1.0000000
moreover morever 1.0000000
classmates companions 1.0000000
realized realized 0.8250000
held realized 0.0500000
organized realized 0.0250000
realize realized 0.0250000
realise realized 0.0750000
different diffrent 0.8750000
those diffrent 0.1250000
Euro Euro 1.0000000
n dosen 0.5000000
does dosen 0.5000000
housework housework 1.0000000
concerning reference 0.0370370
reference reference 0.9629630
page page 1.0000000
helpful hepful 1.0000000
memorise memorisize 1.0000000
TECHNICAL TECNICAL 1.0000000
decrease decrease 0.2000000
amount decrease 0.2000000
deteriorated decrease 0.2000000
decreases decrease 0.2000000
to decrease 0.2000000
gon gon 0.5000000
was gon 0.5000000
Robber Robber 1.0000000
nature nuture 1.0000000
get called 0.0103093
called called 0.9587629
Minolta called 0.0103093
calling called 0.0103093
Westlife called 0.0103093
A ALREADY 0.2500000
REALLY ALREADY 0.2500000
ALREADY ALREADY 0.5000000
false fals 1.0000000
FATHER FATHER 1.0000000
happiness happines 1.0000000
ôseveralö ôseveralö 1.0000000
Martial Martial 1.0000000
science Science 0.0105263
visiting Science 0.0105263
Science Science 0.9789474
unexpected unexpected 1.0000000
Matthias Matthias 1.0000000
Ortega Ortega 1.0000000
needless needless 1.0000000
motorbike motorbike 1.0000000
capable capable 1.0000000
exiting exiting 0.0833333
exciting exiting 0.7500000
excited exiting 0.1666667
James James 1.0000000
lifeguard lifeguard 1.0000000
Angela Angela 1.0000000
expansion expansion 1.0000000
homes homes 0.9148936
they homes 0.0212766
home homes 0.0425532
like homes 0.0212766
delights delights 1.0000000
astounded astounded 1.0000000
golf golf 1.0000000
breakthroughs throughs 1.0000000
pounds pounds 0.9333333
£ pounds 0.0666667
normal usual 0.1052632
often usual 0.0526316
usual usual 0.7368421
NULL usual 0.0526316
ordinary usual 0.0526316
Homes Homes 1.0000000
requires requires 1.0000000
handsome handsome 1.0000000
theatres theatres 1.0000000
somewhat somewhat 1.0000000
analysing analaising 1.0000000
maybe mapy 1.0000000
so though 0.0212766
still though 0.0106383
this though 0.0106383
though though 0.7765957
tough though 0.0106383
thought though 0.1489362
over though 0.0106383
through though 0.0106383
absence presence 0.3333333
presence presence 0.6666667
Newest Newest 1.0000000
seething seething 1.0000000
succeeded succeeded 0.7500000
successful succeeded 0.2500000
Centre center 0.0454545
center center 0.2727273
centre center 0.6818182
prototypes prototypes 1.0000000
Berne Berne 1.0000000
laundry laundry 1.0000000
fun Fun 1.0000000
2.00 2.00 1.0000000
decided determined 1.0000000
sets set 0.0384615
up set 0.0769231
arrange set 0.0384615
devised set 0.0384615
arranged set 0.0384615
set set 0.7692308
helpful helpul 1.0000000
awoke awoke 1.0000000
TELEVISION TELEVISION 1.0000000
European European 1.0000000
Wishes Wishes 1.0000000
restaurant restarrant 1.0000000
offers contains 0.1666667
contain contains 0.1666667
consists contains 0.1666667
contains contains 0.5000000
stupid stupied 1.0000000
chore chore 1.0000000
IMPOSSIBLE IMPOSSIBLE 1.0000000
painters painters 1.0000000
spheres spheres 1.0000000
kind Kind 1.0000000
disappointing disappointment 0.0285714
why disappointment 0.0285714
disappointment disappointment 0.9142857
disappointed disappointment 0.0285714
jackets jackets 1.0000000
; career 0.1000000
career career 0.9000000
pose pose 1.0000000
faithfully Faithully 1.0000000
again anymore 0.0232558
NULL anymore 0.0465116
anymore anymore 0.9302326
racquet raquet 1.0000000
cheer cheer 1.0000000
lovers lovers 0.6666667
love lovers 0.3333333
club group 0.0109890
group group 0.9340659
stars group 0.0109890
groups group 0.0329670
s group 0.0109890
mum mum 0.9259259
your mum 0.0370370
because mum 0.0370370
dictionary dictionnary 1.0000000
mobile movil 1.0000000
Sersuwan Sersuwan 1.0000000
grandpa grandpa 1.0000000
ôsuch ôsuch 1.0000000
Championship Championship 1.0000000
melt smellt 1.0000000
BRUL BRUL 1.0000000
between beetween 1.0000000
calm claim 0.2000000
claim claim 0.8000000
opinion opionion 1.0000000
BEAR BARE 1.0000000
microphones michrophones 1.0000000
luxurious luxurious 1.0000000
Sweating Sweating 1.0000000
close clase 1.0000000
users users 1.0000000
Tudela Tudela 1.0000000
hiding hiding 1.0000000
separately sperate 1.0000000
guaranteed garenteed 1.0000000
Ryam Ryam 1.0000000
vocabulary vocabulary 1.0000000
group groupe 1.0000000
Ruter Ruter 1.0000000
fireproof proof 0.1428571
waterproof proof 0.1428571
proof proof 0.7142857
on builders 0.3333333
building builders 0.3333333
sites builders 0.3333333
harm harm 0.6666667
harming harm 0.3333333
third third 1.0000000
future following 0.0135135
according following 0.0135135
coming following 0.0135135
fall following 0.0135135
doing following 0.0135135
following following 0.8918919
requested following 0.0135135
next following 0.0135135
follow following 0.0135135
important crucial 0.5000000
crucial crucial 0.5000000
memories souvenir 1.0000000
have reiceve 1.0000000
CHANCE POSSIBILITY 0.5000000
POSSIBILITY POSSIBILITY 0.5000000
keys keys 1.0000000
NULL numbers 0.1428571
plays numbers 0.1428571
numbers numbers 0.7142857
destination destination 1.0000000
easiest easiest 0.7142857
easier easiest 0.2857143
wash wash 0.8846154
washing wash 0.0769231
their wash 0.0384615
attended attened 1.0000000
proteins protein 1.0000000
beautiful beautifull 1.0000000
Australia Australia 1.0000000
Gates gates 1.0000000
additional aditional 1.0000000
collaborate colaborate 1.0000000
enough luky 1.0000000
disappear disappear 0.3333333
disappears disappear 0.1666667
disappeared disappear 0.1666667
up disappear 0.1666667
break disappear 0.1666667
&apos; attestation 0.3333333
note attestation 0.3333333
s attestation 0.3333333
zap zap 1.0000000
HALL HALL 1.0000000
diseases desease 1.0000000
advertisement anouncement 1.0000000
awake awake 1.0000000
cooperation colaboration 1.0000000
greatest bigest 1.0000000
throat throat 1.0000000
accusations accusations 1.0000000
laboratory laboratery 1.0000000
frightened frighten 1.0000000
unaware unaware 1.0000000
nobody anybody 0.0540541
anybody anybody 0.9459459
happily happily 1.0000000
tossed tossed 1.0000000
paralyzed paralyzed 1.0000000
Koh Koh 1.0000000
tune tune 1.0000000
CAUGHT CAUGHT 1.0000000
DEVELOP DEVELOPE 1.0000000
holiday holidy 1.0000000
floors floors 1.0000000
look love 0.0030030
love love 0.9759760
loves love 0.0090090
lover love 0.0060060
loved love 0.0060060
interested interresting 0.1666667
interesting interresting 0.8333333
extras extras 1.0000000
progress progres 1.0000000
treasure keep 0.0062112
provide keep 0.0062112
storing keep 0.0062112
kept keep 0.0062112
keep keep 0.9378882
have keep 0.0062112
keeps keep 0.0186335
get keep 0.0062112
stay keep 0.0062112
when since 0.0212766
after since 0.0085106
in since 0.0127660
till since 0.0042553
and since 0.0042553
NULL since 0.0127660
for since 0.0085106
increased since 0.0042553
since since 0.8638298
as since 0.0085106
advanced since 0.0042553
repairs since 0.0042553
long since 0.0042553
doing since 0.0042553
from since 0.0340426
ins ins 1.0000000
TELLING TELLING 1.0000000
cancelled cancelled 0.4000000
cancel cancelled 0.6000000
short close 0.0142857
lock close 0.0285714
crowded close 0.0142857
intransigent close 0.0142857
imprison close 0.0142857
closes close 0.0142857
keep close 0.0142857
shorter close 0.0142857
near close 0.0142857
finish close 0.0142857
closed close 0.1285714
clothes close 0.0285714
close close 0.6857143
sunglasses sunglasses 1.0000000
suspension sespend 0.5000000
on sespend 0.5000000
god god 1.0000000
WHICH WHICH 1.0000000
faster faster 1.0000000
insist insist 1.0000000
rode rode 1.0000000
create web 0.1428571
website web 0.1428571
web web 0.7142857
Radio Radio 1.0000000
you Thankeaw 0.5000000
thank Thankeaw 0.5000000
retailers retailors 1.0000000
Herald Herald 1.0000000
INSTALLED INSTALLED 1.0000000
basketball basketball 1.0000000
suitcase suitcase 1.0000000
privately privately 1.0000000
the dancers 0.1666667
dancers dancers 0.8333333
eighteen eighteen 1.0000000
Before Before 0.3333333
. Before 0.3333333
before Before 0.3333333
TUESDAY TUESDAY 1.0000000
band bend 1.0000000
sales savings 0.5000000
savings savings 0.5000000
labels labels 1.0000000
EACH EACH 1.0000000
spots spots 1.0000000
course courese 1.0000000
conclusion conclusuon 1.0000000
TICKETS ENTRY 0.3333333
PRICE ENTRY 0.3333333
OF ENTRY 0.3333333
sunshine sunshuin 0.5000000
means sunshuin 0.5000000
for Cambrigge 0.3333333
Cambridge Cambrigge 0.3333333
studying Cambrigge 0.3333333
raid raid 1.0000000
Hubert Hubert 1.0000000
extremely too 0.0023148
so too 0.0046296
far too 0.0023148
too too 0.9282407
late too 0.0046296
either too 0.0046296
also too 0.0023148
really too 0.0023148
NULL too 0.0023148
including too 0.0023148
technique too 0.0023148
a too 0.0069444
two too 0.0023148
exaggerating too 0.0023148
very too 0.0185185
dream too 0.0023148
break too 0.0023148
to too 0.0069444
decorating decorating 0.7142857
decorate decorating 0.1428571
refurbishment decorating 0.1428571
compounds compounds 1.0000000
Cheung Cheung 1.0000000
characters charachters 1.0000000
Mariah Mariah 1.0000000
inaccuracies innacuracies 1.0000000
S. S. 1.0000000
news notices 0.6666667
some notices 0.3333333
WOULDN WOULDN 0.5000000
HAVE WOULDN 0.5000000
lorries lorries 0.6666667
lorry lorries 0.3333333
independent independent 1.0000000
lately lately 0.2500000
later lately 0.2500000
recently lately 0.5000000
Charles Charles 1.0000000
Mourk Mourk 1.0000000
grow grow 0.6000000
NULL grow 0.1000000
growing grow 0.1000000
individually grow 0.1000000
grew grow 0.1000000
CANNOT CANNOT 1.0000000
Lodge Lodge 1.0000000
EXAM EXAM 1.0000000
wrong incorrect 0.2500000
incorrect incorrect 0.7500000
serious siriale 1.0000000
Dragon Dragon 1.0000000
little litte 1.0000000
cosmetics cosmetic 1.0000000
sees &apos; 0.0002759
difference &apos; 0.0002759
abolutely &apos; 0.0002759
UNDER &apos; 0.0002759
Hillsborough &apos; 0.0002759
duties &apos; 0.0002759
FANS &apos; 0.0005519
HOMEWORK &apos; 0.0002759
are &apos; 0.0011038
closure &apos; 0.0002759
expected &apos; 0.0002759
&apos; &apos; 0.9114238
SELLING &apos; 0.0002759
politeness &apos; 0.0002759
with &apos; 0.0005519
has &apos; 0.0002759
stone &apos; 0.0002759
was &apos; 0.0041391
do &apos; 0.0002759
classmates &apos; 0.0002759
would &apos; 0.0008278
away &apos; 0.0002759
belong &apos; 0.0002759
Oasis &apos; 0.0002759
30s &apos; 0.0002759
1900s &apos; 0.0005519
introduces &apos; 0.0002759
the &apos; 0.0002759
NULL &apos; 0.0703642
skipping &apos; 0.0002759
of &apos; 0.0002759
3,700-metre &apos; 0.0002759
vault &apos; 0.0002759
&apos;D &apos; 0.0002759
nationalities &apos; 0.0002759
: &apos; 0.0002759
VIPs &apos; 0.0002759
am &apos; 0.0005519
Harrodss &apos; 0.0002759
will &apos; 0.0011038
PCs &apos; 0.0005519
wildlife life 0.0020060
whole life 0.0010030
am life 0.0010030
society life 0.0010030
alive life 0.0020060
nature life 0.0020060
lifestyle life 0.0240722
lifestyles life 0.0020060
ever life 0.0010030
life life 0.9027081
lives life 0.0451354
living life 0.0040120
diary life 0.0010030
general life 0.0010030
the life 0.0010030
NULL life 0.0040120
nightlife life 0.0010030
flowers life 0.0010030
live life 0.0020060
conditions life 0.0010030
Faerie Faerie 1.0000000
number number 0.9444444
size number 0.0185185
numbers number 0.0185185
phone number 0.0185185
listened listened 1.0000000
Eve Eve 0.5000000
every Eve 0.5000000
zoo zoo 0.6666667
keeper zoo 0.3333333
habits habits 0.6000000
such habits 0.2000000
normal habits 0.2000000
INTERNET INTERNET 0.5555556
THE INTERNET 0.4444444
research researching 0.5000000
into researching 0.2500000
researching researching 0.2500000
ALTHOUGH ALTHOUGH 1.0000000
toilet toliet 1.0000000
at concerning 0.0196078
tourism concerning 0.0196078
concerning concerning 0.9411765
for concerning 0.0196078
queuing queuing 1.0000000
using feet 0.0909091
foot feet 0.0909091
feet feet 0.8181818
faithfully senciarly 1.0000000
shopkeepers shopkeepers 1.0000000
KEEP KEEP 1.0000000
something somethings 0.1818182
some somethings 0.3636364
things somethings 0.3636364
anything somethings 0.0909091
face wall 0.1428571
wall wall 0.8571429
modern Modern 0.3333333
Modern Modern 0.6666667
normal standart 1.0000000
EXAMS EXAMS 1.0000000
databases databases 1.0000000
dull dull 1.0000000
mean meen 1.0000000
Janine Janine 1.0000000
toothbrush toothbrush 1.0000000
men mens 1.0000000
ear ear 0.5000000
hear ear 0.5000000
televisions televisions 0.8571429
television televisions 0.1428571
express expresses 1.0000000
cooperation cooperation 1.0000000
popular pobular 1.0000000
delate delate 1.0000000
receiving receving 1.0000000
attracted athacted 1.0000000
scenery sceneries 1.0000000
sort sorts 0.1428571
sorts sorts 0.8571429
problems trouble 0.0384615
trouble trouble 0.6923077
crowds trouble 0.0384615
problem trouble 0.1923077
troublesome trouble 0.0384615
CONTRARY DIFFERENTLY 1.0000000
promised promissed 1.0000000
very pissed 1.0000000
say false 0.0588235
fake false 0.0588235
untrue false 0.0588235
false false 0.8235294
Greenwich Greenwich 1.0000000
PERFORMED PERFORMED 1.0000000
rotation rotation 1.0000000
TRIED TRIED 1.0000000
Muller Muller 1.0000000
which witch 0.6666667
made witch 0.1666667
with witch 0.1666667
, departement 0.5000000
department departement 0.5000000
different diffarent 1.0000000
WHICH AFTER 0.0769231
AFTER AFTER 0.9230769
admit reconize 1.0000000
went whent 1.0000000
reflection reflexion 1.0000000
USED USED 1.0000000
instead insted 1.0000000
years editions 1.0000000
writte writte 1.0000000
top top 0.9230769
all top 0.0256410
end top 0.0256410
height top 0.0256410
trial trial 1.0000000
sound sound 0.9322034
system sound 0.0169492
volume sound 0.0169492
sounds sound 0.0338983
feelings blissful 0.5000000
blissful blissful 0.5000000
embarrassed embarassed 0.6666667
awkward embarassed 0.3333333
administration adimnistration 1.0000000
mailing mailing 1.0000000
petroleum petroleum 1.0000000
Basle Basle 1.0000000
Marie Marie 1.0000000
music musics 1.0000000
saved saving 0.2000000
any saving 0.2000000
saving saving 0.6000000
purses purses 1.0000000
air air 0.8936170
airline air 0.0212766
wind air 0.0212766
- air 0.0425532
ones air 0.0212766
woke woke 1.0000000
ROUTINE ROUTIN 1.0000000
CITY CITY 1.0000000
wicked wicked 1.0000000
came cam 1.0000000
LUGGAGE LUGGAGE 1.0000000
know knou 1.0000000
enthusiasm enthousiasm 1.0000000
woken wake 0.0625000
wake wake 0.9375000
BEGAN BEGAN 1.0000000
colors colors 0.2500000
colours colors 0.5000000
and colors 0.2500000
checkout checkout 1.0000000
arm arm 1.0000000
scribbled scribbled 1.0000000
lips lips 1.0000000
Going Going 1.0000000
freeze freeze 1.0000000
snowboarder Snowboarder 1.0000000
the M.E.N 0.5000000
M.E.N M.E.N 0.5000000
clothing clothings 1.0000000
barman barman 1.0000000
advert notice 0.0303030
inform notice 0.0303030
notice notice 0.5757576
seen notice 0.0303030
point notice 0.0303030
noticed notice 0.0303030
information notice 0.0303030
noticeboards notice 0.0303030
note notice 0.0303030
news notice 0.0303030
have notice 0.0303030
out notice 0.0303030
see notice 0.0606061
advertisement notice 0.0303030
COULDN COULDN 1.0000000
of fact 0.0050000
however fact 0.0050000
eye fact 0.0050000
fact fact 0.9050000
thing fact 0.0050000
phenomenon fact 0.0050000
facts fact 0.0050000
event fact 0.0100000
temptation fact 0.0050000
reason fact 0.0050000
NULL fact 0.0250000
actually fact 0.0150000
explanation fact 0.0050000
peckish peckish 1.0000000
Dumaux Dumaux 1.0000000
staff personall 1.0000000
tumble tumple 1.0000000
meanness meannes 1.0000000
kit kit 1.0000000
brothers brothers 1.0000000
green green 0.9000000
greenhouse green 0.1000000
priced reasonable 0.0769231
reasonable reasonable 0.5384615
reasonably reasonable 0.3846154
letterhead letterhead 1.0000000
snowy snowy 1.0000000
joke joke 0.7500000
we joke 0.0833333
a joke 0.1666667
modernisation modernism 1.0000000
list list 1.0000000
born born 1.0000000
CIRCLE CIRCLE 1.0000000
VERY VERRY 1.0000000
gods gods 1.0000000
1995 1995 1.0000000
accommodate accomodate 0.4000000
all accomodate 0.2000000
put accomodate 0.2000000
up accomodate 0.2000000
farewell farewell 1.0000000
stealing stolen 0.0833333
robbed stolen 0.0833333
stolen stolen 0.8333333
SOLES SOLES 1.0000000
humble humble 1.0000000
manger manger 1.0000000
dignity dignity 1.0000000
band Band 1.0000000
creates creates 0.6666667
create creates 0.3333333
malls malls 1.0000000
angrier angier 1.0000000
ORGANISATION ORGANISATION 1.0000000
shower shower 1.0000000
channel chanel 1.0000000
websites webs 1.0000000
wonderful lovely 0.0384615
lovely lovely 0.9615385
damp moist 1.0000000
without whitout 0.8000000
considering whitout 0.2000000
nicer niceer 1.0000000
readers readers 1.0000000
advertisement advertising 0.2666667
advertise advertising 0.0666667
advertising advertising 0.6666667
unfortunately unluckily 0.6666667
is unluckily 0.3333333
faithfully fouthfouly 1.0000000
attend attent 1.0000000
Madonna Madonna 1.0000000
EXPLANATION EXPLANATION 1.0000000
bullied bullied 1.0000000
was II 0.5000000
II II 0.5000000
VIEW VIEW 1.0000000
hungry hungry 0.9545455
angry hungry 0.0454545
accommodation accomodation 0.8674699
sleep accomodation 0.0120482
type accomodation 0.0240964
stay accomodation 0.0963855
Olmez Olmez 1.0000000
White White 1.0000000
surfing surging 0.5000000
do surging 0.5000000
was wasn 1.0000000
OF ABOUT 0.0833333
THIS ABOUT 0.0416667
REGARDING ABOUT 0.0416667
ABOUT ABOUT 0.8333333
wrote wrought 1.0000000
tranbles tranbles 1.0000000
loyal loyal 1.0000000
sincerely sincerly 1.0000000
renovations renovating 1.0000000
everything everying 1.0000000
bombastic bombastic 0.5000000
is bombastic 0.5000000
W W 1.0000000
evolved evolutioned 1.0000000
dwarf dwarf 1.0000000
and Morocco 0.5000000
Morocco Morocco 0.5000000
value value 1.0000000
waterproof waterproof 1.0000000
weather wheather 0.4285714
whether wheather 0.2857143
there wheather 0.1428571
about wheather 0.1428571
environmental environmental 1.0000000
a typical 0.1250000
typical typical 0.8750000
impulsive impulsive 1.0000000
96.7 96.7 1.0000000
businessmen businessmen 1.0000000
sacrifices sacrifices 1.0000000
untraditional untraditional 1.0000000
restaurant testament 1.0000000
opportunity oportunity 1.0000000
pleasant plesent 1.0000000
teeth teeth 0.5000000
toothbrushes teeth 0.5000000
got key 0.1250000
key key 0.8750000
gives gaves 1.0000000
however although 0.0163043
and although 0.0054348
also although 0.0054348
NULL although 0.0108696
but although 0.0054348
although although 0.9565217
wired wired 1.0000000
consumerism consumism 1.0000000
whispered whispered 1.0000000
wonderful wonerful 1.0000000
should shoul 1.0000000
moreover Moroever 1.0000000
fourteen fourteen 1.0000000
LET LET 1.0000000
apartheid apartheid 1.0000000
IMAGINE IMAGINE 1.0000000
sanitary sanitary 1.0000000
trunk trunk 1.0000000
Sincerely Sinicerely 1.0000000
forward step 0.0588235
it step 0.0588235
footsteps step 0.0588235
every step 0.0588235
stepped step 0.0588235
step step 0.7058824
corridors corridors 1.0000000
idea application 0.1428571
application application 0.7142857
form application 0.1428571
try photograph 0.0625000
take photograph 0.0625000
photographs photograph 0.3750000
photographic photograph 0.0625000
photography photograph 0.0625000
photographer photograph 0.0625000
photograph photograph 0.3125000
privacy pirvacity 1.0000000
misunderstanding misunderstanding 1.0000000
spite spide 0.5000000
of spide 0.5000000
delay late 0.0130719
late late 0.9346405
starting late 0.0130719
later late 0.0196078
lateness late 0.0130719
by late 0.0065359
sheets sheets 0.7500000
paper sheets 0.2500000
CULT CULT 1.0000000
grey grey 1.0000000
Orlando Orlando 1.0000000
choked chocked 0.5000000
shocked chocked 0.5000000
modern moder 1.0000000
unsafe insecure 1.0000000
Felipa Felipa 1.0000000
concerned concerne 0.5000000
am concerne 0.5000000
system listem 0.5000000
a listem 0.5000000
price prizes 0.1000000
prizes prizes 0.7000000
prices prizes 0.2000000
500 500 1.0000000
refurbishment renewal 1.0000000
cousin cousine 1.0000000
IDOLS IDOLS 1.0000000
Witness Witness 1.0000000
Trade Trade 1.0000000
Sapawadee Sapawadee 1.0000000
INTERESTED INTERESTED 1.0000000
FRIEND FRIEND 1.0000000
disappointed lote 1.0000000
belief believe 0.0054945
happened believe 0.0054945
think believe 0.0054945
hope believe 0.0109890
trust believe 0.0054945
believe believe 0.9670330
resonse requiere 1.0000000
plug plug 0.6666667
in plug 0.3333333
vending vending 1.0000000
detective detective 1.0000000
Auda Auda 1.0000000
May May 1.0000000
backdrop background 0.1111111
background background 0.6666667
scenery background 0.2222222
anyway Anyway 1.0000000
threw thew 1.0000000
concepts concepts 1.0000000
foams foams 1.0000000
patience patient 0.2222222
patient patient 0.7777778
angry angry 0.9913793
or angry 0.0086207
school lyceum 1.0000000
short short 0.9340659
reduced short 0.0109890
small short 0.0109890
the short 0.0109890
sort short 0.0109890
went short 0.0109890
close short 0.0109890
making makes 0.0119048
made makes 0.0357143
lets makes 0.0119048
brings makes 0.0119048
makes makes 0.7738095
keeps makes 0.0119048
allows makes 0.0357143
make makes 0.0833333
helps makes 0.0119048
teach makes 0.0119048
licence license 1.0000000
swimming swimm 0.2500000
swim swimm 0.5000000
swam swimm 0.2500000
world ethnical 1.0000000
myself yourself 0.0212766
chance yourself 0.0212766
interest yourself 0.0212766
an yourself 0.0212766
work yourself 0.0212766
yourself yourself 0.7872340
forwards yourself 0.0212766
you yourself 0.0425532
relax yourself 0.0212766
money yourself 0.0212766
cheap chipper 1.0000000
n dond 0.5000000
did dond 0.5000000
image image 0.6666667
an image 0.1666667
imagine image 0.1666667
Basilio Basilio 1.0000000
has gained 0.1666667
had gained 0.1666667
gained gained 0.6666667
secrecy secrecy 1.0000000
dare dare 1.0000000
tops tops 1.0000000
create create 0.7666667
creates create 0.0666667
establish create 0.0333333
provide create 0.0333333
creating create 0.0333333
for create 0.0333333
NULL create 0.0333333
addict avid 1.0000000
Starring Starring 1.0000000
showers showers 1.0000000
reader reader 1.0000000
EVOLUTION EVOLUTIVE 1.0000000
is allows 0.0555556
allows allows 0.7777778
you allows 0.0555556
us allows 0.0555556
me allows 0.0555556
mobile moible 1.0000000
sentence sentences 0.3333333
sentences sentences 0.6666667
everyday realistic 0.0666667
realistic realistic 0.9333333
specialised specealized 1.0000000
new newcomer 0.3333333
&apos; newcomer 0.3333333
s newcomer 0.3333333
administration administration 1.0000000
Sexington Sexington 1.0000000
technologies techincs 1.0000000
withdraw retire 1.0000000
Rafael Rafael 1.0000000
decorate decorate 1.0000000
lipstick lip 1.0000000
MAINLY MAINLY 1.0000000
AWAY OUT 0.0625000
OF OUT 0.0625000
OUT OUT 0.8750000
the Topical 0.5000000
topical Topical 0.5000000
novice novice 1.0000000
13th 13th 1.0000000
travellers traveller 0.5000000
traveller traveller 0.5000000
create creat 0.5000000
and creat 0.5000000
arms arms 1.0000000
needed neaded 1.0000000
PAID PAID 1.0000000
&apos; tast 0.5000000
taste tast 0.5000000
events atletics 0.5000000
athletics atletics 0.5000000
BEHIND BACK 0.0833333
FAR BACK 0.0833333
BACK BACK 0.8333333
C C 1.0000000
given givven 0.5000000
out givven 0.5000000
scenery scence 0.6666667
scene scence 0.3333333
sleeping sleep 0.0776699
sleep sleep 0.9126214
asleep sleep 0.0097087
EITHER EITHER 1.0000000
ancient anchient 1.0000000
UFO UFO 1.0000000
organic organic 1.0000000
knocking knocking 1.0000000
Apolonia Apolonia 1.0000000
FOLLOW FOLLOW 1.0000000
Cloutier Cloutier 1.0000000
inadequate insufficient 1.0000000
renovation inside 0.0217391
on inside 0.0217391
in inside 0.0434783
inside inside 0.8913043
into inside 0.0217391
HE HE 1.0000000
unfortunately unfortunately 1.0000000
forward foreword 1.0000000
crew crew 1.0000000
17th 17th 1.0000000
wooden wodden 1.0000000
Briley Briley 1.0000000
philosophy philosophy 1.0000000
F F 0.8333333
Fs F 0.1666667
spare spare 0.9677419
NULL spare 0.0322581
instruction instruction 0.4000000
introduction instruction 0.4000000
instructions instruction 0.2000000
Literature Literature 1.0000000
PENA PENA 1.0000000
devices kits 0.3333333
these kits 0.3333333
of kits 0.3333333
respective respective 1.0000000
PRIVATE PRIVATE 1.0000000
too either 0.0425532
NULL either 0.0212766
whether either 0.0425532
either either 0.8723404
and either 0.0212766
acquiring adquiring 1.0000000
diplomas diplomas 1.0000000
has shows 0.0117647
musicals shows 0.0470588
states shows 0.0117647
show shows 0.0588235
shoes shows 0.0117647
showing shows 0.0117647
NULL shows 0.0117647
shows shows 0.8352941
ALMO ALMO 1.0000000
jumped jumed 1.0000000
rumbling rumbling 1.0000000
Brigitte Brigitte 1.0000000
front frount 1.0000000
shocked shooked 1.0000000
autographs signatures 0.3333333
signatures signatures 0.6666667
EVER EVER 1.0000000
considered considerated 1.0000000
group grup 1.0000000
Playhouse Playhouse 1.0000000
gardening gardening 1.0000000
refund restitution 1.0000000
disk disk 1.0000000
lasers lasers 1.0000000
ears ears 1.0000000
man men 0.0500000
men men 0.9500000
quality qual 1.0000000
TOGETHER UP 0.3333333
UP UP 0.3333333
BUILDING UP 0.3333333
fascinating fascinating 1.0000000
FOR OUR 0.0500000
IMAGE OUR 0.0500000
OUR OUR 0.9000000
Charoenkul Charoenkul 1.0000000
YOUR &apos;RE 1.0000000
graduated graduated 1.0000000
complain complement 1.0000000
Interestingly Interestingly 1.0000000
963 963 1.0000000
cycling cycling 1.0000000
weekend weedend 1.0000000
heard heaed 1.0000000
being nude 0.3333333
nude nude 0.6666667
conclusion Conclugen 1.0000000
researcher researcher 1.0000000
August Agust 1.0000000
Thursday Thursday 1.0000000
attacked attacked 1.0000000
Anyways Anyways 1.0000000
1093 1093 1.0000000
instructor instractur 1.0000000
carefully careful 0.0555556
careful careful 0.9444444
carried conveyed 1.0000000
contemporary contemporary 0.5000000
modern contemporary 0.5000000
COMFORTABLE COMFORTABLE 1.0000000
Moon Moon 1.0000000
finally Fainally 1.0000000
queue quee 1.0000000
ticket bill 0.2500000
bill bill 0.7500000
ties ties 1.0000000
refund refound 1.0000000
trends trends 1.0000000
pirates pirates 1.0000000
reflect reflect 1.0000000
gym gim 1.0000000
colourful colorful 1.0000000
advice advice 0.8709677
warning advice 0.0322581
advance advice 0.0322581
advertisement advice 0.0322581
advise advice 0.0322581
Kary Kary 1.0000000
imagine emagine 1.0000000
taking considering 0.0500000
consideration considering 0.0500000
considering considering 0.8000000
thinking considering 0.1000000
doctoral doctoral 1.0000000
unfair anfair 1.0000000
curtains curtains 1.0000000
Alexander Alexander 1.0000000
Organizer Organizer 1.0000000
stranded stranded 1.0000000
pumping pumpping 1.0000000
16th 16th 1.0000000
techniques teknics 1.0000000
STAY STAY 1.0000000
unkind unkindly 1.0000000
Heanly Heanly 1.0000000
Kwa Kwa 1.0000000
stomach excitement 0.1250000
excitement excitement 0.7500000
my excitement 0.1250000
community comunity 1.0000000
PHOBIA FOBIA 0.5000000
A FOBIA 0.5000000
a.m. A.M 0.5000000
A.M A.M 0.5000000
Edmond Edmond 1.0000000
satellite sattelite 1.0000000
BLIND BLIND 1.0000000
happen happens 0.0714286
happened happens 0.1785714
has happens 0.1071429
is happens 0.1071429
happens happens 0.3928571
happening happens 0.1428571
Techno Techno 1.0000000
showrooms showrooms 1.0000000
LIE LIE 0.5000000
TO LIE 0.2500000
LIED LIE 0.2500000
19.30 = 0.2500000
20.15 = 0.2500000
= = 0.5000000
Stephen Stephen 1.0000000
Kate Kate 1.0000000
HOMEWORK HOMEWORKS 1.0000000
style stily 1.0000000
COLLEGE COLLEGE 1.0000000
valid valid 0.5000000
any valid 0.5000000
T T 1.0000000
majority majority 0.9523810
age majority 0.0476190
photographers photographs 0.1052632
taken photographs 0.0526316
photographs photographs 0.8421053
prohibited prohibitted 1.0000000
paradox paradox 1.0000000
and reveals 0.5000000
reveals reveals 0.5000000
confirming confirming 1.0000000
contract contract 1.0000000
century Century 1.0000000
Carla Carla 1.0000000
Sixty Sixty 1.0000000
Lou Lou 1.0000000
surrounded sorrounded 1.0000000
mathematics Mathematics 0.6666667
Mathematics Mathematics 0.3333333
discounts dicounts 1.0000000
sisters sisters 1.0000000
trains train 0.0270270
trained train 0.0270270
do train 0.0270270
train train 0.9189189
transported transported 1.0000000
navy navy 1.0000000
challenge chalenge 1.0000000
about gossiping 0.2000000
you gossiping 0.2000000
gossiping gossiping 0.6000000
Joel Joel 1.0000000
allergic alergic 0.5000000
allergies alergic 0.2500000
from alergic 0.2500000
publish published 0.1000000
published published 0.8000000
advertised published 0.1000000
True True 1.0000000
our ower 1.0000000
outside sied 1.0000000
that calm 0.0555556
calmly calm 0.1111111
down calm 0.1111111
calm calm 0.7222222
HANDLE HANDLE 1.0000000
snack Snack 1.0000000
congratulate congratulate 0.8750000
you congratulate 0.1250000
crazy crayz 1.0000000
L. L. 1.0000000
attention atention 0.5000000
imagination atention 0.5000000
climate climet 1.0000000
disagree desagree 1.0000000
starts started 0.0017986
started started 0.9676259
came started 0.0017986
asked started 0.0017986
starred started 0.0017986
time started 0.0017986
starring started 0.0017986
been started 0.0017986
of started 0.0017986
start started 0.0161871
began started 0.0017986
For For 0.6315789
letter For 0.0526316
the For 0.1052632
to For 0.0526316
in For 0.0526316
for For 0.1052632
murdered murdered 1.0000000
sincerely Sincerelly 1.0000000
nicer nicer 1.0000000
organising organising 1.0000000
bike bike 0.5000000
motorbike bike 0.5000000
Sofia Sofia 1.0000000
eleven eleven 1.0000000
professionally professionally 1.0000000
a your 0.0020483
you your 0.0098320
confirming your 0.0004097
responsibility your 0.0004097
our your 0.0008193
my your 0.0004097
this your 0.0004097
yourself your 0.0012290
yours your 0.0450635
best your 0.0004097
an your 0.0004097
NULL your 0.0024580
answer your 0.0004097
the your 0.0057354
kill your 0.0004097
your your 0.9287177
another your 0.0004097
feet your 0.0004097
researchers researchers 1.0000000
played playied 0.5000000
has playied 0.5000000
recent development 0.0416667
developments development 0.0416667
scientific development 0.0416667
development development 0.8750000
BETTER BETTER 1.0000000
Peter Peter 1.0000000
styled styled 1.0000000
campfire campfire 1.0000000
chain chain 1.0000000
hundreds hundrend 1.0000000
on advices 0.1666667
advice advices 0.8333333
holes holes 1.0000000
SUPPOSED SUPPOSED 1.0000000
activities hobbies 0.0400000
hobbies hobbies 0.9600000
a studiant 0.5000000
student studiant 0.5000000
humidity humidity 1.0000000
relied relyied 1.0000000
adrenaline adrenaline 1.0000000
SENT SEND 0.6666667
HAVE SEND 0.3333333
also as 0.0004760
in as 0.0052356
lastly as 0.0004760
according as 0.0004760
far as 0.0004760
did as 0.0004760
can as 0.0004760
keepers as 0.0004760
travellers as 0.0004760
handiest as 0.0004760
the as 0.0014279
that as 0.0028558
U.SA as 0.0004760
since as 0.0004760
simply as 0.0004760
by as 0.0004760
wherever as 0.0004760
cover as 0.0004760
and as 0.0042837
like as 0.0114231
when as 0.0047596
if as 0.0004760
after as 0.0004760
however as 0.0004760
though as 0.0014279
politician as 0.0004760
states as 0.0004760
we as 0.0004760
us as 0.0004760
defence as 0.0004760
than as 0.0009519
from as 0.0004760
was as 0.0019039
there as 0.0004760
what as 0.0014279
of as 0.0004760
NULL as 0.0233222
a as 0.0004760
while as 0.0004760
guaranteed as 0.0004760
crystal as 0.0004760
delicate as 0.0004760
this as 0.0004760
be as 0.0019039
as as 0.9052832
curriculum as 0.0004760
either as 0.0023798
satisfaction as 0.0004760
are as 0.0004760
so as 0.0014279
regarding as 0.0033317
Cambridge as 0.0004760
at as 0.0004760
for as 0.0028558
which as 0.0019039
1993 as 0.0004760
nor as 0.0004760
superstars as 0.0004760
whom as 0.0004760
ask as 0.0004760
multi as 0.0004760
has as 0.0004760
to as 0.0009519
Pierre Pierre 1.0000000
LESS LESS 1.0000000
designer designer 0.4285714
design designer 0.1428571
s designer 0.1428571
designers designer 0.2857143
7.30 7.30 1.0000000
life lief 1.0000000
Jaro Jaro 1.0000000
place happen 0.0217391
was happen 0.0217391
arise happen 0.0217391
happens happen 0.0869565
take happen 0.0217391
happened happen 0.0434783
happen happen 0.7173913
&apos; happen 0.0217391
again happen 0.0217391
happening happen 0.0217391
partly partly 0.5000000
partial partly 0.5000000
-Dear -Dear 1.0000000
Personal Personal 1.0000000
13rd 13rd 0.5000000
13th 13rd 0.5000000
kidding kiding 1.0000000
special especiall 1.0000000
entry The 0.0075758
The The 0.8712121
Last The 0.0075758
the The 0.0909091
engineering The 0.0075758
Manager The 0.0151515
impatiently impatiently 1.0000000
our everyday 0.0111111
every everyday 0.3888889
day everyday 0.3888889
an everyday 0.0111111
everyday everyday 0.2000000
struggle struggle 1.0000000
Excel excel 1.0000000
pass passing 0.3333333
passing passing 0.6666667
revealing reveal 0.2000000
reveal reveal 0.8000000
UK UK 1.0000000
going trip 0.0052083
trip trip 0.9635417
train trip 0.0052083
holiday trip 0.0156250
vacation trip 0.0052083
stay trip 0.0052083
definitely exactly 0.0312500
well exactly 0.0312500
exact exactly 0.0312500
exactly exactly 0.9062500
20th 20th 1.0000000
Guillelmina Guillelmina 1.0000000
failed dissappeared 1.0000000
surfing serf 1.0000000
INSIDE INSIDE 1.0000000
enjoyed enjoining 1.0000000
Nonetheless Nonetheless 1.0000000
War War 0.2500000
Second War 0.2500000
Wars War 0.2500000
World War 0.2500000
&apos; mades 1.0000000
sisters sister 0.0243902
sister sister 0.9756098
hysteria histerism 1.0000000
Leia Leia 1.0000000
bargain bargain 1.0000000
markets open 0.0166667
open open 0.9166667
stay open 0.0166667
an open 0.0166667
NULL open 0.0166667
opens open 0.0166667
precarious precarious 1.0000000
Over Over 0.9950980
also Over 0.0049020
DAMAGE DAMAGE 1.0000000
impersonal impersonally 1.0000000
St St 1.0000000
Szymanski Szymanski 1.0000000
troublemaker maker 1.0000000
an enterence 0.5000000
entrance enterence 0.5000000
feel feel 0.9609756
see feel 0.0048780
sad feel 0.0048780
have feel 0.0048780
felt feel 0.0097561
free feel 0.0048780
feels feel 0.0048780
sense feel 0.0048780
stuff stuffs 0.7142857
tasks stuffs 0.1428571
staff stuffs 0.1428571
photography photograghy 1.0000000
subjects subjects 1.0000000
edge edge 1.0000000
item good 0.0016920
good good 0.9560068
goodbye good 0.0016920
maintain good 0.0008460
great good 0.0008460
positive good 0.0008460
correct good 0.0008460
successful good 0.0008460
unsatisfactory good 0.0008460
goods good 0.0016920
know good 0.0008460
intense good 0.0008460
NULL good 0.0008460
running good 0.0008460
some good 0.0008460
well good 0.0152284
lucky good 0.0008460
best good 0.0008460
excellent good 0.0109983
right good 0.0016920
&apos;Accatino &apos;Accatino 1.0000000
involve involves 0.5000000
involves involves 0.5000000
GIVEN GAVE 0.1666667
GAVE GAVE 0.8333333
AIDs AIDs 1.0000000
his his 0.9176755
their his 0.0096852
&apos; his 0.0024213
home his 0.0024213
price his 0.0024213
her his 0.0121065
the his 0.0121065
NULL his 0.0024213
s his 0.0024213
he his 0.0072639
your his 0.0048426
its his 0.0072639
purpose his 0.0048426
consciousness his 0.0024213
deserves his 0.0024213
this his 0.0072639
studies studied 0.0833333
studied studied 0.8333333
was studied 0.0833333
necessary tablets 1.0000000
saves saves 1.0000000
clouds clowds 1.0000000
Civil Civil 1.0000000
his His 1.0000000
11 11 1.0000000
with Althouth 1.0000000
PROGRAMME PROGRAMM 1.0000000
intended intend 0.1000000
intend intend 0.9000000
grandfather grand 0.2222222
grandparents grand 0.5555556
grandmother grand 0.2222222
futher futher 0.2000000
further futher 0.8000000
deny deny 1.0000000
summum summum 1.0000000
bookworms books 0.0192308
notebooks books 0.0192308
books books 0.9615385
libraries libraries 0.7500000
of libraries 0.2500000
giving givin 1.0000000
away their 0.0017331
a their 0.0017331
update their 0.0017331
they their 0.0051993
skin their 0.0017331
there their 0.0138648
his their 0.0017331
their their 0.9514731
told their 0.0017331
whose their 0.0017331
the their 0.0017331
her their 0.0034662
NULL their 0.0069324
children their 0.0017331
your their 0.0017331
stay their 0.0017331
honey honey 1.0000000
pefect pefect 1.0000000
muscles muscles 1.0000000
sincerely Sinccerly 1.0000000
essential essencial 1.0000000
performed plaied 0.6666667
a plaied 0.3333333
TALLER TALLER 1.0000000
contradicted contradicted 1.0000000
conclusion conclution 1.0000000
technological overall 0.2000000
overall overall 0.8000000
cars Cars 1.0000000
discovered elucidaded 1.0000000
FIX FIX 1.0000000
INCLUDES INCLUDES 1.0000000
familiar familiar 0.5000000
knew familiar 0.5000000
civilization civilization 1.0000000
stared stared 0.5000000
starring stared 0.1666667
starred stared 0.3333333
fizzy fizzy 1.0000000
First First 0.8000000
first First 0.2000000
WE WE 0.9387755
we WE 0.0408163
SEASON WE 0.0204082
spending spends 0.5000000
spend spends 0.5000000
available able 0.0041494
possible able 0.0041494
appeal able 0.0041494
NULL able 0.0041494
able able 0.9626556
capable able 0.0041494
a able 0.0041494
unable able 0.0041494
going able 0.0041494
can able 0.0041494
relied relied 1.0000000
WANTED LOVED 1.0000000
why maybe 0.0094340
maybe maybe 0.9716981
except maybe 0.0094340
hard maybe 0.0094340
character charachter 1.0000000
French french 1.0000000
&apos; treasurehouse 0.3333333
house treasurehouse 0.3333333
treasure treasurehouse 0.3333333
dismayed dismayed 1.0000000
introduction introduction 1.0000000
Jean Jean 1.0000000
drink drinking 0.2000000
drinking drinking 0.8000000
responsibility responsability 0.8571429
fault responsability 0.1428571
describe express 0.0250000
explain express 0.0500000
show express 0.0250000
speed express 0.0250000
express express 0.8500000
give express 0.0250000
refurbishment refurbishment 1.0000000
stepped stepped 1.0000000
Lola Lola 1.0000000
referring refering 0.4000000
according refering 0.2000000
regarding refering 0.2000000
mentioned refering 0.2000000
breathless breathless 1.0000000
RATHER RATHER 0.5000000
WOULD RATHER 0.5000000
Dear Dir 1.0000000
Student Student 1.0000000
there theire 1.0000000
beginner biginner 1.0000000
Africans Africans 0.6000000
as Africans 0.2000000
well Africans 0.2000000
KWAI KWAI 1.0000000
charge charge 0.9285714
recharge charge 0.0714286
UNKNOWN UNKNOWN 1.0000000
rob steal 0.0909091
steal steal 0.8181818
burgle steal 0.0909091
Lucre Lucre 1.0000000
BUILT SET 0.5000000
BUILD SET 0.5000000
kills kills 1.0000000
non unrecycling 0.5000000
renewable unrecycling 0.5000000
costs costs 0.8695652
expenses costs 0.0869565
cost costs 0.0434783
has Christie 0.0454545
Christie Christie 0.9545455
e e 1.0000000
FAMILY FAMILY 1.0000000
named named 0.7500000
called named 0.2500000
audience audition 1.0000000
developing making 0.0151515
holding making 0.0151515
delaying making 0.0151515
organising making 0.0303030
painting making 0.0151515
have making 0.0151515
helping making 0.0151515
make making 0.0454545
made making 0.0151515
doing making 0.0454545
making making 0.7424242
makes making 0.0151515
putting making 0.0151515
CLEANING CLEANING 1.0000000
Kingfield Kingfield 1.0000000
devices facilities 0.0344828
technologies facilities 0.0344828
facilities facilities 0.7931034
facility facilities 0.0344828
equipment facilities 0.0344828
extras facilities 0.0344828
conveniences facilities 0.0344828
least liest 1.0000000
STAR STAR 1.0000000
cinemas cinemas 1.0000000
strength strength 1.0000000
undecided undecided 1.0000000
POSSIBLE POSIBLE 1.0000000
shouts shoutings 1.0000000
recommendations RECOMMONDATIONS 1.0000000
dark dark 1.0000000
efforts efforts 1.0000000
neighbourhood neighbourhood 1.0000000
FORGIVE FORGIVE 0.5000000
CANNOT FORGIVE 0.5000000
plays Plays 0.5000000
Plays Plays 0.5000000
why why 0.9905956
because why 0.0031348
ways why 0.0031348
Why why 0.0031348
separate seperate 1.0000000
chatting chatting 0.9166667
chat chatting 0.0833333
guarding garding 1.0000000
convenience conveniance 1.0000000
Future Futere 1.0000000
abysmally abysmally 1.0000000
if IF 0.0416667
PREFER IF 0.0416667
IF IF 0.9166667
unavailable unavailable 0.5000000
available unavailable 0.5000000
members mempers 1.0000000
success succes 1.0000000
place medium 0.2000000
medium medium 0.6000000
average medium 0.2000000
truly Truely 0.5000000
honestly Truely 0.5000000
instincts instincts 1.0000000
struggling struggling 1.0000000
losing lossing 1.0000000
technologists technologists 1.0000000
rang rang 1.0000000
calmly calmly 1.0000000
revise revise 1.0000000
h h 1.0000000
myself characteristics 0.5000000
characteristics characteristics 0.5000000
data data 1.0000000
kings kings 1.0000000
Theatre Theater 0.8571429
theatre Theater 0.1428571
motorboat motorboat 1.0000000
sadness saddness 1.0000000
partially partially 1.0000000
beginner Beginer 1.0000000
dance dances 1.0000000
member part 0.0040486
item part 0.0040486
trip part 0.0040486
parts part 0.0242915
proportion part 0.0040486
attend part 0.0040486
during part 0.0040486
part part 0.8785425
came part 0.0040486
piece part 0.0040486
view part 0.0040486
point part 0.0040486
some part 0.0040486
area part 0.0040486
have part 0.0040486
place part 0.0080972
NULL part 0.0121457
Most part 0.0040486
areas part 0.0040486
most part 0.0121457
time part 0.0040486
unknown unkown 1.0000000
fewer lesser 1.0000000
role roll 0.6666667
roll roll 0.3333333
killer killer 1.0000000
RESPONSE RESPONSE 1.0000000
explanation explainations 0.5000000
giving explainations 0.5000000
from traditional 0.0526316
traditional traditional 0.9473684
interested interesed 0.5000000
in interesed 0.5000000
sensitive sensitive 1.0000000
Indonesia Indonesia 1.0000000
certainly certenly 1.0000000
disagreed desagreeded 1.0000000
Kursk Kursk 1.0000000
news newses 1.0000000
places places 0.9701493
seats places 0.0149254
place places 0.0149254
tolerant tolerant 1.0000000
annoyance annoyance 0.5000000
annoying annoyance 0.5000000
fans faan 1.0000000
up terribly 0.0500000
terrible terribly 0.1000000
terribly terribly 0.8500000
from suffering 0.2000000
suffering suffering 0.8000000
one once 0.0238095
once once 0.9523810
NULL once 0.0238095
of remaining 0.5000000
rest remaining 0.5000000
Karrie Karrie 1.0000000
the vacuuming 0.5000000
vacuum vacuuming 0.5000000
pastime passtime 1.0000000
autograph autograph 1.0000000
brillient brillient 1.0000000
rehearse rehearsal 1.0000000
J J 1.0000000
persuaded persuide 1.0000000
rights right 0.0245902
straight right 0.0081967
alright right 0.0081967
right right 0.9180328
suitable right 0.0081967
justified right 0.0081967
choice right 0.0081967
RIGHT right 0.0081967
the right 0.0081967
unfit unfit 1.0000000
STARS STARS 1.0000000
suspiciously suspiciously 1.0000000
PROMPT PROMPT 1.0000000
believe beleive 1.0000000
organised organise 0.0810811
organising organise 0.0810811
out organise 0.0270270
work organise 0.0270270
reorganise organise 0.0270270
organise organise 0.7567568
slopes slopes 1.0000000
demands charges 1.0000000
as marked 0.5000000
stated marked 0.5000000
simplified simplified 1.0000000
retold retelling 1.0000000
continuous continous 1.0000000
agent agent 1.0000000
36 36 1.0000000
vice vice 0.6666667
the vice 0.3333333
port port 1.0000000
machines maschines 1.0000000
aisles alleys 1.0000000
that quote 0.5000000
quote quote 0.5000000
EMPLOYEES EMPLOYEES 1.0000000
divided divided 1.0000000
managing managing 1.0000000
reported reported 0.5000000
by reported 0.5000000
Fennall Fennall 1.0000000
worst worsts 1.0000000
ozone ozon 1.0000000
café café 1.0000000
Chile Chile 1.0000000
destroys destroys 1.0000000
second socond 1.0000000
salary salary 0.8888889
any salary 0.1111111
televisions television 0.0204082
television television 0.9795918
cinema cinema 0.9375000
movies cinema 0.0625000
CO2 CO2 1.0000000
addicted adicted 1.0000000
being sad 0.0250000
sad sad 0.9500000
said sad 0.0250000
effort effort 0.9411765
efforts effort 0.0588235
stressful workable 1.0000000
BB BB 1.0000000
album album 1.0000000
gymnasium gymnasium 1.0000000
HELGAR HELGAR 1.0000000
boring bored 0.0769231
with bored 0.0256410
bored bored 0.8717949
waiting bored 0.0256410
kilogram kilogram 1.0000000
every Evry 1.0000000
forty forty 0.6956522
forties forty 0.0144928
- forty 0.2898551
agrees agrees 1.0000000
Brazil Brazil 1.0000000
bothering bothering 0.5000000
annoying bothering 0.5000000
balloon balloon 0.8571429
balloons balloon 0.1428571
Pablo Pablo 1.0000000
handicapped handicapped 1.0000000
country contry 0.5000000
countries contry 0.5000000
energy energy 1.0000000
