CANNOT CANNOT 1.0000000
disagreed desagreeded 1.0000000
Andrade Andrade 1.0000000
teachers teatchers 1.0000000
pages pages 1.0000000
principles priciples 1.0000000
queues ques 1.0000000
stuck stucked 1.0000000
shopaholics shopcholic 1.0000000
ENCLOSED CLOSED 0.1000000
CLOSED CLOSED 0.9000000
evening eveninng 1.0000000
mirror mirror 1.0000000
tones signals 1.0000000
boxer boxershorts 0.5000000
shorts boxershorts 0.5000000
understanding comprehensible 1.0000000
shouting shouting 1.0000000
ATTRACTIVE ATTRACTIVE 1.0000000
disorganised desorganized 1.0000000
INVOLVES CONSISTS 1.0000000
moon moun 1.0000000
continuous continous 1.0000000
outskirts outskirts 1.0000000
major mayor 1.0000000
flaws flaws 1.0000000
Christie Christie 0.9545455
has Christie 0.0454545
MARVELLOUS MARVELLOUS 1.0000000
online online 1.0000000
LOUD LOUD 1.0000000
francs francs 1.0000000
concept concept 1.0000000
grandmother grandmother 0.7391304
&apos; grandmother 0.1304348
s grandmother 0.1304348
ways aspects 0.0476190
aspects aspects 0.8571429
things aspects 0.0952381
agree agree 0.8533333
approve agree 0.0133333
agreed agree 0.0800000
agrees agree 0.0133333
yes agree 0.0133333
like agree 0.0266667
institute institute 1.0000000
Alison Alison 1.0000000
soldiers soldiers 1.0000000
NULL till 0.0322581
still till 0.0322581
remains till 0.0322581
till till 0.8709677
not till 0.0322581
standing standing 0.9090909
causing standing 0.0909091
surrounded sorrounded 1.0000000
congratulating congratulating 1.0000000
minutes minuits 1.0000000
swapping swop 1.0000000
Ice Ice 1.0000000
already previously 0.2500000
previously previously 0.2500000
beforehand previously 0.5000000
item part 0.0040486
trip part 0.0040486
part part 0.8785425
during part 0.0040486
areas part 0.0040486
NULL part 0.0121457
member part 0.0040486
have part 0.0040486
proportion part 0.0040486
most part 0.0121457
piece part 0.0040486
some part 0.0040486
point part 0.0040486
came part 0.0040486
Most part 0.0040486
attend part 0.0040486
place part 0.0080972
time part 0.0040486
view part 0.0040486
area part 0.0040486
parts part 0.0242915
urban urban 1.0000000
over comunications 0.5000000
communication comunications 0.5000000
of ofcourse 0.5000000
course ofcourse 0.5000000
research searching 0.1250000
for searching 0.1250000
searching searching 0.7500000
assistants attendants 1.0000000
shooting shooting 1.0000000
obey obey 0.6666667
respond obey 0.3333333
model model 0.5000000
product model 0.2500000
type model 0.2500000
CHURCH CHURCH 1.0000000
designer designers 0.0833333
designers designers 0.9166667
chatting chat 0.0416667
and chat 0.0416667
chat chat 0.8750000
their chat 0.0416667
behaviour behaviours 1.0000000
romantic romatic 1.0000000
melt smellt 1.0000000
Jullia Jullia 1.0000000
crowds crowds 1.0000000
wage wage 1.0000000
AH AH 1.0000000
EVER EVER 1.0000000
cancel cancell 1.0000000
permission permision 1.0000000
crept crept 1.0000000
staylist staylist 1.0000000
admission admittion 1.0000000
CLEANING CLEANING 1.0000000
distracted distracted 1.0000000
recently resently 0.5000000
, resently 0.5000000
English english 0.9333333
our english 0.0666667
understanding comprehensive 1.0000000
alas alas 0.5000000
, alas 0.5000000
outlights outlights 1.0000000
easy easier 0.0105263
easier easier 0.9684211
easily easier 0.0105263
more easier 0.0105263
were addicted 0.2000000
addicted addicted 0.8000000
singers sigers 1.0000000
blackboard blackboard 1.0000000
choir choir 1.0000000
brought brough 1.0000000
frequency frequency 1.0000000
fabulous fabulous 1.0000000
Female Female 1.0000000
CHOOSE CHOOSE 1.0000000
Coulez Coulez 1.0000000
FATHER FATHER 1.0000000
NULL long 0.0036900
long long 0.8892989
a long 0.0405904
longest long 0.0036900
the long 0.0036900
far long 0.0036900
if long 0.0036900
time long 0.0073801
log long 0.0442804
CONTINUOUSLY CONTINOUSLY 1.0000000
appropriate appropiate 1.0000000
behaves herself 0.0666667
her herself 0.0666667
herself herself 0.8000000
resist herself 0.0666667
UFO UFO 1.0000000
request petition 1.0000000
ship ship 1.0000000
mysterious mysteriest 0.5000000
most mysteriest 0.5000000
true truly 0.1250000
frankly truly 0.1250000
for truly 0.1250000
truly truly 0.5000000
accurate truly 0.1250000
7.00pm 19.00pm 1.0000000
went together 0.0120482
piece together 0.0120482
together together 0.8915663
NULL together 0.0120482
them together 0.0120482
with together 0.0240964
well together 0.0120482
sex together 0.0120482
fine together 0.0120482
received received 0.9366197
receives received 0.0070423
receiving received 0.0070423
receive received 0.0352113
won received 0.0070423
got received 0.0070423
licence license 1.0000000
screens screens 1.0000000
refurbishment renewal 1.0000000
aprove aprove 1.0000000
BAND BAND 1.0000000
infra infra 1.0000000
or not 0.0004239
one not 0.0004239
of not 0.0004239
is not 0.0004239
interesting not 0.0004239
uninteresting not 0.0004239
I not 0.0004239
note not 0.0004239
nobody not 0.0004239
price not 0.0004239
unable not 0.0004239
becoming not 0.0004239
&apos;t not 0.0118694
no not 0.0089021
untrue not 0.0004239
and not 0.0004239
not not 0.9639678
unsatisfactory not 0.0004239
professional not 0.0008478
without not 0.0004239
unheard not 0.0004239
n not 0.0012717
s not 0.0004239
instead not 0.0008478
since not 0.0004239
compensated not 0.0004239
also not 0.0004239
hard not 0.0004239
agrees not 0.0004239
NULL not 0.0025435
vocalist vocalist 1.0000000
grandchildren grandchildren 1.0000000
spoke spoke 0.7777778
him spoke 0.0555556
talked spoke 0.0555556
could spoke 0.0555556
speak spoke 0.0555556
Get Get 1.0000000
BRAS BRAS 1.0000000
treat cure 0.2000000
cure cure 0.8000000
swore swore 1.0000000
fabulous fabolous 1.0000000
works works 0.5121951
chores works 0.0487805
homework works 0.0731707
work works 0.3414634
housework works 0.0243902
opportunity opportunaty 1.0000000
regards reguard 1.0000000
Sandre Sandre 1.0000000
some Some 0.6666667
Some Some 0.3333333
Adolf Adolf 1.0000000
telephones telephone 0.0277778
telephone telephone 0.9722222
accordance accodance 1.0000000
missing miss 0.0487805
be miss 0.0243902
Dear miss 0.0243902
miss miss 0.8048780
Miss miss 0.0243902
missed miss 0.0243902
fail miss 0.0243902
on miss 0.0243902
data data 1.0000000
chose choosed 0.2857143
chosen choosed 0.7142857
heard heaed 1.0000000
the Internal 0.5000000
International Internal 0.5000000
forward ward 1.0000000
saves saved 0.1111111
saved saved 0.6666667
has saved 0.1111111
save saved 0.1111111
repairs reparations 0.3333333
renovation reparations 0.6666667
elegant elgant 1.0000000
controlling controlling 1.0000000
crashed crashed 0.6666667
crashes crashed 0.3333333
wind wind 1.0000000
HAPPENING HAPPENING 1.0000000
comforts confort 1.0000000
thanks thanked 0.1000000
thanked thanked 0.9000000
Miracola Miracola 1.0000000
SHOW MUSICAL 0.1428571
THE MUSICAL 0.1428571
MUSICAL MUSICAL 0.7142857
operation operetion 1.0000000
panties panties 1.0000000
thumping thumbing 1.0000000
&apos;th &apos;th 1.0000000
listened listened 1.0000000
supplies supplies 1.0000000
destroyed destroyed 0.6666667
destroying destroyed 0.1111111
is destroyed 0.1111111
ruined destroyed 0.1111111
supplyer supplyer 1.0000000
wives wives 1.0000000
garages garages 1.0000000
pretty pretty 1.0000000
because becaose 1.0000000
confess confess 1.0000000
star Star 0.3333333
Star Star 0.6666667
cancel cancelation 1.0000000
until 8.15 0.1666667
8.15 8.15 0.8333333
of lof 0.5000000
lot lof 0.5000000
Big Big 0.5000000
which Big 0.5000000
our ower 1.0000000
Pants Pants 1.0000000
bakery bakery 1.0000000
nobody knowbody 1.0000000
untrue untrue 1.0000000
advertised presented 0.0555556
produced presented 0.0277778
staging presented 0.0277778
were presented 0.0277778
put presented 0.1666667
on presented 0.1944444
with presented 0.0277778
performed presented 0.0555556
showing presented 0.0277778
presented presented 0.3888889
advances improves 0.3333333
improves improves 0.6666667
learn overcame 1.0000000
spoiled fell 0.0555556
feel fell 0.1666667
fallen fell 0.0555556
fell fell 0.6666667
felt fell 0.0555556
applied applyed 1.0000000
ILL ILL 1.0000000
because becaus 1.0000000
recognises recognises 1.0000000
what expected 0.0086207
forward expected 0.0258621
meant expected 0.0086207
expecting expected 0.0086207
expect expected 0.0431034
expected expected 0.8620690
supposed expected 0.0086207
looked expected 0.0258621
look expected 0.0086207
Of Of 1.0000000
precarious precarious 1.0000000
breathe brief 0.3333333
brief brief 0.6666667
CLEAN CLEAN 1.0000000
administration administrations 1.0000000
weep weep 1.0000000
happy grateful 0.0129870
pleased grateful 0.0129870
grateful grateful 0.9090909
great grateful 0.0649351
HIS HIS 1.0000000
being refurbishing 1.0000000
B- B- 1.0000000
vocabulary vocabulary 1.0000000
ANSWER ANSWER 1.0000000
categories categories 1.0000000
check cheakd 1.0000000
Group Group 1.0000000
waited waitted 1.0000000
had king 0.2500000
king king 0.5000000
kind king 0.2500000
discomfort discomfort 1.0000000
Nigel Nigel 1.0000000
mouths mouths 0.6666667
closed mouths 0.3333333
reliable reliable 0.7500000
dependent reliable 0.2500000
oil oil 1.0000000
engineer ingenier 1.0000000
lottery lotery 1.0000000
answered answered 0.9333333
your answered 0.0666667
terribly terribly 0.8500000
up terribly 0.0500000
terrible terribly 0.1000000
schoolyard schoolyard 1.0000000
ENJOYABLE ENJOYABLE 1.0000000
assistants sellers 0.6250000
sales sellers 0.2500000
salesmen sellers 0.1250000
appreciation appriciation 1.0000000
there sculptures 0.2500000
sculptures sculptures 0.7500000
necessary nesseceraly 1.0000000
explaination explaination 0.2000000
explanation explaination 0.8000000
ACTING ACTING 1.0000000
rearrange rearrange 1.0000000
necessary nessecary 1.0000000
programmed programmed 0.5000000
programme programmed 0.5000000
sincerely faithfully 0.1428571
faithfully faithfully 0.8476190
yours faithfully 0.0063492
Sincerely faithfully 0.0031746
satisfy supply 0.3333333
supply supply 0.3333333
supplied supply 0.3333333
phone phones 0.0333333
phones phones 0.9666667
magnificent magnificent 1.0000000
nations nations 1.0000000
Westlife called 0.0103093
called called 0.9587629
Minolta called 0.0103093
calling called 0.0103093
get called 0.0103093
Kelly Kelly 1.0000000
montage montage 1.0000000
TECHNOLOGICAL TECHNOLOGICAL 1.0000000
mosquitoes moscitos 1.0000000
MEMBERS MEMBERS 1.0000000
look watch 0.0126582
consider watch 0.0126582
watched watch 0.0126582
watch watch 0.8481013
watching watch 0.0126582
seeing watch 0.0126582
see watch 0.0759494
TV watch 0.0126582
explanation justification 0.5000000
an justification 0.5000000
worst worse 0.1129032
worse worse 0.8870968
Cloutier Cloutier 1.0000000
neck neck 1.0000000
Kathy Kathy 1.0000000
karaoke karaoke 1.0000000
Cambridge Cambridge 1.0000000
sports sportif 1.0000000
fashion fashions 0.0533333
fashions fashions 0.9466667
Potato Potato 1.0000000
Civil Civil 1.0000000
related relation 0.1250000
relations relation 0.1250000
regards relation 0.1250000
connection relation 0.1250000
relation relation 0.1250000
relationship relation 0.1250000
relates relation 0.2500000
worse worth 0.0625000
worst worth 0.0312500
worth worth 0.7812500
more worth 0.0625000
worthwhile worth 0.0625000
jacket jacket 1.0000000
south south 1.0000000
working condition 0.0555556
healthy condition 0.0555556
are condition 0.0555556
regarding condition 0.0555556
order condition 0.0555556
conditions condition 0.2777778
condition condition 0.2777778
making condition 0.0555556
situation condition 0.1111111
Mexico Mexico 1.0000000
discuss discussion 0.0526316
discussion discussion 0.8947368
argument discussion 0.0526316
convenient confienence 1.0000000
Madam Mis 1.0000000
clarify claryfy 1.0000000
always allways 0.8000000
never allways 0.2000000
creating creating 1.0000000
reasonable reasonally 1.0000000
for against 0.0344828
of against 0.0344828
against against 0.6206897
who against 0.0344828
contrary against 0.0344828
break against 0.0344828
with against 0.0689655
allergy against 0.0344828
from against 0.0344828
to against 0.0689655
area subject 0.0175439
aims subject 0.0175439
they subject 0.0175439
NULL subject 0.0350877
subject subject 0.8245614
subjects subject 0.0701754
question subject 0.0175439
flat flat 0.9285714
as flat 0.0714286
impression impression 0.9166667
thoughts impression 0.0833333
combines combines 1.0000000
hobbies hobbys 1.0000000
outdoor outdoor 0.6363636
outdoors outdoor 0.3636364
gravestone gravestone 1.0000000
green green 0.9000000
greenhouse green 0.1000000
capital capital 1.0000000
France France 1.0000000
monkey monkey 1.0000000
badly badly 0.5333333
bad badly 0.1333333
it badly 0.0666667
hard badly 0.0666667
&apos; badly 0.0666667
- badly 0.0666667
worst badly 0.0666667
HOMEBASE HOMEBASE 1.0000000
Web Web 1.0000000
talked talk 0.0372671
talk talk 0.9254658
section talk 0.0062112
talks talk 0.0062112
talking talk 0.0186335
told talk 0.0062112
P P 1.0000000
extremely extremelly 1.0000000
Soares Soares 1.0000000
motorboat motorboat 1.0000000
innovations inovations 1.0000000
reply repply 1.0000000
twenty twenty 0.9285714
- twenty 0.0714286
shorts shorts 1.0000000
cope being 0.0046083
are being 0.0092166
accompanied being 0.0046083
be being 0.0322581
staying being 0.0138249
while being 0.0046083
NULL being 0.0368664
accepted being 0.0046083
as being 0.0046083
beings being 0.0276498
going being 0.0092166
to being 0.0046083
being being 0.7557604
been being 0.0230415
refused being 0.0046083
because being 0.0046083
multi being 0.0046083
starring being 0.0046083
the being 0.0046083
become being 0.0046083
hate being 0.0046083
organising being 0.0046083
mankind being 0.0046083
visit being 0.0046083
discussing being 0.0046083
bring being 0.0046083
life being 0.0046083
we being 0.0046083
researcher researcher 1.0000000
writing here 0.0070922
NULL here 0.0070922
care here 0.0070922
here here 0.8652482
there here 0.0780142
hear here 0.0070922
heard here 0.0141844
show here 0.0070922
participated here 0.0070922
experienced experienced 0.8333333
experience experienced 0.1666667
evidence evidences 1.0000000
to turned 0.0222222
went turned 0.0222222
happened turned 0.0222222
turned turned 0.8222222
out turned 0.0888889
become turned 0.0222222
challenges challenges 1.0000000
weekend weeked 1.0000000
reviews reviews 1.0000000
&apos; beginners 0.2857143
s beginners 0.1428571
beginner beginners 0.1428571
beginners beginners 0.4285714
beers beers 1.0000000
question questions 0.0053763
some questions 0.0053763
questions questions 0.9784946
answers questions 0.0053763
information questions 0.0053763
worrying worring 1.0000000
locals locals 0.6666667
some locals 0.3333333
hospitals hospital 0.0909091
hospital hospital 0.9090909
sneakers sneakers 1.0000000
for arround 0.1666667
around arround 0.8333333
Seul Seul 1.0000000
shook shook 1.0000000
are growns 0.2500000
ups growns 0.5000000
grown growns 0.2500000
the press 0.0526316
press press 0.9473684
sightseeing sightseing 1.0000000
2nd 2nd 0.7000000
the 2nd 0.3000000
&apos;clock oclock 0.5000000
o oclock 0.5000000
international international 0.9729730
International international 0.0270270
Hana Hana 1.0000000
weights weights 1.0000000
trip excursion 0.5000000
excursion excursion 0.5000000
perfectly perfectly 0.7777778
a perfectly 0.1111111
perfect perfectly 0.1111111
pots pots 1.0000000
800000000 800000000 1.0000000
information repplies 1.0000000
nonsense nonsenses 1.0000000
events evants 1.0000000
Amazon amazon 1.0000000
CHANGES CHANGES 1.0000000
want likely 0.1111111
likely likely 0.7777778
probably likely 0.1111111
real reall 1.0000000
choir chorus 1.0000000
am would 0.0007095
have would 0.0003547
wo would 0.0017737
walked would 0.0003547
will would 0.0280241
was would 0.0010642
do would 0.0010642
might would 0.0003547
accept would 0.0003547
forward would 0.0003547
is would 0.0031926
helps would 0.0003547
wanted would 0.0003547
should would 0.0024832
may would 0.0003547
want would 0.0010642
were would 0.0017737
wish would 0.0003547
NULL would 0.0060305
had would 0.0017737
could would 0.0039021
desire would 0.0003547
must would 0.0017737
look would 0.0003547
knows would 0.0003547
passed would 0.0003547
would would 0.9396949
than would 0.0003547
did would 0.0003547
ca would 0.0003547
ride ride 0.7500000
us ride 0.2500000
in durring 0.5000000
during durring 0.5000000
development developpement 1.0000000
banking banking 1.0000000
weather wethear 1.0000000
Santana Santana 1.0000000
attracted attacted 1.0000000
classmates class- 1.0000000
prison prison 1.0000000
SKY SKY 1.0000000
competitive competitive 1.0000000
meat meat 0.8000000
meet meat 0.2000000
completely compeletly 1.0000000
CARS CARS 1.0000000
first First 0.2000000
First First 0.8000000
NULL taken 0.0487805
got taken 0.0243902
given taken 0.0243902
take taken 0.1707317
took taken 0.0487805
token taken 0.0243902
made taken 0.0487805
taken taken 0.5853659
chosen taken 0.0243902
cultivate cultivite 1.0000000
complain comply 1.0000000
in en 0.3333333
ten en 0.3333333
- en 0.3333333
increases increases 1.0000000
COMFORTABLE COMFORTABLE 1.0000000
Island Island 1.0000000
attacks agressions 1.0000000
hitting hitting 1.0000000
necessary necesary 1.0000000
happiness happiness 1.0000000
PREPARING PREPARING 1.0000000
DECIDED DECIDED 1.0000000
HOUSE HOUSE 1.0000000
taught taught 1.0000000
encourages encourages 1.0000000
classical classical 1.0000000
communicate comenicate 1.0000000
WHICH WHICH 1.0000000
competition competence 1.0000000
lay lied 0.2000000
lie lied 0.2000000
lied lied 0.6000000
rings rings 0.6666667
rang rings 0.3333333
politeness polite 0.1000000
polite polite 0.9000000
always alwalys 1.0000000
amusement amusement 1.0000000
proves prove 0.1111111
prove prove 0.7777778
improve prove 0.1111111
mentioned refering 0.2000000
referring refering 0.4000000
regarding refering 0.2000000
according refering 0.2000000
had funds 0.5000000
funds funds 0.5000000
got came 0.0112994
comes came 0.0056497
arrived came 0.0169492
was came 0.0056497
go came 0.0112994
went came 0.0564972
appeared came 0.0056497
occurred came 0.0056497
been came 0.0056497
come came 0.0338983
first came 0.0056497
artists came 0.0056497
became came 0.0056497
came came 0.8192090
coming came 0.0056497
yourself yourselfh 1.0000000
hope hop 1.0000000
either none 0.0833333
no none 0.1666667
neither none 0.0833333
one none 0.0833333
none none 0.5833333
lighter lighter 1.0000000
Did Did 0.3333333
Do Did 0.3333333
&quot; Did 0.3333333
diverse diversity 1.0000000
THE INTERNET 0.4444444
INTERNET INTERNET 0.5555556
photographs photography 0.0387597
photography photography 0.9224806
photographic photography 0.0232558
technique photography 0.0077519
course photography 0.0077519
volleyball voleyball 1.0000000
peculiar peculiar 1.0000000
n haen 0.5000000
had haen 0.5000000
continue contine 1.0000000
cry cry 0.9333333
cried cry 0.0666667
gallery galery 1.0000000
explanations explictions 0.3333333
being explictions 0.3333333
given explictions 0.3333333
exchanging exchanging 1.0000000
number quantity 0.3333333
quantity quantity 0.6666667
mailing mailing 1.0000000
punctual punctual 1.0000000
cashpoint credit 0.0303030
credit credit 0.9393939
on credit 0.0303030
House House 1.0000000
schedule forecast 0.2500000
forecast forecast 0.7500000
wilder wilder 0.5000000
a wilder 0.5000000
PC pc 1.0000000
enemies enemies 1.0000000
paragraphs paragraps 1.0000000
opportunity oppurtinatey 1.0000000
activist activist 1.0000000
seconds secound 0.5000000
second secound 0.5000000
joy joyful 1.0000000
decadence decadence 1.0000000
it propaganda 0.5000000
advertisement propaganda 0.5000000
build rebuild 1.0000000
improve inprove 1.0000000
PAY PAY 1.0000000
NULL THEM 0.1000000
THEM THEM 0.9000000
wait weait 1.0000000
barbecue barbecue 1.0000000
sufficient adequate 1.0000000
dozens dozens 1.0000000
Ad Ad 1.0000000
US US 1.0000000
gossiped gossiped 1.0000000
do pactice 1.0000000
century centery 1.0000000
that intersts 0.5000000
interests intersts 0.5000000
concentrates concentrates 1.0000000
smiled smiled 1.0000000
community comunity 1.0000000
hearts heart 0.0500000
hearted heart 0.0500000
heart heart 0.6500000
heard heart 0.2500000
Brigitte Brigitte 1.0000000
aims aims 1.0000000
advance anticipation 1.0000000
housework household 0.3333333
home household 0.3333333
household household 0.3333333
Caesara Caesara 1.0000000
families Families 1.0000000
adapted adapted 1.0000000
concert concer 1.0000000
BASKETBALL BASKETBALL 1.0000000
woken wake 0.0625000
wake wake 0.9375000
health healf 1.0000000
printed printed 0.8000000
T printed 0.2000000
Ka Ka 1.0000000
UNKNOWN UNKNOWN 1.0000000
clues clues 1.0000000
luggage luggage 1.0000000
frightened frightened 1.0000000
Cranberies Cranberies 1.0000000
tickets ticets 1.0000000
baskets baskets 1.0000000
subject reason 0.0056180
aim reason 0.0056180
why reason 0.0168539
cause reason 0.0112360
reason reason 0.9213483
reasons reason 0.0224719
NULL reason 0.0056180
right reason 0.0056180
given reason 0.0056180
cabins carbins 1.0000000
hairstyles hayrstyles 1.0000000
VITA VITA 1.0000000
RODRIGEZ RODRIGEZ 1.0000000
accommodation accomodation 0.8674699
stay accomodation 0.0963855
sleep accomodation 0.0120482
type accomodation 0.0240964
peacefully pacefully 1.0000000
Theatre Theathre 1.0000000
Freak Freak 1.0000000
Kozin Kozin 1.0000000
LOW HAVE 0.0212766
WAS HAVE 0.0212766
INCLUDE HAVE 0.0212766
. HAVE 0.0212766
HAS HAVE 0.0425532
HAD HAVE 0.0212766
HAVE HAVE 0.8510638
group clan 1.0000000
nutshell nutchel 1.0000000
Dream Dream 1.0000000
lit lightened 1.0000000
databases databases 1.0000000
Television Television 1.0000000
dishwasher dishwashing 1.0000000
actors persons 0.0526316
people persons 0.9473684
concretely concretely 1.0000000
Schulsson Schulsson 1.0000000
can immagine 0.3333333
imagine immagine 0.6666667
grateful gratfull 1.0000000
crowd crownd 1.0000000
quarrelled quarrelled 1.0000000
blood blood 1.0000000
enthusiast enthusiast 1.0000000
initially initially 1.0000000
dizzy dizzy 1.0000000
recollect recollet 1.0000000
is unenjoyable 0.1666667
unenjoyable unenjoyable 0.8333333
RECEIVE RECEIVE 1.0000000
Korea Korean 0.2500000
Korean Korean 0.7500000
considering according 0.0285714
in according 0.0761905
regard according 0.0095238
NULL according 0.0190476
on according 0.0095238
with according 0.0190476
regards according 0.0095238
concerning according 0.0190476
referring according 0.0095238
because according 0.0571429
according according 0.6761905
regarding according 0.0666667
THONGCHAI THONGCHAI 1.0000000
discos discos 1.0000000
referee referee 1.0000000
Almo Almo 1.0000000
Margaret Margaret 1.0000000
privacy pirvacity 1.0000000
Duangkamol Duangkamol 1.0000000
Carter Carter 1.0000000
harvest harvest 1.0000000
Kyon Kyon 1.0000000
answered anwered 1.0000000
laser laser 1.0000000
be big 0.0043103
lived big 0.0043103
bit big 0.0043103
dependent big 0.0043103
much big 0.0043103
lot big 0.0043103
large big 0.0172414
fuss big 0.0043103
great big 0.0387931
long big 0.0043103
very big 0.0043103
tree big 0.0043103
love big 0.0043103
bigger big 0.0043103
team big 0.0043103
broad big 0.0043103
big big 0.8793103
wide big 0.0043103
something sth 1.0000000
Charoenkul Charoenkul 1.0000000
thank Thankeaw 0.5000000
you Thankeaw 0.5000000
- fourthey 0.5000000
forty fourthey 0.5000000
why Why 0.5000000
Why Why 0.5000000
NULL these 0.0056022
they these 0.0056022
a these 0.0028011
rules these 0.0028011
&apos; these 0.0028011
those these 0.0112045
things these 0.0140056
there these 0.0028011
these these 0.8263305
technology these 0.0028011
plastic these 0.0028011
within these 0.0028011
this these 0.0980392
that these 0.0028011
the these 0.0168067
optional optional 1.0000000
variety variety 1.0000000
Korn Korn 1.0000000
handicap handidate 1.0000000
mountains mountains 1.0000000
magazines magazines 0.8750000
and magazines 0.1250000
addresses addresses 1.0000000
transfer transfor 1.0000000
ABOUT FOR 0.0142857
. FOR 0.0142857
FOR FOR 0.8142857
SIGNED FOR 0.0142857
DEMAND FOR 0.0142857
OF FOR 0.0428571
THROUGH FOR 0.0142857
REGARDING FOR 0.0142857
CAN FOR 0.0142857
TO FOR 0.0142857
BECAUSE FOR 0.0285714
preference preference 1.0000000
refreshments refreshments 1.0000000
nurse nurse 1.0000000
chef shef 1.0000000
José José 1.0000000
waiting wating 1.0000000
organised orginised 1.0000000
daytime daytime 0.7500000
day daytime 0.2500000
increased increased 1.0000000
burns burns 1.0000000
atmospheric atmospherical 1.0000000
MUSIC MUSIC 1.0000000
accepted excepted 1.0000000
Katerina Katerina 1.0000000
Larry Larry 1.0000000
1996 1996 1.0000000
sound sound 0.9322034
system sound 0.0169492
sounds sound 0.0338983
volume sound 0.0169492
compromise compromise 1.0000000
innocently inocently 1.0000000
MAKES MAKES 0.5000000
DISTANCES MAKES 0.5000000
countless countless 1.0000000
deciding deciding 1.0000000
Festivalö Festivalö 1.0000000
information answers 0.0333333
answers answers 0.8333333
questions answers 0.0333333
answer answers 0.1000000
optional optionaly 1.0000000
Montri Montri 1.0000000
collected collected 1.0000000
unreliable unrealiable 1.0000000
afterwards Afterward 1.0000000
unfortunately UNFORTUNETELY 1.0000000
Film Film 1.0000000
expected expects 1.0000000
least liest 1.0000000
HOME HOME 1.0000000
Oxana Oxana 1.0000000
foams foams 1.0000000
provide provided 0.0434783
provided provided 0.9130435
allowed provided 0.0434783
sectors sectors 1.0000000
really willy 1.0000000
shelves shelves 1.0000000
as easely 0.3333333
easily easely 0.6666667
decided decieded 1.0000000
patience patience 1.0000000
build build 0.5714286
built build 0.2142857
be build 0.0714286
building build 0.1428571
ritual ritual 1.0000000
snowboarding snowboarding 1.0000000
stairs stairs 1.0000000
September september 1.0000000
worse worser 1.0000000
fishing fishing 1.0000000
knickers knickers 1.0000000
TECHNICAL TECNICAL 1.0000000
HAS ARE 0.0434783
IS ARE 0.0434783
BEEN ARE 0.0434783
ARE ARE 0.8260870
HAVE ARE 0.0434783
Piaf Piaf 1.0000000
confessed confesed 0.5000000
to confesed 0.5000000
confirm confirme 0.5000000
for confirme 0.5000000
unforgivable unforgiven 1.0000000
tornados tornado 1.0000000
robots roboters 1.0000000
11 11 1.0000000
projected projected 1.0000000
wild wild 0.6000000
nature wild 0.1000000
wildlife wild 0.2000000
worldwide wild 0.1000000
comfortable comfotable 1.0000000
disturbs disturb 0.1428571
disturb disturb 0.5714286
bother disturb 0.1428571
disturbing disturb 0.1428571
22.00 pm 0.0178571
20.15 pm 0.0178571
pm pm 0.9464286
evening pm 0.0178571
husband husband 1.0000000
WEEKS WEEKS 1.0000000
BRUL BRUL 1.0000000
listens listens 1.0000000
throwing throwing 1.0000000
all complete 0.0344828
; complete 0.0344828
completely complete 0.0689655
good complete 0.0344828
complain complete 0.0344828
complete complete 0.6896552
full complete 0.0344828
provide complete 0.0344828
completed complete 0.0344828
rejected rejective 0.5000000
by rejective 0.5000000
Opera Opera 1.0000000
grandfather grandfather 1.0000000
PROUD PROUD 1.0000000
price fee 0.0769231
hotel fee 0.0769231
fee fee 0.6153846
free fee 0.0769231
entrance fee 0.1538462
near next 0.0026882
next next 0.9758065
closer next 0.0026882
up next 0.0053763
on next 0.0026882
to next 0.0026882
following next 0.0026882
last next 0.0026882
the next 0.0026882
passed pass 0.0344828
spend pass 0.1034483
spending pass 0.0344828
past pass 0.0689655
pass pass 0.5517241
sit pass 0.1034483
passes pass 0.0689655
have pass 0.0344828
songs songs 0.9166667
sing songs 0.0416667
NULL songs 0.0416667
Philip Philip 1.0000000
woman wemon 1.0000000
family farmily 1.0000000
microwave micrown 1.0000000
CD C.D 1.0000000
salesman salesman 1.0000000
editor editor 1.0000000
mixture mixture 1.0000000
4567 4567 1.0000000
unpleasant unpleasent 1.0000000
ferry ferry 1.0000000
Ybarra Ybarra 1.0000000
deck deck 1.0000000
heading heading 0.5000000
, heading 0.5000000
door door 0.9574468
outdoor door 0.0212766
entrance door 0.0212766
absurd absurd 1.0000000
A.S A.S 1.0000000
queuing qeuing 1.0000000
separately sperate 1.0000000
123 123 1.0000000
CO2 CO2 1.0000000
luxury luxualy 1.0000000
distributed distributed 1.0000000
progressive progressive 1.0000000
Out Out 1.0000000
lessons material 0.0270270
things material 0.0270270
material material 0.4864865
materials material 0.1351351
equipment material 0.3243243
LUNCH LUNCH 1.0000000
option solution 0.0400000
solve solution 0.0400000
way solution 0.1200000
alternative solution 0.0400000
to solution 0.1200000
solution solution 0.6400000
son son 0.9523810
soon son 0.0476190
PERFORMED PERFORMED 1.0000000
crowds crowe 1.0000000
rapidly rapidly 0.5294118
we rapidly 0.0588235
me rapidly 0.0588235
for rapidly 0.0588235
John rapidly 0.0588235
posthaste rapidly 0.0588235
want rapidly 0.0588235
suddenly rapidly 0.0588235
quickly rapidly 0.0588235
survive survive 0.8750000
survival survive 0.0625000
help survive 0.0625000
&apos; licences 0.5000000
licences licences 0.5000000
for fro 1.0000000
permanent permanent 0.5000000
a permanent 0.5000000
studying studying 1.0000000
Wall Wall 1.0000000
TYUNG TYUNG 1.0000000
Botella Botella 1.0000000
knees knees 1.0000000
calculate calulate 1.0000000
defeat defeat 1.0000000
hr hr 1.0000000
Gold Gold 1.0000000
through throu 1.0000000
had examinations 0.1666667
examinations examinations 0.8333333
awake awake 1.0000000
extremely extrrmely 1.0000000
nature nuture 1.0000000
without withou 1.0000000
indignant indignatged 1.0000000
Poirot Poirot 1.0000000
Deli Deli 1.0000000
children childrens 1.0000000
cons cons 1.0000000
fate fate 1.0000000
displays displays 1.0000000
copying copying 1.0000000
glitter glitter 1.0000000
completely comletely 1.0000000
regulations regulament 1.0000000
basic basical 1.0000000
knowledge knowladge 1.0000000
COMPUTERS COMPUTERS 1.0000000
Regards Regards 0.5714286
regards Regards 0.4285714
spacy spacy 0.6666667
spacy- spacy 0.3333333
addicts addicts 1.0000000
inspirations insperations 1.0000000
deeply deeply 0.8333333
profoundly deeply 0.1666667
dungeon dungeen 1.0000000
grandparents grandparent 1.0000000
HAVE SEND 0.3333333
SENT SEND 0.6666667
paralyzed paralyzed 1.0000000
important imortant 1.0000000
private Privat 1.0000000
acceptance aceptance 1.0000000
close closely 1.0000000
anger anger 1.0000000
now presently 1.0000000
customer custumer 1.0000000
Mrs Mz 1.0000000
walking walked 0.0625000
waded walked 0.0625000
walked walked 0.8750000
everyone everyon 1.0000000
instead instat 1.0000000
about if 0.0006935
NULL if 0.0041609
it if 0.0006935
do if 0.0006935
, if 0.0006935
If if 0.0013870
whether if 0.0034674
grater if 0.0006935
that if 0.0020804
or if 0.0006935
much if 0.0006935
though if 0.0034674
if if 0.9805825
makes does 0.0073529
petroleum does 0.0073529
taste does 0.0073529
do does 0.0661765
NULL does 0.0147059
perform does 0.0073529
wo does 0.0147059
; does 0.0073529
does does 0.7573529
did does 0.0367647
n does 0.0147059
monster does 0.0073529
has does 0.0073529
is does 0.0441176
professional profecional 1.0000000
furthermore Futhermore 1.0000000
angry ungry 1.0000000
Jackson Jackson 1.0000000
roads roads 1.0000000
Metro Metro 1.0000000
stay accomodationed 1.0000000
troublemaker truble 1.0000000
laboratory physics 0.2500000
physics physics 0.7500000
definitely defenately 1.0000000
decorated decorated 1.0000000
correspondence corespondecies 1.0000000
accommodation acommodations 1.0000000
atmosphere atmosfear 1.0000000
balloons balloons 0.8333333
the balloons 0.1666667
Bying bying 0.3333333
buy bying 0.3333333
buying bying 0.3333333
T.Vs T.Vs 1.0000000
DELAYED DELAYED 0.5000000
WAS DELAYED 0.5000000
dot dot 1.0000000
convenient convience 1.0000000
is spaceship 0.3333333
spaceships spaceship 0.3333333
spaceship spaceship 0.3333333
of appearing 0.3333333
the appearing 0.3333333
appearance appearing 0.3333333
written writting 0.0263158
writing writting 0.9605263
typewriter writting 0.0131579
competition competiton 1.0000000
knowledge certain 0.0666667
certain certain 0.9333333
touch hesitate 0.0434783
hesitate hesitate 0.9565217
oldest oldest 1.0000000
attraction attraction 0.3333333
&apos; attraction 0.1666667
s attraction 0.1666667
attention attraction 0.1666667
the attraction 0.1666667
Metal Metal 1.0000000
young younger 0.0714286
younger younger 0.7857143
particular younger 0.0714286
people younger 0.0714286
definitely defenitely 1.0000000
version version 1.0000000
Ozone Ozone 1.0000000
TITANIC TITANIC 1.0000000
Jordan Jordan 1.0000000
worthwhile worthy 0.2857143
worth worthy 0.2857143
been worthy 0.1428571
it worthy 0.2857143
enrolled enrolled 1.0000000
incredible increible 1.0000000
- equipated 0.5000000
equipped equipated 0.5000000
Fs F 0.1666667
F F 0.8333333
SURGANOVA SURGANOVA 1.0000000
robotics robotich 1.0000000
billion billion 1.0000000
suddenly suddenly 1.0000000
Leisure Laisure 1.0000000
conducted done 0.0071942
started done 0.0071942
booked done 0.0071942
done done 0.6834532
a done 0.0143885
doing done 0.0215827
created done 0.0071942
carried done 0.0071942
taken done 0.0071942
met done 0.0071942
occur done 0.0071942
do done 0.0287770
made done 0.0287770
had done 0.0071942
entered done 0.0143885
organised done 0.0071942
calculator done 0.0071942
given done 0.0143885
tried done 0.0071942
been done 0.0287770
did done 0.0791367
they hey 0.3333333
Hey hey 0.6666667
portrays portrays 1.0000000
A AN 0.1000000
AN AN 0.9000000
Farmer Farmer 1.0000000
the computer 0.0088106
computers computer 0.0616740
computer computer 0.9207048
games computer 0.0044053
computing computer 0.0044053
wanted pleased 0.0104167
entertained pleased 0.0104167
grateful pleased 0.0104167
pleased pleased 0.9687500
smog smog 1.0000000
organiser organiser 0.8750000
Organiser organiser 0.1250000
combination between 0.0183486
between between 0.8807339
including between 0.0091743
of between 0.0183486
open between 0.0091743
either between 0.0091743
from between 0.0550459
an interview 0.0555556
interview interview 0.8888889
interviews interview 0.0555556
have meet 0.0103093
into meet 0.0103093
met meet 0.0309278
meet meet 0.8556701
meeting meet 0.0515464
see meet 0.0309278
find meet 0.0103093
autographs autographs 0.8571429
their autographs 0.1428571
19,30 19,30 1.0000000
whites whites 1.0000000
pathetic pathetic 1.0000000
threatened threatened 1.0000000
Brett Brett 1.0000000
THE ENGLISH 0.2500000
ENGLISH ENGLISH 0.7500000
when nearly 0.0384615
almost nearly 0.0769231
nearly nearly 0.8846154
produced produced 1.0000000
something Something 1.0000000
saying saing 0.5000000
showing saing 0.5000000
90 90 1.0000000
dry dried 0.6666667
a dried 0.3333333
present preseant 1.0000000
event events 0.0121951
events events 0.9878049
water watter 0.6666667
his watter 0.1666667
boil watter 0.1666667
in plug 0.3333333
plug plug 0.6666667
layout layout 1.0000000
instinct instinc 1.0000000
businessmen businessmen 1.0000000
bury bury 1.0000000
monstrous monstruous 1.0000000
complaints complaints 0.8750000
complaint complaints 0.1250000
shoulder shoulder 1.0000000
sensed sensed 1.0000000
a.m. a.m. 1.0000000
FOLLOW FOLLOW 1.0000000
dinners dinners 1.0000000
of millions 0.2500000
millions millions 0.7500000
cabin cabines 1.0000000
13.06.00 13.06.00 1.0000000
organizing organizing 0.9230769
with organizing 0.0769231
responsible rensposible 1.0000000
reserved reserved 1.0000000
MARCOS MARCOS 1.0000000
Carlitos Carlitos 1.0000000
to should 0.0013605
would should 0.0149660
those should 0.0013605
unlikely should 0.0013605
refund should 0.0013605
reason should 0.0013605
should should 0.9442177
compromise should 0.0013605
deserve should 0.0013605
NULL should 0.0095238
can should 0.0013605
will should 0.0081633
supposed should 0.0013605
wo should 0.0013605
could should 0.0013605
had should 0.0081633
gossip gossips 1.0000000
crystal crystal 1.0000000
needlessly needlessly 1.0000000
it hotter 0.5000000
hotter hotter 0.5000000
Rafael Rafael 1.0000000
temperature tempereture 0.5000000
the tempereture 0.5000000
mutual mutual 1.0000000
brilliantly brillantly 1.0000000
BLIND BLIND 1.0000000
fans fan 0.1304348
fun fan 0.1304348
fan fan 0.7391304
able enable 0.2500000
enables enable 0.2500000
enable enable 0.5000000
corridors corridors 1.0000000
incredibly incredibly 1.0000000
really really 0.9962264
expected really 0.0012579
much really 0.0012579
real really 0.0012579
variety vareiety 1.0000000
pressure stress 0.0370370
stressful stress 0.0370370
stressed stress 0.1111111
mess stress 0.0370370
stress stress 0.7407407
emphasis stress 0.0370370
alibi alibi 1.0000000
Sirs Sirs 1.0000000
advantage adventage 1.0000000
GASKELL GASKELL 1.0000000
hope holp 1.0000000
GETS GETS 1.0000000
grandfather father 0.0256410
father father 0.9743590
break brake 1.0000000
outside outsid 1.0000000
details detailes 1.0000000
their wallet 0.0714286
wallet wallet 0.9285714
solution sollution 1.0000000
cinema Cinema 1.0000000
CONTRARY DIFFERENTLY 1.0000000
apprentice apprentice 1.0000000
16th 16th 1.0000000
Freely Freely 1.0000000
firstly Firsty 1.0000000
plays Plays 0.5000000
Plays Plays 0.5000000
forbidden forbidden 0.3333333
forbade forbidden 0.3333333
forbid forbidden 0.3333333
Ilya Ilya 1.0000000
and smarter 0.3333333
smarter smarter 0.3333333
better smarter 0.3333333
work restructuring 0.5000000
repair restructuring 0.5000000
break lunchbreak 0.5000000
lunch lunchbreak 0.5000000
said stood 0.0714286
was stood 0.0714286
stayed stood 0.0714286
standing stood 0.0714286
stood stood 0.7142857
young yong 1.0000000
fade fade 1.0000000
13 13 1.0000000
trusts trust 0.0294118
trust trust 0.9117647
trusted trust 0.0588235
heights height 0.3333333
height height 0.6666667
pushing pushing 1.0000000
THEATRE THEATRE 1.0000000
lazy lazzy 1.0000000
ISOLATED ISOLATED 0.5000000
BECOME ISOLATED 0.5000000
U.SA U.SA 1.0000000
scary scarly 1.0000000
ELECTRIC ELECTRIC 0.5000000
LIGHT ELECTRIC 0.5000000
medicine medecine 1.0000000
liberated liberated 1.0000000
technology technolgy 1.0000000
earlier Ealyer 1.0000000
American American 1.0000000
evening evining 1.0000000
dust dust 1.0000000
scares scares 1.0000000
Phat Phat 1.0000000
answer ansewer 1.0000000
out society 0.0277778
company society 0.0277778
society society 0.9444444
minutes mn 1.0000000
hobby enthusiasm 0.1666667
enthusiasm enthusiasm 0.8333333
unpleasant displeasured 1.0000000
rural rural 1.0000000
leather leather 1.0000000
. ... 0.0065789
... ... 0.9802632
Madam ... 0.0065789
? ... 0.0065789
AUGUST AUGUST 1.0000000
visiting Science 0.0105263
science Science 0.0105263
Science Science 0.9789474
inspector inspector 1.0000000
intended intended 1.0000000
recommendation recommendation 1.0000000
Artists Artists 0.7500000
artists Artists 0.2500000
one advertisement 0.0016474
publicity advertisement 0.0016474
advertisement advertisement 0.9868204
festival advertisement 0.0016474
advertising advertisement 0.0032949
advertisements advertisement 0.0016474
ones advertisement 0.0032949
long longer 0.0476190
longer longer 0.8571429
more longer 0.0952381
strange strenge 1.0000000
dressed wear 0.0037594
dress wear 0.0075188
clothing wear 0.0037594
fashions wear 0.0037594
be wear 0.0037594
when wear 0.0037594
wears wear 0.0112782
show wear 0.0037594
underwear wear 0.0112782
wear wear 0.8759398
clothes wear 0.0037594
all wear 0.0037594
wore wear 0.0037594
worn wear 0.0037594
carry wear 0.0075188
went wear 0.0037594
sportswear wear 0.0451128
attacks attacts 1.0000000
stunned stunned 1.0000000
guilt guilty 0.2222222
guilty guilty 0.7777778
floating floting 1.0000000
hesitation hesitation 1.0000000
judging judging 1.0000000
chain chain 1.0000000
sociable sociaple 1.0000000
Martin Martin 1.0000000
90s 90s 1.0000000
repair repair 1.0000000
spacious spacious 1.0000000
Alak Alak 1.0000000
a lesure 0.5000000
leisure lesure 0.5000000
hit directly 0.1666667
directly directly 0.8333333
depression depressions 1.0000000
Stones Stones 1.0000000
edge edge 1.0000000
George George 1.0000000
routines rutines 1.0000000
Katrin Katrin 1.0000000
lifestyle lifestyles 1.0000000
help helpful 0.0500000
helpful helpful 0.9500000
quality timbre 0.5000000
sound timbre 0.5000000
show entertainment 0.1428571
entertainment entertainment 0.7857143
evening entertainment 0.0714286
tank tank 1.0000000
anybody anybody 0.9459459
nobody anybody 0.0540541
BELIEVE BELIEVE 1.0000000
functioning functioning 1.0000000
electric electrical 0.0909091
electrical electrical 0.8181818
robotic electrical 0.0909091
ever never 0.0168269
never never 0.9807692
, never 0.0024038
crew crow 1.0000000
not resist 0.1111111
avoid resist 0.1111111
resist resist 0.7777778
bankrupt bankrupt 1.0000000
delicate delicate 1.0000000
education knowledgement 1.0000000
READING READ 0.0833333
READ READ 0.9166667
even Even 1.0000000
at throug 0.5000000
bartender throug 0.5000000
flash flesh 0.5000000
flesh flesh 0.5000000
na na 0.5000000
NULL na 0.5000000
hired hired 1.0000000
different diffarent 1.0000000
like liked 0.0515464
likes liked 0.0206186
liked liked 0.9278351
Eirini Eirini 1.0000000
IMAGINE IMAGINE 1.0000000
5000 5000 1.0000000
NULL technology 0.0017271
technological technology 0.0034542
computers technology 0.0017271
technology technology 0.9913644
advancement technology 0.0017271
things happening 0.0526316
happening happening 0.8947368
arise happening 0.0526316
applauded applauded 1.0000000
bloody bloody 1.0000000
dream too 0.0023148
late too 0.0046296
a too 0.0069444
NULL too 0.0023148
very too 0.0185185
exaggerating too 0.0023148
far too 0.0023148
too too 0.9282407
also too 0.0023148
including too 0.0023148
either too 0.0046296
to too 0.0069444
technique too 0.0023148
two too 0.0023148
break too 0.0023148
really too 0.0023148
so too 0.0046296
extremely too 0.0023148
holiday holyday 1.0000000
do haven 0.0117647
did haven 0.0588235
had haven 0.0470588
haven haven 0.7294118
n haven 0.1411765
are haven 0.0117647
Bouchard Bouchard 1.0000000
Janine Janine 1.0000000
cheap chipper 1.0000000
prefer preffer 1.0000000
angrily angrily 1.0000000
inadequate insufficient 1.0000000
classical classicial 1.0000000
letters letter 0.0030120
me letter 0.0015060
reply letter 0.0030120
letter letter 0.9909639
NULL letter 0.0015060
n dosen 0.5000000
does dosen 0.5000000
annoy annoye 1.0000000
pleased pleaseant 1.0000000
at finally 0.0032258
minute finally 0.0032258
finally finally 0.9774194
obtain finally 0.0032258
these finally 0.0032258
end finally 0.0064516
eventually finally 0.0032258
paint painting 0.0083333
painted painting 0.0166667
watercolours painting 0.0083333
painting painting 0.9666667
doubles pairs 0.3333333
pairs pairs 0.6666667
leaflets leaflets 1.0000000
technology teachnology 1.0000000
shoes shoe 0.5000000
shoe shoe 0.5000000
naked naked 1.0000000
hall halls 0.0119048
halls halls 0.9880952
Diving Diving 1.0000000
ended ended 0.8750000
end ended 0.0833333
ruined ended 0.0416667
Melina Melina 1.0000000
pollen pollins 1.0000000
remarkable remarkable 1.0000000
veteran veteran 1.0000000
J. J. 1.0000000
filled filled 0.5000000
replaced filled 0.2500000
for filled 0.2500000
phoned phoned 1.0000000
DINNER DINNER 1.0000000
beginning begging 1.0000000
Hey Hey 1.0000000
part include 0.0294118
could include 0.0294118
including include 0.0882353
included include 0.0294118
we include 0.0294118
include include 0.6176471
includes include 0.1176471
inclusive include 0.0294118
whether include 0.0294118
reproductor reproductor 1.0000000
gentle tender 1.0000000
damaged damaged 1.0000000
windows windows 0.8571429
window windows 0.1428571
unbelievably unbelievably 0.5000000
really unbelievably 0.5000000
stuck stamped 1.0000000
overwhelmed overwhelmed 0.5000000
, overwhelmed 0.5000000
CENTRAL CENTRAL 1.0000000
dreams drems 1.0000000
Couch Couch 1.0000000
impossible unpossible 1.0000000
earths earths 1.0000000
BRASILIA BRASILIA 1.0000000
ruin ruin 0.5000000
ruined ruin 0.5000000
times days 0.0076628
today days 0.0076628
time days 0.0038314
days days 0.8927203
nowadays days 0.0114943
remaining days 0.0038314
few days 0.0114943
technical days 0.0038314
, days 0.0038314
day days 0.0459770
. days 0.0038314
month days 0.0038314
assess assess 0.6666667
which assess 0.3333333
mix mix 1.0000000
daughter daughter 1.0000000
backaches backaches 1.0000000
eventually eventaully 1.0000000
much mutch 1.0000000
Manager Maneger 1.0000000
stepparents stepparents 1.0000000
sickness sickness 1.0000000
Rinsook Rinsook 1.0000000
fellows fellows 1.0000000
bully bully 1.0000000
responsibilities responsabilities 1.0000000
STAY STAY 1.0000000
blindly blindly 1.0000000
rubbish rubbish 1.0000000
repeated repeated 1.0000000
sculptures esculptures 1.0000000
TOTALLY TOTALLY 1.0000000
tracked tracked 1.0000000
unfair fair 0.0909091
fair fair 0.9090909
receive resive 1.0000000
Landen Landen 1.0000000
Monday monday 1.0000000
microphones microphone 0.2500000
microphone microphone 0.7500000
19,00 19,00 1.0000000
sails sails 1.0000000
RECOMMENDED RECOMENDED 1.0000000
- nineteen 0.3333333
nineteen nineteen 0.6666667
August Auguest 1.0000000
shal shal 1.0000000
summing summing 1.0000000
regarding clothes 0.0012422
size clothes 0.0012422
clothing clothes 0.0074534
clothes clothes 0.9838509
costume clothes 0.0012422
dressing clothes 0.0012422
fashions clothes 0.0012422
fashion clothes 0.0012422
materials clothes 0.0012422
simply simply 1.0000000
shoudn shoudn 0.2000000
should shoudn 0.4000000
n shoudn 0.4000000
Happy Great 0.3333333
Great Great 0.6666667
assume assume 1.0000000
DID DID 1.0000000
scribbled scribbled 1.0000000
fear fear 1.0000000
roof roof 1.0000000
go backstage 0.0625000
backstage backstage 0.9375000
exhausted exhaused 1.0000000
have diseases 0.1666667
diseases diseases 0.8333333
installation installation 1.0000000
concentration concerntration 1.0000000
lacking lacked 1.0000000
into politics 0.2500000
politics politics 0.7500000
tolerant tolerant 1.0000000
flyer brochure 0.2857143
brochure brochure 0.7142857
survival survival 1.0000000
allow permit 0.2500000
permitted permit 0.2500000
permit permit 0.5000000
brought brought 0.7666667
have brought 0.0333333
took brought 0.1000000
has brought 0.0666667
us brought 0.0333333
KNOWN KNOWN 1.0000000
types types 0.8750000
colours types 0.1250000
understand unterstand 1.0000000
activities activites 0.3333333
activites activites 0.6666667
familiar familiare 1.0000000
consumption consommation 1.0000000
SPECIAL SPECIAL 1.0000000
Network Network 1.0000000
regarding from 0.0006502
according from 0.0006502
than from 0.0006502
bill from 0.0006502
by from 0.0058518
NULL from 0.0097529
on from 0.0084525
about from 0.0065020
Ki from 0.0006502
since from 0.0026008
via from 0.0006502
between from 0.0006502
at from 0.0045514
stealing from 0.0006502
over from 0.0006502
to from 0.0045514
term from 0.0006502
through from 0.0019506
leaving from 0.0006502
of from 0.0110533
off from 0.0013004
in from 0.0091027
among from 0.0006502
leave from 0.0013004
have from 0.0006502
avoid from 0.0006502
experience from 0.0006502
left from 0.0006502
with from 0.0045514
from from 0.9115735
know from 0.0006502
for from 0.0058518
away folding 0.5000000
put folding 0.5000000
link link 1.0000000
start beginning 0.0491803
beginner beginning 0.0163934
with beginning 0.0491803
first beginning 0.0327869
starting beginning 0.0163934
show beginning 0.0327869
beginning beginning 0.7704918
begin beginning 0.0327869
OK o.k 1.0000000
hound hound 1.0000000
weekend weekends 0.3571429
weekends weekends 0.6428571
comparison comparison 1.0000000
noticeboards boards 0.5000000
boards boards 0.5000000
of Mission 0.2500000
Mission Mission 0.7500000
resounding resounding 1.0000000
summary afimation 1.0000000
generated generated 1.0000000
Jones Jones 1.0000000
notebooks books 0.0192308
books books 0.9615385
bookworms books 0.0192308
overcrowded crowded 0.0454545
crowded crowded 0.9090909
crowd crowded 0.0454545
fortunate fortuanate 1.0000000
afterwards afterwords 1.0000000
currency currency 1.0000000
afraid afraid 1.0000000
atmosphere atmosphear 1.0000000
DEMAND DEMAND 1.0000000
show begining 0.0454545
beginning begining 0.8636364
start begining 0.0454545
at begining 0.0454545
order order 0.9415584
than order 0.0064935
NULL order 0.0324675
eight order 0.0064935
help order 0.0064935
closed order 0.0064935
goal destenation 1.0000000
lowered lowered 1.0000000
centred centered 1.0000000
letter Letter 0.5000000
this Letter 0.5000000
pregnant pregnant 1.0000000
starts stats 1.0000000
anything bit 0.0106383
bit bit 0.9787234
NULL bit 0.0106383
preferred choices 0.1111111
choices choices 0.5555556
activities choices 0.1111111
, choices 0.2222222
quieter quiter 1.0000000
sell promontion 1.0000000
average avrege 1.0000000
trends trends 1.0000000
prosperity prosperity 0.5000000
of prosperity 0.5000000
convenience comodity 0.5000000
ease comodity 0.5000000
undoubtedly Undoubtfully 1.0000000
ourselves ourself 0.6666667
us ourself 0.1666667
comfortable ourself 0.1666667
some interesting 0.0036630
interested interesting 0.0402930
interest interesting 0.0036630
more interesting 0.0036630
subject interesting 0.0036630
useful interesting 0.0036630
uninteresting interesting 0.0036630
interesting interesting 0.9377289
water wather 0.5000000
weather wather 0.5000000
hob hob 1.0000000
eating eat 0.0188679
eat eat 0.9716981
ate eat 0.0094340
Robie Robie 1.0000000
coach coach 0.7500000
the coach 0.2500000
Tae Tae 1.0000000
compartments compartiments 1.0000000
remarks remarks 1.0000000
reference reference 0.9629630
concerning reference 0.0370370
comparable profeccion 0.5000000
standard profeccion 0.5000000
Year Year 1.0000000
them analyse 0.3333333
from analyse 0.3333333
analyse analyse 0.3333333
frenetically frenetically 1.0000000
- organised 0.0256410
performed organised 0.0128205
been organised 0.0128205
organising organised 0.0384615
organised organised 0.8333333
have organised 0.0641026
organiser organised 0.0128205
Irish irish 1.0000000
Martinez Martinez 1.0000000
bang bang 1.0000000
clearing clearing 0.5000000
cleaning clearing 0.5000000
surprise suprice 1.0000000
offer ofer 1.0000000
opinion openion 1.0000000
placed layed 1.0000000
skydive Dive 1.0000000
smiling smailing 1.0000000
St st 1.0000000
Sandro Sandro 1.0000000
only just 0.0238971
hardly just 0.0018382
than just 0.0018382
just just 0.9393382
professionals just 0.0018382
have just 0.0018382
keeps just 0.0018382
simply just 0.0018382
NULL just 0.0202206
very just 0.0018382
used just 0.0018382
fair just 0.0018382
chat chatting 0.0833333
chatting chatting 0.9166667
interviewing interviewing 1.0000000
Camila Camila 1.0000000
arguing arguing 1.0000000
Daniel Daniel 1.0000000
Ireland Ireland 1.0000000
available avaivable 1.0000000
proud proude 1.0000000
OFF OFF 1.0000000
JAE JAE 1.0000000
modern moderne 1.0000000
Sara Sara 1.0000000
DISAPPOINTED DISAPPOINTED 1.0000000
manager runner 1.0000000
Kursk Kursk 1.0000000
relationship relantionship 1.0000000
BECAUSE DIE 0.5000000
DIE DIE 0.5000000
Cambridge Cambrigge 0.3333333
studying Cambrigge 0.3333333
for Cambrigge 0.3333333
tutry tutry 1.0000000
ENTIRE ENTIRE 1.0000000
error error 1.0000000
via via 1.0000000
disagree desagree 1.0000000
earning earn 0.0434783
earn earn 0.9130435
get earn 0.0217391
lost earn 0.0217391
report report 1.0000000
have Synethetic 0.5000000
synthetics Synethetic 0.5000000
Volavkova Volavkova 1.0000000
Austrian Austrian 1.0000000
about thanks 0.0088496
NULL thanks 0.0088496
thanks thanks 0.8938053
thank thanks 0.0884956
mosquitoes mosquitos 0.5000000
mosquitos mosquitos 0.5000000
invited ivited 1.0000000
IDENTITY IDENTITY 1.0000000
souvenirs souvenires 1.0000000
GOLF GOLF 1.0000000
notorious notorious 1.0000000
cassettes cassettes 1.0000000
surprised unpleasantly 0.5000000
unpleasantly unpleasantly 0.5000000
flexible flexible 1.0000000
Did Haven 0.5000000
n Haven 0.5000000
e.g eg 1.0000000
attitudes attitudes 0.7500000
&apos; attitudes 0.2500000
situations situations 0.8260870
the situations 0.0434783
experiences situations 0.0434783
situation situations 0.0869565
assured assured 0.5000000
promised assured 0.5000000
carefully deliberately 1.0000000
movement movement 1.0000000
sex sex 0.7500000
- sex 0.2500000
owe owe 1.0000000
specific especifics 1.0000000
NULL Camp 0.0035587
visit Camp 0.0035587
Camp Camp 0.9288256
camp Camp 0.0640569
congratulations congratulation 1.0000000
Auda Auda 1.0000000
REALLY REALLY 1.0000000
university univercity 1.0000000
designers Desingres 1.0000000
Haneul Haneul 1.0000000
networks networks 1.0000000
experience experiment 1.0000000
suede suede 1.0000000
- forthy 0.5000000
forty forthy 0.5000000
handicapped handicapped 1.0000000
expenses expense 0.5000000
expense expense 0.5000000
think rekon 1.0000000
cure remedium 1.0000000
exposed revealed 0.2500000
revealed revealed 0.7500000
an unpleased 0.2500000
unhappy unpleased 0.2500000
unpleasant unpleased 0.5000000
GIVING GIVING 1.0000000
breakfast breakfeast 1.0000000
AGAINST AGAINST 1.0000000
Chile Phili 1.0000000
FANTASTIC FANTASCIENTIFIC 1.0000000
politicians politician 0.1111111
politician politician 0.8888889
embarrassed embarassed 0.6666667
awkward embarassed 0.3333333
opening opening 0.8333333
his opening 0.1666667
ground- ground- 1.0000000
colleagues colleges 1.0000000
exhibits exhibiots 1.0000000
referred referred 1.0000000
overheard overherd 1.0000000
once once 0.9523810
one once 0.0238095
NULL once 0.0238095
guests inviting 0.1000000
invite inviting 0.1000000
inviting inviting 0.6000000
over inviting 0.2000000
vacancies vacancies 1.0000000
addresses evoques 1.0000000
skirts skirt 0.1000000
skirt skirt 0.9000000
indirectly indirectly 1.0000000
transfer transfert 1.0000000
team term 0.1250000
time term 0.0625000
term term 0.7500000
turn term 0.0625000
Elise Elise 1.0000000
who mentionned 0.0625000
advert mentionned 0.0625000
promised mentionned 0.0625000
that mentionned 0.0625000
mentioned mentionned 0.7500000
G. G. 1.0000000
tickets thicket 1.0000000
lunch luch 1.0000000
difficult diffucult 1.0000000
from frome 1.0000000
performance act 0.0357143
fishing act 0.0357143
actor act 0.0357143
NULL act 0.0357143
behave act 0.0357143
act act 0.5714286
acting act 0.0714286
appear act 0.0357143
play act 0.1428571
programs prograns 1.0000000
bands hairbands 0.5000000
hair hairbands 0.5000000
pulled pulled 0.6666667
raised pulled 0.3333333
Jagoares Jagoares 1.0000000
meanwhile meanwhile 0.7500000
meantime meanwhile 0.2500000
3-day 3-day 1.0000000
cryptographic cryptographic 1.0000000
McDonald McDonald 1.0000000
whispering whispering 1.0000000
disastrous disasterous 1.0000000
Ackermann Ackermann 1.0000000
mechanical mechanical 1.0000000
compensation compensate 0.5000000
compensate compensate 0.5000000
interrupted interrupted 1.0000000
Agent Agent 1.0000000
on award 0.2000000
prize award 0.2000000
your award 0.2000000
guard award 0.2000000
award award 0.2000000
104 104 1.0000000
glittery glittery 1.0000000
research searches 0.6666667
advances searches 0.3333333
colder cooler 1.0000000
when when 0.9747013
that when 0.0014055
if when 0.0049192
, when 0.0007027
long when 0.0007027
to when 0.0007027
accept when 0.0007027
went when 0.0014055
also when 0.0007027
why when 0.0007027
then when 0.0035137
NULL when 0.0070274
where when 0.0014055
have when 0.0007027
whenever when 0.0007027
HELPED HELP 0.1666667
HELP HELP 0.8333333
making is 0.0002268
offers is 0.0002268
depends is 0.0002268
is is 0.9244898
specialise is 0.0002268
his is 0.0002268
doubt is 0.0002268
have is 0.0004535
in is 0.0002268
meant is 0.0002268
do is 0.0004535
relates is 0.0002268
would is 0.0027211
need is 0.0002268
surrounds is 0.0002268
has is 0.0018141
states is 0.0002268
you is 0.0004535
are is 0.0226757
does is 0.0006803
be is 0.0070295
but is 0.0002268
appreciate is 0.0002268
involves is 0.0002268
means is 0.0004535
were is 0.0004535
keeps is 0.0002268
premises is 0.0002268
enquire is 0.0002268
being is 0.0002268
I is 0.0004535
technology is 0.0002268
one is 0.0002268
will is 0.0040816
was is 0.0154195
comes is 0.0002268
gets is 0.0002268
new is 0.0002268
features is 0.0002268
lasts is 0.0002268
loves is 0.0002268
can is 0.0013605
NULL is 0.0088435
shows is 0.0004535
had is 0.0002268
it is 0.0013605
clever clever 1.0000000
transportation transportation 0.7500000
means transportation 0.1250000
of transportation 0.1250000
romance romance 1.0000000
INCLUDES INCLUDES 1.0000000
thank thanck 1.0000000
, Castum 0.5000000
space Castum 0.5000000
VIDEO VIDEO 1.0000000
raves raves 1.0000000
expedition expedition 1.0000000
testing testing 0.5000000
test testing 0.5000000
carrier carrier 1.0000000
ASK WONDER 1.0000000
waited wate 1.0000000
Stenkovska Stenkovska 1.0000000
moderate modorate 1.0000000
exhausting exhausting 1.0000000
competition competion 0.7500000
a competion 0.2500000
newspapers newspapers 1.0000000
Sue Sue 1.0000000
aisles alleys 1.0000000
truly trully 1.0000000
concert consert 1.0000000
multi multi 0.5000000
many multi 0.5000000
masculine male 0.1000000
male male 0.9000000
Stephen Stephen 1.0000000
aside aside 1.0000000
thankful thankful 0.4285714
grateful thankful 0.5714286
united united 1.0000000
attented attented 1.0000000
maintenance mainteneance 1.0000000
modern morden 1.0000000
nowadays nowday 0.3333333
are nowday 0.3333333
there nowday 0.3333333
Wood Wood 1.0000000
Artistic Artistic 1.0000000
sexy sexy 1.0000000
designing designing 1.0000000
alternatives alternatives 1.0000000
regards point 0.0066225
argument point 0.0066225
opinion point 0.0529801
example point 0.0132450
sense point 0.0066225
checkout point 0.0066225
NULL point 0.0132450
thing point 0.0264901
purpose point 0.0066225
make point 0.0066225
statement point 0.0066225
focus point 0.0066225
aspect point 0.0066225
major point 0.0066225
view point 0.0066225
event point 0.0066225
disadvantages point 0.0066225
point point 0.8079470
bear bare 0.5000000
bare bare 0.5000000
and &amp; 0.0714286
&amp; &amp; 0.9285714
average average 0.7500000
a average 0.2500000
Spain Spain 1.0000000
blew blew 0.7500000
wasted blew 0.2500000
numbers despide 0.2500000
despite despide 0.5000000
low despide 0.2500000
reaches reaches 1.0000000
USING USING 1.0000000
complain complaine 1.0000000
condition condicion 1.0000000
Aguilar Aguilar 1.0000000
manual manual 1.0000000
plants plants 1.0000000
exist exist 0.9285714
your exist 0.0714286
Canadian Canadian 1.0000000
BUYING BUY 0.3333333
BUY BUY 0.6666667
wife wife 1.0000000
certainly certenly 1.0000000
closer clouse 0.5000000
closed clouse 0.5000000
Linton Linton 1.0000000
ENJOYED ENJOYED 1.0000000
prints prints 1.0000000
password password 1.0000000
Three Three 1.0000000
VIP VIP 0.5000000
VIPs VIP 0.5000000
the sciences 0.4000000
sciences sciences 0.6000000
influenced influented 1.0000000
technical tecnic 1.0000000
had saw 0.0037313
see saw 0.0186567
NULL saw 0.0037313
read saw 0.0037313
were saw 0.0037313
say saw 0.0037313
watching saw 0.0037313
seeing saw 0.0037313
so saw 0.0037313
seen saw 0.0111940
saw saw 0.9365672
watched saw 0.0037313
was wee 0.3333333
we wee 0.3333333
were wee 0.3333333
Chile Chile 1.0000000
cautious cautious 1.0000000
hot degrees 1.0000000
test testifite 1.0000000
servant servant 1.0000000
navigation navigation 1.0000000
FORGET FORGET 1.0000000
or ourselves 0.0434783
NULL ourselves 0.0434783
us ourselves 0.0434783
ourselves ourselves 0.8695652
restaurant testament 1.0000000
play piece 0.1428571
work piece 0.0714286
piece piece 0.5714286
news piece 0.0714286
peace piece 0.1428571
affairs affairs 1.0000000
British British 0.8000000
Britain British 0.2000000
thieves thieves 1.0000000
who , 0.0001136
going , 0.0000568
it , 0.0001704
play , 0.0000568
&apos; , 0.0001136
? , 0.0010794
- , 0.0014770
about , 0.0001136
NULL , 0.0409021
by , 0.0000568
if , 0.0000568
insist , 0.0000568
that , 0.0004545
starts , 0.0000568
are , 0.0001136
true , 0.0000568
! , 0.0000568
occurred , 0.0000568
apart , 0.0000568
would , 0.0000568
families , 0.0000568
: , 0.0007385
impatiently , 0.0000568
machines , 0.0000568
for , 0.0000568
out , 0.0000568
am , 0.0000568
actually , 0.0000568
in , 0.0001704
well , 0.0000568
and , 0.0015338
will , 0.0000568
wife , 0.0000568
&quot; , 0.0003409
or , 0.0002840
; , 0.0028404
learn , 0.0000568
of , 0.0001136
is , 0.0001704
. , 0.0438562
, , 0.9039936
to , 0.0001704
Organizer Organizer 1.0000000
intellectual intelect 0.5000000
in intelect 0.5000000
on comment 0.4285714
comment comment 0.5714286
blowing blowing 1.0000000
surfed surf 0.0833333
surfboard surf 0.0833333
surfing surf 0.5833333
surf surf 0.2500000
HACIA HACIA 1.0000000
bicycles bicycles 1.0000000
away breath 0.0714286
breath breath 0.6428571
breathe breath 0.2857143
- aided 0.5000000
aided aided 0.5000000
reply replies 1.0000000
slide slide 1.0000000
annoyingly annoyingly 1.0000000
firm firm 0.8333333
industry firm 0.1666667
ABSOLUTELY ABSOLUTELY 1.0000000
why understand 0.0222222
knew understand 0.0074074
believe understand 0.0074074
me understand 0.0074074
realize understand 0.0074074
understood understand 0.0148148
understanding understand 0.0074074
notice understand 0.0074074
realise understand 0.0074074
understand understand 0.9111111
Freedom Freedom 1.0000000
forget foget 1.0000000
taken used 0.0040984
used used 0.9508197
use used 0.0163934
get used 0.0040984
acquainted used 0.0040984
need used 0.0040984
was used 0.0122951
usually used 0.0040984
castles castles 1.0000000
drank drank 1.0000000
beneficial beneficial 1.0000000
classrooms clasrooms 1.0000000
modern moden 1.0000000
legal legal 1.0000000
Heine Heine 1.0000000
irritating irratable 1.0000000
Word text 1.0000000
queue qeue 1.0000000
X300 X300 1.0000000
joined been 0.0014793
sold been 0.0014793
spread been 0.0014793
bear been 0.0014793
imagined been 0.0014793
belonged been 0.0014793
rapidly been 0.0014793
painted been 0.0014793
arise been 0.0014793
waited been 0.0029586
trained been 0.0014793
be been 0.0118343
NULL been 0.0473373
were been 0.0044379
to been 0.0014793
making been 0.0014793
played been 0.0029586
stayed been 0.0029586
been been 0.8298817
being been 0.0044379
swam been 0.0014793
slept been 0.0014793
build been 0.0014793
carrying been 0.0014793
was been 0.0532544
go been 0.0014793
already been 0.0029586
went been 0.0118343
weekly weekly 1.0000000
traineeship traineeship 1.0000000
Easters Easters 1.0000000
centres centre 0.0571429
centre centre 0.9428571
instance instances 1.0000000
stepped stepped 1.0000000
Morin Morin 1.0000000
. occasions 0.1666667
occasions occasions 0.8333333
&apos; game 0.0555556
game game 0.8333333
games game 0.1111111
scientist scientist 0.6000000
scientists scientist 0.4000000
General Gernal 1.0000000
sorry pity 0.0909091
pity pity 0.9090909
puzzlement puzzal 1.0000000
storage storage 1.0000000
reacted react 0.2500000
react react 0.7500000
MEETING MEETING 1.0000000
superstars superstars 1.0000000
Toronto Toronto 1.0000000
reward prize 0.0034965
prize prize 0.9510490
price prize 0.0454545
spheres spheres 1.0000000
kettles kettles 1.0000000
deceived decepted 1.0000000
take photograph 0.0625000
photograph photograph 0.3125000
photographs photograph 0.3750000
photographer photograph 0.0625000
try photograph 0.0625000
photographic photograph 0.0625000
photography photograph 0.0625000
improvement improving 0.0588235
advances improving 0.0588235
improving improving 0.8235294
improve improving 0.0588235
furthermore above 0.0196078
above above 0.8431373
opinion above 0.0196078
NULL above 0.0196078
anyway above 0.0196078
accepted above 0.0196078
mentioned above 0.0392157
described above 0.0196078
FIX FIX 1.0000000
bridge bridge 1.0000000
insulating insulating 1.0000000
SPORTS SPORTS 1.0000000
Giannis Giannis 1.0000000
instead instand 1.0000000
ETC ETC 1.0000000
250 250 1.0000000
Mum Mom 0.3333333
Mom Mom 0.6666667
POLICE POLICE 1.0000000
disgusted disgusted 1.0000000
dated dated 0.2500000
update dated 0.2500000
our dated 0.2500000
date dated 0.2500000
everybody everyboby 1.0000000
OURSELVES HOW 0.0625000
how HOW 0.0625000
IF HOW 0.0625000
HOW HOW 0.7500000
. HOW 0.0625000
unpleasant unpleasant 1.0000000
&apos; writer 0.1666667
s writer 0.1666667
writer writer 0.5000000
wrote writer 0.1666667
metres meters 0.6000000
meters meters 0.4000000
ultra ultra 1.0000000
damned damned 1.0000000
reader reader 1.0000000
imperfect unperfect 1.0000000
NULL concert 0.0016313
concert concert 0.9902121
concerts concert 0.0065253
Savage concert 0.0016313
GAYARRE GAYARRE 1.0000000
progress progres 1.0000000
River River 0.7333333
river River 0.2666667
belong belong 1.0000000
synthetic Syntethic 1.0000000
related related 0.7500000
for related 0.1250000
regarding related 0.1250000
aliens aliens 1.0000000
tries tried 0.0135135
tiring tried 0.0135135
tired tried 0.0135135
tried tried 0.9594595
universal universal 1.0000000
expenses expences 1.0000000
hero hero 1.0000000
baseball baseball 1.0000000
admission addmission 1.0000000
true normally 0.0625000
normal normally 0.0625000
normally normally 0.8750000
weapons weapons 0.8333333
weapon weapons 0.1666667
describe discribe 1.0000000
character charachter 1.0000000
STAGE STAGE 1.0000000
seen read 0.0055249
reading read 0.0165746
read read 0.9613260
said read 0.0055249
see read 0.0055249
ready read 0.0055249
UP UP 0.3333333
TOGETHER UP 0.3333333
BUILDING UP 0.3333333
and reveals 0.5000000
reveals reveals 0.5000000
tourism courses 0.0714286
lessons courses 0.2857143
courses courses 0.6428571
realised realice 1.0000000
man guy 0.1818182
guy guy 0.8181818
NULL very 0.0025010
a very 0.0008337
childhood very 0.0004168
quite very 0.0004168
badly very 0.0004168
very very 0.9816590
great very 0.0008337
essential very 0.0004168
incredible very 0.0004168
every very 0.0008337
quickly very 0.0004168
eyes very 0.0004168
absolutely very 0.0008337
much very 0.0004168
widely very 0.0004168
greatly very 0.0004168
really very 0.0075031
time very 0.0004168
differ very 0.0004168
meet knew 0.0048780
know knew 0.0195122
met knew 0.0097561
knew knew 0.8780488
got knew 0.0097561
known knew 0.0195122
out knew 0.0097561
new knew 0.0097561
learned knew 0.0097561
found knew 0.0146341
knows knew 0.0097561
thought knew 0.0048780
going riding 0.2500000
riding riding 0.7500000
going ongoing 0.5000000
on ongoing 0.5000000
05 05 1.0000000
groceries groceries 1.0000000
devote devote 1.0000000
ôbest ôbest 1.0000000
winner winer 1.0000000
interesting interssant 1.0000000
tune tone 0.5000000
tone tone 0.5000000
occupied occupied 1.0000000
becoming becomes 0.0909091
becomes becomes 0.7272727
became becomes 0.0909091
come becomes 0.0909091
already alread 1.0000000
patient portient 1.0000000
team school 0.0014085
school school 0.9788732
ends school 0.0014085
schoolyard school 0.0014085
NULL school 0.0028169
, school 0.0014085
on school 0.0014085
schoolteacher school 0.0014085
schoolchildren school 0.0014085
Headmaster school 0.0014085
schools school 0.0042254
term school 0.0014085
schoolteachers school 0.0014085
Patricia Patricia 1.0000000
10.00am 10.00am 1.0000000
Here Here 1.0000000
Aaroun Aaroun 1.0000000
switch swich 1.0000000
really quite 0.0054054
a quite 0.0054054
variety quite 0.0054054
NULL quite 0.0054054
very quite 0.0054054
quiet quite 0.0270270
almost quite 0.0054054
quite quite 0.9405405
functional functional 1.0000000
conscience councience 1.0000000
sorts sorts 0.8571429
sort sorts 0.1428571
greedy greedy 1.0000000
Mark Mark 1.0000000
youngest youngest 1.0000000
instructions instructions 1.0000000
performance performance 0.9402985
an performance 0.0149254
act performance 0.0149254
behaviour performance 0.0149254
rehearsal performance 0.0149254
consider account 0.0714286
into account 0.0714286
reconsidered account 0.0714286
account account 0.7857143
material matherial 1.0000000
machines mashines 1.0000000
conceal hidden 0.2000000
hidden hidden 0.6000000
hid hidden 0.2000000
enormous enourmous 1.0000000
purity purity 0.5000000
the purity 0.5000000
Hospital Hospital 1.0000000
available availiable 0.5000000
also availiable 0.5000000
show schow 1.0000000
ZITA ZITA 1.0000000
hearing hearin 1.0000000
fraud fake 0.3333333
fake fake 0.6666667
POOR POOR 1.0000000
famous risk 0.0769231
risks risk 0.0769231
danger risk 0.1538462
risk risk 0.6153846
NULL risk 0.0769231
( ( 0.9825175
when ( 0.0034965
amazing ( 0.0034965
, ( 0.0034965
NULL ( 0.0034965
therefore ( 0.0034965
town towncentre 0.5000000
centre towncentre 0.5000000
misunderstand misunderstood 1.0000000
room livingroom 0.5000000
living livingroom 0.5000000
frightened frethend 1.0000000
trait feature 1.0000000
notifying noticing 0.5000000
noticing noticing 0.5000000
clothes clotches 1.0000000
photographer photographer 0.9090909
photography photographer 0.0909091
opportunity opportiunity 1.0000000
intentions intentions 1.0000000
Insurance Insurance 1.0000000
philosophy Philosophy 1.0000000
TECHNICIAN TECHNICH 1.0000000
COULD COULD 0.8666667
CAN COULD 0.0666667
HAD COULD 0.0666667
take mistaken 1.0000000
tidy tidying 0.5000000
tidying tidying 0.5000000
Hubert Hubert 1.0000000
forgive foregive 1.0000000
friends friend 0.0830769
girlfriend friend 0.0153846
it friend 0.0030769
boyfriend friend 0.0061538
friend friend 0.8892308
friendship friend 0.0030769
difficulties difficulties 0.7777778
s difficulties 0.1111111
&apos; difficulties 0.1111111
overseas oversea 1.0000000
loss loss 0.6666667
waste loss 0.3333333
emphasize emphasize 1.0000000
algorithms algoritms 1.0000000
satisfactory satisfying 0.5000000
satisfying satisfying 0.5000000
BROOK BROOK 1.0000000
verb verb 1.0000000
yourselves yourselves 1.0000000
best Allreggards 0.5000000
regards Allreggards 0.5000000
surfer surfer 1.0000000
Thai Thai 1.0000000
since since 0.8638298
increased since 0.0042553
as since 0.0085106
repairs since 0.0042553
for since 0.0085106
and since 0.0042553
in since 0.0127660
from since 0.0340426
doing since 0.0042553
NULL since 0.0127660
advanced since 0.0042553
when since 0.0212766
till since 0.0042553
after since 0.0085106
long since 0.0042553
Egyptians Egyptians 1.0000000
Italian Italian 0.7500000
looks Italian 0.2500000
thing fhing 1.0000000
need useful 0.0158730
useful useful 0.9841270
teaching teaching 1.0000000
harbour harbours 1.0000000
Tom Tom 1.0000000
eternal eternal 1.0000000
family familie 1.0000000
properly properly 0.5454545
it properly 0.0909091
seriously properly 0.0909091
. properly 0.0909091
proper properly 0.0909091
about properly 0.0909091
technological technologic 1.0000000
had cuold 1.0000000
raid raid 1.0000000
conclusion conclusuon 1.0000000
raincoats raincoates 1.0000000
information news 0.0097087
informed news 0.0097087
new news 0.0291262
reports news 0.0291262
things news 0.0194175
reply news 0.0097087
publicity news 0.0194175
some news 0.0097087
news news 0.8543689
story news 0.0097087
hotels hotels 1.0000000
OURSELVES OURSELVES 1.0000000
motives motives 1.0000000
actually realy 0.0208333
real realy 0.0416667
really realy 0.9375000
Seo Seo 1.0000000
negatively negatively 1.0000000
tell comunicate 0.0909091
communicate comunicate 0.9090909
Whilst Whilst 1.0000000
Helene Helene 1.0000000
strongly strongly 1.0000000
stationery stationeries 1.0000000
owners owners 0.8000000
retailers owners 0.2000000
. ming 0.5000000
mind ming 0.5000000
shot shot 1.0000000
centers centers 0.1250000
centres centers 0.6250000
gyms centers 0.2500000
Auxiliary Auxiliary 1.0000000
French french 1.0000000
SENT SENT 1.0000000
shopping Shopping 0.1538462
Shopping Shopping 0.8461538
helmets helmets 1.0000000
REGARDING ABOUT 0.0416667
ABOUT ABOUT 0.8333333
THIS ABOUT 0.0416667
OF ABOUT 0.0833333
hairdresser hairdresser 1.0000000
alarm waking 0.3333333
walking waking 0.3333333
waking waking 0.3333333
5,000 5.000 1.0000000
unexpected unspected 1.0000000
groceries groseries 1.0000000
relationships relationships 1.0000000
At In 0.0714286
in In 0.7142857
In In 0.1428571
As In 0.0714286
furthermore furthermore 0.9659091
however furthermore 0.0113636
NULL furthermore 0.0227273
DISAPPOINTMENT DISAPPOINTMENT 1.0000000
teenager teenagers 0.0625000
teenagers teenagers 0.6875000
teenage teenagers 0.1250000
those teenagers 0.0625000
a teenagers 0.0625000
question reguest 1.0000000
covering covering 1.0000000
Phowrung Phowrung 1.0000000
Ecuador Ecuador 1.0000000
unavailable unavailable 0.5000000
available unavailable 0.5000000
ADVANTAGES ADVANTAGES 1.0000000
no without 0.0032154
exhibition without 0.0032154
without without 0.9774920
with without 0.0064309
doing without 0.0032154
for without 0.0064309
disadvantages disavantages 1.0000000
outer outer 0.5000000
in outer 0.5000000
Best Best 0.7142857
best Best 0.2857143
Michael Michael 1.0000000
marlin marlin 1.0000000
cafe cafe 1.0000000
laughing laufing 1.0000000
floors floors 1.0000000
Ocean Ocean 1.0000000
Fashion Fashion 0.9846154
Show Fashion 0.0153846
house house 0.9120879
door house 0.0054945
the house 0.0054945
housework house 0.0109890
etc house 0.0054945
home house 0.0054945
greenhouse house 0.0054945
NULL house 0.0054945
houses house 0.0219780
household house 0.0164835
housing house 0.0054945
cables cables 1.0000000
robots robotes 1.0000000
sharp sharp 0.7500000
between sharp 0.2500000
dedicated dedicated 1.0000000
finishing finish 0.0178571
finishes finish 0.0178571
finish finish 0.8035714
finished finish 0.1607143
employees employes 1.0000000
Sunday sunday 1.0000000
giant giant 1.0000000
Doctor Doctor 1.0000000
DURING DURING 0.8333333
FOR DURING 0.1666667
from suffering 0.2000000
suffering suffering 0.8000000
get arrives 0.5000000
arrived arrives 0.5000000
Lorca Lorca 1.0000000
excited excited 0.9610390
exciting excited 0.0389610
civilisations civilisations 1.0000000
scary scary 1.0000000
business buisness 1.0000000
ZALAI ZALAI 1.0000000
sweetheart Heart 1.0000000
supposed supose 0.6666667
is supose 0.3333333
cooler cool 0.0526316
cool cool 0.9473684
would woud 1.0000000
apologized excuse 0.0714286
apology excuse 0.1428571
forgive excuse 0.1428571
explanation excuse 0.0714286
apologise excuse 0.0714286
excuse excuse 0.5000000
: caming 1.0000000
knew knowing 0.0454545
knowing knowing 0.7727273
know knowing 0.0909091
acquiring knowing 0.0454545
about knowing 0.0454545
give inform 0.0400000
inform inform 0.8533333
provide inform 0.0133333
informed inform 0.0133333
informing inform 0.0133333
information inform 0.0133333
gave inform 0.0133333
tell inform 0.0266667
informs inform 0.0133333
class MathClass 0.2500000
maths MathClass 0.2500000
. MathClass 0.2500000
the MathClass 0.2500000
PERHAPS PERHAPS 1.0000000
with bout 0.1000000
about bout 0.9000000
unnecessary unneccessary 1.0000000
PROMISED PROMISED 1.0000000
confronted confronted 1.0000000
advice re 0.0087719
reorganise re 0.0087719
re re 0.8859649
opinion re 0.0087719
NULL re 0.0350877
redecoration re 0.0087719
were re 0.0087719
plan re 0.0087719
are re 0.0175439
referring re 0.0087719
cosmetics cosmetic 1.0000000
either any 0.0020790
is any 0.0020790
seaside any 0.0020790
reasons any 0.0041580
anymore any 0.0041580
every any 0.0020790
some any 0.0020790
another any 0.0020790
an any 0.0083160
no any 0.0187110
anything any 0.0020790
a any 0.0207900
many any 0.0020790
NULL any 0.0103950
any any 0.8877339
anyway any 0.0103950
my any 0.0020790
anywhere any 0.0020790
all any 0.0124740
none any 0.0020790
apprenticeship apprenticeship 1.0000000
HUNDREDS HUNDREDS 1.0000000
conditioning conditioning 1.0000000
nationalities nationarities 1.0000000
Thomas Thomas 1.0000000
outrageous outrageous 1.0000000
kiss kiss 1.0000000
Sweating Sweating 1.0000000
European european 1.0000000
HORRIBLY HORRIBLY 1.0000000
hunk hunk 1.0000000
identity identity 0.6666667
my identity 0.3333333
absolutely absuletely 1.0000000
stable stable 1.0000000
fortunately Fortunatelly 1.0000000
Hello Hellow 1.0000000
deepest deepest 1.0000000
flee flee 1.0000000
PHAT PHAT 1.0000000
series series 1.0000000
adjusted adjusted 1.0000000
an intrusion 0.5000000
intrusion intrusion 0.5000000
monuments monument 1.0000000
torn torne 0.5000000
have torne 0.5000000
8.00P.M. 8.00P.M. 1.0000000
laughed laughed 1.0000000
smoking smoking 0.8461538
- smoking 0.0769231
smoke smoking 0.0769231
Farina Farina 1.0000000
forth forth 1.0000000
purchasing purchasing 0.5000000
when purchasing 0.5000000
pamphlet panfulet 1.0000000
Exciting Exciting 1.0000000
Sintawichai Sintawichai 1.0000000
sequences sequences 0.5000000
featuring sequences 0.5000000
Luis Luis 1.0000000
innovation innovation 1.0000000
invite us 0.0015798
other us 0.0015798
ourselves us 0.0031596
our us 0.0063191
each us 0.0015798
this us 0.0015798
promise us 0.0015798
us us 0.9415482
ours us 0.0047393
up us 0.0015798
wrong us 0.0015798
we us 0.0126382
use us 0.0015798
family us 0.0015798
as us 0.0031596
went us 0.0015798
test us 0.0015798
NULL us 0.0110585
enough enogh 1.0000000
Katie Katie 1.0000000
close nearest 0.1250000
nearest nearest 0.6250000
next nearest 0.1250000
near nearest 0.1250000
puzzled puzzled 1.0000000
supporting supporting 1.0000000
refund restitution 1.0000000
Village Village 1.0000000
average avarage 1.0000000
possibilities posibilities 1.0000000
S. S. 1.0000000
Pericos Pericos 1.0000000
paint pain 0.0833333
painful pain 0.0833333
pain pain 0.7500000
trouble pain 0.0833333
phrase phrasal 1.0000000
INGO INGO 1.0000000
prior prior 1.0000000
roommate roommate 1.0000000
I.S.O I.S.O 1.0000000
NULL o 0.0612245
eight o 0.0204082
I o 0.0204082
h o 0.0204082
00 o 0.0204082
o o 0.8571429
dissatisfaction unsatisfaction 1.0000000
souvenirs souvenirs 1.0000000
purposes government 0.1111111
the government 0.1111111
will government 0.1111111
is government 0.1111111
government government 0.5555556
appreciate apreicate 1.0000000
banner banner 1.0000000
normally nomally 1.0000000
breeze breeze 1.0000000
sincerely sencerely 1.0000000
2.30 2.30 1.0000000
sitting sitting 0.9393939
babysitting sitting 0.0303030
sat sitting 0.0303030
bride bride 1.0000000
electrician electrician 0.3333333
&apos; electrician 0.3333333
s electrician 0.3333333
Bernard Bernard 1.0000000
run runn 1.0000000
freezing freezing 0.6666667
a freezing 0.3333333
motorbike motorbike 1.0000000
GONE GONE 1.0000000
dangerous daungerous 1.0000000
person offen 0.5000000
often offen 0.5000000
UNIVERSE UNIVERSE 1.0000000
faults faults 0.6666667
problems faults 0.3333333
PREFER PREFER 1.0000000
cure curing 0.5000000
thing curing 0.5000000
minors minority 1.0000000
arranging arrangement 0.1250000
organisation arrangement 0.2500000
arrangement arrangement 0.5000000
visit arrangement 0.1250000
secretly secretly 1.0000000
informed informated 1.0000000
kim kim 1.0000000
trouble troubbles 1.0000000
HAS CHANGED 0.1428571
CHANGED CHANGED 0.8571429
topics topics 0.6666667
subjects topics 0.1111111
areas topics 0.1111111
facts topics 0.1111111
micros micros 1.0000000
activated activated 1.0000000
1900s 1900 0.6666667
1900 1900 0.3333333
innocent innocent 1.0000000
gratitude gratitude 1.0000000
ILLNESS ILLNESS 1.0000000
men mens 1.0000000
slipped slipped 1.0000000
tightly tightly 1.0000000
summit summit 1.0000000
yen yen 1.0000000
deviations deviations 1.0000000
also well 0.0108225
life well 0.0021645
high well 0.0021645
will well 0.0043290
NULL well 0.0194805
simmer well 0.0021645
Cambridge well 0.0021645
well well 0.9155844
good well 0.0151515
nor well 0.0021645
much well 0.0043290
attended well 0.0021645
did well 0.0021645
healthy well 0.0021645
. well 0.0021645
either well 0.0108225
hurting hurting 1.0000000
active active 0.8750000
an active 0.1250000
tick tic 1.0000000
say write 0.0082305
am write 0.0452675
writing write 0.0617284
writes write 0.0041152
sooner write 0.0041152
written write 0.0123457
wrote write 0.0123457
m write 0.0041152
fill write 0.0041152
tell write 0.0082305
write write 0.8312757
should write 0.0041152
thread thread 1.0000000
creativity creativity 1.0000000
servile serville 1.0000000
coverage coverage 1.0000000
imaginary imaginary 1.0000000
for bay 0.5000000
pay bay 0.5000000
planning planning 0.9333333
hours planning 0.0666667
watch wath 1.0000000
COMPLETELY COMPLETELY 1.0000000
December Decembre 1.0000000
Indonesia Indonesia 1.0000000
paths paths 1.0000000
machine machine 0.8823529
machines machine 0.0294118
typewriter machine 0.0294118
microwave machine 0.0294118
dishwasher machine 0.0294118
supermarket supermarket 1.0000000
Anthony Anthony 1.0000000
Garbage Garbage 1.0000000
abandon quit 0.2500000
quit quit 0.2500000
experiments quit 0.2500000
quite quit 0.2500000
attend asist 1.0000000
battery pile 0.2000000
a pile 0.4000000
- pile 0.2000000
pile pile 0.2000000
scare scared 0.1000000
scared scared 0.8000000
scary scared 0.1000000
people peopl 1.0000000
swimming swimm 0.2500000
swim swimm 0.5000000
swam swimm 0.2500000
SAFELY SAFELY 1.0000000
shows shows 0.8352941
musicals shows 0.0470588
has shows 0.0117647
states shows 0.0117647
showing shows 0.0117647
show shows 0.0588235
shoes shows 0.0117647
NULL shows 0.0117647
a peaceful 0.1428571
peaceful peaceful 0.7142857
relaxed peaceful 0.1428571
rang rung 1.0000000
tents tents 0.7266187
tent tents 0.2589928
rather tents 0.0143885
have find 0.0087977
discovered find 0.0029326
find find 0.9178886
big find 0.0029326
realise find 0.0029326
think find 0.0087977
do find 0.0029326
see find 0.0029326
get find 0.0058651
fine find 0.0029326
found find 0.0117302
discover find 0.0029326
return find 0.0029326
come find 0.0029326
view find 0.0029326
expect find 0.0029326
finding find 0.0146628
made mad 0.0909091
upset mad 0.0909091
mad mad 0.8181818
specialise specialise 1.0000000
dog dog 0.9545455
dogs dog 0.0454545
unlocked unlock 1.0000000
dislikes dislikes 1.0000000
made changed 0.0034364
replaced changed 0.0137457
change changed 0.0171821
changes changed 0.0068729
performed changed 0.0034364
changed changed 0.9037801
on changed 0.0034364
has changed 0.0481100
helps helps 0.8800000
help helps 0.1200000
paying pay 0.0123457
NULL pay 0.0123457
buy pay 0.0185185
meet pay 0.0061728
cover pay 0.0123457
paycheque pay 0.0061728
pay pay 0.8765432
spend pay 0.0061728
address pay 0.0061728
paid pay 0.0185185
give pay 0.0123457
return pay 0.0061728
pays pay 0.0061728
booming booming 1.0000000
CAME CAME 1.0000000
technology technogoly 1.0000000
frieds frieds 1.0000000
Agatha Agatha 1.0000000
affecting effecting 1.0000000
Dears Dears 0.5000000
Dear Dears 0.5000000
delivering delivering 1.0000000
NOTICE YET 0.3333333
YET YET 0.6666667
orient orient 1.0000000
sins sins 1.0000000
receive recived 0.1428571
received recived 0.8571429
princess princess 0.8750000
Princess princess 0.1250000
fixing fixing 0.3333333
putting fixing 0.3333333
installing fixing 0.3333333
reduced reduced 1.0000000
spaces spaces 1.0000000
monthly monthly 1.0000000
punish punish 1.0000000
gradually gradually 1.0000000
explicitly explicitly 1.0000000
force force 1.0000000
grow grow 0.6000000
growing grow 0.1000000
grew grow 0.1000000
individually grow 0.1000000
NULL grow 0.1000000
until holy 0.3333333
lasting holy 0.3333333
holiday holy 0.3333333
encloses encloses 1.0000000
computer combuter 1.0000000
pirates pirates 1.0000000
supreme suprem 1.0000000
OVER OVER 0.9696970
Over OVER 0.0303030
Bergut Bergut 1.0000000
murder murder 0.5000000
murderer murder 0.5000000
spend spends 0.5000000
spending spends 0.5000000
9 9 1.0000000
parking car 0.0089286
cars car 0.0178571
car car 0.9732143
nobody everybody 0.0064103
every everybody 0.0064103
everybody everybody 0.9615385
none everybody 0.0064103
else everybody 0.0192308
desire deserve 0.0294118
deserve deserve 0.8823529
deserves deserve 0.0588235
deserved deserve 0.0294118
BACK COLUMN 1.0000000
travel travelling 0.0714286
dates travelling 0.0238095
travelling travelling 0.8095238
trip travelling 0.0952381
forward forwold 1.0000000
runs leaded 1.0000000
equipment equepument 1.0000000
hitchhiking hich 1.0000000
stage stadge 1.0000000
Grease Grease 1.0000000
Donnals Donnals 1.0000000
organised organiced 1.0000000
automatically automatically 1.0000000
response respons 1.0000000
exercise activitily 1.0000000
pop popstars 0.3333333
popstars popstars 0.3333333
stars popstars 0.3333333
numerous enumerous 1.0000000
organises organises 1.0000000
grinned grinned 1.0000000
NULL buying 0.0142857
shopping buying 0.0142857
buying buying 0.8857143
buy buying 0.0714286
getting buying 0.0142857
take control 0.0400000
care control 0.0400000
controlling control 0.0800000
check control 0.1600000
control control 0.6800000
FAILED DISSAPROVE 1.0000000
automatically automaticaly 1.0000000
specially specially 0.3448276
particular specially 0.0689655
in specially 0.0689655
especially specially 0.5172414
to tot 1.0000000
Ryam Ryam 1.0000000
prayed prayed 1.0000000
embarrassed embarrest 1.0000000
irons irons 1.0000000
gives gaves 1.0000000
maybe mabe 1.0000000
at At 0.2500000
At At 0.2500000
In At 0.2500000
. At 0.2500000
Best best 0.0021277
best best 0.9829787
most best 0.0021277
the best 0.0021277
better best 0.0021277
favourite best 0.0085106
each eachother 0.5000000
other eachother 0.5000000
merchandise merchandise 1.0000000
centres cities 0.0625000
cities cities 0.9375000
die die 0.8823529
died die 0.1176471
novels novels 1.0000000
CATARINA CATARINA 1.0000000
else elses 0.3333333
s elses 0.3333333
&apos; elses 0.3333333
lives things 0.0019305
consequences things 0.0019305
things things 0.9536680
everything things 0.0096525
these things 0.0019305
every things 0.0019305
reasons things 0.0019305
NULL things 0.0038610
thing things 0.0193050
something things 0.0038610
an upset 0.0227273
upset upset 0.9318182
as upset 0.0227273
upsetting upset 0.0227273
BM BM 1.0000000
computers Computers 1.0000000
Reorganize Reorganize 1.0000000
murderer murderer 1.0000000
important crucial 0.5000000
crucial crucial 0.5000000
Governments Governments 1.0000000
concerned concern 0.1818182
concern concern 0.7272727
NULL concern 0.0909091
house hous 0.5000000
houses hous 0.5000000
plastic therefore 0.0077519
therefore therefore 0.9224806
- therefore 0.0077519
NULL therefore 0.0155039
then therefore 0.0077519
as therefore 0.0077519
so therefore 0.0232558
because therefore 0.0077519
ESTELLE ESTELLE 1.0000000
limitation limitation 1.0000000
identify identify 1.0000000
pleasant pleasent 1.0000000
really rally 1.0000000
published published 0.8000000
publish published 0.1000000
advertised published 0.1000000
tend tend 0.7142857
tent tend 0.2380952
tends tend 0.0476190
merely merely 1.0000000
Taklowa Taklowa 1.0000000
Eminem Eminem 1.0000000
demo demo 1.0000000
Ann Ann 0.8000000
said Ann 0.2000000
lasts lasts 0.8000000
last lasts 0.2000000
cops cops 1.0000000
on reduction 0.3333333
discount reduction 0.6666667
proud pride 0.5000000
prize pride 0.2500000
pride pride 0.2500000
action action 0.9090909
actions action 0.0909091
genres genres 1.0000000
where university 0.0172414
university university 0.9827586
City City 0.8333333
city City 0.1666667
instructor instractur 1.0000000
DISCOVER DISCOVER 1.0000000
managed managed 0.9047619
manage managed 0.0952381
low low 0.8888889
as low 0.1111111
customs customs 0.5000000
costumes customs 0.2500000
habits customs 0.2500000
information informationes 1.0000000
schoolyard yard 0.2500000
yard yard 0.7500000
opinion opininion 1.0000000
received receive 0.0476190
receiving receive 0.0158730
receive receive 0.8571429
get receive 0.0634921
back receive 0.0158730
position position 0.9166667
row position 0.0833333
both both 0.9402985
either both 0.0373134
neither both 0.0074627
disappointed both 0.0074627
they both 0.0074627
Prince Prince 1.0000000
missiles missiles 1.0000000
stranded stranded 1.0000000
GRATEFUL GRATEFUL 1.0000000
drama dramatic 1.0000000
phone mobilephone 0.5000000
mobile mobilephone 0.5000000
synthetic syntetical 1.0000000
CONCERNED CONCERNED 1.0000000
transformed transformed 1.0000000
persuaded persuaded 1.0000000
20.15 20 0.0040816
and 20 0.0040816
20 20 0.9836735
£ 20 0.0040816
20th 20 0.0040816
technological tecnologic 1.0000000
involve involves 0.5000000
involves involves 0.5000000
giving explainations 0.5000000
explanation explainations 0.5000000
crazy crayz 1.0000000
emsamblish emsamblish 1.0000000
Ages Age 0.5000000
Age Age 0.5000000
factors factorors 1.0000000
drift drift 1.0000000
stove stove 1.0000000
PROTECTED PROTECTED 1.0000000
requirements requirements 1.0000000
psychologically psychologically 1.0000000
going goings 1.0000000
decided determined 1.0000000
sincerely sinicrely 1.0000000
Lola Lola 1.0000000
mobiles mobiles 1.0000000
4th 4&apos;th 1.0000000
Developments Developments 1.0000000
unpredictable unpredicatable 1.0000000
- Make 0.5000000
make Make 0.5000000
USP USP 1.0000000
vital vital 1.0000000
Californian weather 0.0069930
whether weather 0.0139860
the weather 0.0069930
weather weather 0.9720280
we widen 0.5000000
widen widen 0.5000000
do necessarily 0.3333333
necessarily necessarily 0.6666667
security security 1.0000000
chicken chicken 1.0000000
fresh fresh 0.9473684
new fresh 0.0526316
signs signs 1.0000000
Chwa Chwa 1.0000000
population animals 0.0370370
animals animals 0.9629630
robbers rubbers 1.0000000
sense feel 0.0048780
sad feel 0.0048780
feel feel 0.9609756
have feel 0.0048780
see feel 0.0048780
felt feel 0.0097561
feels feel 0.0048780
free feel 0.0048780
believe beleave 1.0000000
being beeng 1.0000000
shoplifters shoplifters 1.0000000
again still 0.0194805
even still 0.0064935
still still 0.9545455
are still 0.0194805
Agripina Agripina 1.0000000
Ryan Helen 0.0199005
Helen Helen 0.9800995
autographs signatures 0.3333333
signatures signatures 0.6666667
cooked cooked 1.0000000
schoolteachers teachers 0.0123457
tutors teachers 0.0123457
teachers teachers 0.9753086
Look Look 1.0000000
entitled honoured 1.0000000
identical identical 1.0000000
LUCKY LUCKY 1.0000000
sympathize sympathize 1.0000000
supposed supposted 0.5000000
was supposted 0.5000000
seeing seing 1.0000000
brilliant briliant 1.0000000
unimportant unimportan 1.0000000
delayed deleied 0.5000000
and deleied 0.5000000
uncontrollable incontrolable 1.0000000
SUMMER SOMMER 1.0000000
resulted resulted 1.0000000
loss lost 0.0465116
wasted lost 0.0465116
lost lost 0.7674419
last lost 0.0232558
lose lost 0.0232558
missed lost 0.0232558
NULL lost 0.0232558
left lost 0.0232558
losing lost 0.0232558
their mace 0.3333333
make mace 0.6666667
mentions mentiones 1.0000000
CHOSEN CHOOSEN 1.0000000
incident incident 0.6000000
occurred incident 0.2000000
that incident 0.2000000
begrudge begrudge 1.0000000
pleasure pleasure 1.0000000
mechanics mecanics 0.8333333
. mecanics 0.1666667
already alredy 1.0000000
bounce bounced 1.0000000
DUNES DUNES 1.0000000
do lair 0.2000000
&apos;t lair 0.2000000
n lair 0.2000000
liar lair 0.2000000
lie lair 0.2000000
need nead 1.0000000
sadly sadly 1.0000000
Kimura Kimura 1.0000000
worrying worrying 1.0000000
both bouth 1.0000000
nose noise 0.0555556
noise noise 0.9444444
weekdays weekdays 1.0000000
prefects prefects 1.0000000
simple simple 0.9696970
simply simple 0.0303030
Show Leisure 0.0072993
leisure Leisure 0.0291971
Leisure Leisure 0.9635036
someone someones 1.0000000
volunteer volunteer 1.0000000
analyze analize 0.3333333
analyse analize 0.6666667
size size 0.9375000
having size 0.0312500
terms size 0.0312500
Sincerely Sincerely 0.5609756
faithfully Sincerely 0.0975610
Faithfully Sincerely 0.0731707
sincerely Sincerely 0.2682927
bottled bottled 0.5000000
drunk bottled 0.5000000
aggregative aggregative 1.0000000
latter latter 0.2222222
late latter 0.1111111
letter latter 0.2222222
this latter 0.1111111
NULL latter 0.2222222
later latter 0.1111111
happened happenned 1.0000000
seams seams 1.0000000
medicine medecin 1.0000000
Fashion Fasion 1.0000000
hospitals hospetols 1.0000000
creatures creatures 1.0000000
THESE THESE 1.0000000
ACT ACT 0.6666667
BEHAVE ACT 0.3333333
Design Design 1.0000000
12 12 1.0000000
are lardge 0.5000000
large lardge 0.5000000
repair repeared 0.5000000
it repeared 0.5000000
to d 0.0039062
NULL d 0.0273438
ve d 0.0078125
d d 0.9296875
spent d 0.0039062
for d 0.0039062
helped d 0.0078125
had d 0.0156250
are tide 0.3333333
tidy tide 0.3333333
tired tide 0.3333333
luckily luckely 1.0000000
Leisure leissure 1.0000000
surprised surpised 1.0000000
NASA NASA 1.0000000
recently ricently 1.0000000
Upper Upper 1.0000000
humid humid 1.0000000
NULL gifted 1.0000000
European Europeen 1.0000000
conventional conventional 1.0000000
amazing ameaising 1.0000000
film filmed 0.0588235
filmed filmed 0.9411765
each each 0.9370079
individually each 0.0078740
together each 0.0078740
everyone each 0.0078740
every each 0.0314961
a each 0.0078740
Mariot Mariot 1.0000000
lets sistem 0.5000000
system sistem 0.5000000
- knowhow 0.3333333
how knowhow 0.3333333
know knowhow 0.3333333
go Go 0.5000000
Go Go 0.5000000
tin tin 1.0000000
sincerely sensirly 1.0000000
attracts attract 0.0909091
attract attract 0.9090909
facts elements 0.3333333
elements elements 0.6666667
calmly calmly 1.0000000
weir weir 1.0000000
fifty fivety 1.0000000
enough enought 1.0000000
up attempt 0.1666667
take attempt 0.1666667
you attempt 0.1666667
on attempt 0.1666667
invitation attempt 0.1666667
attempt attempt 0.1666667
NEEDN NEEDN 1.0000000
unknown unkown 1.0000000
Candoso Candoso 1.0000000
kills kills 1.0000000
KILL KILL 1.0000000
jazz jazz 1.0000000
vocals vocal 0.5000000
vocalist vocal 0.5000000
versatile versatile 1.0000000
injury enjure 0.3333333
injured enjure 0.3333333
enjure enjure 0.3333333
during through 0.0163934
involved through 0.0163934
via through 0.0655738
do through 0.0163934
on through 0.0163934
from through 0.0163934
through through 0.7377049
to through 0.0327869
down through 0.0163934
connecting through 0.0163934
over through 0.0163934
gained through 0.0163934
true through 0.0163934
Landscape Landscape 1.0000000
rays rays 1.0000000
Bowie Bowie 1.0000000
inevitably inevitably 1.0000000
1999 spring 0.5000000
spring spring 0.5000000
sorry sorry 0.9875000
annoyed sorry 0.0125000
Ready Ready 1.0000000
course- course- 1.0000000
butty butty 1.0000000
Furilo Furilo 1.0000000
satisfactory satisfaction 0.0769231
satisfaction satisfaction 0.9230769
decided decides 1.0000000
significantly greatly 0.2500000
greatly greatly 0.7500000
Time Time 1.0000000
comfortable conftyble 1.0000000
independent independent 1.0000000
HAVING HAVING 1.0000000
expert expert 1.0000000
North North 1.0000000
Dehli Dehli 1.0000000
REMEMBER REMEMBER 1.0000000
Edinburgh Edinburgh 1.0000000
attended visited 0.0425532
visited visited 0.8297872
came visited 0.0212766
looked visited 0.0212766
saw visited 0.0425532
to visited 0.0425532
Conversion Conversion 1.0000000
EXPECTED THOUGHTS 1.0000000
thermodynamics thermodynamics 1.0000000
allergic allergic 1.0000000
information informatic 0.5000000
technology informatic 0.5000000
Stadium Stadium 1.0000000
CAME COME 0.5000000
but COME 0.5000000
Thank Thank 1.0000000
costume costium 1.0000000
headaches headaches 1.0000000
noise noice 1.0000000
fitted fitted 0.5000000
fitting fitted 0.5000000
forgave forgave 1.0000000
serves serves 1.0000000
faithfully faitully 1.0000000
communication comunication 1.0000000
realities realities 1.0000000
Cracow Cracow 1.0000000
Poland Polan 1.0000000
Music Music 1.0000000
medicines madesons 1.0000000
selfish selfish 1.0000000
business business 0.9523810
there business 0.0476190
Latin latin 1.0000000
rush rush 1.0000000
conducted conducted 1.0000000
study studie 1.0000000
train trains 0.1000000
trains trains 0.9000000
tops tops 1.0000000
cried cried 1.0000000
CITIES CITIES 1.0000000
searching seeking 0.3333333
sightseeing seeking 0.3333333
seeking seeking 0.3333333
celebrated celebrated 0.3333333
celebrate celebrated 0.3333333
it celebrated 0.3333333
CONCLUSION CONCLUSION 1.0000000
GREENWICH GREENWICH 1.0000000
ashamed ashamed 1.0000000
copied copied 1.0000000
JOBS JOBS 1.0000000
CONDITIONS CONDITIONS 0.3333333
THE CONDITIONS 0.3333333
ABILITY CONDITIONS 0.3333333
faithfully faightfully 1.0000000
CHANCE CHANCE 1.0000000
illegal illigal 1.0000000
embarrassing embarrassed 0.2000000
embarrassed embarrassed 0.8000000
n coudn 0.5000000
could coudn 0.5000000
vanish vanish 1.0000000
smelly smely 1.0000000
NULL HAND 0.2000000
HAND HAND 0.8000000
accommodation accomodations 1.0000000
morality morality 0.6666667
moral morality 0.3333333
19th 19th 1.0000000
PROBLEM PROBLEM 1.0000000
grounds bowls 0.5000000
bowls bowls 0.5000000
Matt Matt 1.0000000
IMPOSSIBLE IMPOSSIBLE 1.0000000
CDs Cd 0.3333333
- Cd 0.3333333
CD Cd 0.3333333
clearly clearly 0.9285714
clear clearly 0.0714286
good technical 0.0909091
tangible technical 0.0909091
technical technical 0.8181818
stupid stupid 1.0000000
Space Space 1.0000000
attractive atrractive 1.0000000
technical technically 1.0000000
advertise adverstise 1.0000000
dancers dansers 1.0000000
name name 0.8709677
kids name 0.0107527
called name 0.0107527
behalf name 0.0860215
names name 0.0215054
tiny tiny 1.0000000
celebrity celebrity 0.8000000
celebrities celebrity 0.2000000
like lime 1.0000000
a.m a.m 0.8000000
am a.m 0.2000000
more mor 1.0000000
impolite unpolited 1.0000000
friendships friendship 0.0526316
friendship friendship 0.8947368
friendly friendship 0.0526316
haircuts haircut 1.0000000
Earnshaw Earnshaw 1.0000000
attend joined 0.0714286
attended joined 0.1428571
attending joined 0.0714286
enclosed joined 0.0714286
joined joined 0.6428571
available avaible 0.8333333
such avaible 0.1666667
96.7 96.7 1.0000000
absence absence 1.0000000
becoming becomming 1.0000000
WRITE WRITE 1.0000000
reference base 0.2500000
based base 0.5000000
basis base 0.2500000
freezers freezers 1.0000000
racism racism 1.0000000
construction construction 1.0000000
Lee Lee 1.0000000
find check 0.0263158
NULL check 0.0263158
checkout check 0.0263158
checking check 0.0263158
out check 0.0263158
tickets check 0.0263158
see check 0.0526316
cheque check 0.0263158
check check 0.7631579
judgement judgement 1.0000000
approximately approxiametely 1.0000000
dependent dependent 1.0000000
both Both 1.0000000
stars people 0.0021413
staff people 0.0007138
people people 0.9850107
person people 0.0021413
NULL people 0.0007138
everybody people 0.0007138
everyone people 0.0035689
the people 0.0007138
nationalities people 0.0007138
audience people 0.0014276
public people 0.0007138
us people 0.0007138
figures people 0.0007138
p.c p.c 1.0000000
recognise recognized 0.5000000
recognized recognized 0.5000000
Heathcliff Heathcliff 1.0000000
unwillingly unwillingly 1.0000000
returned returned 1.0000000
Rilke Rilke 1.0000000
separate seperate 1.0000000
Life Life 0.8333333
Private Life 0.1666667
communities communities 1.0000000
Second Second 1.0000000
confirm confirm 1.0000000
Edith Edith 1.0000000
questionnaire questionnair 1.0000000
Svetlana Svetlana 1.0000000
unwilling unwilling 1.0000000
24 24 1.0000000
regrets regrets 1.0000000
dwarves dwarves 1.0000000
Gladiators Gladiators 1.0000000
disturb disturbe 1.0000000
MET MET 1.0000000
sibling sibling 1.0000000
NEWS NEWS 1.0000000
15th 15th 1.0000000
destroyed destructed 1.0000000
Westlife Westlife 1.0000000
designers desingers 1.0000000
warmly warmly 0.5000000
warm warmly 0.5000000
inconvenience unconvenience 1.0000000
era era 1.0000000
SMS SMS 1.0000000
sick sik 1.0000000
Market Market 1.0000000
bruises bruses 1.0000000
translation translation 1.0000000
Dr Dr 1.0000000
an everyday 0.0111111
every everyday 0.3888889
day everyday 0.3888889
our everyday 0.0111111
everyday everyday 0.2000000
NEXT NEXT 1.0000000
showers showers 1.0000000
preparing Prepearing 1.0000000
TECHNOLOGY TECHNOLOGY 1.0000000
start sart 1.0000000
night nigh 1.0000000
12.12.2000 12.12.2000 1.0000000
Kwa Kwa 1.0000000
helpers helpers 1.0000000
catches catchs 1.0000000
snap snap 1.0000000
stupid stupied 1.0000000
aiming targelting 1.0000000
has sociaty 0.3333333
society sociaty 0.6666667
ice icetime 0.5000000
age icetime 0.5000000
unthinkable unthinkable 1.0000000
folks fokes 1.0000000
Chef Chef 1.0000000
ADVANCES MODERNIZES 1.0000000
everything everythings 1.0000000
Vance Vance 1.0000000
loudspeaker loudspeaker 1.0000000
.... .... 1.0000000
DAYS DAYS 1.0000000
money monery 1.0000000
you indicate 0.2000000
tell indicate 0.2000000
state indicate 0.2000000
indicate indicate 0.4000000
spectaculars spectaculars 1.0000000
15.00 15.00 1.0000000
Business Business 1.0000000
available avalaible 1.0000000
shocked schocked 1.0000000
tables tables 1.0000000
advertised advertize 1.0000000
impressed impresed 1.0000000
shame shame 0.7000000
disgrace shame 0.1000000
embarrassed shame 0.1000000
