CANNOT CANNOT 0.7500000
desagreeded disagreed 0.3333333
Andrade Andrade 1.0000000
teatchers teachers 0.0329670
pages pages 1.0000000
priciples principles 1.0000000
ques queues 0.0555556
stucked stuck 0.2000000
shopcholic shopaholics 0.5000000
CLOSED ENCLOSED 1.0000000
CLOSED CLOSED 0.9000000
eveninng evening 0.0018519
mirror mirror 1.0000000
signals tones 1.0000000
boxershorts boxer 1.0000000
boxershorts shorts 0.1428571
comprehensible understanding 0.0555556
shouting shouting 1.0000000
ATTRACTIVE ATTRACTIVE 1.0000000
desorganized disorganised 1.0000000
CONSISTS INVOLVES 1.0000000
moun moon 0.0833333
continous continuous 0.5000000
outskirts outskirts 1.0000000
mayor major 0.2222222
flaws flaws 1.0000000
Christie Christie 0.9545455
Christie has 0.0016584
MARVELLOUS MARVELLOUS 1.0000000
online online 0.6000000
LOUD LOUD 1.0000000
francs francs 1.0000000
concept concept 1.0000000
grandmother grandmother 0.7391304
grandmother &apos; 0.0008513
grandmother s 0.0023148
aspects ways 0.0158730
aspects aspects 0.8571429
aspects things 0.0034130
agree agree 0.9846154
agree approve 0.5000000
agree agreed 0.2222222
agree agrees 0.2500000
agree yes 0.0294118
agree like 0.0007862
institute institute 1.0000000
Alison Alison 1.0000000
soldiers soldiers 0.3333333
till NULL 0.0001739
till still 0.0064516
till remains 0.3333333
till till 0.8709677
till not 0.0004286
standing standing 0.6666667
standing causing 0.1666667
sorrounded surrounded 0.1111111
congratulating congratulating 0.6666667
minuits minutes 0.0038462
swop swapping 0.5000000
Ice Ice 1.0000000
previously already 0.0072993
previously previously 0.5000000
previously beforehand 0.2857143
part item 0.0500000
part trip 0.0041841
part part 0.9004149
part during 0.0025707
part areas 0.0833333
part NULL 0.0005217
part member 0.0294118
part have 0.0002494
part proportion 0.5000000
part most 0.0057915
part piece 0.0454545
part some 0.0007241
part point 0.0076923
part came 0.0056818
part Most 0.5000000
part attend 0.0238095
part place 0.0069930
part time 0.0006826
part view 0.0161290
part area 0.0263158
part parts 0.2608696
urban urban 1.0000000
comunications over 0.0070922
comunications communication 0.0294118
ofcourse of 0.0003186
ofcourse course 0.0088889
searching research 0.0555556
searching for 0.0002268
searching searching 0.6666667
attendants assistants 0.0500000
shooting shooting 1.0000000
obey obey 1.0000000
obey respond 0.5000000
model model 1.0000000
model product 0.0384615
model type 0.0192308
CHURCH CHURCH 1.0000000
designers designer 0.2500000
designers designers 0.7333333
chat chatting 0.0714286
chat and 0.0001008
chat chat 0.9130435
chat their 0.0016447
behaviours behaviour 0.3333333
romatic romantic 0.2000000
smellt melt 0.5000000
Jullia Jullia 1.0000000
crowds crowds 0.5294118
wage wage 1.0000000
AH AH 1.0000000
EVER EVER 1.0000000
cancell cancel 0.0833333
permision permission 0.0666667
crept crept 1.0000000
staylist staylist 1.0000000
admittion admission 0.2222222
CLEANING CLEANING 1.0000000
distracted distracted 0.2000000
resently recently 0.0090090
resently , 0.0000564
english English 0.0939597
english our 0.0007943
comprehensive understanding 0.0555556
alas alas 1.0000000
alas , 0.0000564
outlights outlights 1.0000000
easier easy 0.0117647
easier easier 0.7796610
easier easily 0.0204082
easier more 0.0009251
addicted were 0.0006978
addicted addicted 0.6666667
sigers singers 0.0156250
blackboard blackboard 1.0000000
choir choir 0.7500000
brough brought 0.0769231
frequency frequency 1.0000000
fabulous fabulous 0.7777778
Female Female 1.0000000
CHOOSE CHOOSE 1.0000000
Coulez Coulez 1.0000000
FATHER FATHER 1.0000000
long NULL 0.0001739
long long 0.9601594
long a 0.0014308
long longest 1.0000000
long the 0.0000559
long far 0.0114943
long if 0.0006798
long time 0.0013652
long log 0.0387097
CONTINOUSLY CONTINUOUSLY 1.0000000
appropiate appropriate 0.0833333
herself behaves 0.5000000
herself her 0.0013850
herself herself 0.8571429
herself resist 0.0909091
UFO UFO 1.0000000
petition request 0.0256410
ship ship 0.9285714
mysteriest mysterious 0.2000000
mysteriest most 0.0019305
truly true 0.0086957
truly frankly 0.1666667
truly for 0.0002268
truly truly 0.5714286
truly accurate 0.2000000
19.00pm 7.00pm 1.0000000
together went 0.0017921
together piece 0.0454545
together together 0.9367089
together NULL 0.0001739
together them 0.0011947
together with 0.0009120
together well 0.0021692
together sex 0.2500000
together fine 0.0175439
received received 0.7643678
received receives 1.0000000
received receiving 0.0188679
received receive 0.0632911
received won 0.0034602
received got 0.0030303
license licence 0.1666667
screens screens 1.0000000
renewal refurbishment 0.2000000
aprove aprove 1.0000000
BAND BAND 1.0000000
infra infra 1.0000000
not or 0.0008368
not one 0.0009551
not of 0.0001593
not is 0.0002274
not interesting 0.0035088
not uninteresting 0.5000000
not I 0.0000509
not note 0.0454545
not nobody 0.0117647
not price 0.0068027
not unable 0.0909091
not becoming 0.0322581
not &apos;t 0.0107568
not no 0.0527638
not untrue 0.1666667
not and 0.0001008
not not 0.9747107
not unsatisfactory 0.2000000
not professional 0.0952381
not without 0.0031250
not unheard 0.3333333
not n 0.0011905
not s 0.0007716
not instead 0.0099502
not since 0.0046512
not compensated 0.3333333
not also 0.0010267
not hard 0.0084746
not agrees 0.2500000
not NULL 0.0010435
vocalist vocalist 0.5000000
grandchildren grandchildren 1.0000000
spoke spoke 0.7368421
spoke him 0.0023419
spoke talked 0.0212766
spoke could 0.0007424
spoke speak 0.0175439
Get Get 1.0000000
BRAS BRAS 1.0000000
cure treat 0.1666667
cure cure 0.5714286
swore swore 1.0000000
fabolous fabulous 0.1111111
works works 0.8750000
works chores 0.3333333
works homework 0.0526316
works work 0.0357143
works housework 0.0400000
opportunaty opportunity 0.0037594
reguard regards 0.0196078
Sandre Sandre 1.0000000
Some some 0.0014482
Some Some 1.0000000
Adolf Adolf 1.0000000
telephone telephones 0.0909091
telephone telephone 0.9459459
accodance accordance 0.2000000
miss missing 0.2500000
miss be 0.0003439
miss Dear 0.0008237
miss miss 0.7333333
miss Miss 0.0344828
miss missed 0.0476190
miss fail 0.1250000
miss on 0.0004850
data data 0.6000000
choosed chose 0.0487805
choosed chosen 0.0632911
heaed heard 0.0097087
Internal the 0.0000559
Internal International 0.0128205
ward forward 0.0015083
saved saves 0.1428571
saved saved 0.6666667
saved has 0.0016584
saved save 0.0256410
reparations repairs 0.1111111
reparations renovation 0.1333333
elgant elegant 0.2500000
controlling controlling 0.2500000
crashed crashed 0.6666667
crashed crashes 0.5000000
wind wind 0.8571429
HAPPENING HAPPENING 1.0000000
confort comforts 0.5000000
thanked thanks 0.0094340
thanked thanked 0.9000000
Miracola Miracola 1.0000000
MUSICAL SHOW 0.0277778
MUSICAL THE 0.0028329
MUSICAL MUSICAL 0.7142857
operetion operation 0.2222222
panties panties 0.7777778
thumbing thumping 0.5000000
&apos;th &apos;th 1.0000000
listened listened 0.5714286
supplies supplies 1.0000000
destroyed destroyed 0.8571429
destroyed destroying 0.1428571
destroyed is 0.0002274
destroyed ruined 0.1666667
supplyer supplyer 1.0000000
wives wives 1.0000000
garages garages 1.0000000
pretty pretty 1.0000000
becaose because 0.0003724
confess confess 0.7500000
Star star 0.0243902
Star Star 1.0000000
cancelation cancel 0.0833333
8.15 until 0.0065789
8.15 8.15 0.8333333
lof of 0.0001593
lof lot 0.0016051
Big Big 1.0000000
Big which 0.0008475
ower our 0.0015886
Pants Pants 1.0000000
bakery bakery 1.0000000
knowbody nobody 0.0117647
untrue untrue 0.3333333
presented advertised 0.0312500
presented produced 0.1666667
presented staging 1.0000000
presented were 0.0006978
presented put 0.0408163
presented on 0.0033948
presented with 0.0004560
presented performed 0.0416667
presented showing 0.0588235
presented presented 0.7777778
improves advances 0.0769231
improves improves 1.0000000
overcame learn 0.0074074
fell spoiled 0.2000000
fell feel 0.0146341
fell fallen 0.1000000
fell fell 0.7058824
fell felt 0.0081301
applyed applied 0.1428571
ILL ILL 1.0000000
becaus because 0.0026071
recognises recognises 1.0000000
expected what 0.0008210
expected forward 0.0045249
expected meant 0.0256410
expected expecting 0.0285714
expected expect 0.0862069
expected expected 0.9009009
expected supposed 0.0068493
expected looked 0.0526316
expected look 0.0023753
Of Of 0.6666667
precarious precarious 1.0000000
brief breathe 0.1428571
brief brief 0.6666667
CLEAN CLEAN 1.0000000
administrations administration 0.2500000
weep weep 1.0000000
grateful happy 0.0033223
grateful pleased 0.0089286
grateful grateful 0.7142857
grateful great 0.0101626
HIS HIS 1.0000000
refurbishing being 0.0043478
B- B- 1.0000000
vocabulary vocabulary 1.0000000
ANSWER ANSWER 0.7142857
categories categories 1.0000000
cheakd check 0.0222222
Group Group 1.0000000
waitted waited 0.0208333
king had 0.0005120
king king 1.0000000
king kind 0.0028329
discomfort discomfort 1.0000000
Nigel Nigel 1.0000000
mouths mouths 1.0000000
mouths closed 0.0023866
reliable reliable 1.0000000
reliable dependent 0.1250000
oil oil 1.0000000
ingenier engineer 0.2500000
lotery lottery 0.3750000
answered answered 0.8750000
answered your 0.0004198
terribly terribly 0.9444444
terribly up 0.0019011
terribly terrible 0.0317460
schoolyard schoolyard 0.2500000
ENJOYABLE ENJOYABLE 1.0000000
sellers assistants 0.2500000
sellers sales 0.1176471
sellers salesmen 1.0000000
appriciation appreciation 0.3333333
sculptures there 0.0005757
sculptures sculptures 0.7500000
nesseceraly necessary 0.0163934
explaination explaination 1.0000000
explaination explanation 0.1818182
ACTING ACTING 1.0000000
rearrange rearrange 1.0000000
nessecary necessary 0.0163934
programmed programmed 0.5000000
programmed programme 0.0038023
faithfully sincerely 0.0834879
faithfully faithfully 0.8343750
faithfully yours 0.0021390
faithfully Sincerely 0.0344828
supply satisfy 0.1428571
supply supply 1.0000000
supply supplied 1.0000000
phones phone 0.0094340
phones phones 0.9062500
magnificent magnificent 0.7500000
nations nations 1.0000000
called Westlife 0.2500000
called called 0.9117647
called Minolta 0.5000000
called calling 0.1666667
called get 0.0018657
Kelly Kelly 1.0000000
montage montage 1.0000000
TECHNOLOGICAL TECHNOLOGICAL 1.0000000
moscitos mosquitoes 0.3333333
MEMBERS MEMBERS 1.0000000
watch look 0.0023753
watch consider 0.0113636
watch watched 0.0476190
watch watch 0.8481013
watch watching 0.0200000
watch seeing 0.0106383
watch see 0.0078844
watch TV 0.0105263
justification explanation 0.0454545
justification an 0.0012658
worse worst 0.0786517
worse worse 0.8461538
Cloutier Cloutier 1.0000000
neck neck 1.0000000
Kathy Kathy 1.0000000
karaoke karaoke 0.5000000
Cambridge Cambridge 0.7272727
sportif sports 0.0054645
fashions fashion 0.0184332
fashions fashions 0.7395833
Potato Potato 1.0000000
Civil Civil 1.0000000
relation related 0.1111111
relation relations 0.2500000
relation regards 0.0196078
relation connection 0.0833333
relation relation 1.0000000
relation relationship 0.0434783
relation relates 0.6666667
worth worse 0.0307692
worth worst 0.0112360
worth worth 0.9259259
worth more 0.0018501
worth worthwhile 0.2000000
jacket jacket 1.0000000
south south 1.0000000
condition working 0.0086207
condition healthy 0.0555556
condition are 0.0004513
condition regarding 0.0074627
condition order 0.0067114
condition conditions 0.3333333
condition condition 0.7142857
condition making 0.0138889
condition situation 0.0312500
Mexico Mexico 1.0000000
discussion discuss 0.0625000
discussion discussion 0.9444444
discussion argument 0.0909091
confienence convenient 0.0232558
Mis Madam 0.0041494
claryfy clarify 0.2000000
allways always 0.0075901
allways never 0.0024096
creating creating 0.5000000
reasonally reasonable 0.0909091
against for 0.0002268
against of 0.0001593
against against 0.7826087
against who 0.0016920
against contrary 0.0769231
against break 0.0185185
against with 0.0009120
against allergy 0.3333333
against from 0.0006485
against to 0.0001285
subject area 0.0263158
subject aims 0.2500000
subject they 0.0006039
subject NULL 0.0003478
subject subject 0.8703704
subject subjects 0.1739130
subject question 0.0109890
flat flat 1.0000000
flat as 0.0004824
impression impression 1.0000000
impression thoughts 0.0769231
combines combines 1.0000000
hobbys hobbies 0.0689655
outdoor outdoor 0.6363636
outdoor outdoors 0.6666667
gravestone gravestone 1.0000000
green green 0.8181818
green greenhouse 0.3333333
capital capital 0.8000000
France France 0.9629630
monkey monkey 1.0000000
badly badly 0.5714286
badly bad 0.0093458
badly it 0.0001574
badly hard 0.0084746
badly &apos; 0.0002838
badly - 0.0008961
badly worst 0.0112360
HOMEBASE HOMEBASE 1.0000000
Web Web 1.0000000
talk talked 0.1276596
talk talk 0.8869048
talk section 0.1111111
talk talks 0.0588235
talk talking 0.0447761
talk told 0.0020833
P P 1.0000000
extremelly extremely 0.0256410
Soares Soares 1.0000000
motorboat motorboat 1.0000000
inovations innovations 0.1666667
repply reply 0.0064516
twenty twenty 1.0000000
twenty - 0.0017921
shorts shorts 0.8571429
being cope 0.2500000
being are 0.0009025
being accompanied 0.5000000
being be 0.0024072
being staying 0.0337079
being while 0.0054348
being NULL 0.0013913
being accepted 0.0476190
being as 0.0004824
being beings 0.2500000
being going 0.0030864
being to 0.0000642
being being 0.7130435
being been 0.0072464
being refused 0.0769231
being because 0.0003724
being multi 0.3333333
being starring 0.0172414
being the 0.0000559
being become 0.0096154
being hate 0.0357143
being organising 0.0256410
being mankind 0.1428571
being visit 0.0041322
being discussing 0.1428571
being bring 0.0044643
being life 0.0010718
being we 0.0002866
researcher researcher 1.0000000
here writing 0.0016260
here NULL 0.0001739
here care 0.0178571
here here 0.9606299
here there 0.0063328
here hear 0.0056818
here heard 0.0194175
here show 0.0005764
here participated 0.1428571
experienced experienced 0.6818182
experienced experience 0.0082192
evidences evidence 1.0000000
turned to 0.0000642
turned went 0.0017921
turned happened 0.0074627
turned turned 0.9250000
turned out 0.0075901
turned become 0.0096154
challenges challenges 0.7500000
weeked weekend 0.0080000
reviews reviews 0.6666667
beginners &apos; 0.0005675
beginners s 0.0007716
beginners beginner 0.0333333
beginners beginners 0.7500000
beers beers 1.0000000
questions question 0.0109890
questions some 0.0007241
questions questions 0.9009901
questions answers 0.0344828
questions information 0.0024390
worring worrying 0.2500000
locals locals 1.0000000
locals some 0.0007241
hospital hospitals 0.2500000
hospital hospital 1.0000000
sneakers sneakers 1.0000000
arround for 0.0002268
arround around 0.0306748
Seul Seul 1.0000000
shook shook 0.5000000
growns are 0.0004513
growns ups 0.6666667
growns grown 0.0769231
press the 0.0000559
press press 1.0000000
sightseing sightseeing 0.0322581
2nd 2nd 0.7777778
2nd the 0.0001676
oclock &apos;clock 0.0232558
oclock o 0.0232558
international international 0.9473684
international International 0.0128205
Hana Hana 1.0000000
weights weights 1.0000000
excursion trip 0.0041841
excursion excursion 0.3333333
perfectly perfectly 1.0000000
perfectly a 0.0001301
perfectly perfect 0.0037453
pots pots 1.0000000
800000000 800000000 1.0000000
repplies information 0.0024390
nonsenses nonsense 0.2000000
evants events 0.0113636
amazon Amazon 1.0000000
CHANGES CHANGES 1.0000000
likely want 0.0013441
likely likely 0.7777778
likely probably 0.0158730
reall real 0.0131579
chorus choir 0.2500000
would am 0.0010379
would have 0.0002494
would wo 0.0450450
would walked 0.0625000
would will 0.0385742
would was 0.0005244
would do 0.0014925
would might 0.0077519
would accept 0.0204082
would forward 0.0015083
would is 0.0020464
would helps 0.0270270
would wanted 0.0034602
would should 0.0091146
would may 0.0086957
would want 0.0040323
would were 0.0034892
would wish 0.0151515
would NULL 0.0029565
would had 0.0025602
would could 0.0081663
would desire 0.0909091
would must 0.0177305
would look 0.0023753
would knows 0.0270270
would passed 0.0526316
would would 0.8928210
would than 0.0024331
would did 0.0014556
would ca 0.0037736
ride ride 1.0000000
ride us 0.0015625
durring in 0.0001441
durring during 0.0025707
developpement development 0.0625000
banking banking 1.0000000
wethear weather 0.0066667
Santana Santana 1.0000000
attacted attracted 0.0714286
class- classmates 0.0185185
prison prison 1.0000000
SKY SKY 1.0000000
competitive competitive 0.5000000
meat meat 0.8000000
meat meet 0.0106383
compeletly completely 0.0147059
CARS CARS 1.0000000
First first 0.0010309
First First 1.0000000
taken NULL 0.0003478
taken got 0.0030303
taken given 0.0109890
taken take 0.0109034
taken took 0.0129870
taken token 1.0000000
taken made 0.0083682
taken taken 0.5581395
taken chosen 0.0126582
cultivite cultivate 1.0000000
comply complain 0.0056180
en in 0.0001441
en ten 0.0169492
en - 0.0008961
increases increases 0.6666667
COMFORTABLE COMFORTABLE 0.5000000
Island Island 1.0000000
agressions attacks 0.5000000
hitting hitting 1.0000000
necesary necessary 0.0163934
happiness happiness 0.6923077
PREPARING PREPARING 1.0000000
DECIDED DECIDED 1.0000000
HOUSE HOUSE 0.7500000
taught taught 0.2500000
encourages encourages 0.6666667
classical classical 0.8000000
comenicate communicate 0.0250000
WHICH WHICH 0.5294118
competence competition 0.0036630
lied lay 0.3333333
lied lie 0.0476190
lied lied 0.7500000
rings rings 0.5000000
rings rang 0.1250000
polite politeness 0.5000000
polite polite 0.9000000
alwalys always 0.0037951
amusement amusement 0.5000000
prove proves 1.0000000
prove prove 0.7777778
prove improve 0.0156250
refering mentioned 0.0109890
refering referring 0.2857143
refering regarding 0.0074627
refering according 0.0120482
funds had 0.0005120
funds funds 0.5000000
came got 0.0060606
came comes 0.0344828
came arrived 0.0265487
came was 0.0001748
came go 0.0017606
came went 0.0179211
came appeared 0.0208333
came occurred 0.1250000
came been 0.0014493
came come 0.0342857
came first 0.0010309
came artists 0.0082645
came became 0.0144928
came came 0.8238636
came coming 0.0188679
yourselfh yourself 0.0208333
hop hope 0.0023148
none either 0.0147059
none no 0.0050251
none neither 0.0909091
none one 0.0009551
none none 0.3181818
lighter lighter 0.4000000
Did Did 0.3333333
Did Do 0.2500000
Did &quot; 0.0006086
diversity diverse 1.0000000
INTERNET THE 0.0113314
INTERNET INTERNET 1.0000000
photography photographs 0.1470588
photography photography 0.8686131
photography photographic 0.6000000
photography technique 0.1666667
photography course 0.0044444
voleyball volleyball 0.1250000
peculiar peculiar 1.0000000
haen n 0.0003968
haen had 0.0005120
contine continue 0.0322581
cry cry 0.9333333
cry cried 0.0833333
galery gallery 0.2500000
explictions explanations 0.2500000
explictions being 0.0043478
explictions given 0.0109890
exchanging exchanging 1.0000000
quantity number 0.0175439
quantity quantity 1.0000000
mailing mailing 1.0000000
punctual punctual 1.0000000
credit cashpoint 0.5000000
credit credit 1.0000000
credit on 0.0004850
House House 1.0000000
forecast schedule 0.0666667
forecast forecast 1.0000000
wilder wilder 1.0000000
wilder a 0.0001301
pc PC 0.2222222
enemies enemies 0.5000000
paragraps paragraphs 1.0000000
oppurtinatey opportunity 0.0037594
activist activist 1.0000000
secound seconds 0.1000000
secound second 0.0073529
joyful joy 0.1250000
decadence decadence 1.0000000
propaganda it 0.0001574
propaganda advertisement 0.0013587
rebuild build 0.0625000
inprove improve 0.0156250
PAY PAY 1.0000000
THEM NULL 0.0001739
THEM THEM 0.8181818
weait wait 0.0063694
barbecue barbecue 1.0000000
adequate sufficient 0.1666667
dozens dozens 1.0000000
Ad Ad 0.5000000
US US 1.0000000
gossiped gossiped 1.0000000
pactice do 0.0004975
centery century 0.0263158
intersts that 0.0001884
intersts interests 0.0625000
concentrates concentrates 1.0000000
smiled smiled 1.0000000
comunity community 0.1666667
heart hearts 1.0000000
heart hearted 1.0000000
heart heart 0.8666667
heart heard 0.0485437
Brigitte Brigitte 1.0000000
aims aims 0.7500000
anticipation advance 0.0270270
household housework 0.0400000
household home 0.0026596
household household 0.1666667
Caesara Caesara 1.0000000
Families families 0.0666667
adapted adapted 1.0000000
concer concert 0.0015924
BASKETBALL BASKETBALL 1.0000000
wake woken 0.3333333
wake wake 1.0000000
healf health 0.0277778
printed printed 1.0000000
printed T 0.0500000
Ka Ka 1.0000000
UNKNOWN UNKNOWN 1.0000000
clues clues 1.0000000
luggage luggage 0.6000000
frightened frightened 0.5000000
Cranberies Cranberies 1.0000000
ticets tickets 0.0038168
baskets baskets 1.0000000
reason subject 0.0185185
reason aim 0.0285714
reason why 0.0087464
reason cause 0.0625000
reason reason 0.9060773
reason reasons 0.0317460
reason NULL 0.0001739
reason right 0.0077519
reason given 0.0109890
carbins cabins 0.0068027
hayrstyles hairstyles 0.0120482
VITA VITA 1.0000000
RODRIGEZ RODRIGEZ 1.0000000
accomodation accommodation 0.3037975
accomodation stay 0.0190931
accomodation sleep 0.0094340
accomodation type 0.0384615
pacefully peacefully 0.2000000
Theathre Theatre 0.0059524
Freak Freak 1.0000000
Kozin Kozin 0.5000000
HAVE LOW 0.3333333
HAVE WAS 0.0086207
HAVE INCLUDE 1.0000000
HAVE . 0.0000416
HAVE HAS 0.1000000
HAVE HAD 0.0294118
HAVE HAVE 0.8163265
clan group 0.0107527
nutchel nutshell 0.2500000
Dream Dream 1.0000000
lightened lit 0.3333333
databases databases 1.0000000
Television Television 1.0000000
dishwashing dishwasher 0.2000000
persons actors 0.0079365
persons people 0.0125698
concretely concretely 1.0000000
Schulsson Schulsson 1.0000000
immagine can 0.0005814
immagine imagine 0.0149254
gratfull grateful 0.0102041
crownd crowd 0.0588235
quarrelled quarrelled 0.3333333
blood blood 1.0000000
enthusiast enthusiast 0.5000000
initially initially 1.0000000
dizzy dizzy 1.0000000
recollet recollect 1.0000000
unenjoyable is 0.0002274
unenjoyable unenjoyable 0.8333333
RECEIVE RECEIVE 1.0000000
Korean Korea 0.1111111
Korean Korean 1.0000000
according considering 0.1153846
according in 0.0011526
according regard 0.0625000
according NULL 0.0003478
according on 0.0004850
according with 0.0009120
according regards 0.0196078
according concerning 0.0256410
according referring 0.1428571
according because 0.0022346
according according 0.8554217
according regarding 0.0522388
THONGCHAI THONGCHAI 1.0000000
discos discos 0.6250000
referee referee 1.0000000
Almo Almo 1.0000000
Margaret Margaret 1.0000000
pirvacity privacy 0.0400000
Duangkamol Duangkamol 1.0000000
Carter Carter 1.0000000
harvest harvest 1.0000000
Kyon Kyon 1.0000000
anwered answered 0.0625000
laser laser 1.0000000
big be 0.0003439
big lived 0.0322581
big bit 0.0106383
big dependent 0.1250000
big much 0.0013021
big lot 0.0016051
big large 0.1600000
big fuss 0.3333333
big great 0.0182927
big long 0.0039841
big very 0.0004153
big tree 0.1000000
big love 0.0029326
big bigger 0.0344828
big team 0.0105263
big broad 0.3333333
big big 0.9760766
big wide 0.0588235
sth something 0.0023364
Charoenkul Charoenkul 1.0000000
Thankeaw thank 0.0022124
Thankeaw you 0.0001503
fourthey - 0.0008961
fourthey forty 0.0129870
Why why 0.0029155
Why Why 0.5000000
these NULL 0.0003478
these they 0.0012077
these a 0.0001301
these rules 0.0062893
these &apos; 0.0002838
these those 0.0266667
these things 0.0085324
these there 0.0005757
these these 0.7301980
these technology 0.0015748
these plastic 0.0500000
these within 0.0416667
these this 0.0162564
these that 0.0001884
these the 0.0003352
optional optional 0.6666667
variety variety 0.8437500
Korn Korn 1.0000000
handidate handicap 0.3333333
mountains mountains 0.8125000
magazines magazines 0.7777778
magazines and 0.0001008
addresses addresses 0.5000000
transfor transfer 0.5000000
FOR ABOUT 0.0400000
FOR . 0.0000416
FOR FOR 0.8906250
FOR SIGNED 0.5000000
FOR DEMAND 0.3333333
FOR OF 0.0272727
FOR THROUGH 1.0000000
FOR REGARDING 0.5000000
FOR CAN 0.0333333
FOR TO 0.0043668
FOR BECAUSE 0.0465116
preference preference 1.0000000
refreshments refreshments 0.6000000
nurse nurse 0.6666667
shef chef 0.0588235
José José 1.0000000
wating waiting 0.0072993
orginised organised 0.0126582
daytime daytime 1.0000000
daytime day 0.0018116
increased increased 0.6666667
burns burns 1.0000000
atmospherical atmospheric 1.0000000
MUSIC MUSIC 1.0000000
excepted accepted 0.0476190
Katerina Katerina 1.0000000
Larry Larry 1.0000000
1996 1996 1.0000000
sound sound 0.8870968
sound system 0.0344828
sound sounds 0.0909091
sound volume 0.2000000
compromise compromise 0.6666667
inocently innocently 1.0000000
MAKES MAKES 1.0000000
MAKES DISTANCES 1.0000000
countless countless 1.0000000
deciding deciding 0.2000000
Festivalö Festivalö 1.0000000
answers information 0.0024390
answers answers 0.8620690
answers questions 0.0049505
answers answer 0.0160428
optionaly optional 0.3333333
Montri Montri 1.0000000
collected collected 1.0000000
unrealiable unreliable 1.0000000
Afterward afterwards 0.0270270
UNFORTUNETELY unfortunately 0.0069444
Film Film 1.0000000
expects expected 0.0090090
liest least 0.0121951
HOME HOME 1.0000000
Oxana Oxana 1.0000000
foams foams 1.0000000
provided provide 0.0196078
provided provided 0.9545455
provided allowed 0.0085470
sectors sectors 1.0000000
willy really 0.0011351
shelves shelves 0.3333333
easely as 0.0004824
easely easily 0.0408163
decieded decided 0.0041322
patience patience 0.7777778
build build 0.5000000
build built 0.1578947
build be 0.0003439
build building 0.0606061
ritual ritual 1.0000000
snowboarding snowboarding 0.3333333
stairs stairs 0.6666667
september September 0.0434783
worser worse 0.0153846
fishing fishing 0.8888889
knickers knickers 1.0000000
TECNICAL TECHNICAL 1.0000000
ARE HAS 0.0500000
ARE IS 0.0204082
ARE BEEN 0.0769231
ARE ARE 1.0000000
ARE HAVE 0.0204082
Piaf Piaf 1.0000000
confesed confessed 0.3333333
confesed to 0.0000642
confirme confirm 0.1250000
confirme for 0.0002268
unforgiven unforgivable 1.0000000
tornado tornados 1.0000000
roboters robots 0.1111111
11 11 1.0000000
projected projected 1.0000000
wild wild 1.0000000
wild nature 0.0113636
wild wildlife 0.5000000
wild worldwide 0.1111111
comfotable comfortable 0.0064103
disturb disturbs 0.5000000
disturb disturb 0.8000000
disturb bother 0.5000000
disturb disturbing 0.5000000
pm 22.00 0.3333333
pm 20.15 0.0128205
pm pm 0.8983051
pm evening 0.0018519
husband husband 1.0000000
WEEKS WEEKS 1.0000000
BRUL BRUL 1.0000000
listens listens 0.5000000
throwing throwing 1.0000000
complete all 0.0005131
complete ; 0.0046296
complete completely 0.0294118
complete good 0.0008696
complete complain 0.0056180
complete complete 0.9090909
complete full 0.0084034
complete provide 0.0196078
complete completed 0.5000000
rejective rejected 1.0000000
rejective by 0.0014124
Opera Opera 1.0000000
grandfather grandfather 0.5000000
PROUD PROUD 1.0000000
fee price 0.0068027
fee hotel 0.0454545
fee fee 0.8000000
fee free 0.0033445
fee entrance 0.0416667
next near 0.0121951
next next 0.9810811
next closer 0.0312500
next up 0.0038023
next on 0.0004850
next to 0.0000642
next following 0.0135135
next last 0.0017452
next the 0.0000559
pass passed 0.0526316
pass spend 0.0123457
pass spending 0.0156250
pass past 0.0238095
pass pass 0.8888889
pass sit 0.1153846
pass passes 0.6666667
pass have 0.0002494
songs songs 0.8800000
songs sing 0.0294118
songs NULL 0.0001739
Philip Philip 1.0000000
wemon woman 0.0188679
farmily family 0.0052083
micrown microwave 0.0400000
C.D CD 0.0769231
salesman salesman 1.0000000
editor editor 1.0000000
mixture mixture 1.0000000
4567 4567 1.0000000
unpleasent unpleasant 0.1935484
ferry ferry 1.0000000
Ybarra Ybarra 1.0000000
deck deck 1.0000000
heading heading 1.0000000
heading , 0.0000564
door door 0.9574468
door outdoor 0.0909091
door entrance 0.0208333
absurd absurd 1.0000000
A.S A.S 1.0000000
qeuing queuing 0.1428571
sperate separately 0.5000000
123 123 1.0000000
CO2 CO2 1.0000000
luxualy luxury 0.2500000
distributed distributed 1.0000000
progressive progressive 0.6666667
Out Out 1.0000000
material lessons 0.0047393
material things 0.0017065
material material 0.8571429
material materials 0.1562500
material equipment 0.2068966
LUNCH LUNCH 1.0000000
solution option 0.0625000
solution solve 0.0625000
solution way 0.0091185
solution alternative 0.1428571
solution to 0.0001927
solution solution 0.8421053
son son 0.9090909
son soon 0.0027027
PERFORMED PERFORMED 0.5000000
crowe crowds 0.0588235
rapidly rapidly 0.8181818
rapidly we 0.0002866
rapidly me 0.0003893
rapidly for 0.0002268
rapidly John 0.0357143
rapidly posthaste 1.0000000
rapidly want 0.0013441
rapidly suddenly 0.0138889
rapidly quickly 0.0129870
survive survive 0.8750000
survive survival 0.2500000
survive help 0.0027174
licences &apos; 0.0002838
licences licences 1.0000000
fro for 0.0002268
permanent permanent 1.0000000
permanent a 0.0001301
studying studying 0.7656250
Wall Wall 1.0000000
TYUNG TYUNG 1.0000000
Botella Botella 1.0000000
knees knees 1.0000000
calulate calculate 0.3333333
defeat defeat 1.0000000
hr hr 1.0000000
Gold Gold 1.0000000
throu through 0.0147059
examinations had 0.0005120
examinations examinations 0.8333333
awake awake 0.5000000
extrrmely extremely 0.0256410
nuture nature 0.0113636
withou without 0.0031250
indignatged indignant 1.0000000
Poirot Poirot 1.0000000
Deli Deli 1.0000000
childrens children 0.0161290
cons cons 1.0000000
fate fate 1.0000000
displays displays 1.0000000
copying copying 1.0000000
glitter glitter 1.0000000
comletely completely 0.0147059
regulament regulations 1.0000000
basical basic 0.1000000
knowladge knowledge 0.0212766
COMPUTERS COMPUTERS 0.7500000
Regards Regards 1.0000000
Regards regards 0.0588235
spacy spacy 1.0000000
spacy spacy- 1.0000000
addicts addicts 0.2500000
insperations inspirations 1.0000000
deeply deeply 1.0000000
deeply profoundly 1.0000000
dungeen dungeon 1.0000000
grandparent grandparents 0.0500000
SEND HAVE 0.0204082
SEND SENT 0.6666667
paralyzed paralyzed 0.5000000
imortant important 0.0034014
Privat private 0.0089286
aceptance acceptance 1.0000000
closely close 0.0156250
anger anger 1.0000000
presently now 0.0019920
custumer customer 0.0833333
Mz Mrs 0.0085470
walked walking 0.0185185
walked waded 1.0000000
walked walked 0.8750000
everyon everyone 0.0050251
instat instead 0.0049751
if about 0.0004593
if NULL 0.0010435
if it 0.0001574
if do 0.0004975
if , 0.0000564
if If 0.2857143
if whether 0.0862069
if grater 0.3333333
if that 0.0005653
if or 0.0008368
if much 0.0013021
if though 0.0490196
if if 0.9612508
does makes 0.0106383
does petroleum 0.5000000
does taste 0.1111111
does do 0.0044776
does NULL 0.0003478
does perform 0.0384615
does wo 0.0180180
does ; 0.0046296
does does 0.7518248
does did 0.0072780
does n 0.0007937
does monster 0.1666667
does has 0.0016584
does is 0.0013643
profecional professional 0.0476190
Futhermore furthermore 0.0198020
ungry angry 0.0240000
Jackson Jackson 1.0000000
roads roads 1.0000000
Metro Metro 1.0000000
accomodationed stay 0.0023866
truble troublemaker 0.5000000
physics laboratory 0.1666667
physics physics 0.5000000
defenately definitely 0.0232558
decorated decorated 1.0000000
corespondecies correspondence 1.0000000
acommodations accommodation 0.0042194
atmosfear atmosphere 0.0322581
balloons balloons 0.5000000
balloons the 0.0000559
bying Bying 1.0000000
bying buy 0.0028653
bying buying 0.0133333
T.Vs T.Vs 1.0000000
DELAYED DELAYED 1.0000000
DELAYED WAS 0.0086207
dot dot 1.0000000
convience convenient 0.0232558
spaceship is 0.0002274
spaceship spaceships 0.2500000
spaceship spaceship 1.0000000
appearing of 0.0001593
appearing the 0.0000559
appearing appearance 0.1111111
writting written 0.0169492
writting writing 0.1186992
writting typewriter 0.5000000
competiton competition 0.0036630
certain knowledge 0.0212766
certain certain 0.8235294
hesitate touch 0.0294118
hesitate hesitate 0.9565217
oldest oldest 1.0000000
attraction attraction 0.4000000
attraction &apos; 0.0002838
attraction s 0.0007716
attraction attention 0.0147059
attraction the 0.0000559
Metal Metal 1.0000000
younger young 0.0114943
younger younger 1.0000000
younger particular 0.0169492
younger people 0.0006983
defenitely definitely 0.0232558
version version 1.0000000
Ozone Ozone 1.0000000
TITANIC TITANIC 1.0000000
Jordan Jordan 1.0000000
worthy worthwhile 0.2000000
worthy worth 0.0740741
worthy been 0.0014493
worthy it 0.0003148
enrolled enrolled 1.0000000
increible incredible 0.1052632
equipated - 0.0008961
equipated equipped 0.2500000
F Fs 1.0000000
F F 1.0000000
SURGANOVA SURGANOVA 1.0000000
robotich robotics 1.0000000
billion billion 0.5000000
suddenly suddenly 0.9027778
Laisure Leisure 0.0073529
done conducted 0.2500000
done started 0.0017271
done booked 0.0454545
done done 0.7786885
done a 0.0002601
done doing 0.0150000
done created 0.0500000
done carried 0.1250000
done taken 0.0232558
done met 0.0111111
done occur 0.2000000
done do 0.0019900
done made 0.0167364
done had 0.0005120
done entered 0.0714286
done organised 0.0126582
done calculator 0.2000000
done given 0.0219780
done tried 0.0109890
done been 0.0057971
done did 0.0160116
hey they 0.0006039
hey Hey 0.6666667
portrays portrays 1.0000000
AN A 0.0085470
AN AN 0.9000000
Farmer Farmer 1.0000000
computer the 0.0001117
computer computers 0.1176471
computer computer 0.9587156
computer games 0.0227273
computer computing 0.1428571
pleased wanted 0.0034602
pleased entertained 1.0000000
pleased grateful 0.0102041
pleased pleased 0.8303571
smog smog 1.0000000
organiser organiser 0.6363636
organiser Organiser 0.0526316
between combination 0.3333333
between between 0.9142857
between including 0.0277778
between of 0.0003186
between open 0.0123457
between either 0.0147059
between from 0.0038911
interview an 0.0012658
interview interview 0.9411765
interview interviews 0.2000000
meet have 0.0002494
meet into 0.0057803
meet met 0.0333333
meet meet 0.8829787
meet meeting 0.1666667
meet see 0.0039422
meet find 0.0029412
autographs autographs 0.4615385
autographs their 0.0016447
19,30 19,30 1.0000000
whites whites 1.0000000
pathetic pathetic 1.0000000
threatened threatened 1.0000000
Brett Brett 1.0000000
ENGLISH THE 0.0028329
ENGLISH ENGLISH 1.0000000
nearly when 0.0006826
nearly almost 0.0217391
nearly nearly 0.8518519
produced produced 0.5000000
Something something 0.0023364
saing saying 0.0227273
saing showing 0.0588235
90 90 1.0000000
dried dry 0.2222222
dried a 0.0001301
preseant present 0.0149254
events event 0.0129870
events events 0.9204545
watter water 0.0615385
watter his 0.0024938
watter boil 1.0000000
plug in 0.0001441
plug plug 1.0000000
layout layout 1.0000000
instinc instinct 0.5000000
businessmen businessmen 1.0000000
bury bury 1.0000000
monstruous monstrous 1.0000000
complaints complaints 0.4375000
complaints complaint 0.0454545
shoulder shoulder 0.5000000
sensed sensed 1.0000000
a.m. a.m. 0.8571429
FOLLOW FOLLOW 0.6666667
dinners dinners 0.5000000
millions of 0.0003186
millions millions 1.0000000
cabines cabin 0.0052910
13.06.00 13.06.00 1.0000000
organizing organizing 0.7500000
organizing with 0.0004560
rensposible responsible 0.0333333
reserved reserved 1.0000000
MARCOS MARCOS 1.0000000
Carlitos Carlitos 1.0000000
should to 0.0000642
should would 0.0037074
should those 0.0066667
should unlikely 0.3333333
should refund 0.0108696
should reason 0.0055249
should should 0.9036458
should compromise 0.3333333
should deserve 0.0312500
should NULL 0.0012174
should can 0.0005814
should will 0.0029297
should supposed 0.0068493
should wo 0.0090090
should could 0.0007424
should had 0.0030722
gossips gossip 0.4545455
crystal crystal 0.5000000
needlessly needlessly 1.0000000
hotter it 0.0001574
hotter hotter 1.0000000
Rafael Rafael 1.0000000
tempereture temperature 0.0666667
tempereture the 0.0000559
mutual mutual 1.0000000
brillantly brilliantly 0.5000000
BLIND BLIND 1.0000000
fan fans 0.0882353
fan fun 0.0194805
fan fan 0.8095238
enable able 0.0040984
enable enables 0.3333333
enable enable 0.6666667
corridors corridors 1.0000000
incredibly incredibly 0.6666667
really really 0.8989784
really expected 0.0090090
really much 0.0013021
really real 0.0131579
vareiety variety 0.0312500
stress pressure 0.0833333
stress stressful 0.0454545
stress stressed 0.1875000
stress mess 0.1428571
stress stress 1.0000000
stress emphasis 0.2500000
alibi alibi 1.0000000
Sirs Sirs 1.0000000
adventage advantage 0.0285714
GASKELL GASKELL 1.0000000
holp hope 0.0046296
GETS GETS 1.0000000
father grandfather 0.2500000
father father 0.9620253
brake break 0.0925926
outsid outside 0.0149254
detailes details 0.0461538
wallet their 0.0016447
wallet wallet 0.8666667
sollution solution 0.0526316
Cinema cinema 0.0625000
DIFFERENTLY CONTRARY 1.0000000
apprentice apprentice 1.0000000
16th 16th 1.0000000
Freely Freely 1.0000000
Firsty firstly 0.0091324
Plays plays 0.0210526
Plays Plays 1.0000000
forbidden forbidden 1.0000000
forbidden forbade 1.0000000
forbidden forbid 1.0000000
Ilya Ilya 1.0000000
smarter and 0.0001008
smarter smarter 1.0000000
smarter better 0.0039841
restructuring work 0.0025510
restructuring repair 0.2000000
lunchbreak break 0.0185185
lunchbreak lunch 0.0277778
stood said 0.0025316
stood was 0.0001748
stood stayed 0.0232558
stood standing 0.0666667
stood stood 0.6666667
yong young 0.0114943
fade fade 1.0000000
13 13 1.0000000
trust trusts 0.5000000
trust trust 0.9117647
trust trusted 0.1428571
height heights 0.2500000
height height 0.3333333
pushing pushing 1.0000000
THEATRE THEATRE 0.9600000
lazzy lazy 0.0454545
ISOLATED ISOLATED 1.0000000
ISOLATED BECOME 1.0000000
U.SA U.SA 0.5000000
scarly scary 0.2000000
ELECTRIC ELECTRIC 1.0000000
ELECTRIC LIGHT 1.0000000
medecine medicine 0.1000000
liberated liberated 1.0000000
technolgy technology 0.0015748
Ealyer earlier 0.0500000
American American 0.7692308
evining evening 0.0018519
dust dust 1.0000000
scares scares 0.5000000
Phat Phat 1.0000000
ansewer answer 0.0053476
society out 0.0018975
society company 0.0217391
society society 0.8947368
mn minutes 0.0038462
enthusiasm hobby 0.0322581
enthusiasm enthusiasm 0.8333333
displeasured unpleasant 0.0322581
rural rural 1.0000000
leather leather 0.6666667
... . 0.0000416
... ... 1.0000000
... Madam 0.0041494
... ? 0.0008013
AUGUST AUGUST 1.0000000
Science visiting 0.0172414
Science science 0.0138889
Science Science 0.9489796
inspector inspector 1.0000000
intended intended 0.6666667
recommendation recommendation 1.0000000
Artists Artists 1.0000000
Artists artists 0.0082645
advertisement one 0.0009551
advertisement publicity 0.1250000
advertisement advertisement 0.8138587
advertisement festival 0.0046083
advertisement advertising 0.1666667
advertisement advertisements 0.0909091
advertisement ones 0.0250000
longer long 0.0039841
longer longer 0.7500000
longer more 0.0018501
strenge strange 0.0285714
wear dressed 0.1666667
wear dress 0.0588235
wear clothing 0.0227273
wear fashions 0.0104167
wear be 0.0003439
wear when 0.0006826
wear wears 0.4285714
wear show 0.0005764
wear underwear 0.3333333
wear wear 0.9066148
wear clothes 0.0012165
wear all 0.0005131
wear wore 0.0714286
wear worn 0.2500000
wear carry 0.0540541
wear went 0.0017921
wear sportswear 0.3750000
attacts attacks 0.5000000
stunned stunned 1.0000000
guilty guilt 1.0000000
guilty guilty 1.0000000
floting floating 0.3333333
hesitation hesitation 0.3333333
judging judging 1.0000000
chain chain 1.0000000
sociaple sociable 0.1666667
Martin Martin 1.0000000
90s 90s 1.0000000
repair repair 0.2000000
spacious spacious 1.0000000
Alak Alak 1.0000000
lesure a 0.0001301
lesure leisure 0.0096154
directly hit 0.0666667
directly directly 0.7142857
depressions depression 0.2000000
Stones Stones 1.0000000
edge edge 1.0000000
George George 1.0000000
rutines routines 0.5000000
Katrin Katrin 1.0000000
lifestyles lifestyle 0.0161290
helpful help 0.0027174
helpful helpful 0.7916667
timbre quality 0.0232558
timbre sound 0.0161290
entertainment show 0.0011527
entertainment entertainment 0.6875000
entertainment evening 0.0018519
tank tank 1.0000000
anybody anybody 1.0000000
anybody nobody 0.0235294
BELIEVE BELIEVE 0.5000000
functioning functioning 0.5000000
electrical electric 0.1111111
electrical electrical 0.8181818
electrical robotic 1.0000000
never ever 0.0642202
never never 0.9831325
never , 0.0000564
crow crew 0.3333333
resist not 0.0004286
resist avoid 0.0416667
resist resist 0.6363636
bankrupt bankrupt 1.0000000
delicate delicate 0.6666667
knowledgement education 0.0476190
READ READING 0.2000000
READ READ 1.0000000
Even even 0.0025381
throug at 0.0003206
throug bartender 0.5000000
flesh flash 1.0000000
flesh flesh 0.5000000
na na 1.0000000
na NULL 0.0001739
hired hired 1.0000000
diffarent different 0.0064378
liked like 0.0019654
liked likes 0.0869565
liked liked 0.7627119
Eirini Eirini 1.0000000
IMAGINE IMAGINE 1.0000000
5000 5000 1.0000000
technology NULL 0.0001739
technology technological 0.0444444
technology computers 0.0084034
technology technology 0.9039370
technology advancement 1.0000000
happening things 0.0017065
happening happening 0.6538462
happening arise 0.2500000
applauded applauded 0.5000000
bloody bloody 1.0000000
too dream 0.0185185
too late 0.0111111
too a 0.0003902
too NULL 0.0001739
too very 0.0033223
too exaggerating 0.3333333
too far 0.0114943
too too 0.9197248
too also 0.0010267
too including 0.0277778
too either 0.0294118
too to 0.0001927
too technique 0.1666667
too two 0.0017452
too break 0.0185185
too really 0.0011351
too so 0.0010828
too extremely 0.0256410
holyday holiday 0.0029674
haven do 0.0004975
haven did 0.0072780
haven had 0.0020481
haven haven 0.7294118
haven n 0.0047619
haven are 0.0004513
Bouchard Bouchard 1.0000000
Janine Janine 1.0000000
chipper cheap 0.1250000
preffer prefer 0.0050125
angrily angrily 1.0000000
insufficient inadequate 1.0000000
classicial classical 0.0444444
letter letters 0.0666667
letter me 0.0003893
letter reply 0.0129032
letter letter 0.9820896
letter NULL 0.0001739
dosen n 0.0003968
dosen does 0.0072993
annoye annoy 0.2000000
pleaseant pleased 0.0089286
finally at 0.0003206
finally minute 0.0434783
finally finally 0.8233696
finally obtain 0.1666667
finally these 0.0024752
finally end 0.0097561
finally eventually 0.0416667
painting paint 0.0357143
painting painted 0.2000000
painting watercolours 0.2500000
painting painting 0.9354839
pairs doubles 0.3333333
pairs pairs 1.0000000
leaflets leaflets 1.0000000
teachnology technology 0.0015748
shoe shoes 0.0312500
shoe shoe 1.0000000
naked naked 0.8000000
halls hall 0.0188679
halls halls 0.9222222
Diving Diving 1.0000000
ended ended 0.7241379
ended end 0.0097561
ended ruined 0.1666667
Melina Melina 1.0000000
pollins pollen 1.0000000
remarkable remarkable 0.6666667
veteran veteran 1.0000000
J. J. 1.0000000
filled filled 0.6666667
filled replaced 0.0212766
filled for 0.0002268
phoned phoned 0.6842105
DINNER DINNER 1.0000000
begging beginning 0.0120482
Hey Hey 0.3333333
include part 0.0041494
include could 0.0007424
include including 0.0833333
include included 0.0416667
include we 0.0002866
include include 0.6363636
include includes 0.2666667
include inclusive 0.5000000
include whether 0.0172414
reproductor reproductor 1.0000000
tender gentle 0.3333333
damaged damaged 1.0000000
windows windows 0.8571429
windows window 0.0333333
unbelievably unbelievably 1.0000000
unbelievably really 0.0011351
stamped stuck 0.2000000
overwhelmed overwhelmed 1.0000000
overwhelmed , 0.0000564
CENTRAL CENTRAL 1.0000000
drems dreams 0.1250000
Couch Couch 1.0000000
unpossible impossible 0.0204082
earths earths 1.0000000
BRASILIA BRASILIA 1.0000000
ruin ruin 0.5000000
ruin ruined 0.1666667
days times 0.0238095
days today 0.0246914
days time 0.0006826
days days 0.9789916
days nowadays 0.0215827
days remaining 1.0000000
days few 0.0155440
days technical 0.0714286
days , 0.0000564
days day 0.0217391
days . 0.0000416
days month 0.0033003
assess assess 1.0000000
assess which 0.0008475
mix mix 1.0000000
daughter daughter 1.0000000
backaches backaches 1.0000000
eventaully eventually 0.0416667
mutch much 0.0026042
Maneger Manager 0.0169492
stepparents stepparents 1.0000000
sickness sickness 1.0000000
Rinsook Rinsook 1.0000000
fellows fellows 1.0000000
bully bully 1.0000000
responsabilities responsibilities 0.5000000
STAY STAY 0.7500000
blindly blindly 1.0000000
rubbish rubbish 0.8750000
repeated repeated 0.7500000
esculptures sculptures 0.2500000
TOTALLY TOTALLY 1.0000000
tracked tracked 1.0000000
fair unfair 0.1666667
fair fair 0.6666667
resive receive 0.0253165
Landen Landen 1.0000000
monday Monday 0.0833333
microphone microphones 0.1111111
microphone microphone 1.0000000
19,00 19,00 1.0000000
sails sails 1.0000000
RECOMENDED RECOMMENDED 0.5000000
nineteen - 0.0008961
nineteen nineteen 1.0000000
Auguest August 0.0153846
shal shal 1.0000000
summing summing 1.0000000
clothes regarding 0.0074627
clothes size 0.0294118
clothes clothing 0.1363636
clothes clothes 0.9635036
clothes costume 0.2500000
clothes dressing 0.1111111
clothes fashions 0.0104167
clothes fashion 0.0046083
clothes materials 0.0312500
simply simply 0.7000000
shoudn shoudn 1.0000000
shoudn should 0.0026042
shoudn n 0.0007937
Great Happy 0.5000000
Great Great 1.0000000
assume assume 1.0000000
DID DID 1.0000000
scribbled scribbled 1.0000000
fear fear 1.0000000
roof roof 1.0000000
backstage go 0.0008803
backstage backstage 0.3409091
exhaused exhausted 0.0769231
diseases have 0.0002494
diseases diseases 0.6250000
installation installation 1.0000000
concerntration concentration 0.5000000
lacked lacking 0.5000000
politics into 0.0057803
politics politics 1.0000000
tolerant tolerant 1.0000000
brochure flyer 0.2222222
brochure brochure 0.7142857
survival survival 0.7500000
permit allow 0.0333333
permit permitted 0.3333333
permit permit 1.0000000
brought brought 0.8846154
brought have 0.0002494
brought took 0.0194805
brought has 0.0033167
brought us 0.0015625
KNOWN KNOWN 0.5000000
types types 0.7000000
types colours 0.0303030
unterstand understand 0.0071429
activites activities 0.0019342
activites activites 1.0000000
familiare familiar 0.1428571
consommation consumption 1.0000000
SPECIAL SPECIAL 1.0000000
Network Network 1.0000000
from regarding 0.0074627
from according 0.0120482
from than 0.0024331
from bill 0.2000000
from by 0.0127119
from NULL 0.0026087
from on 0.0063046
from about 0.0045935
from Ki 0.2500000
from since 0.0186047
from via 0.0588235
from between 0.0095238
from at 0.0022443
from stealing 0.1250000
from over 0.0070922
from to 0.0004496
from term 0.0625000
from through 0.0441176
from leaving 0.0384615
from of 0.0027083
from off 0.0256410
from in 0.0020170
from among 0.0434783
from leave 0.0294118
from have 0.0002494
from avoid 0.0416667
from experience 0.0027397
from left 0.0121951
from with 0.0031920
from from 0.9092088
from know 0.0010010
from for 0.0020413
folding away 0.0131579
folding put 0.0068027
link link 1.0000000
beginning start 0.0105634
beginning beginner 0.0333333
beginning with 0.0013680
beginning first 0.0020619
beginning starting 0.0238095
beginning show 0.0011527
beginning beginning 0.5662651
beginning begin 0.0303030
o.k OK 0.0370370
hound hound 1.0000000
weekends weekend 0.0400000
weekends weekends 0.8181818
comparison comparison 0.6000000
boards noticeboards 0.5000000
boards boards 0.5000000
Mission of 0.0001593
Mission Mission 1.0000000
resounding resounding 1.0000000
afimation summary 0.2500000
generated generated 1.0000000
Jones Jones 1.0000000
books notebooks 0.3333333
books books 0.9433962
books bookworms 0.3333333
crowded overcrowded 0.2857143
crowded crowded 0.7843137
crowded crowd 0.1176471
fortuanate fortunate 1.0000000
afterwords afterwards 0.0270270
currency currency 1.0000000
afraid afraid 0.8833333
atmosphear atmosphere 0.0322581
DEMAND DEMAND 0.3333333
begining show 0.0005764
begining beginning 0.2289157
begining start 0.0035211
begining at 0.0003206
order order 0.9731544
order than 0.0024331
order NULL 0.0008696
order eight 0.0250000
order help 0.0027174
order closed 0.0023866
destenation goal 0.3333333
lowered lowered 1.0000000
centered centred 1.0000000
Letter letter 0.0014925
Letter this 0.0004645
pregnant pregnant 0.6666667
stats starts 0.0200000
bit anything 0.0050000
bit bit 0.9787234
bit NULL 0.0001739
choices preferred 0.0769231
choices choices 0.4545455
choices activities 0.0019342
choices , 0.0001127
quiter quieter 1.0000000
promontion sell 0.0312500
avrege average 0.1428571
trends trends 0.7500000
prosperity prosperity 1.0000000
prosperity of 0.0001593
comodity convenience 0.0625000
comodity ease 0.2000000
Undoubtfully undoubtedly 0.3333333
ourself ourselves 0.1250000
ourself us 0.0015625
ourself comfortable 0.0064103
interesting some 0.0007241
interesting interested 0.0718954
interesting interest 0.0526316
interesting more 0.0009251
interesting subject 0.0185185
interesting useful 0.0131579
interesting uninteresting 0.5000000
interesting interesting 0.8982456
wather water 0.0153846
wather weather 0.0066667
hob hob 0.5000000
eat eating 0.1176471
eat eat 0.9537037
eat ate 0.1666667
Robie Robie 1.0000000
coach coach 1.0000000
coach the 0.0000559
Tae Tae 1.0000000
compartiments compartments 1.0000000
remarks remarks 1.0000000
reference reference 0.9629630
reference concerning 0.0128205
profeccion comparable 0.5000000
profeccion standard 0.1000000
Year Year 0.6666667
analyse them 0.0011947
analyse from 0.0006485
analyse analyse 0.3333333
frenetically frenetically 0.6666667
organised - 0.0017921
organised performed 0.0208333
organised been 0.0014493
organised organising 0.0769231
organised organised 0.8227848
organised have 0.0012469
organised organiser 0.0909091
irish Irish 1.0000000
Martinez Martinez 1.0000000
bang bang 1.0000000
clearing clearing 1.0000000
clearing cleaning 0.0416667
suprice surprise 0.0121951
ofer offer 0.0416667
openion opinion 0.0042553
layed placed 0.2500000
Dive skydive 0.5000000
smailing smiling 0.3333333
st St 0.6666667
Sandro Sandro 1.0000000
just only 0.0150289
just hardly 0.0526316
just than 0.0024331
just just 0.9641509
just professionals 0.1111111
just have 0.0002494
just keeps 0.0769231
just simply 0.0500000
just NULL 0.0019130
just very 0.0004153
just used 0.0040486
just fair 0.0666667
chatting chat 0.0434783
chatting chatting 0.7857143
interviewing interviewing 1.0000000
Camila Camila 1.0000000
arguing arguing 0.5000000
Daniel Daniel 1.0000000
Ireland Ireland 1.0000000
avaivable available 0.0033223
proude proud 0.0500000
OFF OFF 1.0000000
JAE JAE 1.0000000
moderne modern 0.0024752
Sara Sara 1.0000000
DISAPPOINTED DISAPPOINTED 0.7500000
runner manager 0.0138889
Kursk Kursk 1.0000000
relantionship relationship 0.0434783
DIE BECAUSE 0.0232558
DIE DIE 1.0000000
Cambrigge Cambridge 0.0909091
Cambrigge studying 0.0156250
Cambrigge for 0.0002268
tutry tutry 1.0000000
ENTIRE ENTIRE 1.0000000
error error 1.0000000
via via 0.1764706
desagree disagree 0.3333333
earn earning 0.4000000
earn earn 1.0000000
earn get 0.0018657
earn lost 0.0285714
report report 1.0000000
Synethetic have 0.0002494
Synethetic synthetics 0.3333333
Volavkova Volavkova 1.0000000
Austrian Austrian 1.0000000
thanks about 0.0004593
thanks NULL 0.0001739
thanks thanks 0.9528302
thanks thank 0.0221239
mosquitos mosquitoes 0.3333333
mosquitos mosquitos 1.0000000
ivited invited 0.0227273
IDENTITY IDENTITY 1.0000000
souvenires souvenirs 0.1250000
GOLF GOLF 1.0000000
notorious notorious 1.0000000
cassettes cassettes 1.0000000
unpleasantly surprised 0.0113636
unpleasantly unpleasantly 1.0000000
flexible flexible 1.0000000
Haven Did 0.3333333
Haven n 0.0003968
eg e.g 1.0000000
attitudes attitudes 0.6000000
attitudes &apos; 0.0002838
situations situations 1.0000000
situations the 0.0000559
situations experiences 0.0357143
situations situation 0.0312500
assured assured 1.0000000
assured promised 0.0112360
deliberately carefully 0.0500000
movement movement 0.7500000
sex sex 0.7500000
sex - 0.0008961
owe owe 1.0000000
especifics specific 0.0909091
Camp NULL 0.0001739
Camp visit 0.0041322
Camp Camp 0.9961832
Camp camp 0.0927835
congratulation congratulations 0.1428571
Auda Auda 1.0000000
REALLY REALLY 0.9000000
univercity university 0.0422535
Desingres designers 0.0666667
Haneul Haneul 1.0000000
networks networks 1.0000000
experiment experience 0.0027397
suede suede 1.0000000
forthy - 0.0017921
forthy forty 0.0259740
handicapped handicapped 0.6666667
expense expenses 0.0357143
expense expense 1.0000000
rekon think 0.0008368
remedium cure 0.1428571
revealed exposed 1.0000000
revealed revealed 0.5000000
unpleased an 0.0012658
unpleased unhappy 0.0714286
unpleased unpleasant 0.0645161
GIVING GIVING 1.0000000
breakfeast breakfast 0.0666667
AGAINST AGAINST 1.0000000
Phili Chile 0.5000000
FANTASCIENTIFIC FANTASTIC 1.0000000
politician politicians 0.0322581
politician politician 0.8000000
embarassed embarrassed 0.1428571
embarassed awkward 0.5000000
opening opening 0.6250000
opening his 0.0024938
ground- ground- 1.0000000
colleges colleagues 0.1000000
exhibiots exhibits 1.0000000
referred referred 1.0000000
overherd overheard 0.2500000
once once 0.8333333
once one 0.0019102
once NULL 0.0003478
inviting guests 0.1666667
inviting invite 0.0285714
inviting inviting 0.7500000
inviting over 0.0141844
vacancies vacancies 1.0000000
evoques addresses 0.5000000
skirt skirts 0.0526316
skirt skirt 1.0000000
indirectly indirectly 1.0000000
transfert transfer 0.5000000
term team 0.0210526
term time 0.0006826
term term 0.7500000
term turn 0.0250000
Elise Elise 1.0000000
mentionned who 0.0016920
mentionned advert 0.0500000
mentionned promised 0.0112360
mentionned that 0.0001884
mentionned mentioned 0.1318681
G. G. 1.0000000
thicket tickets 0.0038168
luch lunch 0.0277778
diffucult difficult 0.0085470
frome from 0.0006485
act performance 0.0111111
act fishing 0.1111111
act actor 0.0027248
act NULL 0.0001739
act behave 0.1428571
act act 0.6666667
act acting 0.0512821
act appear 0.0384615
act play 0.0106383
prograns programs 0.5000000
hairbands bands 0.0588235
hairbands hair 0.0588235
pulled pulled 1.0000000
pulled raised 0.1666667
Jagoares Jagoares 1.0000000
meanwhile meanwhile 1.0000000
meanwhile meantime 0.2000000
3-day 3-day 1.0000000
cryptographic cryptographic 1.0000000
McDonald McDonald 1.0000000
whispering whispering 0.6666667
disasterous disastrous 0.3333333
Ackermann Ackermann 1.0000000
mechanical mechanical 0.3333333
compensate compensation 0.0588235
compensate compensate 1.0000000
interrupted interrupted 0.6666667
Agent Agent 1.0000000
award on 0.0004850
award prize 0.0034364
award your 0.0004198
award guard 0.1250000
award award 1.0000000
104 104 1.0000000
glittery glittery 1.0000000
searches research 0.1111111
searches advances 0.0769231
cooler colder 1.0000000
when when 0.9467577
when that 0.0003769
when if 0.0047587
when , 0.0000564
when long 0.0039841
when to 0.0000642
when accept 0.0204082
when went 0.0035842
when also 0.0010267
when why 0.0029155
when then 0.0120192
when NULL 0.0017391
when where 0.0086207
when have 0.0002494
when whenever 0.0344828
HELP HELPED 0.2500000
HELP HELP 1.0000000
is making 0.0138889
is offers 0.0714286
is depends 0.0416667
is is 0.9270123
is specialise 0.3333333
is his 0.0024938
is doubt 0.0588235
is have 0.0004988
is in 0.0001441
is meant 0.0256410
is do 0.0009950
is relates 0.3333333
is would 0.0040445
is need 0.0017065
is surrounds 0.3333333
is has 0.0132670
is states 0.1000000
is you 0.0003007
is are 0.0451264
is does 0.0218978
is be 0.0106602
is but 0.0003685
is appreciate 0.0126582
is involves 0.3333333
is means 0.0307692
is were 0.0013957
is keeps 0.0769231
is premises 0.5000000
is enquire 0.1000000
is being 0.0043478
is I 0.0001018
is technology 0.0015748
is one 0.0009551
is will 0.0087891
is was 0.0118860
is comes 0.0344828
is gets 0.0555556
is new 0.0024038
is features 0.1250000
is lasts 0.1250000
is loves 0.0666667
is can 0.0034884
is NULL 0.0067826
is shows 0.0259740
is had 0.0005120
is it 0.0009444
clever clever 0.7777778
transportation transportation 0.8571429
transportation means 0.0153846
transportation of 0.0001593
romance romance 1.0000000
INCLUDES INCLUDES 1.0000000
thanck thank 0.0022124
Castum , 0.0000564
Castum space 0.0285714
VIDEO VIDEO 1.0000000
raves raves 1.0000000
expedition expedition 0.6666667
testing testing 1.0000000
testing test 0.0555556
carrier carrier 0.5000000
WONDER ASK 0.1666667
wate waited 0.0208333
Stenkovska Stenkovska 1.0000000
modorate moderate 1.0000000
exhausting exhausting 0.7777778
competion competition 0.0109890
competion a 0.0001301
newspapers newspapers 0.7727273
Sue Sue 1.0000000
alleys aisles 1.0000000
trully truly 0.2857143
consert concert 0.0047771
multi multi 0.3333333
multi many 0.0022075
male masculine 1.0000000
male male 0.9000000
Stephen Stephen 1.0000000
aside aside 1.0000000
thankful thankful 1.0000000
thankful grateful 0.0408163
united united 1.0000000
attented attented 1.0000000
mainteneance maintenance 0.2500000
morden modern 0.0049505
nowday nowadays 0.0071942
nowday are 0.0004513
nowday there 0.0005757
Wood Wood 1.0000000
Artistic Artistic 1.0000000
sexy sexy 1.0000000
designing designing 0.8000000
alternatives alternatives 1.0000000
point regards 0.0196078
point argument 0.0909091
point opinion 0.0340426
point example 0.0088496
point sense 0.0833333
point checkout 0.3333333
point NULL 0.0003478
point thing 0.0089087
point purpose 0.0454545
point make 0.0019084
point statement 0.0500000
point focus 0.1428571
point aspect 0.0714286
point major 0.1111111
point view 0.0161290
point event 0.0129870
point disadvantages 0.0217391
point point 0.9384615
bare bear 0.1428571
bare bare 1.0000000
&amp; and 0.0001008
&amp; &amp; 1.0000000
average average 0.4285714
average a 0.0001301
Spain Spain 1.0000000
blew blew 1.0000000
blew wasted 0.0476190
despide numbers 0.1250000
despide despite 0.0273973
despide low 0.1000000
reaches reaches 1.0000000
USING USING 1.0000000
complaine complain 0.0112360
condicion condition 0.1428571
Aguilar Aguilar 1.0000000
manual manual 1.0000000
plants plants 0.8333333
exist exist 0.7222222
exist your 0.0004198
Canadian Canadian 1.0000000
BUY BUYING 0.5000000
BUY BUY 1.0000000
wife wife 0.8823529
certenly certainly 0.0606061
clouse closer 0.0312500
clouse closed 0.0023866
Linton Linton 1.0000000
ENJOYED ENJOYED 1.0000000
prints prints 1.0000000
password password 1.0000000
Three Three 1.0000000
VIP VIP 0.5000000
VIP VIPs 0.3333333
sciences the 0.0002235
sciences sciences 1.0000000
influented influenced 0.1111111
tecnic technical 0.0714286
saw had 0.0005120
saw see 0.0065703
saw NULL 0.0001739
saw read 0.0054945
saw were 0.0006978
saw say 0.0027027
saw watching 0.0200000
saw seeing 0.0106383
saw so 0.0005414
saw seen 0.0196078
saw saw 0.8625430
saw watched 0.0476190
wee was 0.0001748
wee we 0.0002866
wee were 0.0006978
Chile Chile 0.5000000
cautious cautious 1.0000000
degrees hot 0.0172414
testifite test 0.0555556
servant servant 1.0000000
navigation navigation 1.0000000
FORGET FORGET 1.0000000
ourselves or 0.0008368
ourselves NULL 0.0001739
ourselves us 0.0015625
ourselves ourselves 0.6250000
testament restaurant 0.0020534
piece play 0.0053191
piece work 0.0025510
piece piece 0.3636364
piece news 0.0098039
piece peace 0.1818182
affairs affairs 1.0000000
British British 0.8000000
British Britain 0.1250000
thieves thieves 0.6666667
, who 0.0033841
, going 0.0015432
, it 0.0004722
, play 0.0026596
, &apos; 0.0005675
, ? 0.0152244
, - 0.0232975
, about 0.0009187
, NULL 0.1252174
, by 0.0014124
, if 0.0006798
, insist 0.1250000
, that 0.0015074
, starts 0.0200000
, are 0.0009025
, true 0.0086957
, ! 0.0008389
, occurred 0.1250000
, apart 0.0178571
, would 0.0003370
, families 0.0666667
, : 0.0130261
, impatiently 0.5000000
, machines 0.0200000
, for 0.0002268
, out 0.0018975
, am 0.0005189
, actually 0.0084034
, in 0.0004322
, well 0.0021692
, and 0.0027229
, will 0.0004883
, wife 0.0294118
, &quot; 0.0036519
, or 0.0041841
, ; 0.2314815
, learn 0.0074074
, of 0.0003186
, is 0.0006821
, . 0.0321185
, , 0.8970124
, to 0.0001927
Organizer Organizer 1.0000000
intelect intellectual 0.5000000
intelect in 0.0001441
comment on 0.0014549
comment comment 1.0000000
blowing blowing 1.0000000
surf surfed 0.5000000
surf surfboard 0.2500000
surf surfing 0.0514706
surf surf 0.6000000
HACIA HACIA 1.0000000
bicycles bicycles 1.0000000
breath away 0.0131579
breath breath 1.0000000
breath breathe 0.5714286
aided - 0.0008961
aided aided 1.0000000
replies reply 0.0064516
slide slide 1.0000000
annoyingly annoyingly 1.0000000
firm firm 1.0000000
firm industry 0.0714286
ABSOLUTELY ABSOLUTELY 1.0000000
understand why 0.0087464
understand knew 0.0048544
understand believe 0.0048309
understand me 0.0003893
understand realize 0.0526316
understand understood 0.0714286
understand understanding 0.0555556
understand notice 0.0434783
understand realise 0.0303030
understand understand 0.8785714
Freedom Freedom 1.0000000
foget forget 0.0125000
used taken 0.0232558
used used 0.9392713
used use 0.0174672
used get 0.0018657
used acquainted 0.5000000
used need 0.0017065
used was 0.0005244
used usually 0.0116279
castles castles 1.0000000
drank drank 1.0000000
beneficial beneficial 1.0000000
clasrooms classrooms 0.0833333
moden modern 0.0074257
legal legal 1.0000000
Heine Heine 1.0000000
irratable irritating 0.5000000
text Word 0.3333333
qeue queue 0.0312500
X300 X300 1.0000000
been joined 0.0625000
been sold 0.0384615
been spread 0.0909091
been bear 0.1428571
been imagined 0.0909091
been belonged 0.2000000
been rapidly 0.0909091
been painted 0.1000000
been arise 0.2500000
been waited 0.0416667
been trained 0.1250000
been be 0.0027510
been NULL 0.0055652
been were 0.0020935
been to 0.0000642
been making 0.0138889
been played 0.0198020
been stayed 0.0465116
been been 0.8130435
been being 0.0130435
been swam 0.2000000
been slept 0.0666667
been build 0.0625000
been carrying 0.0909091
been was 0.0062926
been go 0.0008803
been already 0.0145985
been went 0.0143369
weekly weekly 1.0000000
traineeship traineeship 1.0000000
Easters Easters 1.0000000
centre centres 0.1250000
centre centre 0.6111111
instances instance 0.0270270
stepped stepped 0.6000000
Morin Morin 1.0000000
occasions . 0.0000416
occasions occasions 0.7142857
game &apos; 0.0002838
game game 0.8823529
game games 0.0454545
scientist scientist 0.7500000
scientist scientists 0.1176471
Gernal General 1.0000000
pity sorry 0.0120482
pity pity 0.7142857
puzzal puzzlement 1.0000000
storage storage 1.0000000
react reacted 0.5000000
react react 1.0000000
MEETING MEETING 1.0000000
superstars superstars 0.2000000
Toronto Toronto 1.0000000
prize reward 0.2500000
prize prize 0.9347079
prize price 0.0884354
spheres spheres 1.0000000
kettles kettles 1.0000000
decepted deceived 0.5000000
photograph take 0.0015576
photograph photograph 1.0000000
photograph photographs 0.1764706
photograph photographer 0.0909091
photograph try 0.0054054
photograph photographic 0.2000000
photograph photography 0.0072993
improving improvement 0.1111111
improving advances 0.0769231
improving improving 0.8750000
improving improve 0.0156250
above furthermore 0.0099010
above above 0.9148936
above opinion 0.0042553
above NULL 0.0001739
above anyway 0.0091743
above accepted 0.0476190
above mentioned 0.0219780
above described 0.0769231
FIX FIX 1.0000000
bridge bridge 0.6666667
insulating insulating 1.0000000
SPORTS SPORTS 0.5000000
Giannis Giannis 1.0000000
instand instead 0.0149254
ETC ETC 1.0000000
250 250 1.0000000
Mom Mum 0.2000000
Mom Mom 0.6666667
POLICE POLICE 1.0000000
disgusted disgusted 1.0000000
dated dated 1.0000000
dated update 0.2500000
dated our 0.0007943
dated date 0.0217391
everyboby everybody 0.0056497
HOW OURSELVES 0.5000000
HOW how 0.0011198
HOW IF 0.0400000
HOW HOW 1.0000000
HOW . 0.0000416
unpleasant unpleasant 0.5161290
writer &apos; 0.0002838
writer s 0.0007716
writer writer 1.0000000
writer wrote 0.0136986
meters metres 0.5000000
meters meters 0.6666667
ultra ultra 1.0000000
damned damned 1.0000000
reader reader 1.0000000
unperfect imperfect 0.5000000
concert NULL 0.0001739
concert concert 0.9665605
concert concerts 0.0470588
concert Savage 0.3333333
GAYARRE GAYARRE 1.0000000
progres progress 0.0400000
River River 1.0000000
River river 0.0930233
belong belong 0.5555556
Syntethic synthetic 0.1428571
related related 0.6666667
related for 0.0002268
related regarding 0.0074627
aliens aliens 1.0000000
tried tries 0.3333333
tried tiring 0.0454545
tried tired 0.0185185
tried tried 0.7802198
universal universal 1.0000000
expences expenses 0.1071429
hero hero 1.0000000
baseball baseball 1.0000000
addmission admission 0.2222222
normally true 0.0086957
normally normal 0.0256410
normally normally 0.7000000
weapons weapons 0.6250000
weapons weapon 1.0000000
discribe describe 0.0454545
charachter character 0.0400000
STAGE STAGE 0.8333333
read seen 0.0065359
read reading 0.0600000
read read 0.9560440
read said 0.0025316
read see 0.0013141
read ready 0.0285714
UP UP 0.5000000
UP TOGETHER 1.0000000
UP BUILDING 1.0000000
reveals and 0.0001008
reveals reveals 1.0000000
courses tourism 0.1666667
courses lessons 0.0189573
courses courses 0.8181818
realice realised 0.0169492
guy man 0.0149254
guy guy 0.8181818
very NULL 0.0010435
very a 0.0002601
very childhood 0.0416667
very quite 0.0053191
very badly 0.0714286
very very 0.9779900
very great 0.0040650
very essential 0.0454545
very incredible 0.0526316
very every 0.0059347
very quickly 0.0129870
very eyes 0.0384615
very absolutely 0.0512821
very much 0.0013021
very widely 0.2500000
very greatly 0.2000000
very really 0.0204313
very time 0.0006826
very differ 0.5000000
knew meet 0.0106383
knew know 0.0040040
knew met 0.0222222
knew knew 0.8737864
knew got 0.0060606
knew known 0.0563380
knew out 0.0037951
knew new 0.0048077
knew learned 0.0800000
knew found 0.0176471
knew knows 0.0540541
knew thought 0.0050251
riding going 0.0015432
riding riding 0.7500000
ongoing going 0.0015432
ongoing on 0.0004850
05 05 1.0000000
groceries groceries 0.5000000
devote devote 1.0000000
ôbest ôbest 1.0000000
winer winner 0.0833333
interssant interesting 0.0035088
tone tune 0.3333333
tone tone 1.0000000
occupied occupied 1.0000000
becomes becoming 0.0322581
becomes becomes 0.8000000
becomes became 0.0144928
becomes come 0.0057143
alread already 0.0072993
portient patient 0.1250000
school team 0.0105263
school school 0.9626039
school ends 0.1428571
school schoolyard 0.2500000
school NULL 0.0003478
school , 0.0000564
school on 0.0004850
school schoolteacher 0.3333333
school schoolchildren 0.5000000
school Headmaster 0.2500000
school schools 0.0857143
school term 0.0625000
school schoolteachers 0.3333333
Patricia Patricia 1.0000000
10.00am 10.00am 1.0000000
Here Here 1.0000000
Aaroun Aaroun 1.0000000
swich switch 0.1000000
quite really 0.0011351
quite a 0.0001301
quite variety 0.0312500
quite NULL 0.0001739
quite very 0.0004153
quite quiet 0.2500000
quite almost 0.0108696
quite quite 0.9255319
functional functional 1.0000000
councience conscience 0.5000000
sorts sorts 0.5000000
sorts sort 0.0181818
greedy greedy 0.6666667
Mark Mark 0.5000000
youngest youngest 0.8000000
instructions instructions 0.6666667
performance performance 0.7000000
performance an 0.0012658
performance act 0.0416667
performance behaviour 0.0666667
performance rehearsal 1.0000000
account consider 0.0113636
account into 0.0057803
account reconsidered 0.3333333
account account 0.7333333
matherial material 0.0476190
mashines machines 0.0200000
hidden conceal 0.5000000
hidden hidden 1.0000000
hidden hid 0.3333333
enourmous enormous 0.2000000
purity purity 1.0000000
purity the 0.0000559
Hospital Hospital 1.0000000
availiable available 0.0033223
availiable also 0.0010267
schow show 0.0005764
ZITA ZITA 1.0000000
hearin hearing 0.0023202
fake fraud 0.5000000
fake fake 0.6666667
POOR POOR 1.0000000
risk famous 0.0036364
risk risks 0.3333333
risk danger 0.1538462
risk risk 0.8888889
risk NULL 0.0001739
( ( 0.9894366
( when 0.0006826
( amazing 0.0200000
( , 0.0000564
( NULL 0.0001739
( therefore 0.0076336
towncentre town 0.0196078
towncentre centre 0.0185185
misunderstood misunderstand 1.0000000
livingroom room 0.0227273
livingroom living 0.0246914
frethend frightened 0.1000000
feature trait 1.0000000
noticing notifying 1.0000000
noticing noticing 1.0000000
clotches clothes 0.0012165
photographer photographer 0.9090909
photographer photography 0.0072993
opportiunity opportunity 0.0037594
intentions intentions 1.0000000
Insurance Insurance 1.0000000
Philosophy philosophy 0.5000000
TECHNICH TECHNICIAN 1.0000000
COULD COULD 1.0000000
COULD CAN 0.0333333
COULD HAD 0.0294118
mistaken take 0.0015576
tidying tidy 0.0909091
tidying tidying 0.5000000
Hubert Hubert 1.0000000
foregive forgive 0.0833333
friend friends 0.0663391
friend girlfriend 0.1315789
friend it 0.0001574
friend boyfriend 0.0416667
friend friend 0.9665552
friend friendship 0.0526316
difficulties difficulties 0.7777778
difficulties s 0.0007716
difficulties &apos; 0.0002838
oversea overseas 0.3333333
loss loss 0.4000000
loss waste 0.0238095
emphasize emphasize 0.6666667
algoritms algorithms 0.5000000
satisfying satisfactory 0.2000000
satisfying satisfying 0.2000000
BROOK BROOK 0.9545455
verb verb 1.0000000
yourselves yourselves 1.0000000
Allreggards best 0.0020492
Allreggards regards 0.0196078
surfer surfer 0.7500000
Thai Thai 0.5000000
since since 0.9441860
since increased 0.1111111
since as 0.0009648
since repairs 0.1111111
since for 0.0004536
since and 0.0001008
since in 0.0004322
since from 0.0051881
since doing 0.0050000
since NULL 0.0005217
since advanced 0.0555556
since when 0.0034130
since till 0.0322581
since after 0.0029155
since long 0.0039841
Egyptians Egyptians 1.0000000
Italian Italian 0.6000000
Italian looks 0.0588235
fhing thing 0.0022272
useful need 0.0017065
useful useful 0.8157895
teaching teaching 0.8333333
harbours harbour 1.0000000
Tom Tom 1.0000000
eternal eternal 1.0000000
familie family 0.0052083
properly properly 0.8571429
properly it 0.0001574
properly seriously 0.1666667
properly . 0.0000416
properly proper 0.1428571
properly about 0.0004593
technologic technological 0.0666667
cuold had 0.0005120
raid raid 1.0000000
conclusuon conclusion 0.0093458
raincoates raincoats 1.0000000
news information 0.0024390
news informed 0.0263158
news new 0.0072115
news reports 0.4285714
news things 0.0034130
news reply 0.0064516
news publicity 0.2500000
news some 0.0007241
news news 0.8627451
news story 0.0078740
hotels hotels 0.6666667
OURSELVES OURSELVES 0.5000000
motives motives 1.0000000
realy actually 0.0084034
realy real 0.0263158
realy really 0.0510783
Seo Seo 1.0000000
negatively negatively 0.5000000
comunicate tell 0.0020367
comunicate communicate 0.2500000
Whilst Whilst 1.0000000
Helene Helene 1.0000000
strongly strongly 1.0000000
stationeries stationery 1.0000000
owners owners 0.8000000
owners retailers 0.2500000
ming . 0.0000416
ming mind 0.0125000
shot shot 0.5000000
centers centers 1.0000000
centers centres 0.3125000
centers gyms 0.6666667
Auxiliary Auxiliary 1.0000000
french French 0.1333333
SENT SENT 0.3333333
Shopping shopping 0.0019361
Shopping Shopping 1.0000000
helmets helmets 1.0000000
ABOUT REGARDING 0.5000000
ABOUT ABOUT 0.8000000
ABOUT THIS 0.0263158
ABOUT OF 0.0181818
hairdresser hairdresser 1.0000000
waking alarm 0.0526316
waking walking 0.0185185
waking waking 1.0000000
5.000 5,000 1.0000000
unspected unexpected 0.1666667
groseries groceries 0.5000000
relationships relationships 0.7777778
In At 0.5000000
In in 0.0014407
In In 0.6666667
In As 0.2500000
furthermore furthermore 0.8415842
furthermore however 0.0027322
furthermore NULL 0.0003478
DISAPPOINTMENT DISAPPOINTMENT 1.0000000
teenagers teenager 0.0909091
teenagers teenagers 0.8461538
teenagers teenage 0.4000000
teenagers those 0.0066667
teenagers a 0.0001301
reguest question 0.0109890
covering covering 1.0000000
Phowrung Phowrung 1.0000000
Ecuador Ecuador 1.0000000
unavailable unavailable 0.3333333
unavailable available 0.0033223
ADVANTAGES ADVANTAGES 1.0000000
without no 0.0025126
without exhibition 0.0370370
without without 0.9500000
without with 0.0009120
without doing 0.0050000
without for 0.0004536
disavantages disadvantages 0.0217391
outer outer 1.0000000
outer in 0.0001441
Best Best 0.7142857
Best best 0.0040984
Michael Michael 1.0000000
marlin marlin 1.0000000
cafe cafe 0.5000000
laufing laughing 0.0714286
floors floors 1.0000000
Ocean Ocean 1.0000000
Fashion Fashion 0.9552239
Fashion Show 0.0151515
house house 0.9707602
house door 0.0212766
house the 0.0000559
house housework 0.0800000
house etc 0.0117647
house home 0.0026596
house greenhouse 0.3333333
house NULL 0.0001739
house houses 0.1250000
house household 0.5000000
house housing 1.0000000
cables cables 1.0000000
robotes robots 0.1111111
sharp sharp 1.0000000
sharp between 0.0095238
dedicated dedicated 0.6666667
finish finishing 0.1111111
finish finishes 0.0909091
finish finish 0.8490566
finish finished 0.0676692
employes employees 0.1250000
sunday Sunday 0.1200000
giant giant 1.0000000
Doctor Doctor 1.0000000
DURING DURING 0.8333333
DURING FOR 0.0156250
suffering from 0.0006485
suffering suffering 1.0000000
arrives get 0.0018657
arrives arrived 0.0088496
Lorca Lorca 1.0000000
excited excited 0.7326733
excited exciting 0.0240000
civilisations civilisations 1.0000000
scary scary 0.4000000
buisness business 0.0454545
ZALAI ZALAI 1.0000000
Heart sweetheart 0.3333333
supose supposed 0.0136986
supose is 0.0002274
cool cooler 1.0000000
cool cool 0.9473684
woud would 0.0006741
excuse apologized 0.2000000
excuse apology 0.2857143
excuse forgive 0.1666667
excuse explanation 0.0454545
excuse apologise 0.0909091
excuse excuse 1.0000000
caming : 0.0010020
knowing knew 0.0048544
knowing knowing 0.8500000
knowing know 0.0020020
knowing acquiring 0.2500000
knowing about 0.0004593
inform give 0.0067265
inform inform 0.9275362
inform provide 0.0196078
inform informed 0.0263158
inform informing 0.0833333
inform information 0.0024390
inform gave 0.0113636
inform tell 0.0040733
inform informs 0.5000000
MathClass class 0.0034602
MathClass maths 0.0400000
MathClass . 0.0000416
MathClass the 0.0000559
PERHAPS PERHAPS 1.0000000
bout with 0.0004560
bout about 0.0041341
unneccessary unnecessary 0.2500000
PROMISED PROMISED 0.5000000
confronted confronted 1.0000000
re advice 0.0232558
re reorganise 0.1666667
re re 0.9351852
re opinion 0.0042553
re NULL 0.0006957
re redecoration 0.1666667
re were 0.0006978
re plan 0.0196078
re are 0.0009025
re referring 0.1428571
cosmetic cosmetics 1.0000000
any either 0.0147059
any is 0.0002274
any seaside 0.0555556
any reasons 0.0158730
any anymore 0.0416667
any every 0.0029674
any some 0.0007241
any another 0.0024213
any an 0.0050633
any no 0.0226131
any anything 0.0050000
any a 0.0013007
any many 0.0022075
any NULL 0.0008696
any any 0.8071834
any anyway 0.0458716
any my 0.0002373
any anywhere 0.0454545
any all 0.0030785
any none 0.0454545
apprenticeship apprenticeship 1.0000000
HUNDREDS HUNDREDS 1.0000000
conditioning conditioning 0.2857143
nationarities nationalities 0.0714286
Thomas Thomas 1.0000000
outrageous outrageous 1.0000000
kiss kiss 1.0000000
Sweating Sweating 1.0000000
european European 0.3333333
HORRIBLY HORRIBLY 1.0000000
hunk hunk 1.0000000
identity identity 0.6666667
identity my 0.0002373
absuletely absolutely 0.0256410
stable stable 1.0000000
Fortunatelly fortunately 0.0909091
Hellow Hello 0.0384615
deepest deepest 1.0000000
flee flee 1.0000000
PHAT PHAT 1.0000000
series series 1.0000000
adjusted adjusted 1.0000000
intrusion an 0.0012658
intrusion intrusion 0.5000000
monument monuments 0.5000000
torne torn 0.3333333
torne have 0.0002494
8.00P.M. 8.00P.M. 1.0000000
laughed laughed 0.6666667
smoking smoking 1.0000000
smoking - 0.0008961
smoking smoke 0.0625000
Farina Farina 1.0000000
forth forth 1.0000000
purchasing purchasing 1.0000000
purchasing when 0.0006826
panfulet pamphlet 1.0000000
Exciting Exciting 1.0000000
Sintawichai Sintawichai 1.0000000
sequences sequences 1.0000000
sequences featuring 0.5000000
Luis Luis 1.0000000
innovation innovation 1.0000000
us invite 0.0285714
us other 0.0014225
us ourselves 0.0625000
us our 0.0031771
us each 0.0077519
us this 0.0004645
us promise 0.0555556
us us 0.9312500
us ours 0.4285714
us up 0.0019011
us wrong 0.0123457
us we 0.0022929
us use 0.0043668
us family 0.0052083
us as 0.0009648
us went 0.0017921
us test 0.0555556
us NULL 0.0012174
enogh enough 0.0062112
Katie Katie 1.0000000
nearest close 0.0156250
nearest nearest 1.0000000
nearest next 0.0027027
nearest near 0.0121951
puzzled puzzled 0.5000000
supporting supporting 1.0000000
restitution refund 0.0108696
Village Village 1.0000000
avarage average 0.1428571
posibilities possibilities 0.1428571
S. S. 1.0000000
Pericos Pericos 1.0000000
pain paint 0.0357143
pain painful 0.1666667
pain pain 1.0000000
pain trouble 0.0357143
phrasal phrase 0.5000000
INGO INGO 1.0000000
prior prior 1.0000000
roommate roommate 1.0000000
I.S.O I.S.O 1.0000000
o NULL 0.0005217
o eight 0.0250000
o I 0.0000509
o h 0.3333333
o 00 0.0140845
o o 0.9767442
unsatisfaction dissatisfaction 0.1538462
souvenirs souvenirs 0.6250000
government purposes 0.5000000
government the 0.0000559
government will 0.0004883
government is 0.0002274
government government 0.6250000
apreicate appreciate 0.0126582
banner banner 1.0000000
nomally normally 0.0500000
breeze breeze 1.0000000
sencerely sincerely 0.0037106
2.30 2.30 0.5000000
sitting sitting 0.9393939
sitting babysitting 0.3333333
sitting sat 0.0555556
bride bride 1.0000000
electrician electrician 0.5000000
electrician &apos; 0.0002838
electrician s 0.0007716
Bernard Bernard 1.0000000
runn run 0.0333333
freezing freezing 1.0000000
freezing a 0.0001301
motorbike motorbike 0.6000000
GONE GONE 0.5000000
daungerous dangerous 0.0123457
offen person 0.0076336
offen often 0.0101010
UNIVERSE UNIVERSE 1.0000000
faults faults 1.0000000
faults problems 0.0046729
PREFER PREFER 0.8333333
curing cure 0.1428571
curing thing 0.0022272
minority minors 1.0000000
arrangement arranging 0.3333333
arrangement organisation 0.0645161
arrangement arrangement 0.8000000
arrangement visit 0.0041322
secretly secretly 0.6666667
informated informed 0.0263158
kim kim 1.0000000
troubbles trouble 0.0357143
CHANGED HAS 0.0500000
CHANGED CHANGED 1.0000000
topics topics 1.0000000
topics subjects 0.0434783
topics areas 0.0833333
topics facts 0.1000000
micros micros 1.0000000
activated activated 1.0000000
1900 1900s 0.2857143
1900 1900 1.0000000
innocent innocent 1.0000000
gratitude gratitude 1.0000000
ILLNESS ILLNESS 1.0000000
mens men 0.0238095
slipped slipped 0.6666667
tightly tightly 1.0000000
summit summit 1.0000000
yen yen 1.0000000
deviations deviations 1.0000000
well also 0.0051335
well life 0.0010718
well high 0.0125000
well will 0.0009766
well NULL 0.0015652
well simmer 0.5000000
well Cambridge 0.0909091
well well 0.9175705
well good 0.0060870
well nor 0.0833333
well much 0.0026042
well attended 0.0303030
well did 0.0014556
well healthy 0.0555556
well . 0.0000416
well either 0.0735294
hurting hurting 1.0000000
active active 1.0000000
active an 0.0012658
tic tick 1.0000000
write say 0.0054054
write am 0.0057084
write writing 0.0243902
write writes 1.0000000
write sooner 0.0909091
write written 0.0254237
write wrote 0.0410959
write m 0.0011891
write fill 0.1666667
write tell 0.0040733
write write 0.9665072
write should 0.0013021
thread thread 1.0000000
creativity creativity 0.6666667
serville servile 1.0000000
coverage coverage 1.0000000
imaginary imaginary 1.0000000
bay for 0.0002268
bay pay 0.0063694
planning planning 0.7777778
planning hours 0.0099010
wath watch 0.0253165
COMPLETELY COMPLETELY 1.0000000
Decembre December 0.1333333
Indonesia Indonesia 0.5000000
paths paths 1.0000000
machine machine 0.9090909
machine machines 0.0200000
machine typewriter 0.5000000
machine microwave 0.0400000
machine dishwasher 0.2000000
supermarket supermarket 0.9655172
Anthony Anthony 1.0000000
Garbage Garbage 1.0000000
quit abandon 0.5000000
quit quit 1.0000000
quit experiments 0.1111111
quit quite 0.0053191
asist attend 0.0238095
pile battery 1.0000000
pile a 0.0002601
pile - 0.0008961
pile pile 1.0000000
scared scare 0.5000000
scared scared 0.8000000
scared scary 0.2000000
peopl people 0.0006983
swimm swimming 0.0034965
swimm swim 0.0487805
swimm swam 0.2000000
SAFELY SAFELY 1.0000000
shows shows 0.9220779
shows musicals 0.2857143
shows has 0.0016584
shows states 0.1000000
shows showing 0.0588235
shows show 0.0028818
shows shoes 0.0156250
shows NULL 0.0001739
peaceful a 0.0001301
peaceful peaceful 0.6250000
peaceful relaxed 0.0625000
rung rang 0.1250000
tents tents 0.9573460
tents tent 0.2142857
tents rather 0.0317460
find have 0.0007481
find discovered 0.0384615
find find 0.9205882
find big 0.0047847
find realise 0.0303030
find think 0.0025105
find do 0.0004975
find see 0.0013141
find get 0.0037313
find fine 0.0175439
find found 0.0235294
find discover 0.0400000
find return 0.0222222
find come 0.0057143
find view 0.0161290
find expect 0.0172414
find finding 0.3571429
mad made 0.0041841
mad upset 0.0222222
mad mad 0.6923077
specialise specialise 0.3333333
dog dog 1.0000000
dog dogs 0.1111111
unlock unlocked 0.5000000
dislikes dislikes 1.0000000
changed made 0.0041841
changed replaced 0.0851064
changed change 0.0204082
changed changes 0.0298507
changed performed 0.0208333
changed changed 0.9163763
changed on 0.0004850
changed has 0.0232172
helps helps 0.5945946
helps help 0.0081522
pay paying 0.1111111
pay NULL 0.0003478
pay buy 0.0085960
pay meet 0.0106383
pay cover 0.1176471
pay paycheque 1.0000000
pay pay 0.9044586
pay spend 0.0041152
pay address 0.0714286
pay paid 0.0306122
pay give 0.0044843
pay return 0.0222222
pay pays 1.0000000
booming booming 1.0000000
CAME CAME 0.7500000
technogoly technology 0.0031496
frieds frieds 1.0000000
Agatha Agatha 1.0000000
effecting affecting 0.2500000
Dears Dears 1.0000000
Dears Dear 0.0008237
delivering delivering 1.0000000
YET NOTICE 0.3333333
YET YET 1.0000000
orient orient 1.0000000
sins sins 1.0000000
recived receive 0.0253165
recived received 0.0689655
princess princess 0.8750000
princess Princess 0.1111111
fixing fixing 1.0000000
fixing putting 0.0416667
fixing installing 0.5000000
reduced reduced 0.3333333
spaces spaces 1.0000000
monthly monthly 1.0000000
punish punish 0.5000000
gradually gradually 1.0000000
explicitly explicitly 1.0000000
force force 1.0000000
grow grow 0.7500000
grow growing 0.0833333
grow grew 0.0909091
grow individually 0.3333333
grow NULL 0.0001739
holy until 0.0065789
holy lasting 1.0000000
holy holiday 0.0029674
encloses encloses 1.0000000
combuter computer 0.0045872
pirates pirates 1.0000000
suprem supreme 1.0000000
OVER OVER 1.0000000
OVER Over 0.0046729
Bergut Bergut 1.0000000
murder murder 1.0000000
murder murderer 0.3333333
spends spend 0.0041152
spends spending 0.0156250
9 9 1.0000000
car parking 0.1111111
car cars 0.0500000
car car 0.9646018
everybody nobody 0.0117647
everybody every 0.0029674
everybody everybody 0.8474576
everybody none 0.0454545
everybody else 0.0303030
deserve desire 0.0909091
deserve deserve 0.9375000
deserve deserves 0.2222222
deserve deserved 0.5000000
COLUMN BACK 0.1666667
travelling travel 0.0066372
travelling dates 0.0909091
travelling travelling 0.6800000
travelling trip 0.0167364
forwold forward 0.0030166
leaded runs 0.2000000
equepument equipment 0.0344828
hich hitchhiking 0.3333333
stadge stage 0.0067568
Grease Grease 1.0000000
Donnals Donnals 1.0000000
organiced organised 0.0253165
automatically automatically 0.6000000
respons response 0.0454545
activitily exercise 0.1428571
popstars pop 0.0043860
popstars popstars 1.0000000
popstars stars 0.0057471
enumerous numerous 0.3333333
organises organises 1.0000000
grinned grinned 1.0000000
buying NULL 0.0001739
buying shopping 0.0009681
buying buying 0.8266667
buying buy 0.0143266
buying getting 0.0131579
control take 0.0015576
control care 0.0178571
control controlling 0.5000000
control check 0.0888889
control control 0.8500000
DISSAPROVE FAILED 0.5000000
automaticaly automatically 0.2000000
specially specially 0.7692308
specially particular 0.0338983
specially in 0.0002881
specially especially 0.0700935
tot to 0.0000642
Ryam Ryam 1.0000000
prayed prayed 1.0000000
embarrest embarrassed 0.0714286
irons irons 0.5000000
gaves gives 0.0400000
mabe maybe 0.0078740
At at 0.0003206
At At 0.5000000
At In 0.3333333
At . 0.0000416
best Best 0.1428571
best best 0.9467213
best most 0.0019305
best the 0.0000559
best better 0.0039841
best favourite 0.0254777
eachother each 0.0232558
eachother other 0.0042674
merchandise merchandise 1.0000000
cities centres 0.0625000
cities cities 1.0000000
die die 0.9375000
die died 0.1176471
novels novels 1.0000000
CATARINA CATARINA 1.0000000
elses else 0.0101010
elses s 0.0007716
elses &apos; 0.0002838
things lives 0.0057471
things consequences 0.1250000
things things 0.8430034
things everything 0.0127551
things these 0.0024752
things every 0.0029674
things reasons 0.0079365
things NULL 0.0003478
things thing 0.0222717
things something 0.0046729
upset an 0.0012658
upset upset 0.9111111
upset as 0.0004824
upset upsetting 0.5000000
BM BM 1.0000000
Computers computers 0.0084034
Reorganize Reorganize 1.0000000
murderer murderer 0.3333333
crucial important 0.0034014
crucial crucial 1.0000000
Governments Governments 0.5000000
concern concerned 0.0444444
concern concern 0.7272727
concern NULL 0.0001739
hous house 0.0058480
hous houses 0.0312500
therefore plastic 0.0500000
therefore therefore 0.9083969
therefore - 0.0008961
therefore NULL 0.0003478
therefore then 0.0024038
therefore as 0.0004824
therefore so 0.0016243
therefore because 0.0003724
ESTELLE ESTELLE 1.0000000
limitation limitation 1.0000000
identify identify 0.5000000
pleasent pleasant 0.2058824
rally really 0.0022701
published published 0.7272727
published publish 0.1250000
published advertised 0.0156250
tend tend 1.0000000
tend tent 0.0148810
tend tends 1.0000000
merely merely 1.0000000
Taklowa Taklowa 1.0000000
Eminem Eminem 1.0000000
demo demo 1.0000000
Ann Ann 1.0000000
Ann said 0.0025316
lasts lasts 0.5000000
lasts last 0.0017452
cops cops 0.5000000
reduction on 0.0004850
reduction discount 0.0121212
pride proud 0.1000000
pride prize 0.0034364
pride pride 1.0000000
action action 0.7692308
action actions 0.3333333
genres genres 1.0000000
university where 0.0043103
university university 0.8028169
City City 1.0000000
City city 0.0123457
instractur instructor 0.2500000
DISCOVER DISCOVER 1.0000000
managed managed 0.9500000
managed manage 0.1333333
low low 0.8000000
low as 0.0004824
customs customs 1.0000000
customs costumes 0.0909091
customs habits 0.1428571
informationes information 0.0048780
yard schoolyard 0.2500000
yard yard 1.0000000
opininion opinion 0.0042553
receive received 0.0172414
receive receiving 0.0188679
receive receive 0.6835443
receive get 0.0074627
receive back 0.0019157
position position 0.9166667
position row 0.1111111
both both 0.9545455
both either 0.0735294
both neither 0.0909091
both disappointed 0.0032154
both they 0.0006039
Prince Prince 1.0000000
missiles missiles 1.0000000
stranded stranded 1.0000000
GRATEFUL GRATEFUL 1.0000000
dramatic drama 0.1111111
mobilephone phone 0.0094340
mobilephone mobile 0.0120482
syntetical synthetic 0.2857143
CONCERNED CONCERNED 1.0000000
transformed transformed 1.0000000
persuaded persuaded 0.7500000
20 20.15 0.0128205
20 and 0.0001008
20 20 1.0000000
20 £ 0.0117647
20 20th 0.0833333
tecnologic technological 0.0222222
involves involve 0.5000000
involves involves 0.3333333
explainations giving 0.0192308
explainations explanation 0.0454545
crayz crazy 0.0384615
emsamblish emsamblish 1.0000000
Age Ages 1.0000000
Age Age 1.0000000
factorors factors 1.0000000
drift drift 1.0000000
stove stove 1.0000000
PROTECTED PROTECTED 1.0000000
requirements requirements 1.0000000
psychologically psychologically 1.0000000
goings going 0.0015432
determined decided 0.0041322
sinicrely sincerely 0.0018553
Lola Lola 1.0000000
mobiles mobiles 1.0000000
4&apos;th 4th 0.5000000
Developments Developments 1.0000000
unpredicatable unpredictable 0.3333333
Make - 0.0008961
Make make 0.0019084
USP USP 1.0000000
vital vital 1.0000000
weather Californian 0.1428571
weather whether 0.0344828
weather the 0.0000559
weather weather 0.9266667
widen we 0.0002866
widen widen 1.0000000
necessarily do 0.0004975
necessarily necessarily 0.6666667
security security 0.9500000
chicken chicken 1.0000000
fresh fresh 1.0000000
fresh new 0.0024038
signs signs 0.7500000
Chwa Chwa 1.0000000
animals population 0.1111111
animals animals 0.8666667
rubbers robbers 0.3333333
feel sense 0.0833333
feel sad 0.0250000
feel feel 0.9609756
feel have 0.0002494
feel see 0.0013141
feel felt 0.0162602
feel feels 0.1666667
feel free 0.0033445
beleave believe 0.0048309
beeng being 0.0043478
shoplifters shoplifters 1.0000000
still again 0.0156250
still even 0.0025381
still still 0.9483871
still are 0.0013538
Agripina Agripina 1.0000000
Helen Ryan 0.0128205
Helen Helen 1.0000000
signatures autographs 0.1538462
signatures signatures 1.0000000
cooked cooked 0.7500000
teachers schoolteachers 0.3333333
teachers tutors 1.0000000
teachers teachers 0.8681319
Look Look 1.0000000
honoured entitled 0.1250000
identical identical 1.0000000
LUCKY LUCKY 1.0000000
sympathize sympathize 1.0000000
supposted supposed 0.0068493
supposted was 0.0001748
seing seeing 0.0212766
briliant brilliant 0.0416667
unimportan unimportant 0.3333333
deleied delayed 0.0555556
deleied and 0.0001008
incontrolable uncontrollable 1.0000000
SOMMER SUMMER 0.5000000
resulted resulted 1.0000000
lost loss 0.4000000
lost wasted 0.0952381
lost lost 0.9428571
lost last 0.0017452
lost lose 0.0400000
lost missed 0.0476190
lost NULL 0.0001739
lost left 0.0121951
lost losing 0.2000000
mace their 0.0016447
mace make 0.0038168
mentiones mentions 0.5000000
CHOOSEN CHOSEN 0.6666667
incident incident 0.7500000
incident occurred 0.1250000
incident that 0.0001884
begrudge begrudge 1.0000000
pleasure pleasure 0.9056604
mecanics mechanics 1.0000000
mecanics . 0.0000416
alredy already 0.0218978
bounced bounce 0.5000000
DUNES DUNES 1.0000000
lair do 0.0004975
lair &apos;t 0.0003842
lair n 0.0003968
lair liar 0.5000000
lair lie 0.0476190
nead need 0.0017065
sadly sadly 1.0000000
Kimura Kimura 1.0000000
worrying worrying 0.2500000
bouth both 0.0075758
noise nose 0.2500000
noise noise 0.8500000
weekdays weekdays 0.6666667
prefects prefects 1.0000000
simple simple 0.9142857
simple simply 0.0500000
Leisure Show 0.0075758
Leisure leisure 0.0384615
Leisure Leisure 0.9705882
someones someone 0.0089286
volunteer volunteer 0.4000000
analize analyze 1.0000000
analize analyse 0.6666667
size size 0.8823529
size having 0.0058140
size terms 0.3333333
Sincerely Sincerely 0.7931034
Sincerely faithfully 0.0125000
Sincerely Faithfully 0.1111111
Sincerely sincerely 0.0204082
bottled bottled 1.0000000
bottled drunk 0.2500000
aggregative aggregative 1.0000000
latter latter 1.0000000
latter late 0.0055556
latter letter 0.0029851
latter this 0.0004645
latter NULL 0.0003478
latter later 0.0090090
happenned happened 0.0149254
seams seams 1.0000000
medecin medicine 0.1000000
Fasion Fashion 0.0074627
hospetols hospitals 0.2500000
creatures creatures 0.7500000
THESE THESE 0.3333333
ACT ACT 1.0000000
ACT BEHAVE 1.0000000
Design Design 1.0000000
12 12 1.0000000
lardge are 0.0004513
lardge large 0.0400000
repeared repair 0.2000000
repeared it 0.0001574
d to 0.0000642
d NULL 0.0012174
d ve 0.0069930
d d 0.8847584
d spent 0.0075188
d for 0.0002268
d helped 0.0162602
d had 0.0020481
tide are 0.0004513
tide tidy 0.0909091
tide tired 0.0185185
luckely luckily 0.1818182
leissure Leisure 0.0073529
surpised surprised 0.0227273
NASA NASA 1.0000000
ricently recently 0.0090090
Upper Upper 1.0000000
humid humid 1.0000000
gifted NULL 0.0001739
Europeen European 0.3333333
conventional conventional 1.0000000
ameaising amazing 0.0200000
filmed film 0.0340136
filmed filmed 0.9638554
each each 0.9224806
each individually 0.3333333
each together 0.0126582
each everyone 0.0050251
each every 0.0118694
each a 0.0001301
Mariot Mariot 1.0000000
sistem lets 0.1250000
sistem system 0.0344828
knowhow - 0.0008961
knowhow how 0.0011198
knowhow know 0.0010010
Go go 0.0008803
Go Go 1.0000000
tin tin 1.0000000
sensirly sincerely 0.0018553
attract attracts 0.5000000
attract attract 1.0000000
elements facts 0.1000000
elements elements 1.0000000
calmly calmly 0.5000000
weir weir 1.0000000
fivety fifty 0.2000000
enought enough 0.0186335
attempt up 0.0019011
attempt take 0.0015576
attempt you 0.0001503
attempt on 0.0004850
attempt invitation 0.0769231
attempt attempt 0.5000000
NEEDN NEEDN 1.0000000
unkown unknown 0.0250000
Candoso Candoso 1.0000000
kills kills 1.0000000
KILL KILL 1.0000000
jazz jazz 0.9500000
vocal vocals 1.0000000
vocal vocalist 0.5000000
versatile versatile 1.0000000
enjure injury 1.0000000
enjure injured 0.2000000
enjure enjure 1.0000000
through during 0.0025707
through involved 0.0625000
through via 0.2352941
through do 0.0004975
through on 0.0004850
through from 0.0006485
through through 0.6617647
through to 0.0001285
through down 0.0117647
through connecting 0.2000000
through over 0.0070922
through gained 0.1666667
through true 0.0086957
Landscape Landscape 1.0000000
rays rays 0.7500000
Bowie Bowie 1.0000000
inevitably inevitably 1.0000000
spring 1999 0.3333333
spring spring 0.5000000
sorry sorry 0.9518072
sorry annoyed 0.0384615
Ready Ready 1.0000000
course- course- 1.0000000
butty butty 1.0000000
Furilo Furilo 1.0000000
satisfaction satisfactory 0.2000000
satisfaction satisfaction 0.8000000
decides decided 0.0041322
greatly significantly 0.5000000
greatly greatly 0.6000000
Time Time 1.0000000
conftyble comfortable 0.0064103
independent independent 1.0000000
HAVING HAVING 1.0000000
expert expert 1.0000000
North North 1.0000000
Dehli Dehli 1.0000000
REMEMBER REMEMBER 1.0000000
Edinburgh Edinburgh 1.0000000
visited attended 0.0606061
visited visited 0.9512195
visited came 0.0056818
visited looked 0.0175439
visited saw 0.0068729
visited to 0.0001285
Conversion Conversion 1.0000000
THOUGHTS EXPECTED 1.0000000
thermodynamics thermodynamics 1.0000000
allergic allergic 0.3333333
informatic information 0.0024390
informatic technology 0.0015748
Stadium Stadium 1.0000000
COME CAME 0.2500000
COME but 0.0003685
Thank Thank 1.0000000
costium costume 0.2500000
headaches headaches 1.0000000
noice noise 0.0500000
fitted fitted 0.5000000
fitted fitting 0.1428571
forgave forgave 0.6666667
serves serves 1.0000000
faitully faithfully 0.0031250
comunication communication 0.0588235
realities realities 1.0000000
Cracow Cracow 1.0000000
Polan Poland 0.1428571
Music Music 1.0000000
madesons medicines 0.1428571
selfish selfish 1.0000000
business business 0.9090909
business there 0.0005757
latin Latin 0.3333333
rush rush 0.8000000
conducted conducted 0.2500000
studie study 0.0277778
trains train 0.0250000
trains trains 0.9000000
tops tops 1.0000000
cried cried 0.9166667
CITIES CITIES 1.0000000
seeking searching 0.1111111
seeking sightseeing 0.0322581
seeking seeking 1.0000000
celebrated celebrated 1.0000000
celebrated celebrate 0.2500000
celebrated it 0.0001574
CONCLUSION CONCLUSION 1.0000000
GREENWICH GREENWICH 1.0000000
ashamed ashamed 0.6000000
copied copied 0.6666667
JOBS JOBS 0.5000000
CONDITIONS CONDITIONS 1.0000000
CONDITIONS THE 0.0028329
CONDITIONS ABILITY 0.5000000
faightfully faithfully 0.0062500
CHANCE CHANCE 0.7500000
illigal illegal 1.0000000
embarrassed embarrassing 0.3333333
embarrassed embarrassed 0.2857143
coudn n 0.0007937
coudn could 0.0014848
vanish vanish 1.0000000
smely smelly 1.0000000
HAND NULL 0.0001739
HAND HAND 1.0000000
accomodations accommodation 0.0084388
morality morality 1.0000000
morality moral 0.3333333
19th 19th 1.0000000
PROBLEM PROBLEM 1.0000000
bowls grounds 1.0000000
bowls bowls 1.0000000
Matt Matt 1.0000000
IMPOSSIBLE IMPOSSIBLE 1.0000000
Cd CDs 0.1428571
Cd - 0.0008961
Cd CD 0.0769231
clearly clearly 0.8666667
clearly clear 0.0500000
technical good 0.0008696
technical tangible 0.5000000
technical technical 0.6428571
stupid stupid 0.9444444
Space Space 1.0000000
atrractive attractive 0.0434783
technically technical 0.0714286
adverstise advertise 0.2500000
dansers dancers 0.1666667
name name 1.0000000
name kids 0.0909091
name called 0.0098039
name behalf 0.3200000
name names 0.1818182
tiny tiny 1.0000000
celebrity celebrity 1.0000000
celebrity celebrities 0.0833333
lime like 0.0003931
a.m a.m 1.0000000
a.m am 0.0005189
mor more 0.0018501
unpolited impolite 0.1666667
friendship friendships 1.0000000
friendship friendship 0.8947368
friendship friendly 0.0344828
haircut haircuts 1.0000000
Earnshaw Earnshaw 0.6666667
joined attend 0.0238095
joined attended 0.0606061
joined attending 0.0526316
joined enclosed 0.1250000
joined joined 0.5625000
avaible available 0.0166113
avaible such 0.0032787
96.7 96.7 1.0000000
absence absence 0.4000000
becomming becoming 0.0322581
WRITE WRITE 1.0000000
base reference 0.0370370
base based 0.1176471
base basis 0.3333333
freezers freezers 1.0000000
racism racism 1.0000000
construction construction 1.0000000
Lee Lee 1.0000000
check find 0.0029412
check NULL 0.0001739
check checkout 0.3333333
check checking 0.0909091
check out 0.0018975
check tickets 0.0038168
check see 0.0026281
check cheque 0.1111111
check check 0.6444444
judgement judgement 1.0000000
approxiametely approximately 0.1250000
dependent dependent 0.3750000
Both both 0.0075758
people stars 0.0172414
people staff 0.0135135
people people 0.9636872
people person 0.0229008
people NULL 0.0001739
people everybody 0.0056497
people everyone 0.0251256
people the 0.0000559
people nationalities 0.0714286
people audience 0.0303030
people public 0.0227273
people us 0.0015625
people figures 0.3333333
p.c p.c 1.0000000
recognized recognise 0.2500000
recognized recognized 1.0000000
Heathcliff Heathcliff 1.0000000
unwillingly unwillingly 1.0000000
returned returned 0.8666667
Rilke Rilke 1.0000000
seperate separate 0.2000000
Life Life 1.0000000
Life Private 0.5000000
communities communities 1.0000000
Second Second 0.6666667
confirm confirm 0.7500000
Edith Edith 1.0000000
questionnair questionnaire 0.5000000
Svetlana Svetlana 1.0000000
unwilling unwilling 1.0000000
24 24 1.0000000
regrets regrets 0.5000000
dwarves dwarves 1.0000000
Gladiators Gladiators 1.0000000
disturbe disturb 0.2000000
MET MET 1.0000000
sibling sibling 1.0000000
NEWS NEWS 0.5000000
15th 15th 0.9565217
destructed destroyed 0.1428571
Westlife Westlife 0.7500000
desingers designers 0.0666667
warmly warmly 1.0000000
warmly warm 0.0476190
unconvenience inconvenience 0.1000000
era era 0.6666667
SMS SMS 1.0000000
sik sick 0.0769231
Market Market 0.5000000
bruses bruises 1.0000000
translation translation 1.0000000
Dr Dr 1.0000000
everyday an 0.0012658
everyday every 0.1038576
everyday day 0.0634058
everyday our 0.0007943
everyday everyday 0.5625000
NEXT NEXT 1.0000000
showers showers 1.0000000
Prepearing preparing 0.0384615
TECHNOLOGY TECHNOLOGY 1.0000000
sart start 0.0035211
nigh night 0.0054945
12.12.2000 12.12.2000 1.0000000
Kwa Kwa 1.0000000
helpers helpers 1.0000000
catchs catches 0.5000000
snap snap 1.0000000
stupied stupid 0.0555556
targelting aiming 1.0000000
sociaty has 0.0016584
sociaty society 0.0526316
icetime ice 0.1000000
icetime age 0.0285714
unthinkable unthinkable 1.0000000
fokes folks 1.0000000
Chef Chef 1.0000000
MODERNIZES ADVANCES 1.0000000
everythings everything 0.0076531
Vance Vance 1.0000000
loudspeaker loudspeaker 1.0000000
.... .... 1.0000000
DAYS DAYS 1.0000000
monery money 0.0008905
indicate you 0.0001503
indicate tell 0.0020367
indicate state 0.0769231
indicate indicate 1.0000000
spectaculars spectaculars 1.0000000
15.00 15.00 1.0000000
Business Business 1.0000000
avalaible available 0.0033223
schocked shocked 0.0416667
tables tables 1.0000000
advertize advertised 0.0156250
impresed impressed 0.0833333
shame shame 1.0000000
shame disgrace 1.0000000
shame embarrassed 0.0714286
