stable stable 1.0000000
salary any 0.0019084
salary salary 0.8888889
extremities extremes 0.5000000
detergent detergents 1.0000000
leve staying 0.0117647
THIRDLY THIRDLY 1.0000000
vegetables vegetables 1.0000000
operation operations 0.3333333
operation operation 0.6666667
sneakers sneakers 1.0000000
Fire Fire 1.0000000
feelings feelings 0.7600000
feelings monitored 1.0000000
finally Finally 0.0071429
finally last 0.0021645
finally obtain 0.1666667
finally end 0.0097561
finally eventually 0.0714286
finally minute 0.0434783
finally finally 0.8888889
followwing following 0.0136986
employes employees 0.1250000
foot own 0.0101010
foot foot 0.8333333
cosmetic cosmetics 1.0000000
Hide Hide 1.0000000
handde handle 0.1666667
LESSONS LESSONS 1.0000000
WRITIN WRITING 0.0769231
interviews interviews 0.6000000
mysteriest most 0.0021834
mysteriest mysterious 0.2000000
Having Playing 0.3333333
Having Having 0.9333333
takes lasts 0.1250000
takes up 0.0019194
takes takes 0.8412698
takes is 0.0002314
rope rope 1.0000000
25-years 25-year 1.0000000
25-years a 0.0001326
SURE SURE 1.0000000
FAME FAME 1.0000000
does did 0.0073421
does makes 0.0106383
does has 0.0016694
does NULL 0.0005421
does monster 0.1666667
does perform 0.0384615
does wo 0.0178571
does taste 0.1111111
does is 0.0013882
does does 0.7518797
does do 0.0042599
House House 1.0000000
yourselfh yourself 0.0208333
VISIT VISIT 1.0000000
VISIT VISITING 0.5000000
weapons weapon 1.0000000
weapons Weapons 0.3333333
weapons weapons 0.8000000
McPartney McPartney 1.0000000
objects objects 0.9000000
objects out 0.0019011
objects become 0.0097087
screens screens 1.0000000
enjouable enjoyable 0.0031348
Freddie Freddie 1.0000000
exclusive exclusively 0.5000000
Bad Bad 1.0000000
Bad he 0.0015291
cried cried 0.9166667
predictable possible 0.0033003
sorted sorted 1.0000000
including enclosing 1.0000000
including including 0.7500000
including include 0.0303030
including included 0.0833333
including includes 0.0666667
SERIOUS PROFESSIONAL 1.0000000
BE BEING 0.3333333
BE BE 0.9444444
PoP pop 0.0044444
envelope envelope 1.0000000
Moreover NULL 0.0001807
Moreover Moreover 0.9508197
Moreover Especially 0.0454545
Moreover Also 0.0043860
heroes heroes 0.5000000
sailor sailor 1.0000000
Brigitte Brigitte 1.0000000
dressed formal 0.1000000
dressed dressed 0.8000000
dressed dress 0.0571429
Mediterennean Mediterennean 1.0000000
photograthy photography 0.0076923
familia familiar 0.1666667
familia with 0.0004748
CAMIREZ CAMIREZ 1.0000000
sciencetist scientists 0.0769231
OCCURRED OCCURRED 1.0000000
stranger stranger 0.6666667
stranger unknown 0.0250000
'll would 0.0003408
'll will 0.0014881
'll 'm 0.0035757
'll more 0.0009355
'll NULL 0.0014456
'll sees 0.5000000
'll should 0.0013245
'll 'll 0.9739130
'll 'd 0.0561798
complaining complaining 0.8333333
complaining complain 0.0280899
complaining complaint 0.0454545
restaurants restaurant 0.0041068
restaurants restaurants 0.7272727
restaurants and 0.0001067
intentions intentions 1.0000000
November November 1.0000000
falling falling 0.7500000
belonging belonged 0.1666667
belonging belong 0.1250000
lists lists 1.0000000
lists list 0.0163934
parked parked 1.0000000
neve never 0.0024390
dicided decided 0.0082645
painter painter 1.0000000
tv TV 0.0315789
tv tv 1.0000000
Private private 0.0181818
Private A 0.0127660
Private Private 0.5000000
10th 10th 1.0000000
Seua Seua 1.0000000
promontion sell 0.0312500
MS MS 1.0000000
recycled recycled 0.5000000
foreign foreign 0.8636364
kidneys kidneys 1.0000000
cottage cottage 1.0000000
convicted got 0.0030675
PROMISED PROMISED 0.5000000
Those Those 0.6111111
CHANGE TIME 0.0555556
CHANGE WILL 0.0476190
CHANGE CHANGE 1.0000000
championships championships 1.0000000
NEED NEED 1.0000000
permition permission 0.1333333
comprehensible understanding 0.0555556
develops develops 0.5000000
debate debate 1.0000000
petroleum petroleum 1.0000000
developped developed 0.1363636
tremendous a 0.0001326
tremendous tremendous 1.0000000
rebuilding refurbishment 0.2000000
rebuilding or 0.0008584
rebuilding rebuilding 1.0000000
therefor because 0.0003973
therefor therefore 0.0476190
therefor explanation 0.0454545
opportunities opportunity 0.0075472
opportunities opportunities 0.4444444
organizer organizer 1.0000000
priciples principles 1.0000000
JUST JUST 1.0000000
frozen frozen 1.0000000
boasting boasting 1.0000000
Gorham Gorham 1.0000000
kubulska kubulska 1.0000000
followings:- following:- 1.0000000
closest close 0.0161290
closest closest 1.0000000
Reorganize Reorganize 1.0000000
Dad Dad 1.0000000
Four For 0.0035587
Four four 0.0270270
carreer career 0.0833333
carreer degree 0.2000000
jokes jokes 1.0000000
O.K OK 0.0370370
O.K O.K 0.3333333
DE DE 1.0000000
ozon ozone 0.2000000
Must Must 1.0000000
Must must 0.0035587
Mr./Mrs Mr./Mrs 1.0000000
Victoria Victoria 1.0000000
lost left 0.0121951
lost wasted 0.0952381
lost lost 0.9428571
lost loss 0.4000000
lost losing 0.2000000
lost missed 0.0476190
lost last 0.0021645
lost lose 0.0400000
lost NULL 0.0001807
thurday Thursday 0.1666667
friday Friday 0.2352941
Have Do 0.0081301
Have Have 1.0000000
Have Feel 0.3333333
mater matter 0.0363636
mater mater 1.0000000
monery money 0.0008929
mees miss 0.0243902
GASKELL GASKELL 1.0000000
Results Results 1.0000000
installation installation 1.0000000
Unfortunatelly Unfortunately 0.0082305
destination destination 1.0000000
containing containing 1.0000000
growth growth 1.0000000
cutting cutting 1.0000000
cutting your 0.0004318
violently violently 1.0000000
secrect secret 0.0196078
advance advance 0.7777778
advance invention 0.0714286
SCREAM SCREAM 1.0000000
Sam Sam 1.0000000
Landscape Landscape 1.0000000
sincerely faithfully 0.0681818
sincerely sincerely 0.7680312
sincerely Yours 0.0011534
log than 0.0048780
log log 0.9480519
forword forward 0.0060332
stupid stupid 0.9411765
annoyed annoyed 0.8461538
annoyed annoyance 0.5000000
annoyed annoying 0.0588235
else but 0.0004766
else else 0.8686869
else things 0.0017153
realities realities 1.0000000
NULL artists 0.0083333
NULL year 0.0084507
NULL A 0.0085106
NULL promotes 1.0000000
NULL rather 0.0156250
NULL called 0.0100000
NULL order 0.0067114
NULL by 0.0138037
NULL clothes 0.0049505
NULL leaving 0.0400000
NULL connection 0.0833333
NULL show 0.0011527
NULL coming 0.0200000
NULL since 0.0057471
NULL as 0.0228916
NULL you 0.0143757
NULL my 0.0092142
NULL tent 0.0089286
NULL her 0.0100719
NULL far 0.0117647
NULL meant 0.0250000
NULL 're 0.0103093
NULL time 0.0034388
NULL bulb 0.5000000
NULL DOING 0.2500000
NULL found 0.0117647
NULL more 0.0037418
NULL travel 0.0066519
NULL let 0.0118343
NULL though 0.0102041
NULL came 0.0057471
NULL there 0.0378267
NULL great 0.0020619
NULL how 0.0074516
NULL where 0.0089286
NULL piece 0.0454545
NULL make 0.0038610
NULL types 0.2000000
NULL mentioned 0.0111111
NULL basketball 0.0054645
NULL seeing 0.0202020
NULL happen 0.0408163
NULL they 0.0163812
NULL WHICH 0.0555556
NULL one 0.0219780
NULL CAN 0.0370370
NULL even 0.0057637
NULL have 0.0562673
NULL look 0.0048193
NULL true 0.0086957
NULL being 0.0456621
NULL feel 0.0049261
NULL would 0.0238582
NULL might 0.0077519
NULL starred 0.0666667
NULL but 0.0042898
NULL chose 0.0243902
NULL letter 0.0014925
NULL answers 0.0689655
NULL reasons 0.0079365
NULL maintain 0.2000000
NULL from 0.0191650
NULL for 0.0417273
NULL little 0.0070922
NULL item 0.0500000
NULL supposed 0.0068493
NULL having 0.0253165
NULL like 0.0170095
NULL tech 0.5000000
NULL study 0.0142857
NULL house 0.0058824
NULL say 0.0054348
NULL playing 0.0126582
NULL n't 0.0039809
NULL come 0.0057143
NULL soon 0.0027174
NULL their 0.0118443
NULL learn 0.0148148
NULL kind 0.0028490
NULL has 0.0233723
NULL seem 0.0303030
NULL trust 0.0294118
NULL the 0.0717353
NULL thought 0.0050251
NULL . 0.0105725
NULL it 0.0720391
NULL offer 0.0416667
NULL trip 0.0251046
NULL When 0.0027701
NULL should 0.0052980
NULL go 0.0061892
NULL latest 0.0091743
NULL friend 0.0033898
NULL ever 0.0092593
NULL approximately 0.1250000
NULL happened 0.0223881
NULL attention 0.0294118
NULL of 0.0446530
NULL behalf 0.0400000
NULL giving 0.0392157
NULL made 0.0042017
NULL been 0.0377907
NULL which 0.0204429
NULL available 0.0033223
NULL them 0.0191159
NULL see 0.0053908
NULL created 0.0500000
NULL The 0.0007123
NULL ourselves 0.0625000
NULL all 0.0022075
NULL with 0.0185185
NULL door 0.0212766
NULL below 0.1000000
NULL an 0.0207254
NULL job 0.0047847
NULL tickets 0.0038314
NULL everyone 0.0062893
NULL staying 0.0470588
NULL important 0.0034483
NULL TV 0.0105263
NULL long 0.0079681
NULL who 0.0263158
NULL many 0.0047619
NULL part 0.0292887
NULL perform 0.0384615
NULL heavy 0.0370370
NULL good 0.0026270
NULL appearing 1.0000000
NULL take 0.0047923
NULL he 0.0198777
NULL join 0.0256410
NULL different 0.0021505
NULL regard 0.0666667
NULL especially 0.0052083
NULL performance 0.0111111
NULL and 0.0130189
NULL activities 0.0038986
NULL Over 0.0047847
NULL issue 0.1666667
NULL did 0.0146843
NULL people 0.0029326
NULL ones 0.0875000
NULL telling 0.0222222
NULL robbed 0.2000000
NULL finds 1.0000000
NULL such 0.0100671
NULL wear 0.0038911
NULL most 0.0021834
NULL doing 0.0100503
NULL person 0.0076923
NULL must 0.0071174
NULL students 0.0024938
NULL member 0.0294118
NULL away 0.0266667
NULL building 0.0303030
NULL charged 0.2000000
NULL help 0.0027473
NULL too 0.0023148
NULL provides 0.1111111
NULL on 0.0430226
NULL provide 0.0196078
NULL a 0.1097998
NULL things 0.0102916
NULL lives 0.0057471
NULL - 0.0708447
NULL performing 0.0400000
NULL number 0.0175439
NULL saying 0.0227273
NULL some 0.0076864
NULL to 0.0486511
NULL through 0.0153846
NULL I 0.0042932
NULL Rainbow 0.0068966
NULL interested 0.0130719
NULL into 0.0116279
NULL comes 0.0714286
NULL decide 0.0243902
NULL about 0.0539122
NULL kinds 0.0125000
NULL visit 0.0041494
NULL increasingly 0.3333333
NULL will 0.0252976
NULL whether 0.0877193
NULL month 0.0033003
NULL fame 0.1000000
NULL England 0.0333333
NULL role 0.0500000
NULL spent 0.0227273
NULL this 0.0088643
NULL suffer 0.0714286
NULL felt 0.0081301
NULL fact 0.0304569
NULL lot 0.0016077
NULL statement 0.0500000
NULL entering 0.1666667
NULL light 0.0256410
NULL chance 0.0060606
NULL car 0.0088496
NULL promised 0.0112360
NULL if 0.0142222
NULL was 0.0130581
NULL stage 0.0135135
NULL Brook 0.0025126
NULL bit 0.0107527
NULL before 0.0118694
NULL boy 0.0232558
NULL 've 0.0069930
NULL our 0.0075503
NULL anything 0.0150754
NULL theatre 0.0031250
NULL equipment 0.0175439
NULL am 0.0275754
NULL courses 0.0909091
NULL log 0.0032468
NULL shown 0.0312500
NULL want 0.0040872
NULL size 0.0294118
NULL advance 0.0555556
NULL together 0.0126582
NULL technology 0.0017123
NULL type 0.0192308
NULL , 0.0912588
NULL so 0.0049123
NULL can 0.0102657
NULL in 0.0279595
NULL each 0.0083333
NULL put 0.0272109
NULL age 0.0294118
NULL down 0.0116279
NULL enough 0.0125000
NULL well 0.0028169
NULL IS 0.0204082
NULL then 0.0617284
NULL ? 0.0072173
NULL going 0.0140625
NULL hall 0.0188679
NULL else 0.0303030
NULL not 0.0047826
NULL other 0.0057471
NULL when 0.0110396
NULL reason 0.0055249
NULL mention 0.0312500
NULL could 0.0062500
NULL work 0.0051680
NULL THE 0.0027778
NULL be 0.0461751
NULL 's 0.0346955
NULL get 0.0244361
NULL over 0.0419580
NULL means 0.0468750
NULL those 0.0076336
NULL finished 0.0075758
NULL contrary 0.0833333
NULL me 0.0219092
NULL advertised 0.0937500
NULL stated 0.0384615
NULL only 0.0070175
NULL his 0.0052632
NULL starting 0.0243902
NULL learned 0.0400000
NULL your 0.0043178
NULL " 0.0117429
NULL are 0.0348624
NULL offered 0.0270270
NULL may 0.0091743
NULL formed 0.2500000
NULL at 0.0267673
NULL WAS 0.0087719
NULL swimming 0.0036101
NULL TO 0.0042918
NULL were 0.0182584
NULL back 0.0038462
NULL high 0.0125000
NULL chatting 0.0714286
NULL possible 0.0033003
NULL performances 0.1666667
NULL It 0.0021142
NULL able 0.0163934
NULL practice 0.0666667
NULL appeared 0.0416667
NULL past 0.0120482
NULL thing 0.0357942
NULL late 0.0055866
NULL OF 0.0186916
NULL out 0.0437262
NULL had 0.0308325
NULL him 0.0093897
NULL ' 0.0106610
NULL hear 0.0056818
NULL restaurant 0.0020534
NULL given 0.0340909
NULL these 0.0059347
NULL encourage 0.2000000
NULL regarding 0.0200000
NULL because 0.0039730
NULL move 0.0263158
NULL Danny 0.0024213
NULL centre 0.0370370
NULL liked 0.0086207
NULL us 0.0328638
NULL advert 0.0500000
NULL : 0.0101180
NULL already 0.0073529
NULL allows 0.0454545
NULL that 0.0225549
NULL gaining 0.5000000
NULL what 0.0145530
NULL took 0.0065359
NULL again 0.0159574
NULL during 0.0031546
NULL Centre 0.2000000
NULL does 0.0451128
NULL regards 0.0212766
NULL think 0.0016878
NULL getting 0.0394737
NULL decided 0.0041322
NULL somewhere 0.0625000
NULL understand 0.0071429
NULL another 0.0038760
NULL school 0.0013966
NULL she 0.0079872
NULL off 0.0259740
NULL still 0.0064935
NULL shops 0.0194175
NULL way 0.0060790
NULL is 0.0236002
NULL activity 0.0080000
NULL or 0.0017167
NULL why 0.0065147
NULL cabin 0.0052910
NULL WE 0.0204082
NULL open 0.0123457
NULL interesting 0.0035211
NULL try 0.0056818
NULL any 0.0667939
NULL something 0.0047059
NULL situation 0.0158730
NULL do 0.0388711
NULL much 0.0039318
NULL we 0.0087753
NULL two 0.0036430
NULL life 0.0010858
NULL up 0.0249520
NULL ; 0.0139535
NULL concerns 0.1428571
reastaure restaurant 0.0020534
builders sites 0.5000000
builders on 0.0005516
foods food 0.0413223
foods foods 1.0000000
latin Latin 0.3333333
STAND STAND 1.0000000
EXAMS EXAMS 1.0000000
going would 0.0003408
going been 0.0043605
going leave 0.0151515
going gone 0.0263158
going done 0.0082645
going leaving 0.1200000
going making 0.0142857
going alright 0.1666667
going walking 0.0200000
going spending 0.0163934
going go 0.0221043
going doing 0.0050251
going going 0.8593750
going fine 0.0175439
going decision 0.0312500
going supposed 0.0068493
going meant 0.0500000
going taking 0.0129870
going may 0.0091743
going NULL 0.0012649
going getting 0.0263158
going riding 0.2500000
going paying 0.0555556
photographs taken 0.0232558
photographs photographs 0.4705882
photographs photographers 0.2222222
Luc Luc 1.0000000
4'th 4th 0.5000000
HEAR HEARING 0.3333333
HEAR HEAR 0.6666667
1980 1980 1.0000000
scientic scientic 1.0000000
Donnals Donnals 1.0000000
SELLING SELLING 1.0000000
SELLING TICKETS 0.1666667
SELLING CDS 0.3333333
SELLING THEM 0.0909091
upper 's 0.0007710
upper upper 1.0000000
Reeves Reeves 1.0000000
succeeded successful 0.0454545
succeeded succeeded 0.7500000
orders orders 0.4000000
MIDORI MIDORI 1.0000000
aircondition air 0.0243902
aircondition conditioning 0.1428571
Donald Donald 1.0000000
NAME NAME 1.0000000
changes changing 0.0175439
changes changes 0.7878788
changes change 0.0081967
changes affects 0.0400000
decrease decreases 1.0000000
decrease decrease 1.0000000
decrease amount 0.0263158
decrease to 0.0000655
decrease deteriorated 0.5000000
boredom boredom 0.5000000
crossing crossing 1.0000000
Sinceraly sincerely 0.0019493
jumper jumper 1.0000000
jumper jumpers 0.5000000
durind exams 0.0138889
salvation solution 0.0526316
prefects prefects 1.0000000
commuters computers 0.0091743
big wide 0.0588235
big very 0.0004195
big great 0.0185567
big much 0.0026212
big large 0.1666667
big a 0.0002652
big fuss 0.3333333
big big 0.9757282
big tree 0.1000000
big team 0.0108696
big bigger 0.0344828
big dependent 0.1250000
big lived 0.0322581
big broad 0.3333333
big bit 0.0107527
big long 0.0039841
big lot 0.0016077
cooking cook 0.0303030
cooking cooking 0.8571429
Lastly Lastly 0.8113208
authorizes allows 0.0454545
will NULL 0.0030719
will with 0.0004748
will arrive 0.0526316
will Will 0.1333333
will am 0.0020812
will to 0.0000655
will are 0.0013761
will intend 0.1000000
will like 0.0003956
will sings 0.5000000
will well 0.0056338
will should 0.0052980
will meant 0.0250000
will willpower 1.0000000
will wo 0.0089286
will prefers 0.1666667
will month 0.0033003
will begins 0.0588235
will will 0.9002976
will leave 0.0151515
will get 0.0018797
will is 0.0018510
will was 0.0003529
will would 0.0351057
will want 0.0054496
will compensated 0.3333333
rebuilit rebuild 1.0000000
tempt tempted 1.0000000
search searching 0.2500000
search find 0.0088757
search plan 0.0200000
search are 0.0004587
search search 1.0000000
TENT TENT 0.6666667
Three Three 1.0000000
taxi taxi 1.0000000
Electronic Electronic 1.0000000
sincerily sincerely 0.0097466
astronomy astronomy 1.0000000
normal normal 0.8205128
normal common 0.0416667
normal normally 0.0714286
tumple tumble 1.0000000
UNREGULAR IRREGULAR 1.0000000
castles castles 1.0000000
Bon Bon 1.0000000
14 14 1.0000000
14 14th 0.0266667
thieves thieves 0.5000000
expirienced fairly 0.2000000
spaces spaces 1.0000000
JAMES is 0.0002314
JAMES JAMES 1.0000000
depicts depicts 1.0000000
oil oil 1.0000000
Another Another 0.9183673
Another The 0.0007123
Another another 0.0077519
Another Other 0.1666667
poole pool 0.0500000
recorded recorded 1.0000000
authors authors 1.0000000
accommadated accommodated 0.3333333
SUPPOSED SUPPOSED 1.0000000
BOOK BOOK 1.0000000
turnament tournament 0.2500000
O'CLOCK O'CLOCK 1.0000000
coom come 0.0114286
enquiry enquiry 1.0000000
enquiry into 0.0058140
Farina Farina 1.0000000
adver adverts 0.5000000
adver advert 0.0500000
've 'll 0.0043478
've 're 0.0206186
've was 0.0001765
've enclosed 0.1111111
've 've 0.9615385
've found 0.0117647
've climbed 0.0625000
've gained 0.2000000
've joined 0.0625000
've wasted 0.0476190
've helped 0.0241935
've 'd 0.0561798
've met 0.0333333
've expected 0.0090090
've have 0.0010048
've attended 0.0606061
've NULL 0.0061438
unfit unfit 1.0000000
truth true 0.0173913
truth right 0.0079365
truth truth 0.7692308
THANKS THANKS 1.0000000
Ansering To 0.0040323
Ansering answer 0.0053191
speakers speakers 1.0000000
prosperity of 0.0001618
prosperity prosperity 1.0000000
BRASILIA BRASILIA 1.0000000
obn't wo 0.0089286
obn't n't 0.0003981
somethings something 0.0047059
somethings anything 0.0050251
somethings things 0.0068611
somethings some 0.0030746
RECOMMONDATIONS RECOMMENDATIONS 1.0000000
drink allowed 0.0085470
drink have 0.0012560
drink drink 0.8727273
drink drinks 0.0384615
drink an 0.0012953
drink alcoholic 0.5000000
bargain bargain 1.0000000
instractur instructor 0.2500000
Turner Turner 1.0000000
opened opening 0.1250000
opened open 0.1975309
opened spend 0.0041152
opened opened 0.8947368
lightening lighting 0.4000000
muche much 0.0013106
sample sample 1.0000000
dinning dinning 1.0000000
hated hated 0.7500000
initiate introduce 0.1000000
searches research 0.1250000
CONDITIONS THE 0.0027778
CONDITIONS ABILITY 0.5000000
CONDITIONS CONDITIONS 1.0000000
Solutions Solutions 1.0000000
bulding 18:30 0.3333333
majorite majority 0.0476190
sexy sexy 1.0000000
Internal the 0.0000605
Internal International 0.0128205
away away 0.7866667
away with 0.0004748
away leaving 0.0400000
away apart 0.0303030
away far 0.0117647
away NULL 0.0001807
away certain 0.0588235
away threw 0.2000000
away travelling 0.0204082
member member 0.7647059
member members 0.0952381
member one 0.0010989
thougt thought 0.0100503
suround surrounds 0.3333333
pleasantly pleasantly 1.0000000
Solatov Solatov 1.0000000
smog smog 1.0000000
Everytime time 0.0006878
Everytime Every 0.0232558
techinique technique 0.2000000
techinique any 0.0019084
explaind explained 0.0357143
Homes Homes 1.0000000
sporting sport 0.0163934
RESULT RESULT 1.0000000
developp develop 0.0588235
atmosphere atmosphere 0.7333333
plausible plausible 1.0000000
Group Group 1.0000000
weait wait 0.0064103
cup cup 1.0000000
cup handicap 0.3333333
meantime meantime 0.6000000
enjoys does 0.0075188
enjoys enjoys 0.5000000
enjoys their 0.0016920
enjoys pleases 1.0000000
farm farm 1.0000000
emptiness emptiness 1.0000000
Watch Watch 1.0000000
nearner nearer 0.5000000
Africa Africa 1.0000000
Rock Rock 1.0000000
lazy lazy 0.9047619
meen mean 0.0185185
schocked shocked 0.0416667
receiving received 0.0057471
receiving receiving 0.8113208
receiving receive 0.0506329
futher futher 1.0000000
futher further 0.0454545
professionalists professionals 0.2222222
descide decided 0.0082645
OUT OUT 0.9375000
OUT OF 0.0093458
OUT AWAY 1.0000000
U.S.A . 0.0001254
U.S.A U.S.A. 0.0161290
U.S.A USA 0.0196078
U.S.A U.S.A 0.9523810
13.06.00 13.06.00 1.0000000
behaviers behaviour 0.0666667
facility potential 0.5000000
practising playing 0.0189873
practising indoor 0.2500000
practising practise 0.0370370
practising practising 0.4444444
practising training 0.0454545
practising doing 0.0150754
practising been 0.0014535
below below 0.8000000
Grebenchekoff Grebenchekoff 1.0000000
dessert dessert 1.0000000
mask mask 1.0000000
cashdesks cash 0.0384615
cashdesks desks 0.2500000
mabe maybe 0.0161290
heavey heavy 0.0370370
heavey hard 0.0085470
resistance of 0.0001618
resistance stamina 1.0000000
Grey Grey 1.0000000
Moreau Moreau 1.0000000
NOBODY NOBODY 1.0000000
cards cards 0.7272727
Jullia Jullia 1.0000000
Thus NULL 0.0001807
Thus So 0.0049140
Thus Thus 1.0000000
bearded bearded 1.0000000
household household 0.2000000
household home 0.0026954
household housework 0.0400000
owed deserved 0.5000000
calm calm 0.8000000
calm calmer 1.0000000
calm calmly 0.2500000
calm down 0.0232558
long far 0.0117647
long NULL 0.0001807
long time 0.0013755
long longest 1.0000000
long if 0.0008889
long long 0.9482072
long log 0.0389610
rats rats 1.0000000
C C 1.0000000
sach such 0.0033557
travlling travel 0.0022173
paid reimbursed 0.2500000
paid paid 0.7244898
paid pay 0.0318471
paid underpaid 0.3333333
paid bought 0.0106383
paid dinners 0.5000000
paid NULL 0.0001807
skyping skipping 0.5000000
sailling sailing 0.0116279
advertiment should 0.0013245
advertiment put 0.0068027
advertiment advertisement 0.0013569
evoluate evoluate 1.0000000
laying lying 0.2222222
laying laying 1.0000000
fake fake 0.6666667
fake fraud 0.5000000
bads bands 0.0588235
interaction interaction 1.0000000
20:75 20:75 1.0000000
generous generous 1.0000000
Sophia Sophia 1.0000000
cartoons NULL 0.0001807
cartoons cartoons 1.0000000
ansewer answer 0.0053191
protecting protecting 1.0000000
react reacted 0.5000000
react react 1.0000000
Kept kept 0.0454545
XX XX 1.0000000
pens pens 1.0000000
stones stones 1.0000000
tramits tramits 1.0000000
frequently frequently 0.8000000
driver driver 0.3333333
driver drive 0.1000000
Brooks Brooks 1.0000000
skills skills 0.9310345
controls controls 1.0000000
Polan Poland 0.1666667
Poland Poland 0.8333333
Politicians Politicians 0.3333333
dealing dealing 0.6666667
dealing being 0.0045662
seats seats 0.6956522
traveled travelling 0.0204082
traveled travelled 0.5000000
tournaments tournaments 1.0000000
moved moved 0.9166667
argeuments facts 0.1000000
falt fault 0.0909091
pretty pretty 1.0000000
Helena Helena 0.5000000
Madeleine Madeleine 1.0000000
Kathleen Kathleen 1.0000000
experiments experiments 0.5000000
FINISHING FINISHING 1.0000000
Chevalier Chevalier 1.0000000
delay late 0.0055866
delay replying 0.2500000
delay delayed 0.1111111
delay delay 0.8823529
delay ' 0.0021322
trust trusts 0.5000000
trust trust 0.9117647
trust trusted 0.1428571
pockets pockets 1.0000000
holydays then 0.0041152
holydays holidays 0.0283019
weekly weekly 1.0000000
unapropriate inappropriate 1.0000000
Dolores Dolores 1.0000000
Designs Designs 1.0000000
carmera cameras 1.0000000
creepy creepy 1.0000000
ACTOR ACTOR 1.0000000
presenting putting 0.0909091
presenting showing 0.0625000
presenting presenting 1.0000000
presenting on 0.0011031
exsciting excited 0.0099010
Alencar Alencar 1.0000000
wchool school 0.0013966
Turnau Turnau 1.0000000
exibitions exhibitions 0.0370370
posibilities possibilities 0.1428571
Phatosub Phatosub 1.0000000
poisoned poisoned 1.0000000
split split 1.0000000
knee keen 0.0119048
knee knee 1.0000000
arranged arranged 0.6153846
arranged provided 0.0454545
agility agility 1.0000000
Esther Esther 1.0000000
caps caps 1.0000000
caps cups 0.2500000
fortunately fortunately 0.7272727
tipe type 0.0961538
FINDINGS FINDINGS 1.0000000
Everywhere Everywhere 1.0000000
barman barman 0.7500000
barman off 0.0129870
troubel trouble 0.0357143
tidying tidying 0.5000000
tidying tidy 0.0909091
sorprise surprise 0.0243902
theory theory 1.0000000
Architecuture Architecture 1.0000000
works chores 0.3333333
works homework 0.0188679
works work 0.0361757
works housework 0.0400000
works works 0.8695652
AWARE AWARE 1.0000000
stationeries stationery 1.0000000
TERM TERM 1.0000000
camps camps 1.0000000
ENTHUSIASTIC ENTHUSIASTIC 1.0000000
Douglas Douglas 1.0000000
Lyter After 0.0039370
mail letter 0.0029851
mail email 1.0000000
mail mail 0.9302326
RAIN RAINED 0.3333333
RAIN RAIN 1.0000000
policeman policeman 0.6666667
sprayed sprayed 1.0000000
teacher tutor 0.5000000
teacher schoolteacher 0.3333333
teacher teacher 0.9705882
teacher teachers 0.0227273
lesons lessons 0.0049505
enables enables 0.6666667
enables enable 0.3333333
becaused because 0.0003973
sth in 0.0001635
sth something 0.0023529
UNICEF UNICEF 1.0000000
demo demo 1.0000000
grownded grounded 0.5000000
HELPING HELPING 1.0000000
singing singing 0.9279279
singing sing 0.0606061
ROBERTSON ROBERTSON 1.0000000
Poetry poetry 0.5000000
purse is 0.0002314
purse purse 1.0000000
solid conservative 0.5000000
stile styles 0.0500000
13.Jun 13.Jun 1.0000000
LOTS LOTS 0.4000000
Me am 0.0005203
Me classmates 0.0181818
Me My 0.0034965
Me Me 0.7500000
Me I 0.0001533
anouced promised 0.0112360
ievel evil 0.1428571
CAN CAN 0.9259259
CAN SHOULD 0.1428571
eighteen eighteen 1.0000000
signature signature 0.7500000
signature autograph 0.2307692
signature autographs 0.0769231
lasers lasers 0.5000000
relly really 0.0046243
Phisical Physical 1.0000000
countless countless 1.0000000
cooperate cooperate 1.0000000
cooperate help 0.0027473
cooperate out 0.0019011
Meanwhile Meanwhile 1.0000000
comming comming 1.0000000
comming coming 0.0200000
being'll will 0.0004960
being'll beings 0.0416667
governement government 0.1250000
thanked thanks 0.0222222
thanked thanked 0.9000000
Dr Dr 1.0000000
allows me 0.0003912
allows us 0.0015649
allows is 0.0002314
allows you 0.0001615
allows allows 0.6363636
walking walking 0.9200000
walking along 0.0555556
struggled struggling 0.5000000
river This 0.0029326
river riverside 0.2500000
river river 0.9069767
noise noise 0.8500000
noise nose 0.2500000
closeness closeness 1.0000000
occasionally occasionally 1.0000000
Mexico Mexico 1.0000000
absurd absurd 1.0000000
parachute parachute 1.0000000
snap snap 1.0000000
TANG TANG 1.0000000
Greece Greece 1.0000000
Wondering Wondering 1.0000000
Fantatics fantastic 0.0140845
dedicated dedicated 0.6666667
bread bread 1.0000000
justification an 0.0012953
justification explanation 0.0454545
pizza pizza 1.0000000
Allan Allan 1.0000000
LUCKY LUCKY 1.0000000
inventation invitation 0.0769231
greate grate 1.0000000
colleagues colleagues 0.2222222
push turn 0.0250000
push push 0.6666667
elder elder 1.0000000
Ivan Ivan 1.0000000
listened to 0.0001310
listened listened 0.5714286
done done 0.7685950
done doing 0.0150754
done been 0.0043605
done do 0.0021299
done entered 0.0714286
done made 0.0168067
done created 0.0500000
done given 0.0227273
done taken 0.0232558
done a 0.0002652
done booked 0.0454545
done occur 0.2500000
done calculator 0.2000000
done or 0.0008584
done organised 0.0131579
done did 0.0161527
done started 0.0017452
done tried 0.0111111
done carried 0.1250000
done met 0.0111111
done had 0.0005139
done either 0.0149254
done conducted 0.2500000
saids advertisment 0.5000000
saids said 0.0050761
adittion addition 0.0071429
enjoyment enjoyment 0.7500000
enjoyment fun 0.0064935
enjoyment pleasure 0.0188679
HOBBIES HOBBIES 1.0000000
Fashions Fashions 0.8000000
Ocean Ocean 1.0000000
two short 0.0112360
two too 0.0046296
two NULL 0.0001807
two two 0.9854281
two twice 0.0526316
two doubles 0.3333333
straingth strength 0.2500000
journalists journalists 0.8791209
journalists Journalists 0.2000000
-Dear -Dear 1.0000000
secundary secondary 0.2222222
esspecially after 0.0023310
Hedwiga Hedwiga 1.0000000
aided - 0.0009083
aided aided 1.0000000
arguing arguing 0.5000000
Chedicard Chedicard 1.0000000
physics laboratory 0.1666667
physics physics 0.6666667
brazil Brazil 0.1111111
knocking knocking 1.0000000
V. V. 1.0000000
joy join 0.0256410
joy enjoy 0.0036232
joy joy 0.7500000
Pork Pork 1.0000000
HOMEWORK HOMEWORK 0.3333333
dissappointed disappointed 0.0322581
web web 1.0000000
web create 0.0303030
web website 0.2500000
ORGANISATION ORGANISATION 1.0000000
gives give 0.0091743
gives causes 0.2000000
gives creates 0.1250000
gives gives 0.8400000
gives given 0.0113636
gives stops 0.1250000
becase because 0.0007946
connected contact 0.0158730
connected touch 0.0294118
connected dependent 0.1250000
connected in 0.0003270
connected connected 0.9444444
forbidden forbade 1.0000000
forbidden forbid 1.0000000
forbidden forbidden 1.0000000
everytime time 0.0055021
everytime at 0.0003432
everytime every 0.0274914
everytime if 0.0008889
Jones Jones 1.0000000
suspect suspect 1.0000000
unluckly unluckily 1.0000000
princess princess 0.8750000
princess Princess 0.1111111
Band band 0.0172414
meannes meanness 1.0000000
supprsed supposed 0.0068493
JANN JANN 1.0000000
postman postman 1.0000000
via via 0.1764706
gays gays 1.0000000
gays guys 0.1250000
DOG DOG 1.0000000
DOG ME 0.0200000
Ice Ice 1.0000000
out produce 0.0500000
out peacefully 0.2000000
out dump 0.5000000
out away 0.0266667
out discover 0.0400000
out no 0.0027248
out emphasise 0.3333333
out realise 0.0303030
out us 0.0015649
out ends 0.1250000
out spread 0.0909091
out off 0.0259740
out left 0.0487805
out leaving 0.0400000
out leave 0.1060606
out how 0.0029806
out sign 0.0909091
out sold 0.0384615
out outside 0.0757576
out NULL 0.0048789
out up 0.0038388
out defrosted 0.3333333
out process 0.1111111
out backstage 0.0476190
out a 0.0001326
out overpriced 0.3333333
out out 0.8859316
out our 0.0033557
out outdoor 0.1000000
out working 0.0087719
materials materials 0.7812500
materials inventing 0.3333333
materials equipment 0.0350877
colors colors 1.0000000
colors colours 0.0312500
colors and 0.0001067
newcomer new 0.0024691
Moicznos Moicznos 1.0000000
lastly Lastly 0.0188679
lastly lastly 0.5000000
comdined combined 0.2500000
THAT IT 0.0097087
THAT THEN 0.0909091
THAT NULL 0.0001807
THAT THAT 0.9484536
THAT WANT 0.0714286
absolutaly absolutely 0.0263158
unusual level 0.0416667
unusual an 0.0025907
unusual unusual 0.8888889
inconvenient inconvenient 0.5000000
inconvenient inconvenience 0.1000000
FORGIVE CANNOT 0.2500000
FORGIVE FORGIVE 0.5000000
ôInternational ôInternational 1.0000000
superb superb 1.0000000
landscape landscape 0.5000000
landscape drawing 0.0555556
shef chef 0.0588235
raincoates raincoats 1.0000000
See See 1.0000000
See sea 0.0238095
ETC ETC 1.0000000
syntetic synthetic 0.1666667
revealing revealing 0.5000000
Susie Susie 1.0000000
disadvantatge disadvantages 0.0212766
Log log 0.0032468
Log A 0.0042553
Log Log 1.0000000
BECAUSE BECAUSE 0.9069767
thankful grateful 0.0408163
thankful thankful 1.0000000
inside renovation 0.0625000
inside into 0.0058140
inside on 0.0005516
inside inside 0.9512195
inside in 0.0003270
rulled rulled 0.5000000
Chanel Channel 1.0000000
Chanel Chanel 1.0000000
society out 0.0019011
society company 0.0222222
society society 0.8888889
Latin Latin 0.6666667
Obviously Obviously 0.7500000
puts making 0.0142857
puts states 0.1000000
packed packed 1.0000000
shook shook 0.5000000
windsurfing windsurfing 1.0000000
managers managers 1.0000000
comunicat communicating 0.3333333
lip lipstick 0.5000000
informations information 0.1127451
tabu subject 0.0232558
tabu taboo 1.0000000
dangarous dangers 0.2500000
can tells 0.0555556
can has 0.0016694
can NULL 0.0036140
can will 0.0029762
can can 0.9486715
can want 0.0013624
can should 0.0013245
can could 0.0515625
can must 0.0035587
can ca 0.0114504
can kind 0.0028490
can Can 0.0555556
can is 0.0004627
can lets 0.1250000
can know 0.0010101
can might 0.0465116
can would 0.0017042
can catch 0.0588235
can do 0.0021299
goal reason 0.0055249
goal goal 0.3333333
payed spent 0.0075758
payed refunded 0.2000000
payed paid 0.1530612
CONCERN WHICH 0.0555556
CONCERN ME 0.0200000
named called 0.0100000
named named 1.0000000
40 40 0.8571429
comportable comfortable 0.0064935
success great 0.0020619
success succeed 0.2500000
success successfully 0.3333333
success success 0.7857143
reaching reaching 0.5000000
studyied studied 0.0833333
fulled full 0.0169492
THOUGHTS EXPECTED 1.0000000
manufactory factory 0.3333333
Pizzi Pizzi 1.0000000
evey every 0.0034364
starr star 0.0243902
QUICK QUICK 0.5000000
surrprised suprised 0.5000000
fortyfive forty 0.0135135
fortyfive five 0.0069930
fortyfive - 0.0009083
relating regarding 0.0200000
foremost foremost 1.0000000
climet climate 0.1250000
dive dive 1.0000000
dive diving 0.3333333
reminds reminds 0.4285714
everywhere because 0.0003973
everywhere everywhere 0.7166667
everywhere anywhere 0.1904762
everywhere ; 0.0046512
shows show 0.0028818
shows shoes 0.0158730
shows states 0.1000000
shows has 0.0016694
shows shows 0.9090909
shows showing 0.0625000
shows musicals 0.2857143
shows NULL 0.0001807
pressed pressed 1.0000000
nurses nurses 1.0000000
apart apart 0.7575758
souls souls 1.0000000
1986 1986 1.0000000
travell travel 0.0066519
Grammer Grammar 1.0000000
Yeah Yeah 1.0000000
Forthly Fourthly 0.2500000
result , 0.0002263
result product 0.0384615
result results 0.2666667
result result 0.9821429
result conclusion 0.0113636
result achieves 1.0000000
Giannis Giannis 1.0000000
hood looking 0.0022422
hood neighbourhood 0.2000000
knowledgement education 0.0476190
10:00 10:00 1.0000000
chating chatting 0.0714286
accommodate accommodate 0.2000000
accommodate stay 0.0095238
DISSAPROVE FAILED 0.5000000
Comes Comes 1.0000000
profesionalists professionals 0.1111111
housewives housewives 0.3333333
finger finger 1.0000000
Poor Poor 0.6666667
Poor poor 0.0217391
antiques antique 0.5000000
stadium stadium 1.0000000
leissure Leisure 0.0073529
Katy Katy 1.0000000
enjeyable enjoyable 0.0031348
filming making 0.0142857
filming are 0.0004587
filming film 0.0068027
filming filming 0.5333333
filming through 0.0153846
month months 0.1147541
month then 0.0041152
month month 0.9141914
hopes hopes 1.0000000
dancing dancing 0.9444444
dancing dance 0.0263158
challenges challenges 0.7500000
nearly almost 0.0246914
nearly nearly 0.8750000
nearly when 0.0009200
careful careful 0.7391304
careful carefully 0.0526316
okay okay 0.8333333
fly fly 0.9000000
fly NULL 0.0001807
fly flying 0.2500000
preper prepare 0.0169492
polyseer polyester 1.0000000
Miss Miss 1.0000000
Miss Dear 0.0008333
Miss Sir 0.0030395
Date Date 1.0000000
voice voice 1.0000000
voice 's 0.0007710
voice voices 0.5000000
midle middle 0.0952381
keyboards keyboards 1.0000000
UNFORTUNATELY UNFORTUNATELY 0.5000000
RESULTS RESULTS 0.3333333
Greek Greek 0.7500000
VIDEO VIDEO 1.0000000
Müller Müller 1.0000000
diving diving 0.6666667
recomend recommend 0.0888889
Accordingly Accordingly 1.0000000
poscesives possessions 0.5000000
channels channels 1.0000000
preffer prefer 0.0050000
economic economic 0.6666667
economic the 0.0000605
economic beginning 0.0121951
guy man 0.0151515
guy guy 0.8181818
share share 0.9117647
boat boat 1.0000000
SEND HAVE 0.0200000
SEND SENT 0.6666667
4:30 4:30 1.0000000
shared shared 0.6666667
shared share 0.0294118
suttendly suddenly 0.0238095
CATHEGORY A 0.0042553
CATHEGORY CATEGORY 1.0000000
DENNY DENNY 1.0000000
impressions impressions 1.0000000
WOULDN'T HAVE 0.0200000
WOULDN'T WOULDN'T 1.0000000
begin began 0.0352941
begin begins 0.1176471
begin begin 0.8461538
consists consists 0.5000000
enought enough 0.0187500
underground underground 0.8000000
discovered discovered 0.6923077
discovered invented 0.0909091
emagine imagine 0.0076923
finish finish 0.8490566
finish finished 0.0681818
finish finishes 0.0909091
finish finishing 0.1111111
pub pub 1.0000000
teenagers those 0.0076336
teenagers teenager 0.0909091
teenagers teenagers 0.6666667
teenagers teenage 0.4000000
teenagers 's 0.0007710
predict guess 0.0303030
predict predict 0.8000000
mum your 0.0004318
mum because 0.0003973
mum mum 0.9615385
goodness goodness 1.0000000
pat pet 0.5000000
BARE BEAR 1.0000000
OUR OUR 1.0000000
OUR FOR 0.0153846
st St 0.3333333
Outdoor Outdoor 1.0000000
Beek Beek 1.0000000
sweetest sweetest 1.0000000
PURPOUSE PURPOSE 1.0000000
hoven oven 0.0714286
meals meals 0.9047619
Carola Carola 1.0000000
musn't must 0.0035587
musn't n't 0.0003981
Mühlenstrasse Mühlenstrasse 1.0000000
techincs technologies 0.0217391
Speak Speak 1.0000000
REZ REZ 1.0000000
eyed eyed 0.5000000
eyed retired 0.2000000
safely safely 1.0000000
winds wind 0.0714286
thoese this 0.0005540
beleave Believe 0.2500000
Gernal General 1.0000000
combined combined 0.5000000
combined made 0.0042017
combined up 0.0019194
Metallica Metallica 1.0000000
J.M. J.M. 1.0000000
girlfriends girlfriends 1.0000000
Respect regard 0.0666667
Respect With 0.0126582
plouge plough 1.0000000
count able 0.0040984
count be 0.0003446
count count 0.8000000
herd swarm 1.0000000
herd heard 0.0194175
whatever whatever 0.7837838
whatever - 0.0009083
fight NULL 0.0001807
fight fight 0.8750000
wonerful wonderful 0.0065789
flesh flash 1.0000000
flesh flesh 0.5000000
fortnight fortnight 1.0000000
customer customer 0.3333333
customer service 0.0303030
customer opening 0.1250000
advertisiment advertisement 0.0013569
TODAY TODAY 1.0000000
FEW A 0.0085106
FEW FEW 1.0000000
Unforgetable Unforgettable 1.0000000
sciene science 0.0140845
exhaused exhausted 0.0769231
HANDLE HANDLE 1.0000000
8:15 8:15 1.0000000
games athletics 0.5000000
games games 0.8636364
possesses possesses 1.0000000
crouded crowded 0.0200000
G.C.S.E. G.C.S.E.s 1.0000000
costumes costumes 0.7272727
finishes finishes 0.9090909
finishes finished 0.0075758
finishes at 0.0006863
finishes have 0.0002512
GETING GETING 1.0000000
Valentine Valentine 1.0000000
Families families 0.0666667
excited excited 0.7326733
excited exciting 0.0243902
ACT BEHAVE 1.0000000
ACT ACT 1.0000000
brochure brochure 0.7142857
brochure flyer 0.2222222
Someone Someone 1.0000000
Jordan Jordan 1.0000000
paparazzis paparazzi 0.6666667
street street 0.9189189
street route 0.5000000
Communication communication 0.0357143
Communication Communication 0.5000000
Communication The 0.0007123
transform transform 0.5000000
consert concert 0.0048309
hourers of 0.0001618
hourers hours 0.0100000
refers goes 0.0370370
downstairs downstairs 0.6666667
avaivable available 0.0033223
prince prince 1.0000000
tedious tedious 1.0000000
extract example 0.0044444
joinning attending 0.0555556
been waited 0.0416667
been rapidly 0.0909091
been arise 0.2500000
been build 0.0625000
been go 0.0008842
been carrying 0.0909091
been imagined 0.0909091
been already 0.0147059
been NULL 0.0075894
been slept 0.0666667
been sold 0.0384615
been swam 0.2000000
been to 0.0000655
been played 0.0198020
been went 0.0144404
been bear 0.1428571
been been 0.8125000
been stayed 0.0465116
been was 0.0049409
been n't 0.0003981
been be 0.0027567
been making 0.0142857
been painted 0.1000000
been being 0.0136986
been belonged 0.1666667
been spread 0.0909091
been joined 0.0625000
been were 0.0007022
been trained 0.1250000
competent competent 1.0000000
Adams Adams 1.0000000
supper supper 0.8750000
supper great 0.0020619
supper meal 0.0555556
Basket Basketball 0.0333333
Basket basketball 0.0054645
nosy nosy 1.0000000
Seek Seek 1.0000000
charging charging 1.0000000
beaches beaches 1.0000000
MUSICAL MUSICAL 0.7142857
MUSICAL THE 0.0027778
MUSICAL SHOW 0.0277778
decade decade 0.5000000
rude rude 0.7000000
peoper people 0.0007331
mental mental 0.8333333
Kalvin Kalvin 1.0000000
Natural natural 0.0400000
concept concept 1.0000000
luck stroke 1.0000000
luck any 0.0019084
luck luckily 0.1000000
luck lucky 0.0434783
luck luck 1.0000000
ming . 0.0000418
ming mind 0.0126582
Without Without 0.9411765
OFF OFF 1.0000000
York York 1.0000000
FORTY - 0.0009083
FORTY FORTY 0.6000000
TOLD TOLD 0.7500000
worring worrying 0.2500000
Relieved Relieved 1.0000000
500 500 1.0000000
MOMENT MINUTE 1.0000000
sailing try 0.0056818
sailing sailing 0.9534884
sailing go 0.0008842
limites limits 0.1428571
limites no 0.0027248
leave allow 0.0333333
leave leave 0.6666667
leave forget 0.0125000
leave sleep 0.0094340
leave off 0.0129870
leave left 0.0365854
leave live 0.0166667
phycological 's 0.0007710
phycological psychological 0.2000000
sportswear sportswear 0.0625000
says brochure 0.1428571
says advertisements 0.0909091
says promises 0.1250000
says says 0.8363636
says said 0.0101523
says he 0.0015291
says tells 0.1111111
says say 0.0081522
addition NULL 0.0001807
addition , 0.0000566
addition addition 0.9357143
addition conclusion 0.0113636
motorboat motorboat 1.0000000
CARS CARS 1.0000000
Lorca Lorca 1.0000000
jealous jealous 0.6875000
jealous may 0.0091743
romantic romantic 0.8888889
brilliant brilliantly 0.5000000
brilliant idea 0.0043290
brilliant brilliant 0.8750000
fordward forward 0.0030166
Granny Granny 1.0000000
recomended recommend 0.0444444
designer design 0.0500000
designer designer 0.7500000
designer designers 0.1538462
everywere everywhere 0.0166667
Frankly Frankly 0.5000000
plesure pleasure 0.0188679
Not The 0.0014245
Not Also 0.0043860
Not Not 0.9333333
Long A 0.0085106
Long long 0.0079681
Long Long 1.0000000
repeat revise 0.5000000
repeat repeat 1.0000000
overheard overheard 0.7500000
marriage marriage 0.6666667
marriage marriages 1.0000000
welcoming welcoming 0.5000000
CABINS CABIN 0.4000000
cupboard cupboard 1.0000000
retelling retold 0.5000000
senciarly faithfully 0.0032468
unpleasantly unpleasantly 1.0000000
unpleasantly surprised 0.0113636
becomed became 0.0144928
disturb disturbing 0.5000000
disturb bother 0.5000000
disturb disturbs 0.5000000
disturb disturb 0.8000000
Starts stars 0.0057471
maschines machines 0.0222222
academic academic 1.0000000
phantasy fantasy 0.3333333
phantasy a 0.0001326
NEW NEW 0.7500000
editor editor 1.0000000
purpose an 0.0012953
purpose purpose 0.8181818
purpose propose 0.2000000
purpose aim 0.0285714
purpose reason 0.0055249
purpose intention 0.1250000
ONE SOME 0.0833333
ONE ONE 0.8666667
nails nails 1.0000000
signed signed 1.0000000
Ignace Ignace 1.0000000
factorors factors 1.0000000
definitions definitions 1.0000000
shadow shadow 1.0000000
sining singing 0.0090090
REPLY REPLY 1.0000000
saws saw 0.0034483
toilets 's 0.0007710
toilets toilets 0.5000000
Mind Mind 1.0000000
2-nd the 0.0000605
2-nd 2nd 0.1111111
discover find 0.0088757
discover rediscover 1.0000000
discover discover 0.8000000
discover try 0.0113636
discover discovered 0.0769231
discover out 0.0057034
discover see 0.0013477
discover invention 0.0714286
lived lived 0.8064516
lived has 0.0016694
lived had 0.0005139
lived live 0.0055556
lived who 0.0017544
lived stayed 0.0465116
lived - 0.0009083
James James 1.0000000
viewers audience 0.0606061
viewers viewers 1.0000000
computeres computers 0.0091743
handling handling 0.5000000
Stories Stories 1.0000000
threatened threatened 1.0000000
electronic career 0.0833333
electronic electronic 0.8125000
Brett Brett 1.0000000
pity sorry 0.0140845
pity pity 0.7142857
Volencia Volencia 1.0000000
memory thing 0.0022371
memory memories 0.1538462
memory memory 1.0000000
step step 0.8461538
step stepped 0.2000000
step forward 0.0015083
step it 0.0002035
step footsteps 0.5000000
step every 0.0034364
CHANGES CHANGES 1.0000000
compositions compositions 1.0000000
millions millions 1.0000000
millions of 0.0003236
permision permission 0.0666667
sustitute substitute 0.1666667
Williams Williams 1.0000000
MAIN MAIN 1.0000000
MAIN IMPORTANT 0.2500000
MAIN MAINLY 0.2500000
openion opinion 0.0042553
shopalcoholics shopaholics 0.5000000
cheque cheques 0.1666667
cheque cheque 0.8888889
gotten wanted 0.0034602
bouts boats 1.0000000
specified specified 1.0000000
SLEEP SLEEP 1.0000000
sine since 0.0057471
Dangerous Dangerous 1.0000000
Frustrated Frustrated 1.0000000
scubar scuba 1.0000000
reasure assure 0.2500000
addict . 0.0000418
addict addict 0.6666667
principal principal 0.9230769
principal main 0.0078740
technologe technology 0.0034247
sientific NULL 0.0001807
tolk talk 0.0059880
Olympic the 0.0000605
Olympic Olympics 1.0000000
walkman Walkman 1.0000000
walkman walkman 1.0000000
Tokyo Tokyo 1.0000000
PRESENTING PRESENTING 1.0000000
grinned grinned 1.0000000
understood acquired 1.0000000
understood realised 0.0169492
understood understand 0.0142857
understood understood 0.8888889
morever moreover 0.0833333
inventing are 0.0004587
inventing inventing 0.3333333
Redford Redford 1.0000000
avalaible available 0.0033223
aftering pursued 1.0000000
right straight 0.1250000
right suitable 0.0142857
right rights 0.3750000
right choice 0.0169492
right alright 0.1666667
right justified 1.0000000
right right 0.8650794
where , 0.0000566
where what 0.0010395
where everywhere 0.1166667
where where 0.9107143
where Where 0.1111111
where somewhere 0.0625000
where were 0.0077247
where whereas 0.1428571
where anywhere 0.0476190
where NULL 0.0001807
where when 0.0045998
where wherever 0.1428571
where that 0.0001996
where and 0.0001067
where places 0.0133333
where which 0.0034072
where relaxing 0.0370370
where whom 0.0370370
winners winners 1.0000000
Consequently Consequently 0.7272727
Manu Manu 1.0000000
doen't n't 0.0007962
doen't does 0.0150376
doen't help 0.0027473
great greatest 0.0500000
great great 0.9360825
great careful 0.0434783
Re Re 1.0000000
BLACK BLACK 1.0000000
inconveint inconvenience 0.1000000
identify identify 0.5000000
grandchildren grandchildren 1.0000000
gathered in 0.0001635
gathered gathered 1.0000000
therefore plastic 0.0500000
therefore because 0.0003973
therefore therefore 0.9047619
therefore NULL 0.0001807
therefore - 0.0009083
therefore Therefore 0.0329670
therefore so 0.0021053
planty plenty 0.0666667
throw threw 0.2000000
throw on 0.0005516
throw throw 0.5000000
YOUNG YOUNG 1.0000000
mile mile 0.5000000
insisted insist 0.1250000
insisted insisted 1.0000000
insisted getting 0.0131579
leaft left 0.0121951
Snowboarder snowboarder 1.0000000
invites invited 0.0227273
Bernard Bernard 1.0000000
assiment job 0.0047847
Now Nowadays 0.0250000
Now Now 0.9280576
displeasured unpleasant 0.0322581
burnt burnt 1.0000000
promt prompt 0.0555556
suicide suicide 1.0000000
televitions televisions 0.1250000
sophisticated sophisticated 1.0000000
aim aim 0.8857143
hairstyl hairstyle 0.1428571
naus that 0.0001996
naus would 0.0003408
naus she 0.0015974
naus news 0.0098039
microchips microchips 1.0000000
Ten Ten 1.0000000
2,000 2,000 1.0000000
goods things 0.0051458
goods goods 0.9130435
goods products 0.0625000
passing passing 1.0000000
passing pass 0.0555556
LIVES NULL 0.0001807
LIVES LIVES 0.4285714
Fernandez Fernandez 1.0000000
Travelling Travelling 1.0000000
Carlos Carlos 1.0000000
memorise memories 0.0769231
spoilt spoilt 0.7500000
1th 1th 1.0000000
1th 1ST 0.5000000
Fourth Fourth 0.5000000
Classroom Classroom 1.0000000
finaly finally 0.0333333
WEAPONS WEAPONS 1.0000000
hunting hunting 1.0000000
hunting hunt 0.3333333
repply reply 0.0064935
hazard danger 0.0769231
LOG LOG 0.6000000
50% 50% 0.8333333
debutant beginner 0.0333333
Menbrook Menbrook 1.0000000
fortunetly Fortunately 0.0909091
fortunetly it 0.0002035
fortunetly fortunately 0.0909091
footballer footballer 0.6666667
hopeness that 0.0001996
hopeness hope 0.0024096
hopeness the 0.0000605
bin bin 1.0000000
MARCOS MARCOS 1.0000000
concern concerned 0.0444444
concern concern 0.7272727
concern NULL 0.0001807
T.V TV 0.0736842
T.V T.V 1.0000000
reflect reflect 1.0000000
creams creams 1.0000000
preciate your 0.0004318
preciate appreciate 0.0375000
preciate would 0.0003408
STUDENT STUDENT 1.0000000
timetable time 0.0013755
timetable timetables 1.0000000
timetable timetable 0.5625000
timetable performance 0.0111111
plesant pleasant 0.0294118
worth worse 0.0312500
worth worth 0.9259259
worth worthwhile 0.2000000
worth worst 0.0113636
worth more 0.0018709
WEIGHT WEIGH 1.0000000
Mali Mali 1.0000000
entertainement entertainment 0.0625000
filmstars filmstars 1.0000000
actrice actress 0.1000000
beging at 0.0003432
beging beginning 0.0243902
read ready 0.0285714
read read 0.9560440
read see 0.0013477
read reading 0.0600000
read said 0.0025381
read seen 0.0065359
DISAPPOINTMENT DISAPPOINTMENT 1.0000000
were soilors 0.5000000
were did 0.0029369
were starring 0.0169492
were camped 0.3333333
were where 0.0312500
were were 0.8412921
were behaved 0.1666667
were mentioned 0.0111111
were in 0.0001635
were participated 0.1428571
were used 0.0040486
were lit 0.3333333
were being 0.0136986
were at 0.0003432
were went 0.0018051
were is 0.0004627
were companies 0.1000000
were which 0.0008518
were would 0.0020450
were been 0.0232558
were stayed 0.0232558
were rented 0.2500000
were was 0.0075878
were are 0.0087156
were wasting 0.0769231
were had 0.0102775
were performed 0.0212766
were NULL 0.0010842
were wear 0.0116732
were spent 0.0075758
were waited 0.0416667
RATTANAKOSIN RATTANAKOSIN 1.0000000
celebrity celebrity 1.0000000
celebrity celebrities 0.0833333
Carley Carley 1.0000000
EVERYTHING EVERYTHING 0.8571429
mack arranged 0.0769231
Mayas Mayas 1.0000000
odd odd 1.0000000
atend attended 0.0303030
solace consolation 1.0000000
insects insect 1.0000000
insects insects 1.0000000
wellcoming welcoming 0.5000000
drugs drugs 0.8888889
drugs off 0.0129870
trains train 0.0263158
trains trains 0.9000000
mates mates 1.0000000
mates classmates 0.1090909
mates schoolmates 0.5000000
eatch each 0.0083333
AROUND AROUND 1.0000000
buzy busy 0.0119048
chicken chicken 1.0000000
Japanese Japanese 0.8750000
non none 0.0526316
non non 0.7500000
contradicted contradicted 0.5000000
corespondecies correspondence 1.0000000
Company Company 1.0000000
Hemingway Hemingway 1.0000000
waterproof waterproof 0.3333333
manners ways 0.0327869
produce in 0.0003270
produce producing 0.2500000
produce produce 0.6500000
produce produced 0.1666667
produce produces 1.0000000
STARTS STARTS 0.5000000
Especially Especially 0.7727273
Especially In 0.0188442
Especially particular 0.2586207
Especially NULL 0.0001807
Especially It 0.0007047
Especially The 0.0007123
Especially especially 0.0156250
HUNDREDS HUNDREDS 1.0000000
buying on 0.0005516
buying buying 0.8243243
buying getting 0.0131579
buying shopping 0.0011148
buying buy 0.0144509
given been 0.0014535
given refused 0.0714286
given because 0.0003973
given paid 0.0306122
given being 0.0045662
given having 0.0063291
given off 0.0129870
given gave 0.0113636
given given 0.5568182
deceperous desperate 0.2500000
pearl Jam 0.2500000
pearl Pearl 0.5000000
connexion connection 0.0833333
successfully successfully 0.6666667
beetween between 0.0097087
admiring admiring 1.0000000
habits normal 0.0256410
habits habits 0.4285714
habits such 0.0033557
screamed screamed 1.0000000
Unfortunely Unfortunately 0.0041152
Refering Regarding 0.0149254
Refering Referring 0.4000000
fought fought 0.7500000
fought thought 0.0050251
fought they 0.0007446
Madrid Madrid 1.0000000
circumsenses circumstances 0.0909091
offerring offer 0.0208333
interviewer interviewer 1.0000000
kidding kidding 0.5000000
morden modern 0.0066890
Liao Liao 1.0000000
goot good 0.0008757
, 00 0.2000000
, - 0.0217984
, ; 0.2325581
, : 0.0202361
, am 0.0005203
, to 0.0003274
, insist 0.1250000
, are 0.0013761
, machines 0.0222222
, " 0.0018541
, apart 0.0303030
, is 0.0009255
, was 0.0001765
, learn 0.0074074
, be 0.0003446
, impatiently 0.5000000
, 1ST 0.5000000
, who 0.0035088
, or 0.0034335
, . 0.0314250
, families 0.0666667
, it 0.0006105
, the 0.0001210
, starts 0.0204082
, ! 0.0008396
, going 0.0015625
, out 0.0019011
, ? 0.0152366
, then 0.0041152
, NULL 0.1295627
, ' 0.0042644
, Where 0.1111111
, and 0.0027745
, by 0.0015337
, WELL 0.1111111
, about 0.0009542
, would 0.0003408
, Regarding 0.0149254
, of 0.0004854
, true 0.0086957
, that 0.0015968
, in 0.0004905
, for 0.0004852
, will 0.0004960
, , 0.8965205
, occurred 0.1250000
Art Arts 0.0273973
Art art 0.0277778
Art Art 0.9411765
developpement development 0.0588235
knowledge lot 0.0016077
knowledge much 0.0013106
knowledge knowledge 0.8723404
CULT CULT 1.0000000
handicapt handicapped 0.3333333
ownself myself 0.0078125
soldiers soldiers 0.3333333
INDIAN INDIAN 1.0000000
repair repair 0.2000000
shown shown 0.6250000
shown showed 0.0384615
shown held 0.0243902
shown show 0.0011527
shown seen 0.0065359
Inform Inform 1.0000000
precautions precautions 1.0000000
confirme confirm 0.1428571
confirme for 0.0002426
Winkler Winkler 1.0000000
emphasize emphasize 0.6666667
allergie allergy 0.3333333
Unfortunatly Unfortunately 0.0370370
sunrays rays 0.2500000
sunrays sunrays 1.0000000
trying try 0.0113636
trying trying 0.8703704
hade hade 1.0000000
restaurand restaurant 0.0061602
researches research 0.1250000
grant give 0.0022936
ringing ringing 0.5000000
Actually Actually 0.8695652
Actually NULL 0.0001807
ôbest ôbest 1.0000000
also did 0.0014684
also even 0.0028818
also may 0.0091743
also also 0.9734748
also NULL 0.0014456
also too 0.0023148
also Also 0.0263158
also so 0.0007018
also only 0.0011696
also well 0.0056338
also provide 0.0196078
also and 0.0001067
Hi hi 0.3333333
Hi stereos 0.2500000
Hi Hi 1.0000000
cycle cycle 1.0000000
handsome handsome 0.6000000
Asia Asian 1.0000000
Asia Asia 1.0000000
briefly brief 0.3333333
paragraph essay 1.0000000
companies companies 0.8000000
companies company 0.0222222
myself comparing 0.2500000
myself NULL 0.0001807
myself me 0.0011737
myself . 0.0000418
myself offered 0.0270270
myself relax 0.0200000
myself to 0.0000655
myself climbing 0.0087719
myself discovered 0.0384615
myself cook 0.0303030
myself improve 0.0156250
myself entirely 0.2500000
myself stay 0.0023810
myself myself 0.7656250
sorrounded surrounded 0.1111111
2nd of 0.0001618
2nd 2nd 0.7777778
2nd The 0.0007123
THINGS THINGS 1.0000000
quare queuing 0.1428571
quare queue 0.0625000
quare queues 0.0588235
Atlantic Atlantic 1.0000000
restructurated repaired 0.1000000
worn worn 0.2500000
worn wore 0.2857143
LIKE LIKE 0.9545455
posteres posters 0.5000000
are funds 0.5000000
are be 0.0013784
are is 0.0168903
are differ 0.5000000
are enjoyed 0.0065359
are been 0.0058140
are was 0.0010588
are would 0.0006817
are depend 0.1111111
are hearing 0.0023202
are cases 0.0909091
are were 0.0217697
are grown 0.0769231
are will 0.0044643
are sunshine 0.5000000
are paint 0.0357143
are ? 0.0008019
are retailers 0.2500000
are do 0.0037274
are our 0.0008389
are charge 0.0666667
are Students 0.0769231
are have 0.0020095
are define 0.2500000
are am 0.0005203
are are 0.8761468
are NULL 0.0081316
are all 0.0005519
are Teachers 0.3333333
SUNNY SUNNY 1.0000000
accomodate all 0.0005519
accomodate up 0.0019194
accomodate put 0.0068027
accomodate accommodate 0.4000000
handwork handwork 1.0000000
would've would've 1.0000000
personal personal 0.9574468
personal particular 0.0172414
personal personnel 0.5000000
personal expenses 0.0357143
exhiting exciting 0.0081301
BROOK BROOK 0.9545455
Desingres Designers 0.5000000
sake 's 0.0007710
sake sake 1.0000000
stepmother stepmother 1.0000000
entry Entry 0.2500000
entry NULL 0.0001807
entry entry 0.8571429
entry entrance 0.0500000
animal animals 0.1333333
animal animal 0.8333333
organise organising 0.0540541
organise organise 0.7000000
organise out 0.0019011
organise reorganise 0.2000000
organise organised 0.0394737
organise work 0.0025840
accommodation type 0.0384615
accommodation stay 0.0166667
accommodation my 0.0005119
accommodation accommodation 0.5726496
flooded flooded 1.0000000
YOU YOU 0.9795918
ACCIDENTS ACCIDENTS 1.0000000
specialist specialist 1.0000000
purchases purchases 1.0000000
Wood Wood 1.0000000
discounted reduced 0.1666667
discounted discounted 1.0000000
grateful great 0.0103093
grateful grateful 0.7142857
grateful happy 0.0033557
grateful pleased 0.0089286
watches watch 0.0128205
watches watches 1.0000000
fiance fiance 1.0000000
fabolous fabulous 0.1111111
1998 1998 1.0000000
Lucre Lucre 1.0000000
GLAD GLAD 1.0000000
forecast forecast 1.0000000
forecast schedule 0.0666667
Hermine Hermine 1.0000000
theives theives 1.0000000
afimation summary 0.2500000
DECEMBER DECEMBER 1.0000000
mordern years 0.0025907
mordern mordern 1.0000000
mordern modern 0.0133779
sorry sorry 0.9436620
sorry annoyed 0.0384615
sorry Sorry 0.0909091
SHE SHE 1.0000000
Competition competition 0.0038760
Competition Competition 1.0000000
Ms. Ms. 1.0000000
advertisements advertisement 0.0013569
advertisements advertisements 0.6363636
idol idol 0.7500000
scene portrayal 1.0000000
scene scenes 0.2500000
scene scene 0.5000000
scene stage 0.1013514
Think I 0.0000511
Think Think 0.8333333
Think think 0.0008439
pure pure 1.0000000
french French 0.1333333
grow grew 0.0909091
grow individually 0.3333333
grow grow 0.7500000
grow NULL 0.0001807
grow growing 0.0909091
deleied and 0.0001067
deleied delayed 0.0555556
FIND FIND 1.0000000
microfons microphones 0.0588235
conveyed carried 0.1250000
D'Accatino D'Accatino 1.0000000
helful technology 0.0017123
helful helps 0.0270270
helful us 0.0015649
disgusting disgusting 1.0000000
provid provid 1.0000000
ambisious ambitious 0.5000000
considering consideration 0.0500000
considering about 0.0004771
considering thinking 0.0266667
considering considering 0.7333333
considering taking 0.0129870
tiered tired 0.0185185
MODERNIZES ADVANCES 1.0000000
devellopment development 0.0294118
EXAMPLE EXAMPLE 1.0000000
links links 1.0000000
Guide Guide 1.0000000
aid aid 1.0000000
materialistic materialistic 1.0000000
19:00 19:00 0.9375000
standards standards 1.0000000
technically technical 0.0714286
angrily angrily 1.0000000
Write Write 1.0000000
club club 0.9444444
club clubs 0.3750000
stricht strict 0.0344828
LOVED WANTED 0.1428571
photograghy photography 0.0076923
TEST CHECK 1.0000000
click click 1.0000000
beyond beyond 1.0000000
breakable breakable 1.0000000
occasions . 0.0000418
occasions occasions 0.7142857
combuter computer 0.0046512
secratary secretary 0.1666667
11 11 1.0000000
however but 0.0009533
however however 0.9512195
however to 0.0000655
however However 0.0495356
BB BB 0.5000000
Houe Houe 1.0000000
Aguilar Aguilar 1.0000000
intelligent intelligent 1.0000000
freely acting 0.0256410
freely freely 0.6000000
GROUND GROUND 1.0000000
enquiring getting 0.0131579
enquiring enquire 0.1000000
compulsion compulsion 1.0000000
wear - 0.0027248
wear clothing 0.0227273
wear underwear 0.3750000
wear clothes 0.0012376
wear went 0.0018051
wear sportswear 0.3750000
wear wears 0.4285714
wear be 0.0003446
wear wear 0.9066148
wear all 0.0005519
wear carry 0.0555556
wear when 0.0009200
wear dress 0.0571429
wear fashions 0.0105263
wear dressed 0.2000000
wear wore 0.0714286
wear worn 0.2500000
wear show 0.0005764
widest widest 1.0000000
provides gives 0.0400000
provides provides 0.5555556
previst previous 0.0769231
Travel Travel 1.0000000
fourious furious 0.0909091
Recently Today 0.0434783
Recently Recently 0.8181818
sufficient sufficient 0.3333333
LADY LADY 1.0000000
opposit opposite 0.1111111
cancell cancel 0.0833333
Angeles Angeles 0.6666667
foolish foolish 0.6666667
Landen Landen 1.0000000
adult adult 1.0000000
adult an 0.0012953
adult adults 0.1428571
dictionaries dictionaries 1.0000000
Mouro Mouro 1.0000000
atletics events 0.0113636
atletics athletics 0.5000000
easer easier 0.0086207
student students 0.0523691
student student 0.9603175
student France 0.0370370
Nothing Nothing 0.5000000
cleaner launderette 0.3333333
cleaner cleaner 0.7272727
cleaner cleaners 0.5000000
suppermarket supermarket 0.0344828
suppermarket a 0.0001326
earning earning 0.6000000
earning earnings 1.0000000
purchasing when 0.0009200
purchasing purchasing 1.0000000
CONCERNED CONCERNED 1.0000000
face facing 0.2500000
face faced 0.4000000
face look 0.0024096
face face 0.8888889
face cure 0.1428571
chipper cheap 0.1250000
ALSO I 0.0000511
ALSO ALSO 0.8333333
transmit transmitted 1.0000000
mantain maintain 0.4000000
afternones afternoon 0.0072993
quarreled quarrelled 0.6666667
eat ate 0.1666667
eat eating 0.1176471
eat eat 0.9537037
absolute absolute 0.7500000
absolute absolutely 0.0526316
independence us 0.0015649
independence independence 0.6666667
independence dependent 0.1250000
apoligised apologised 0.2000000
earths earths 1.0000000
exchanged exchanged 1.0000000
waterfall waterfall 1.0000000
SA SA 1.0000000
Realy Really 0.0909091
freeway freeway 1.0000000
ingenier engineer 0.2500000
discman a 0.0001326
discman discman 1.0000000
ONLY ONLY 1.0000000
ONLY CANCELLED 0.5000000
THEIR THEIR 1.0000000
themselves relax 0.0400000
themselves enemies 0.2500000
themselves them 0.0011947
themselves themselves 0.6969697
particularly particularly 0.8888889
particularly liked 0.0086207
particularly when 0.0009200
particularly partially 0.5000000
turm term 0.0588235
ball Basketball 0.0333333
ball volleyball 0.1428571
ball basketball 0.0218579
ball ball 1.0000000
based based 0.8571429
quarters quarters 1.0000000
quarters an 0.0025907
authers others 0.0138889
festivals festivals 1.0000000
slightly slightly 1.0000000
bossy bossy 1.0000000
bowl bowl 1.0000000
expectations expectations 1.0000000
kilometers kilometres 0.3333333
propose suggest 0.0161290
propose offer 0.0208333
propose proposed 0.1666667
propose propose 0.6000000
disided decided 0.0041322
created created 0.7500000
created create 0.0303030
intended intended 0.6666667
EVER EVER 1.0000000
facing facing 0.7500000
facing face 0.0222222
bar bar 0.9375000
television televisions 0.1250000
television television 1.0000000
brough brought 0.0769231
copy copy 0.9230769
copy them 0.0011947
excel Excel 1.0000000
unpersonal impersonal 0.5000000
blows eyebrows 1.0000000
Thankeaw Thank 0.0037175
Thankeaw you 0.0001615
incovenience inconvenience 0.1000000
sacrifice sacrifice 0.8333333
Anton Anton 1.0000000
comfortability are 0.0004587
comfortability they 0.0007446
comfortability comfortable 0.0064935
minitues minutes 0.0038462
minitues 40 0.1428571
himself avenge 1.0000000
himself themselves 0.0303030
himself himself 0.8181818
himself NULL 0.0001807
touched touched 1.0000000
sleves us 0.0015649
worst worse 0.0781250
worst worst 0.8522727
era era 0.6666667
23 23 1.0000000
respective respective 1.0000000
immidiate immediate 0.1250000
poster poster 1.0000000
ANYONE ANYONE 1.0000000
brand - 0.0009083
brand brand 1.0000000
brand computers 0.0091743
alternatives alternatives 1.0000000
thousends thousands 0.0909091
thousends thousand 0.2000000
stopping stop 0.0256410
stopping stopping 1.0000000
heay heavy 0.0370370
46 46 1.0000000
Vadim Vadim 1.0000000
realistic realistic 1.0000000
realistic everyday 0.0303030
appearing appearance 0.1111111
appearing the 0.0000605
appearing of 0.0001618
attendance regard 0.0666667
attendance attendance 1.0000000
chalenge challenge 0.1666667
necessiraly because 0.0003973
necessiraly need 0.0017123
necessiraly they 0.0007446
ENTIRE ENTIRE 1.0000000
SCENARY STAGE 0.1666667
ants ants 1.0000000
Charoenkul Charoenkul 1.0000000
ORGANISERS ORGANISERS 1.0000000
Island Island 1.0000000
wellknown - 0.0009083
wellknown known 0.0140845
wellknown well 0.0028169
informational information 0.0024510
Westlife Westlife 0.7500000
ANSWERING TO 0.0042918
Simplest Simplest 1.0000000
No Not 0.0666667
No No 0.8750000
No There 0.0036496
body Everybody 0.0256410
body bodies 0.3636364
body figure 0.1000000
body NULL 0.0001807
body body 0.9473684
body everybody 0.0510949
fifteenth fifteenth 0.6666667
Formula Formula 1.0000000
navy navy 1.0000000
concernt concert 0.0016103
reasently reasently 1.0000000
jobs jobs 0.8125000
jobs job 0.0047847
willingly NULL 0.0001807
willingly willingly 1.0000000
2.30 pm 0.0172414
2.30 2.30 0.5000000
Secondly Secondly 0.9417040
Ramiro Ramiro 1.0000000
alibi alibi 1.0000000
center centre 0.2777778
center center 1.0000000
center Centre 0.2000000
Amazing Amazing 1.0000000
discount any 0.0019084
discount sale 0.1666667
discount unavailable 0.3333333
discount offered 0.0270270
discount on 0.0011031
discount get 0.0037594
discount discounts 0.0235690
discount discount 0.8795181
nesseccary necessary 0.0163934
nesseccary the 0.0000605
Gorski Gorski 1.0000000
SIR SIR 1.0000000
halled in 0.0001635
halled halls 0.0111111
halled was 0.0001765
halled too 0.0023148
racing racing 1.0000000
racing against 0.0434783
MONEY MONEY 0.9333333
MONEY SPENT 1.0000000
intrestede interested 0.0065359
aggregative aggregative 1.0000000
suggest make 0.0019305
suggest agreed 0.0384615
suggest NULL 0.0001807
suggest suggest 0.9435484
Edinburgh Edinburgh 1.0000000
Queues Queues 1.0000000
TELLS TELLS 1.0000000
supermarkets supermarkets 1.0000000
supermarkets rather 0.0078125
3 3-week 0.5000000
3 3 1.0000000
bringing home 0.0026954
bringing to 0.0000655
bringing bringing 0.6250000
bringing bring 0.0089286
13/06/00 13/06/00 1.0000000
maths maths 0.7272727
countrie countries 0.0071942
pay paid 0.0306122
pay spend 0.0041152
pay pays 1.0000000
pay buy 0.0086705
pay cover 0.1250000
pay give 0.0045872
pay pay 0.9044586
pay return 0.0238095
pay paying 0.1111111
pay meet 0.0106383
pay NULL 0.0003614
pay paycheque 1.0000000
pay address 0.0714286
Available Available 1.0000000
die die 0.9375000
die died 0.1176471
nam nam 1.0000000
Iglesias Iglesias 1.0000000
newspepper newspaper 0.0178571
WAIST WASTE 1.0000000
Lovers Love 0.0123457
17:00 17:00 1.0000000
Sersuwan Sersuwan 1.0000000
pricing ticket 0.0035714
pricing of 0.0001618
pricing price 0.0068493
race race 1.0000000
Gubin Gubin 1.0000000
clothes Clothes 0.0625000
clothes fashions 0.0105263
clothes regarding 0.0200000
clothes clothing 0.1363636
clothes materials 0.0312500
clothes clothes 0.9628713
clothes dressing 0.1111111
clothes costume 0.2500000
clothes fashion 0.0056818
clothes size 0.0294118
burst burst 0.6666667
abuses abuse 0.3333333
accompanying accompanying 0.5000000
POLICE POLICE 1.0000000
Tommy Tommy 1.0000000
appropreaite appropriate 0.0416667
FANS FANS 0.6000000
chop chop 1.0000000
litter letter 0.0014925
advatage advantage 0.0285714
affordable range 0.0833333
affordable price 0.0068493
affordable affordable 0.5000000
quicker quickly 0.0129870
quicker quicker 1.0000000
Mararcanã Mararcanã 1.0000000
PROUD PROUD 1.0000000
BUDJET BUDGET 1.0000000
idler idler 1.0000000
Yet Yet 1.0000000
Parade Parade 1.0000000
Carla Carla 1.0000000
uniforms uniform 0.0909091
uniforms uniforms 0.8750000
monkey monkey 1.0000000
refrigerator refrigerator 0.5714286
quite quite 0.9193548
quite quiet 0.2500000
quite almost 0.0123457
quite really 0.0011561
quite variety 0.0303030
quite very 0.0004195
quite NULL 0.0001807
Quess Guess 0.3333333
examples examples 1.0000000
eventhough in 0.0001635
eventhough even 0.0086455
eventhough though 0.0306122
eventhough spite 0.0312500
luckiest luckiest 0.7500000
competitions competitions 0.8139535
competitions competition 0.0038760
23456789 23456789 1.0000000
Ki Ki 0.5000000
CHANCE CHANCE 0.7500000
accomodation sleep 0.0094340
accomodation accommodation 0.3034188
accomodation stay 0.0190476
accomodation type 0.0384615
MAINLY MAINLY 0.5000000
balloons balloons 0.6250000
battle battle 1.0000000
Dong Dong 1.0000000
passangers passengers 0.5000000
vocal vocalist 0.5000000
vocal vocals 1.0000000
MARGARET MARGARET 1.0000000
guitarrist guitarist 0.2500000
rediculous ridiculous 0.2000000
barbecue barbecue 1.0000000
Alice Alice 1.0000000
Lee Lee 1.0000000
GOOD BADLY 1.0000000
GOOD GOOD 1.0000000
30st 30th 0.2000000
DANNY DANNY 1.0000000
wethear weather 0.0067114
tunique tunic 1.0000000
PRODUCERS PRODUCERS 1.0000000
heat heat 0.8000000
although although 0.9655172
although but 0.0004766
although Although 0.0638298
OFFER ON 0.0344828
OFFER PUT 0.3333333
Millenium Millennium 1.0000000
F. F. 1.0000000
waitted waited 0.0208333
skirt skirts 0.0526316
skirt skirt 1.0000000
Manuela Manuela 1.0000000
begging beginning 0.0121951
boarding boarding 1.0000000
relationships relationships 0.7777778
beeng a 0.0001326
beeng being 0.0045662
dreaming dream 0.0188679
dreaming dreaming 0.8888889
necessaryiest necessary 0.0163934
necessaryiest most 0.0021834
Otto Otto 1.0000000
tens tent 0.0029762
tens tents 0.0143541
Plays Plays 1.0000000
Plays The 0.0021368
Plays plays 0.0531915
.... .... 1.0000000
freezers freezers 1.0000000
Metro Metro 1.0000000
shoe shoes 0.0317460
shoe shoe 1.0000000
sister sister 0.9750000
sister sisters 0.1666667
future NULL 0.0001807
future future 0.9380531
future futuristic 1.0000000
colour colour 0.7083333
colour watercolour 0.4000000
colour coloured 0.1428571
colour colours 0.1250000
DRINKS DRINKS 1.0000000
than who 0.0017544
than bigger 0.0344828
than from 0.0013689
than so 0.0007018
than not 0.0004348
than plays 0.0106383
than what 0.0010395
than as 0.0012048
than to 0.0007203
than thank 0.0054945
than and 0.0001067
than their 0.0016920
than then 0.0288066
than than 0.9170732
than that 0.0003992
than sleeping 0.0161290
during NULL 0.0012649
during in 0.0004905
during : 0.0016863
during during 0.9053628
during for 0.0033964
during while 0.0064103
during am 0.0005203
during the 0.0000605
during at 0.0027454
during before 0.0029674
during over 0.0139860
during of 0.0003236
plants plants 0.8333333
canceled cancelled 0.3333333
maked made 0.0042017
maked makes 0.0106383
maked driving 0.1000000
serious problematic 1.0000000
serious serious 0.9600000
serious important 0.0034483
serious seriousness 1.0000000
Stanford Stanford 1.0000000
Yun Yun 1.0000000
awesome awesome 1.0000000
stuck stuck 0.6000000
rays rays 0.7500000
complicated difficult 0.0170940
complicated complicated 0.7500000
TEAM STAFF 0.4000000
TEAM TEAM 1.0000000
min minutes 0.0153846
min min 1.0000000
hat that 0.0001996
hat hat 1.0000000
Being Being 1.0000000
Being NULL 0.0001807
SURELY SURELY 1.0000000
comodity convenience 0.0625000
comodity ease 0.2000000
frighten frightened 0.3000000
studyings studies 0.0357143
7.30 7.30 0.7142857
bombs bombs 0.5000000
busier busier 1.0000000
curiouses curiouses 1.0000000
horrible horrible 0.9782609
horrible terrible 0.0161290
diner dinner 0.0972222
march March 0.0149254
conditioning conditioning 0.2857143
neaded needed 0.0476190
cherry cherry 1.0000000
profound profound 1.0000000
taken take 0.0111821
taken token 1.0000000
taken got 0.0030675
taken took 0.0130719
taken taken 0.5581395
taken chosen 0.0126582
taken made 0.0084034
taken NULL 0.0003614
km km 1.0000000
interesting interest 0.0526316
interesting interesting 0.8943662
interesting uninteresting 0.5000000
interesting useful 0.0133333
interesting more 0.0009355
interesting subject 0.0232558
interesting interested 0.0718954
13/6/00 13/6/00 1.0000000
foundation foundation 1.0000000
Brontë Brontë 1.0000000
hotel hotel 0.9047619
recentely recently 0.0099010
back NULL 0.0027105
back Return 0.3333333
back reply 0.0064935
back backhand 0.5000000
back away 0.0133333
back back 0.9807692
back refunded 0.2000000
back reimbursed 0.2500000
back return 0.0714286
back about 0.0004771
back backstage 0.1190476
back refunds 0.5000000
triumph triumphed 0.5000000
whot what 0.0010395
yong young 0.0119048
ordinary can 0.0006039
ordinary ordinary 0.5925926
ordinary wear 0.0038911
eachother each 0.0250000
eachother other 0.0043103
Svetlana Svetlana 1.0000000
replied- replied- 1.0000000
sportman sportsman 1.0000000
recommending recommending 1.0000000
Around Around 1.0000000
jackets jackets 0.8000000
functioning functioning 0.5000000
EVENTUALLY FINALLY 0.2000000
EVENTUALLY EVENTUALLY 1.0000000
' adults 0.1428571
' Mano 0.4444444
' nationalities 0.0714286
' 's 0.0069391
' cultural 0.0714286
' OUTSIDE 0.5000000
' away 0.0133333
' development 0.0588235
' museums 0.2000000
' stone 0.3333333
' I'D 0.3333333
' teachers 0.0113636
' NULL 0.0016263
' FANS 0.4000000
' ' 0.8507463
athletes athletes 1.0000000
renewed renewed 1.0000000
confidents confidently 1.0000000
Paulo Paulo 1.0000000
sewage waste 0.0238095
emsamblish emsamblish 1.0000000
promoted promoted 1.0000000
cooker cook 0.0909091
cooker being 0.0045662
cooker chef 0.0588235
cooker cooker 0.8000000
Juarez Juarez 1.0000000
History History 1.0000000
jumping jumping 1.0000000
late late 0.7988827
late lateness 0.6666667
late delay 0.0588235
late later 0.0288462
late starting 0.0487805
late too 0.0023148
MANUEL MANUEL 1.0000000
Danny said 0.0025381
Danny star 0.0243902
Danny Danny 0.9975787
propably probably 0.0185185
creativity creativity 0.6666667
Almendegos Almendegos 1.0000000
EASIER EASIER 1.0000000
climp climb 0.0384615
ploblem problem 0.0044843
HOMEBASE HOMEBASE 1.0000000
banners banners 1.0000000
Agatha Agatha 1.0000000
detailed detailed 0.5000000
acts ' 0.0021322
acts acts 1.0000000
acts actions 0.3333333
satelites satellites 1.0000000
hep help 0.0027473
: photography 0.0076923
: are 0.0004587
: , 0.0003395
: as 0.0006024
: Manager 0.0156250
: : 0.9291737
: follows 0.2000000
: . 0.0003761
: following 0.0136986
: ; 0.0139535
: basketball 0.0054645
: NULL 0.0009035
: Jane 0.0181818
: dresses 0.0909091
: lately 0.5000000
: call 0.0185185
: computer 0.0046512
database database 1.0000000
appreciate like 0.0007911
appreciate appreciated 0.2142857
appreciate appreciative 1.0000000
appreciate appreciate 0.7625000
appreciate see 0.0013477
rest rested 0.5000000
rest other 0.0014368
rest remaining 0.5000000
rest rest 0.8939394
dure due 0.0200000
mark marked 1.0000000
mark make 0.0019305
mark out 0.0019011
mark mark 1.0000000
mark point 0.0076923
leaded runs 0.2000000
evenings evenings 0.8750000
Minolta Minolta 0.5000000
discucion discussion 0.0555556
synthetic synthetic 0.1666667
fine find 0.0029586
fine 're 0.0103093
fine liked 0.0086207
fine fine 0.9122807
fine okay 0.1666667
fine well 0.0084507
micrown microwave 0.0400000
texts lyrics 1.0000000
attaked attacked 0.2500000
battleships battleships 1.0000000
marathon marathon 1.0000000
staff volunteer 0.1000000
staff member 0.0588235
staff kind 0.0028490
staff stuff 0.0512821
staff list 0.0163934
staff staff 0.6986301
staff performers 0.5000000
bands playing 0.0063291
bands bands 0.7058824
nowhere near 0.0121951
nowhere nowhere 1.0000000
soccer soccer 1.0000000
collection collection 1.0000000
collection collections 1.0000000
wanna to 0.0001310
wanna want 0.0027248
proffesional professional 0.1363636
land piece 0.0454545
land countryside 0.0500000
land land 0.7142857
Eventhough though 0.0102041
Eventhough Even 0.0212766
differences differences 0.9285714
skipped skipped 1.0000000
becaming becoming 0.0333333
roughly roughly 0.7500000
pieceful peaceful 0.1250000
Ernestina Ernestina 1.0000000
biotecnologies biotechnologies 1.0000000
waned wanted 0.0034602
greeting greeting 1.0000000
jazz jazz 0.9444444
varys varies 1.0000000
varys depending 0.2000000
nationality nationalities 0.1428571
extroverted extroverted 1.0000000
Grandpa Grandpa 1.0000000
stored stored 1.0000000
ability ability 0.6363636
ability situation 0.0158730
serves serves 1.0000000
store store 0.9166667
store story 0.0079365
store they 0.0007446
store around 0.0062500
Abril Abril 1.0000000
Universe universe 0.5000000
Development Research 0.5000000
Development Scientific 1.0000000
CAPITAL CAPITAL 1.0000000
Irkind Irkind 1.0000000
Fritz Fritz 1.0000000
routine chores 0.1666667
routine routine 0.8888889
sight sighted 1.0000000
sight sight 0.6250000
sight sightseeing 0.0333333
sight see 0.0013477
sight sign 0.0909091
devorce divorce 0.1250000
devorce divorced 0.2500000
holiday East 0.3333333
holiday ' 0.0127932
holiday 's 0.0061681
holiday holidays 0.0283019
holiday NULL 0.0001807
holiday party 0.0090909
holiday holiday 0.7827381
stair stairs 0.3333333
concentrat concentrate 0.1000000
proofen proven 1.0000000
thief thieves 0.5000000
thief career 0.0833333
thief thief 1.0000000
thief are 0.0004587
flashed flashed 1.0000000
unknown unknown 0.9500000
unknown an 0.0012953
unknown new 0.0024691
ceiling ceiling 0.5000000
PLAY PLAY 0.9166667
PLAY PLAYED 0.5000000
PLAY PUTTING 1.0000000
PLAY HAVE 0.0200000
decline decline 1.0000000
sigh sight 0.1250000
Director Director 1.0000000
Using Using 0.6250000
acessing access 0.0714286
stars stars 0.8448276
Galliano Galliano 1.0000000
Oxford Oxford 0.6000000
Oxfor News 0.3333333
Oxfor Oxfor 1.0000000
summarizing summary 0.2500000
seems seem 0.0606061
seems were 0.0007022
seems be 0.0003446
seems seems 0.9245283
seems seemed 0.0243902
seems looks 0.0588235
seems likely 0.1111111
seems does 0.0075188
Media Media 1.0000000
calulate calculate 0.3333333
scanner scanner 1.0000000
"unify " 0.0006180
"unify unity 0.5000000
Press press 0.0555556
Press The 0.0007123
Fish Fish 1.0000000
6 6 1.0000000
6 6-year 0.5000000
pistols pistols 1.0000000
current day 0.0018248
current current 1.0000000
current - 0.0009083
current present 0.0149254
LOOK LOOK 1.0000000
LOOK LOOKED 1.0000000
LOOK AT 0.0217391
Exepted Apart 0.0434783
escaping escaping 1.0000000
nearlly nearly 0.0416667
neighbour neighbour 0.7500000
trucks trucks 1.0000000
movie movie 1.0000000
meetings meetings 0.6666667
vacume vacuum 0.2000000
Contrary hand 0.0050251
Contrary On 0.0041667
Contrary Contrary 1.0000000
Contrary other 0.0014368
Title Title 1.0000000
violin the 0.0000605
violin violin 0.5000000
comfatable comfortable 0.0064935
unique unique 0.9090909
unique only 0.0011696
Dublin Dublin 1.0000000
failing failing 0.8000000
failing your 0.0004318
GIVEN GIVEN 0.4000000
DURING FOR 0.0153846
DURING DURING 1.0000000
restraurants restaurants 0.0909091
excellence excellence 1.0000000
Know know 0.0020202
Know Now 0.0071942
You Yours 0.0011534
You Your 0.0298507
You Do 0.0081301
You you 0.0004846
You If 0.0028818
You You 0.9147982
cast actor 0.0027322
cast cast 0.2857143
Traditional Traditional 1.0000000
UNDERSTAND UNDERSTAND 1.0000000
THAN THAN 1.0000000
THAN TO 0.0042918
THAN WHAT 0.0714286
desited decided 0.0041322
vitamin vitamins 1.0000000
ENOUGH ENOUGH 1.0000000
Kowloon Kowloon 1.0000000
characterize characterize 1.0000000
hush hush 1.0000000
12 12 1.0000000
imply imply 1.0000000
planing planning 0.1666667
planing plan 0.0200000
OUTSIDE OUTSIDE 0.5000000
Felipa Felipa 1.0000000
industrial industry 0.0714286
industrial industrial 0.6666667
belive believe 0.0841584
belive believed 0.0714286
heros heroes 0.5000000
centainly sincerely 0.0019493
cultural cultural 0.8571429
Curitilra Curitilra 1.0000000
damned damned 1.0000000
simpler simpler 0.6666667
helpless helpless 1.0000000
singer singers 0.0476190
singer singer 0.9743590
especially In 0.0025126
especially because 0.0003973
especially particular 0.1034483
especially writes 0.5000000
especially including 0.0277778
especially exact 0.2000000
especially especially 0.8385417
especially since 0.0057471
Robbie Robbie 1.0000000
accummulation accumulation 1.0000000
contract contract 1.0000000
assume assume 1.0000000
INSIDE INSIDE 1.0000000
receving receiving 0.0188679
sedentary sedentary 1.0000000
Way Way 1.0000000
desings designs 0.6666667
quel queue 0.0312500
DISAPPOINTING DISAPPOINTING 1.0000000
thoroughly thoroughly 0.5000000
lovers lovers 1.0000000
refunded refunded 0.6000000
tone tone 1.0000000
tone tune 0.3333333
17th 17th 1.0000000
coach coach 1.0000000
coach the 0.0000605
strain strain 1.0000000
virtually virtually 1.0000000
devastated devastated 0.6666667
exists exists 1.0000000
exists existed 0.1666667
famouse famous 0.0117647
creatures creatures 0.7500000
happing happening 0.0384615
applied applied 0.8571429
activated activated 1.0000000
Oscar Oscar 1.0000000
day the 0.0000605
day afternoon 0.0145985
day days 0.0084034
day daily 0.0143369
day weekday 0.5000000
day NULL 0.0001807
day someday 0.3333333
day day 0.8978102
day everyday 0.1515152
day which 0.0008518
day today 0.0169492
girl girlfriend 0.1315789
girl girl 0.9400000
12.12.2000 12.12.2000 1.0000000
Essay Essay 1.0000000
stubborn stubborn 1.0000000
Karla Karla 1.0000000
components , 0.0000566
components objects 0.1000000
BLIND BLIND 1.0000000
entrace entrance 0.0250000
silk silk 0.7500000
appreciation appreciation 0.3333333
hohle whole 0.0069444
mashiens dishwashers 0.5000000
mashiens appliances 0.0909091
mashiens machines 0.0222222
tyring tiring 0.0454545
destroyed is 0.0002314
destroyed destroying 0.1428571
destroyed ruined 0.1666667
destroyed destroyed 0.8571429
enjoyied enjoyed 0.0065359
mall mall 1.0000000
Scinetis Scientists 0.2500000
brainstorm think 0.0008439
coursework work 0.0025840
coursework course 0.0044444
congratulated congratulate 0.0555556
congratulated congratulated 1.0000000
Miguel Miguel 1.0000000
smile smile 0.7272727
baggy baggy 1.0000000
compricate complicated 0.0833333
smiled smiled 1.0000000
conections conections 1.0000000
conections connections 1.0000000
afrade afraid 0.0166667
Bety Bety 1.0000000
ft ft 1.0000000
wardrobe wardrobe 1.0000000
sibling sibling 1.0000000
Maybe Maybe 0.7384615
FAR WHICH 0.0555556
FAR NOT 0.0370370
FAR FAR 0.5000000
FAR YOU 0.0102041
decor backdrop 0.5000000
EVERYONE EVERYONE 0.5000000
besides besides 1.0000000
slammer slammer 1.0000000
doctor vet 1.0000000
doctor doctor 0.9333333
materiell material 0.0476190
accomotation accommodation 0.0042735
accomotation the 0.0000605
sen seen 0.0065359
dated dated 1.0000000
dated our 0.0008389
dated update 0.2500000
dated date 0.0227273
agreeded agreed 0.0384615
Camping Camping 1.0000000
impressive impressive 0.8571429
frightened frightened 0.5000000
fethers feathers 1.0000000
many many 0.9309524
many who 0.0017544
many may 0.0091743
many NULL 0.0001807
many money 0.0008929
many , 0.0000566
many accommodate 0.2000000
many hot 0.0172414
many Many 0.0312500
many long 0.0039841
many lot 0.0337621
many much 0.0144168
many large 0.0416667
many lots 0.0169492
many of 0.0004854
many man 0.0075758
Showing Showing 1.0000000
agenda diary 0.2500000
leadership leadership 1.0000000
Keeping Keeping 1.0000000
HOUSES HOUSES 1.0000000
pouded pouded 1.0000000
SHEEP SHEEP 1.0000000
LATE LATE 0.8333333
diffcult is 0.0002314
diffcult it 0.0002035
diffcult difficult 0.0085470
effect affect 0.1739130
effect effect 0.8461538
effect effects 0.3333333
driving driving 0.8000000
MR MR 1.0000000
Blau Blau 1.0000000
slept sleep 0.0094340
slept slept 0.8000000
fashioned - 0.0009083
fashioned fashioned 0.6666667
fashioned fashionable 0.0357143
MANY MANY 0.8333333
Chwa Chwa 1.0000000
preticle practical 0.0625000
philosophy philosophy 0.5000000
GC2 GC2 1.0000000
basical basic 0.1000000
WORST WORST 0.6666667
University university 0.1126761
University University 1.0000000
primary primary 1.0000000
organisers organisers 0.6666667
Take Take 0.9333333
permanent permanent 1.0000000
permanent a 0.0001326
Howeve However 0.0061920
October October 1.0000000
DEMURO DEMURO 1.0000000
Althought Despite 0.0227273
Years Year 0.3333333
Years 's 0.0007710
Anne Anne 1.0000000
Warshaw Warshaw 1.0000000
hairstyle hairstyles 0.0370370
hairstyle hairstyle 0.4285714
sealed sealed 1.0000000
setted spectacle 0.3333333
setted meant 0.0250000
whith ? 0.0008019
whith with 0.0009497
eleven eleven 1.0000000
printed printed 1.0000000
printed T 0.0526316
nonsense nonsense 0.7500000
Suprisingly Surprisingly 0.5000000
disagree disagree 0.6666667
disagree disappointment 0.0192308
disagree disagreed 0.3333333
Sabrina Sabrina 1.0000000
homeworks homework 0.1886792
concience conscience 0.5000000
Krol Krol 1.0000000
carefull careful 0.1739130
suits suit 0.0400000
suits suits 0.8333333
YOU'VE YOU'VE 1.0000000
arrives arrived 0.0088496
arrives get 0.0018797
OPINION OPINION 1.0000000
suppling supplying 1.0000000
16th 16th 1.0000000
visits visits 0.2500000
praticed tried 0.0111111
BOOKMARKS BOOKMARKS 1.0000000
unforgiven unforgivable 1.0000000
attitudes attitudes 0.7500000
attitudes ' 0.0021322
BIT BIT 1.0000000
targelting aiming 1.0000000
whe who 0.0017544
whe why 0.0032573
convience convenient 0.0232558
Chilli Chilli 1.0000000
flaws flaws 1.0000000
BAND BAND 1.0000000
creative creative 1.0000000
practicate go 0.0008842
designing designing 0.8000000
Regional Regional 1.0000000
INTRODUCTION INTRODUCTION 1.0000000
Kresnodar Kresnodar 1.0000000
brake break 0.0961538
CALZARI CALZARI 1.0000000
favour favour 1.0000000
favour favourite 0.0130719
HAS HAVE 0.0200000
HAS HAS 0.7647059
HAS ALSO 0.0833333
distractions leisure 0.0096154
turned turned 0.9250000
turned become 0.0097087
turned to 0.0000655
turned out 0.0076046
turned happened 0.0074627
turned went 0.0018051
silvers silvers 1.0000000
refurishing refurbishing 1.0000000
pressume presume 1.0000000
powerful powerful 0.8750000
coloures colours 0.0312500
JOB JOB 1.0000000
COMMUNICATE COMMUNICATE 1.0000000
reviews reviews 0.6666667
Metal Metal 1.0000000
mecanics mechanics 1.0000000
mecanics engineering 0.1250000
vending vending 0.3333333
accounting accounting 1.0000000
orange orange 1.0000000
bord board 0.1428571
gardens gardens 1.0000000
leakage leak 0.3333333
participate participate 0.7142857
non- unskilled 0.5000000
jakect jackets 0.2000000
specifying specifying 1.0000000
spies spy 0.3333333
Conversion Conversion 1.0000000
350 350 1.0000000
lectures lectures 1.0000000
cozy cosy 0.5000000
enroll enrol 1.0000000
Fortunatelly Fortunately 0.1818182
Becauses Because 0.0063694
crazy crazy 0.9230769
futur future 0.0265487
wired wired 1.0000000
wealthy wealthy 1.0000000
Harry Harry 1.0000000
friendlier friendlier 1.0000000
yourselfö yourselfö 1.0000000
impruve improve 0.0156250
changelling challenging 0.2500000
pictures picture 0.0625000
pictures pictures 0.9454545
pictures taken 0.0465116
souvenirs souvenirs 0.6250000
19th 19th 1.0000000
Everone Everyone 0.0294118
PEOPLE CROWD 1.0000000
PEOPLE PEOPLE 0.9130435
posticipated postponed 0.5000000
Taking Taking 1.0000000
sizes sizes 1.0000000
tests tests 0.7500000
tests exams 0.0416667
tests check 0.0444444
tests . 0.0000418
tests sound 0.0161290
birds birds 1.0000000
humiliated humiliated 1.0000000
rare rare 0.8750000
rare surprising 0.1250000
rare rarely 0.3333333
aditional additional 0.0833333
arrangements arrangements 1.0000000
embarrassed embarrassing 0.3333333
embarrassed embarrassed 0.3076923
Marc Marc 1.0000000
dinner dinner 0.9027778
fourthey - 0.0009083
fourthey forty 0.0135135
overwight overweight 1.0000000
WHICH WHICH 0.5000000
bullied bullied 1.0000000
ashamed ashamed 0.6000000
persons people 0.0131965
persons actors 0.0079365
recognised realised 0.0169492
recognised found 0.0058824
recognised recognised 0.4000000
recognised out 0.0019011
ship ship 0.9285714
befriended befriended 1.0000000
Luna Luna 1.0000000
detective detective 0.7777778
methods technology 0.0034247
methods methods 0.8000000
possebility option 0.0625000
Oliviar Oliviar 1.0000000
informing informative 0.5000000
informing us 0.0015649
informing me 0.0003912
informing informing 0.9166667
informing informed 0.0263158
Perrault Perrault 1.0000000
ingenors engineers 1.0000000
destroy destroying 0.1428571
destroy also 0.0013263
destroy destroy 0.8888889
adjusted adjusted 1.0000000
joyful joy 0.1250000
Light Light 0.5000000
biscount discount 0.0060241
biscount a 0.0001326
Salutations Yours 0.0011534
Salutations sincerely 0.0019493
chanel channel 1.0000000
progress 's 0.0007710
progress works 0.0434783
progress progress 0.8000000
progress quickly 0.0129870
uncureable incurable 1.0000000
worrying worrying 0.2500000
gravestone gravestone 1.0000000
congradulate congratulate 0.0555556
bestfriend friend 0.0067797
bestfriend best 0.0047847
picnic picnic 1.0000000
picnic on 0.0005516
matherial material 0.0476190
remembered reminded 0.3333333
remembered remembered 0.8571429
Colors Colours 1.0000000
morality morality 1.0000000
morality moral 0.3333333
revise revise 0.5000000
equippments of 0.0001618
equippments equipment 0.0175439
equippments items 0.0434783
Futermore Furthermore 0.0103093
relative related 0.1111111
largish largish 1.0000000
Segovia Segovia 1.0000000
WROTE WROTE 1.0000000
WROTE ABOUT 0.0400000
desparately desperately 0.3333333
desparately , 0.0000566
thy they 0.0022338
pupil pupil 0.5000000
pupil pupils 0.0800000
pupil people 0.0007331
evil evil 0.7142857
whiteman man 0.0075758
whiteman white 0.0476190
solutions way 0.0030395
solutions answers 0.0344828
solutions solutions 0.8571429
limitation limitation 1.0000000
cours course 0.0044444
cours a 0.0001326
radio radio 1.0000000
beginers beginners 0.2500000
Exciting Exciting 1.0000000
setisfaid satisfied 0.0294118
worried worried 0.8750000
Heanley Heanley 1.0000000
acting act 0.0416667
acting acted 0.1250000
acting playing 0.0063291
acting acting 0.8461538
w we 0.0003815
Monte Monte 1.0000000
SCIENCE SCIENCE 0.5000000
followed been 0.0014535
followed followed 1.0000000
thirsty thirsty 1.0000000
scribbled scribbled 1.0000000
deviations deviations 1.0000000
fashion fashions 0.1894737
fashion fashionable 0.0714286
fashion clothes 0.0012376
fashion Fashion 0.0290698
fashion in 0.0001635
fashion models 0.1666667
fashion style 0.0285714
fashion fashion 0.9488636
fashion industry 0.0714286
whitout without 0.0132013
whitout considering 0.0666667
1200 1200 0.5000000
political political 0.5000000
coudn't n't 0.0007962
coudn't could 0.0015625
Yasmin Yasmin 1.0000000
authentic authentic 1.0000000
ELEGANCE ELEGANCE 1.0000000
guarantee guaranteed 0.1666667
arouses arouses 1.0000000
intrusion intrusion 0.5000000
intrusion an 0.0012953
OBLIGED OBLIGED 1.0000000
intrsted are 0.0004587
intrsted interested 0.0065359
CONFORTNESSCOMFORTABLE COMFORTCOMFORTABLE 1.0000000
network network 0.6666667
hapinest happiness 0.0769231
Audrey Audrey 1.0000000
grandmother grandmother 0.7391304
grandmother 's 0.0023130
Notwithstanding Notwithstanding 1.0000000
browse browse 1.0000000
browse browsing 1.0000000
rings rings 0.5000000
rings rang 0.1250000
HELGAR HELGAR 1.0000000
GAMES GAMES 1.0000000
THANFUL THANKFUL 1.0000000
heights heights 0.2500000
son soon 0.0027174
son son 0.9090909
Broke Broke 1.0000000
dressing dressing 0.5555556
dressing present 0.0149254
dressing dress 0.0571429
impoved improved 0.1111111
Svensson Svensson 1.0000000
EVERY EVERYTHING 0.1428571
EVERY EVERY 1.0000000
core core 1.0000000
sory sorry 0.0422535
beers beers 1.0000000
-Helen -Helen 1.0000000
merchandise merchandise 1.0000000
encourage encouraged 0.2500000
encourage encourage 0.8000000
Aachen Aachen 1.0000000
Becca Becca 1.0000000
wit met 0.0111111
wit with 0.0004748
dicounts discounts 0.0033670
secrecy secrecy 1.0000000
agrees agrees 0.2500000
discribed described 0.0769231
costemers customers 0.0588235
crash crash 1.0000000
Find Find 0.7500000
pumpping pumping 1.0000000
pension pension 1.0000000
pension a 0.0001326
infrom give 0.0022936
optionaly optional 0.3333333
strick strict 0.0689655
Brian Brian 1.0000000
lake lake 1.0000000
lake like 0.0003956
nerds nerds 1.0000000
Pour Poor 0.3333333
DISCOVERIES DISCOVERIES 1.0000000
blocks blocks 1.0000000
actuality relevance 1.0000000
Utada Utada 1.0000000
infrant front 0.0281690
dogs dogs 0.8888889
Tudela Tudela 1.0000000
other some 0.0007686
other the 0.0000605
other another 0.1434109
other others 0.0555556
other activity 0.0160000
other next 0.0060060
other rest 0.0151515
other other 0.8951149
other NULL 0.0039754
other hand 0.0050251
other consequently 0.1111111
other vice 0.2000000
other further 0.0113636
other otherwise 0.0714286
other get 0.0018797
brothers brothers 0.8333333
beginn beginning 0.0121951
beginn begin 0.0153846
expelled thrown 0.5000000
FAMILY FAMILY 1.0000000
windows windows 0.8571429
windows window 0.0333333
throughout throughout 0.8000000
efficiently efficiently 0.6000000
Harp Harp 1.0000000
TIME MONTH 0.1666667
TIME TIMES 0.5000000
TIME NULL 0.0001807
TIME TIME 0.8888889
TIME WHILE 0.2000000
TIME WHICH 0.0555556
slide slide 1.0000000
marrige get 0.0018797
marrige married 0.0588235
cituation situation 0.0158730
LITTLE LITTLE 1.0000000
sad being 0.0045662
sad sad 0.9743590
sad said 0.0025381
A1 A1 1.0000000
Football Football 1.0000000
Going Going 1.0000000
45 than 0.0024390
45 45 0.9909091
45 45-minute 0.5000000
45 minutes 0.0038462
Birthday Birthday 1.0000000
sign signature 0.2500000
sign NULL 0.0003614
sign sign 0.7272727
sign stated 0.0384615
sign says 0.0363636
sincinerly Ki 0.2500000
sincinerly sincerely 0.0019493
Help Help 0.6666667
imperfect imperfect 0.5000000
K.F.C K.F.C 1.0000000
Stones Stones 0.8000000
may maybe 0.1129032
may whether 0.0175439
may will 0.0009921
may can 0.0018116
may may 0.9266055
may NULL 0.0003614
may many 0.0023810
may May 0.0555556
may have 0.0002512
may go 0.0008842
may do 0.0010650
may would 0.0003408
may might 0.0232558
may is 0.0002314
may must 0.0035587
may could 0.0031250
may should 0.0013245
institutes institutes 1.0000000
paths paths 1.0000000
Mother Mother 1.0000000
shower shower 0.6666667
1874 1874 1.0000000
porpouse purpose 0.0454545
eaten eaten 1.0000000
backstage backstage 0.3571429
backstage go 0.0008842
embarrest embarrassed 0.0769231
fairy fairy 1.0000000
Once NULL 0.0001807
Once One 0.0078125
Once Once 1.0000000
tenis tennis 0.0091324
role performance 0.0111111
role role 0.8000000
role roles 0.3333333
accelerating accelerating 1.0000000
SHOW MUSICAL 0.2857143
SHOW SHOW 0.9722222
SHOW THEATRE 0.0400000
groupe group 0.0109890
parallel comparison 0.2000000
thrutly thoroughly 0.2500000
enormous enormous 0.8000000
enormous really 0.0011561
spiders spiders 1.0000000
stressed stressed 0.6875000
stressed up 0.0019194
stressed stretched 1.0000000
stressed stressful 0.0909091
Try Try 1.0000000
faightfully faithfully 0.0064935
comes appears 0.1428571
comes came 0.0057471
comes comes 0.6785714
comes come 0.0114286
comes NULL 0.0001807
attends attending 0.0555556
attends is 0.0002314
Homework Homework 1.0000000
5.000 5,000 1.0000000
wher were 0.0007022
minuts minutes 0.0307692
GOLF GOLF 1.0000000
desease diseases 0.2500000
resons reasons 0.0079365
exactly definitely 0.0250000
exactly exactly 1.0000000
exactly well 0.0028169
exactly exact 0.2000000
Larger Larger 1.0000000
Paul Paul 1.0000000
rushing rushing 1.0000000
crossed crossed 1.0000000
prisonner prisoner 1.0000000
Singing Singing 1.0000000
Singing down 0.0116279
Singing singing 0.0360360
describes describes 1.0000000
instantly instantly 1.0000000
FAULT MISTAKE 1.0000000
rookie rookie 1.0000000
Nissen Nissen 1.0000000
Wall Wall 1.0000000
Everybody Everybody 0.8974359
Morning Morning 1.0000000
satisfying satisfactory 0.2000000
satisfying satisfying 0.2000000
shopper shopper 0.5000000
briliant brilliant 0.0416667
Superficiality Superficiality 1.0000000
licence licence 0.8333333
PASS TAKE 0.1111111
composition composition 1.0000000
government government 0.6250000
government is 0.0002314
government will 0.0004960
government purposes 0.5000000
promotion promotion 1.0000000
kettles kettles 1.0000000
Ready Ready 1.0000000
unhelpful unhelpful 1.0000000
War the 0.0000605
War Wars 1.0000000
War World 0.1666667
War War 0.5000000
depths depths 0.5000000
construction construction 1.0000000
acquintance acquaintance 1.0000000
availalde available 0.0033223
atlases atlases 1.0000000
lab log 0.0032468
lab lab 1.0000000
drowing drawing 0.0555556
Can can 0.0006039
Can Can 0.8518519
unfortunetly unfortunately 0.0238095
Microvelle Microwave 1.0000000
annoying boring 0.0131579
annoying annoying 0.7058824
Teresa Teresa 1.0000000
Teresa sincerely 0.0019493
wicked wicked 1.0000000
that'is 's 0.0007710
that'is That 0.0037313
robbed robbed 0.6000000
robbed stolen 0.0909091
duties duties 0.8333333
duties : 0.0016863
duties duty 0.1250000
dances dance 0.0789474
seperated separated 0.6000000
SAVE SAVE 1.0000000
and researchers 0.3333333
and at 0.0003432
and of 0.0001618
and an 0.0038860
and Everybody 0.0256410
and was 0.0001765
and but 0.0033365
and slow 0.2500000
and and 0.9710810
and which 0.0008518
and including 0.0277778
and everywhere 0.0166667
and attractive 0.0416667
and close 0.0161290
and as 0.0012048
and , 0.0003960
and or 0.0214592
and . 0.0002089
and so 0.0021053
and push 0.3333333
and workplace 0.5000000
and wear 0.0038911
and a 0.0001326
and 'm 0.0011919
and polite 0.1000000
and worrying 0.2500000
and And 0.0575397
and either 0.0149254
and am 0.0005203
and College 0.0909091
and to 0.0001310
and fifteen 0.0833333
and I 0.0000511
and / 0.0084034
and NULL 0.0059631
and nor 0.1111111
and when 0.0009200
and with 0.0014245
and forever 0.1000000
quigky quickly 0.0129870
EQUIPMENTS EQUIPMENT 0.5000000
MEDINAH MEDINAH 1.0000000
Auxiliary Auxiliary 1.0000000
group group 0.9120879
group club 0.0277778
group 's 0.0007710
group stars 0.0057471
group groups 0.1363636
Useful Useful 1.0000000
treatment receive 0.0126582
treatment manners 0.3333333
treatment treatment 1.0000000
incredibly incredibly 0.6250000
SOON SOON 1.0000000
redecorating being 0.0045662
redecorating redecorated 0.2000000
redecorating redecorating 1.0000000
REFUND REFUND 0.3333333
pushed pushed 1.0000000
indirectly indirectly 1.0000000
Reyes Reyes 1.0000000
witch made 0.0042017
witch with 0.0004748
witch which 0.0034072
800000000 800000000 1.0000000
technologyst technologists 0.5000000
attacts attacks 0.5000000
valleys valleys 1.0000000
valleys the 0.0000605
appearant apparent 0.3333333
Irak Irak 1.0000000
constums liked 0.0086207
reply answer 0.0053191
reply reply 0.8311688
reply complain 0.0112360
presently now 0.0027701
ironings ironing 0.3333333
AFTER AFTER 0.8947368
AFTER WHICH 0.0555556
uge huge 0.0250000
describing describe 0.0454545
describing description 0.2500000
describing describing 0.5000000
describing rumours 0.2000000
describing about 0.0004771
DEEPLY DEEPLY 1.0000000
preferably preferably 1.0000000
DOESN'T DOESN'T 1.0000000
slow slow 0.7500000
Martinez Martinez 1.0000000
GYM GYM 1.0000000
ILL ILL 1.0000000
personnality personality 0.1250000
programs programs 0.5000000
programs programmes 0.1428571
autographied autographed 1.0000000
X X 1.0000000
region region 1.0000000
region regions 1.0000000
sicryt secret 0.0065359
speciality which 0.0008518
speciality speciality 1.0000000
GAVE GIVEN 0.2000000
GAVE GAVE 1.0000000
proposal proposal 0.6666667
proposal reasonably 0.0232558
similar similar 1.0000000
similar suitable 0.0142857
lovly lovely 0.0384615
familie family 0.0052356
experements experiments 0.1000000
drudgery drudgery 1.0000000
Grumman Grumman 1.0000000
brook brook 0.8000000
brook Brook 0.0025126
thousand thousand 0.6000000
thousand thousands 0.0909091
Return Return 0.3333333
downhill downhill 1.0000000
TENNIS TENNIS 1.0000000
Bizen Bizen 1.0000000
communication Communication 0.2500000
communication communications 0.2857143
communication communication 0.7500000
communication communicate 0.0250000
XXXXX XXXXX 1.0000000
pack pack 0.5454545
compition competition 0.0038760
unlucked unlucky 0.2500000
technogoly technology 0.0017123
haven't had 0.0015416
haven't haven't 0.7380952
haven't got 0.0030675
haven't any 0.0019084
haven't did 0.0073421
haven't are 0.0004587
haven't n't 0.0047771
goverment is 0.0002314
goverment government 0.2500000
advicing advising 1.0000000
robotor robot 0.1666667
Thoug However 0.0030960
TALKED TALKED 1.0000000
service NULL 0.0003614
service quality 0.0232558
service service 0.8787879
service services 0.1538462
Rome Rome 1.0000000
MICROWAVEOVEN OVEN 1.0000000
MICROWAVEOVEN MICROWAVE 1.0000000
beggining days 0.0042017
beggining first 0.0020450
beggining beginning 0.0975610
beggining start 0.0035336
beggining with 0.0004748
demostrated demonstrated 1.0000000
Sharyl Sharyl 1.0000000
transports transport 0.1111111
Witte Witte 1.0000000
UP3 UP3 1.0000000
redundant redundant 0.5000000
ski ski 1.0000000
gon gon 1.0000000
gon was 0.0001765
THING THING 0.9000000
THING SOMETHING 0.2000000
THING POSSIBLE 0.1000000
Machines Machines 0.3333333
tile tills 0.5000000
direction management 0.2500000
posibility opportunity 0.0037736
posibility possibility 0.0526316
important least 0.0121951
important important 0.9793103
important great 0.0020619
convine convince 0.3333333
grey grey 0.8333333
Sanday Sunday 0.0400000
articals items 0.0434783
bottled bottled 1.0000000
bottled drunk 0.2500000
hop hope 0.0024096
nursing nursing 1.0000000
rural rural 1.0000000
releases releases 1.0000000
remember remembered 0.1428571
remember think 0.0008439
remember recount 1.0000000
remember reminded 0.3333333
remember reminds 0.1428571
remember remember 0.9859155
remember remembers 1.0000000
Washing Washing 0.5000000
tecnologies technology 0.0034247
tecnologies but 0.0004766
tecnologies technologies 0.0217391
plaed played 0.0099010
Unlike Unlike 0.6666667
angle angel 0.7500000
virse virus 0.3333333
rainforest forest 0.0909091
rainforest rain 0.0769231
